baseline/conv2d/kernel:0
(5, 5, 3, 6)
[[[[ 0.38528648 -0.00107107  0.07737226  0.07919445  0.0067979
     0.4444675 ]
   [-0.36022937 -0.23133059 -0.05769277 -0.28756538 -0.30551603
     0.10189469]
   [-0.4034214  -0.60251725 -0.11201957 -0.43058184 -0.41747653
     0.25793603]]

  [[ 0.24544433  0.16342634  0.00643883  0.07047027  0.08308818
     0.664823  ]
   [-0.24095988  0.08116308  0.07214835 -0.39452016 -0.08545326
     0.17853828]
   [-0.38839743 -0.47431186 -0.3922912  -0.5749206  -0.4445995
     0.09799699]]

  [[ 0.29938835  0.4443265   0.1830557   0.03406399  0.15425482
     0.6619532 ]
   [-0.13419394 -0.04177717  0.08698923 -0.02838682 -0.21570773
     0.12203006]
   [-0.43921402 -0.04029882 -0.42078164 -0.39323652 -0.21132357
     0.10588372]]

  [[ 0.3790904   0.31272355  0.01662184  0.31631204  0.09561533
     0.5068811 ]
   [-0.23104942  0.11607975  0.12223157  0.03644484 -0.12228536
     0.3408117 ]
   [-0.27139    -0.16796266 -0.16371603 -0.21512349 -0.30500796
     0.1810997 ]]

  [[ 0.3277881   0.18355115  0.08867463  0.4537757   0.25813058
     0.509776  ]
   [-0.17127877 -0.11837622  0.14470349  0.30861172 -0.22624944
     0.18281502]
   [-0.06618118 -0.4165917  -0.2691082   0.17055231 -0.28779617
     0.2923934 ]]]


 [[[ 0.40343654  0.0191293   0.23932116  0.11572669  0.14671451
     0.44137684]
   [-0.32210347 -0.15254109  0.2216327  -0.0727836  -0.2934311
     0.06446004]
   [-0.3411362  -0.40493235 -0.419257   -0.27682975 -0.34619063
     0.13341306]]

  [[ 0.4251263   0.20057243 -0.05096275 -0.17113493  0.40591463
     0.21748094]
   [-0.2687359   0.11681996  0.200855   -0.3371554  -0.14239381
    -0.13158011]
   [-0.46868923 -0.14460985 -0.24853362 -0.48209378 -0.4188209
     0.07256223]]

  [[ 0.37622914  0.25802824 -0.04008538  0.06189993  0.36589056
     0.34278694]
   [-0.28146914  0.19857956  0.11473479 -0.31804675 -0.14510477
    -0.07471772]
   [-0.22598203 -0.13184536 -0.31157324 -0.34136933 -0.3540078
    -0.04156977]]

  [[ 0.48970377  0.325821    0.2454049   0.36262023  0.2549668
     0.220957  ]
   [-0.09808145  0.14964277 -0.02232052  0.00590157 -0.08512801
    -0.13110572]
   [-0.36557025 -0.42576247 -0.10900623 -0.06686005 -0.20884675
    -0.1334968 ]]

  [[ 0.3933734   0.05309248 -0.00083208  0.54556173  0.33104092
     0.25044364]
   [-0.11509649  0.11573684  0.01625928  0.36045536  0.06749909
     0.04837385]
   [-0.06464218 -0.43824762 -0.2574131   0.05388841 -0.19251043
    -0.0667725 ]]]


 [[[ 0.51302904  0.37867206 -0.03591103  0.22717722  0.49929473
     0.23496109]
   [-0.00882455 -0.09748486 -0.03718412 -0.31478298 -0.18311305
    -0.12157334]
   [-0.1008963  -0.09623048 -0.35949466 -0.46696    -0.2514858
    -0.03315778]]

  [[ 0.29926303  0.19203605  0.09156074 -0.08313739  0.4595684
     0.1614735 ]
   [-0.40212622  0.06541401  0.19014421 -0.28224662 -0.05921653
    -0.15729053]
   [-0.4127581  -0.24683112 -0.12436534 -0.63866657 -0.40773994
    -0.14190154]]

  [[ 0.3670236   0.28629002  0.04506916 -0.09802292  0.4544297
     0.04690313]
   [-0.3518188  -0.02162609  0.20272328 -0.4167544  -0.03963914
    -0.26132265]
   [-0.47198033 -0.40763184 -0.11008139 -0.56421065 -0.10818157
    -0.04476289]]

  [[ 0.41441926  0.22432761  0.08119126  0.45001814  0.3241023
    -0.04372498]
   [-0.21614373 -0.04826184 -0.05023942  0.22133787 -0.05423969
    -0.17275697]
   [-0.4657849  -0.34708908 -0.37381506  0.08661477 -0.41021025
    -0.24968319]]

  [[ 0.43257627  0.2066839   0.00522341  0.53459734  0.46657255
     0.20483759]
   [-0.33182207  0.10617333  0.10586493  0.4317372  -0.20019102
    -0.11479256]
   [-0.19337296 -0.34412235 -0.29717723  0.10858624 -0.17700335
    -0.19823335]]]


 [[[ 0.516742    0.40821278  0.11148475  0.14683788  0.3118898
    -0.17391531]
   [-0.10112895  0.31298062  0.07338916 -0.00681224 -0.36858475
    -0.34305117]
   [ 0.03253206 -0.17083232 -0.44939473 -0.46350044 -0.32384744
    -0.27701086]]

  [[ 0.245134    0.27018353  0.22413276  0.02397845  0.40508538
    -0.1629543 ]
   [-0.37739387  0.04769868  0.22160563 -0.328757   -0.27157968
    -0.3412883 ]
   [-0.2460266  -0.25371522 -0.38407353 -0.40190488 -0.21769427
    -0.5877809 ]]

  [[ 0.37559497  0.22532438  0.147128   -0.11714458  0.16492033
    -0.23787108]
   [-0.27260885 -0.0764468  -0.04089466 -0.21594976 -0.28597146
    -0.29423982]
   [-0.45555735 -0.34992743 -0.11452038 -0.5034266  -0.2614816
    -0.43199205]]

  [[ 0.34654278  0.38735607  0.08122399  0.12377132  0.39470667
    -0.26371402]
   [-0.3075987  -0.08957988  0.16300726  0.20618576 -0.29512107
    -0.46802014]
   [-0.36270595 -0.37116063 -0.4142698  -0.20229653 -0.34433055
    -0.28942   ]]

  [[ 0.17595945  0.2479212  -0.07401628  0.38817117  0.20369554
    -0.13749084]
   [-0.32657045 -0.09986904  0.17457336  0.32932103 -0.30763018
    -0.17667906]
   [-0.4212885  -0.41459656 -0.43329737  0.22706364 -0.32543734
    -0.29462245]]]


 [[[ 0.59703404  0.2184259   0.20223802 -0.01509646  0.20913835
    -0.17153898]
   [ 0.08419785  0.05299351 -0.00726991 -0.31492415 -0.28004977
    -0.34966257]
   [ 0.15893498 -0.05149787 -0.25640532 -0.31874877 -0.39898247
    -0.24981752]]

  [[ 0.20262027  0.23376577  0.14026363 -0.00859223  0.28930974
    -0.2354653 ]
   [-0.03286006  0.03950908 -0.14586502 -0.10357965 -0.25187245
    -0.37787843]
   [-0.24042015 -0.38645545 -0.40699643 -0.31865144 -0.48158076
    -0.33134222]]

  [[ 0.21269014  0.24875082 -0.03480811  0.06492276  0.01460548
    -0.27914122]
   [-0.23968793  0.03649758 -0.15050006  0.02605478 -0.33286846
    -0.44129133]
   [-0.46159607 -0.31989875 -0.43208906 -0.15908048 -0.42019862
    -0.44633317]]

  [[ 0.01234659  0.33262014  0.1591926   0.24824435  0.24622513
    -0.07571574]
   [-0.24971582  0.19690955 -0.08276227  0.16300516 -0.267249
    -0.30970338]
   [-0.3626821  -0.19877955 -0.31787717 -0.19457768 -0.4031137
    -0.25986212]]

  [[ 0.04929152  0.09349863  0.20992568  0.2731422   0.10337793
     0.04894583]
   [-0.31570774 -0.13349138 -0.01934506  0.13479076 -0.03063278
    -0.21442643]
   [-0.49674198 -0.4052207  -0.2212805  -0.01086341 -0.10200205
    -0.27794063]]]]
baseline/conv2d/bias:0
(6,)
[0.0785084  0.25866702 0.32871997 0.19568184 0.02267216 0.0214773 ]
baseline/conv2d_1/kernel:0
(5, 5, 6, 16)
[[[[-6.67696372e-02 -5.14425058e-03 -7.09333122e-02  2.71108001e-01
     6.46305457e-02 -1.01585537e-01  1.97400391e-01 -3.37748230e-02
     1.06010191e-01 -1.51689360e-02  8.95695016e-02  9.32665728e-03
     5.17506003e-01  4.14220244e-01 -6.76444247e-02  5.46155751e-01]
   [-3.32042187e-01 -1.04474999e-01 -1.01224661e-01  1.50218993e-01
    -2.56236076e-01  2.01425582e-01  1.07495300e-01 -1.48578733e-01
    -5.71987070e-02 -1.30327642e-01  1.61829099e-01  3.86544801e-02
     5.47626793e-01  9.34968218e-02 -1.85260564e-01  3.12714994e-01]
   [-4.58834879e-02 -1.07237294e-01 -9.73536149e-02  1.44721717e-01
     4.51474078e-02 -5.83180711e-02  1.90174818e-01 -1.28365800e-01
    -7.73015320e-02 -1.52462170e-01  1.35952368e-01 -1.87252387e-01
     3.43596011e-01 -1.58203242e-04 -1.44925296e-01  1.48221895e-01]
   [-1.87435627e-01  3.84980328e-02 -1.93907380e-01  3.50310326e-01
     6.12552557e-03  1.67813018e-01  1.94781810e-01 -1.04251131e-01
    -1.76501535e-02  2.16261055e-02  1.80054948e-01  1.43661993e-02
     6.61585271e-01  3.81122023e-01 -1.35449007e-01  3.15648794e-01]
   [ 4.48041037e-02  1.93145741e-02 -1.38827756e-01  3.77798229e-01
     1.98291928e-01 -2.42849708e-01  1.19682468e-01  6.54013827e-02
     2.05921233e-01  3.69593054e-02 -2.25216281e-02 -6.86524957e-02
     3.89179051e-01  3.30352008e-01  1.54219717e-01  3.91767472e-01]
   [-5.93709350e-02 -2.56083868e-02 -2.17378531e-02 -2.80823678e-01
     2.85372466e-01 -4.57083702e-01  2.55435318e-01  5.42474091e-01
     3.06380212e-01 -4.48553637e-02 -3.10976386e-01  4.58083674e-02
     1.80254757e-01  3.51998538e-01 -1.26885638e-01  4.37879324e-01]]

  [[-8.12705830e-02  6.09387271e-02  2.24226378e-02  4.75735962e-01
     1.49593577e-01  3.77324224e-02  1.12138495e-01 -4.24822234e-02
     5.84806204e-02  1.05758183e-01  6.06884174e-02 -6.22473508e-02
     4.24249113e-01  4.28181529e-01 -3.45208831e-02  3.61552835e-01]
   [-3.37316424e-01 -2.64040023e-01 -1.93982385e-02  1.87572002e-01
    -1.83423951e-01  3.30843002e-01  1.04797937e-01 -2.37916559e-01
    -4.96026799e-02 -3.55797298e-02  3.29302430e-01  1.48636512e-02
     3.71491373e-01  7.96836689e-02 -2.22078338e-01  1.69386283e-01]
   [-4.90670614e-02 -1.47677198e-01 -1.14627838e-01  2.01090574e-01
     3.45891938e-02  6.11620285e-02  2.08479509e-01 -2.19398811e-02
     4.13804241e-02  3.31716090e-02  1.28491431e-01 -2.14182779e-01
     2.60026038e-01  1.14895757e-02 -2.56310135e-01  2.38095045e-01]
   [-9.14851651e-02 -2.91226665e-03 -2.09340572e-01  3.76430154e-01
    -8.67966637e-02  1.30779132e-01  1.86894476e-01 -1.33664221e-01
     3.06448098e-02  8.20278302e-02  3.60315591e-01 -8.84107426e-02
     5.90595067e-01  4.16934639e-01 -1.42223507e-01  2.50999242e-01]
   [ 1.04302960e-02 -3.22980583e-02 -2.47630328e-02  4.34137136e-01
     1.26655892e-01 -1.12308890e-01  1.02298655e-01  6.93902969e-02
     3.25578481e-01 -2.62052752e-02  1.21499717e-01 -3.40711810e-02
     2.72450387e-01  3.32659960e-01 -7.03887269e-02  5.33132493e-01]
   [ 8.02002028e-02 -1.56925008e-01 -3.71016376e-03 -1.03663325e-01
     3.23949367e-01 -1.65950567e-01  2.36375481e-01  4.80915725e-01
     2.95970052e-01 -1.63581129e-02 -1.22895688e-01 -6.68556541e-02
     7.93470368e-02  4.77317333e-01 -2.14484155e-01  4.43989605e-01]]

  [[-8.53701308e-03 -3.97185273e-02  5.28968275e-02  4.37752455e-01
     1.46773860e-01  2.04976484e-01  8.20773244e-02 -7.29623586e-02
     2.25145161e-01  1.55738711e-01  8.44535828e-02  4.05132435e-02
     2.58707374e-01  6.34464771e-02  4.10567559e-02  3.87598217e-01]
   [-3.28487456e-01 -1.91091210e-01  5.55688031e-02  1.43486395e-01
    -1.76589146e-01  2.27847427e-01  1.04412429e-01 -1.57493874e-01
    -1.72570404e-02 -1.32488355e-01  2.03461364e-01 -4.27297466e-02
     3.66214246e-01 -5.10369567e-03 -1.08479686e-01  1.50674552e-01]
   [-1.02598071e-02 -1.77699268e-01  1.41144425e-01  8.88227597e-02
     1.39365450e-01  4.54172026e-03  9.96312872e-02 -6.36243895e-02
    -1.15821987e-01 -4.31199037e-02  1.61057487e-01 -2.60118525e-02
     3.02527964e-01 -1.76594153e-01 -2.67703116e-01  1.48010015e-01]
   [-1.27705252e-02 -1.06090397e-01 -7.22305700e-02  2.62478828e-01
    -3.24306116e-02  2.26025581e-01  2.67087698e-01 -1.75412342e-01
     2.32181745e-03  5.53459078e-02  1.76764488e-01 -9.12766084e-02
     4.68097687e-01  4.19354767e-01 -3.03657860e-01  2.66513526e-01]
   [ 2.08367202e-02 -1.07552074e-01  1.00857262e-02  3.74429017e-01
     1.44803777e-01  1.26231983e-01  1.54875055e-01  2.82327253e-02
     1.19292736e-01 -9.93378554e-03  1.35609791e-01 -1.74252130e-02
     2.93484002e-01  9.59308520e-02 -2.58814618e-02  5.52666306e-01]
   [ 1.65337101e-01 -1.60799712e-01  1.00385040e-01 -1.70509145e-01
     3.90167058e-01 -2.68456824e-02  2.46489793e-01  4.64714587e-01
     1.50301278e-01 -1.58215221e-02 -1.65092766e-01  7.00010881e-02
     8.79917368e-02  1.38824627e-01 -2.09872723e-01  5.17299175e-01]]

  [[ 1.85490632e-03  9.45417285e-02 -3.89313176e-02  3.20205808e-01
    -3.88171151e-02  4.20997411e-01 -6.71521723e-02 -3.40627544e-02
     1.92596614e-01  8.58680978e-02  1.74098864e-01  2.56465167e-01
     2.45862439e-01 -2.37570420e-01  1.54028665e-02  4.80509877e-01]
   [-1.92567855e-01 -1.54464319e-01  4.76382971e-02  4.43642773e-02
    -2.10077271e-01  3.72598648e-01 -7.21636415e-02 -1.20133847e-01
     1.10693321e-01 -6.63600105e-04  2.19686717e-01  4.49833041e-03
     3.87689382e-01  4.17004572e-03 -1.54779121e-01  2.57436663e-01]
   [-5.50589859e-02 -1.08456254e-01  1.60175890e-01  1.59610018e-01
    -4.21075039e-02  5.37592880e-02  1.66536599e-01 -1.40052915e-01
     7.43317604e-02 -1.58034898e-02  5.87640591e-02  8.35019276e-02
     3.31587702e-01 -4.21792984e-01 -1.23984270e-01  2.18542308e-01]
   [ 6.24946691e-02 -2.23725244e-01 -6.78834096e-02  2.53154248e-01
     6.95465207e-02  3.07387352e-01  2.46994898e-01 -1.06114216e-01
    -7.18864202e-02 -1.16363661e-02  3.99055749e-01 -1.18190654e-01
     4.86203879e-01  9.83965322e-02 -1.41336948e-01  1.79993257e-01]
   [-9.54469815e-02 -4.38352339e-02  7.28471205e-02  2.99061537e-01
     9.98019874e-02  1.15179405e-01  8.83934498e-02  2.69598160e-02
     3.26910913e-01 -7.22764507e-02  1.34321213e-01  2.70714670e-01
     2.16833457e-01 -2.10209593e-01  6.68395404e-03  5.04481435e-01]
   [ 8.93756524e-02 -8.73259902e-02  1.68378606e-01 -7.31449053e-02
     2.74216026e-01  1.40603885e-01  2.16757059e-01  5.63044012e-01
     2.62321681e-01  1.18141621e-01 -1.18763372e-01  4.07493830e-01
    -1.33505585e-02 -4.07861710e-01  7.27345468e-03  4.99975801e-01]]

  [[-1.06793635e-01  2.50351816e-01  6.35512099e-02  3.52447629e-01
    -1.58558115e-01  3.00790370e-01 -1.20474696e-01 -1.93114176e-01
     2.85396695e-01  9.50302780e-02  1.21957064e-01  4.10450548e-01
     1.55935928e-01 -1.64286375e-01  1.01308621e-01  2.94536889e-01]
   [-3.09881926e-01 -1.17916077e-01  7.10061491e-02  9.84828994e-02
    -3.31961960e-01  3.60779434e-01  1.57289077e-02 -3.13024789e-01
     1.19943447e-01 -8.10316131e-02  2.44288787e-01  1.07497521e-01
     3.41486365e-01 -3.94449010e-02 -2.25223154e-02  1.36661202e-01]
   [-2.10429177e-01 -2.10243732e-01  3.66185792e-02  1.50137797e-01
    -1.84983000e-01  9.68714803e-02  4.85513685e-03 -1.42429084e-01
     3.51723172e-02 -3.17804739e-02 -1.96964983e-02  2.86420643e-01
     2.03173220e-01 -3.71000707e-01 -9.96143296e-02  2.46071935e-01]
   [-5.81406429e-02 -1.08460359e-01 -1.12006381e-01  1.65978938e-01
     3.11518665e-02  4.51615900e-01  1.19060338e-01 -1.03695139e-01
     8.61683041e-02 -3.23067904e-02  3.53895664e-01 -4.05389108e-02
     2.84798414e-01 -1.36442065e-01 -2.44177714e-01  3.36447567e-01]
   [-2.87252455e-03  3.87678966e-02  3.69726680e-02  3.64509374e-01
     7.36369118e-02  3.30742478e-01 -4.07636724e-02 -2.78742202e-02
     3.82266015e-01 -5.74489050e-02  5.39150601e-03  3.23854059e-01
     1.46355033e-01 -4.19321448e-01  6.46421388e-02  4.88053590e-01]
   [-3.78372036e-02 -2.23913882e-02  1.40390173e-01 -2.24974588e-01
     1.79709300e-01  1.73988547e-02  3.28351110e-02  3.35730046e-01
     3.30709428e-01 -1.67556293e-02 -2.95679688e-01  6.42439306e-01
    -1.63261294e-01 -4.37007636e-01  1.49291679e-01  4.36211079e-01]]]


 [[[ 5.82290627e-02  3.02448183e-01 -9.45770517e-02  1.75051272e-01
    -1.46153674e-01 -2.52606690e-01  2.87374198e-01  4.54646461e-02
     2.07704857e-01 -1.81166586e-02 -2.46154308e-01 -1.31186217e-01
     1.79557800e-01  4.16282326e-01  1.49477214e-01  3.30239862e-01]
   [-3.46591800e-01 -1.10094160e-01 -1.56384319e-01 -7.51594827e-02
    -1.67551711e-01 -2.97935158e-02  2.07491666e-01 -2.77653277e-01
    -1.70407027e-01 -9.18424502e-02  8.36127922e-02 -9.81365442e-02
     2.10305199e-01  2.04905450e-01 -2.28756636e-01  3.10310861e-03]
   [-1.50127158e-01 -4.43263054e-02 -1.13058671e-01 -8.53309557e-02
     2.57021170e-02 -2.69177586e-01  2.63840228e-01 -2.86820158e-02
    -8.80471990e-02 -6.20543510e-02  6.30390048e-02 -3.08332592e-01
     1.92005828e-01 -5.32292910e-02 -1.84291899e-01  4.31846790e-02]
   [ 8.17655306e-03  2.25938827e-01 -1.99403346e-01  1.28816471e-01
    -2.00729687e-02 -6.64984658e-02  1.33963004e-01 -1.04100250e-01
     1.36297435e-01  4.21587043e-02  1.09552644e-01 -6.57929182e-02
     2.33420759e-01  3.23248446e-01  4.10015509e-02  1.60619974e-01]
   [ 2.10983276e-01  1.20837241e-01 -4.17371057e-02  9.57048833e-02
    -3.64738367e-02 -3.10398996e-01  3.94345075e-01 -1.27415340e-02
     3.36461157e-01  1.69512734e-01 -3.20439011e-01 -1.56195328e-01
    -1.53578604e-02  1.54009089e-01  9.81653780e-02  3.17184746e-01]
   [-6.75792471e-02  1.05898827e-01  7.58038759e-02 -2.88275003e-01
    -2.87910085e-02 -3.85872513e-01  3.97171229e-01  2.55477339e-01
     3.71671677e-01  9.00527313e-02 -2.07957864e-01 -2.06669837e-01
     1.05501570e-01  2.46034577e-01  2.79523656e-02  1.41779870e-01]]

  [[ 1.20931007e-01  5.51378466e-02  5.78864999e-02  3.16673607e-01
    -1.50949478e-01 -1.98679030e-01  1.31845117e-01 -4.64942344e-02
     3.03629011e-01  7.30092302e-02 -1.13549381e-01  6.59440607e-02
     4.66323877e-03  4.12242472e-01 -1.46128898e-02  1.91336840e-01]
   [-2.47737035e-01 -1.95268959e-01 -4.48007323e-02  2.55273152e-02
    -1.52437136e-01  1.50982916e-01  7.58552030e-02 -2.27800503e-01
    -2.07645878e-01 -1.17318511e-01  6.81491271e-02 -1.87515765e-01
     2.35330611e-01  5.89421690e-02 -1.49436280e-01  1.20849073e-01]
   [ 6.09414950e-02 -2.16827676e-01  7.38871843e-02 -2.66158134e-02
    -2.46688705e-02 -1.36287779e-01  1.64067820e-01  7.90747777e-02
    -5.49238250e-02  1.94153655e-02  4.23706062e-02 -4.04868275e-01
     4.87277545e-02 -1.76057771e-01 -3.10699970e-01  9.76326987e-02]
   [ 4.69264314e-02  9.17269960e-02 -1.80174947e-01  3.26176584e-02
     4.07239050e-03 -1.78648263e-01  1.77524209e-01 -1.73368230e-01
     5.68542955e-03 -5.83822243e-02  1.90051571e-01 -2.39731595e-01
     2.74263263e-01  6.26087070e-01 -1.14605524e-01  7.12939054e-02]
   [ 1.84510812e-01  6.91472366e-02  9.88042504e-02  3.02038670e-01
    -1.59994140e-02 -1.76086232e-01  1.47782803e-01 -7.32733682e-02
     3.64674956e-01  7.96146914e-02 -2.13376105e-01 -1.32590353e-01
     1.45711042e-02  2.97035843e-01  4.15486246e-02  2.29550868e-01]
   [ 6.63515134e-03 -1.40818030e-01 -3.98467891e-02 -1.87714949e-01
     5.13192639e-02 -2.78524786e-01  3.46472621e-01  3.20237577e-01
     5.17850816e-01 -5.24080470e-02 -3.61190975e-01  3.93757336e-02
    -3.73299308e-02  3.70749116e-01 -8.11260380e-03  2.12691799e-01]]

  [[ 7.55805001e-02 -6.35191649e-02  1.89209089e-01  2.45200381e-01
    -1.39942646e-01 -3.11497226e-02  1.13949366e-01 -1.16581088e-02
     1.74609914e-01  1.87525228e-01 -2.07979456e-01  2.60494947e-01
     6.38508499e-02  7.62011036e-02  1.32807225e-01  2.63599873e-01]
   [-2.27470994e-01 -8.10870230e-02  1.03079952e-01  6.79440051e-02
    -1.26361638e-01  5.25681153e-02  1.64619043e-01 -1.35461494e-01
    -2.19703123e-01 -1.29124969e-01  6.85576499e-02 -1.69086486e-01
     4.74731475e-02 -1.45957798e-01 -2.01669201e-01 -5.71260601e-02]
   [-1.56933498e-02 -2.29004845e-01  1.55410469e-01  3.61248925e-02
    -6.22024238e-02 -1.15274992e-02  1.15524881e-01 -7.82332495e-02
    -1.98721230e-01  8.21610242e-02 -1.83642600e-02 -1.65732786e-01
     1.02896288e-01 -3.44956815e-01 -3.14611018e-01 -2.50426047e-02]
   [ 8.43269452e-02 -3.92449312e-02 -1.76374689e-01  1.54025510e-01
     9.47491359e-03 -9.29702446e-02  1.57842442e-01 -1.55287385e-01
     5.56197092e-02  1.91005766e-02 -5.32079674e-02 -2.53116369e-01
     2.58104205e-01  3.65374029e-01 -1.79581270e-01  2.01100353e-02]
   [ 2.03362003e-01  5.20907454e-02  2.64897235e-02  3.23516339e-01
    -1.25466228e-01 -1.48694739e-01  1.44327283e-01 -5.56827337e-03
     3.39241564e-01  1.72665939e-01 -2.16164425e-01  6.00615665e-02
     1.33556062e-02  8.16532671e-02  4.87718694e-02  1.45645976e-01]
   [ 4.37938832e-02 -1.68782264e-01  6.82240576e-02 -1.67729169e-01
     8.24445412e-02 -8.53781402e-02  1.46352068e-01  2.63810843e-01
     5.10894179e-01 -9.33625400e-02 -3.08730453e-01  2.99606830e-01
     6.65686205e-02  7.72924274e-02  8.15452561e-02  1.76347375e-01]]

  [[ 1.01655528e-01  3.58002298e-02  2.52650976e-01  4.14250553e-01
    -2.25127801e-01  2.39139602e-01 -1.64394695e-02 -4.94677611e-02
     1.63549989e-01  8.38774592e-02 -2.68235385e-01  2.35458702e-01
     9.06010903e-03 -3.03947061e-01  2.45500393e-02  2.20500246e-01]
   [-1.57111868e-01 -7.97683448e-02 -2.38308012e-02 -9.66896862e-03
    -2.50624299e-01  6.40344992e-02  1.20204940e-01 -1.86757192e-01
    -1.86901629e-01 -1.08886048e-01  1.55059174e-02 -2.52108127e-02
     2.16933459e-01 -2.31104806e-01 -9.68096852e-02  1.27212986e-01]
   [-1.57545991e-02 -9.47365835e-02  1.57202750e-01  1.05723664e-01
    -5.46792187e-02  1.34952947e-01  6.32895064e-03  3.38189416e-02
    -1.63902238e-01  4.18485366e-02 -2.39655618e-02 -8.24377537e-02
     1.31489402e-02 -4.33089852e-01 -1.99148595e-01  5.48928827e-02]
   [ 7.11611956e-02 -2.66417980e-01 -1.72702468e-03  1.80531785e-01
    -3.78173105e-02  1.21188857e-01  2.50767738e-01 -1.17888242e-01
     4.01849076e-02  1.35624632e-01  2.14704439e-01 -6.51690289e-02
     1.67670205e-01  6.10091202e-02 -1.76222041e-01  1.63941801e-01]
   [ 3.79290208e-02  4.73307036e-02  7.08947629e-02  2.18628854e-01
     2.56784875e-02  9.01673734e-02  3.51221338e-02 -2.15981118e-02
     2.29877993e-01  6.00630417e-02 -3.25231820e-01  2.43416831e-01
    -1.38225749e-01 -3.52072060e-01  9.49504301e-02  1.61626771e-01]
   [ 3.37937810e-02 -2.16284543e-01  1.50080189e-01 -7.12945387e-02
     3.83929200e-02  1.07331604e-01  7.74090663e-02  1.90166369e-01
     5.79160571e-01 -3.70785198e-03 -2.94415772e-01  5.61263680e-01
    -6.71782717e-02 -2.37938508e-01  5.65755293e-02  2.13129520e-01]]

  [[ 1.66257292e-01  3.43033999e-01  3.05808842e-01  3.20172518e-01
    -2.41446882e-01  3.30646574e-01 -5.74600846e-02 -3.05974603e-01
     1.23948753e-01  1.12963565e-01 -1.92889184e-01  1.97338015e-01
    -9.74700525e-02 -3.91024321e-01  7.54145980e-02  1.51191413e-01]
   [-1.69349745e-01 -1.44085154e-01 -1.79624297e-02  6.16693906e-02
    -3.63733679e-01  1.34709731e-01  1.18167952e-01 -1.97263002e-01
    -2.93507464e-02 -1.10234007e-01  1.75652385e-01 -1.11359498e-02
     2.93910392e-02 -2.49048606e-01 -1.97009578e-01  5.60773946e-02]
   [-2.05529649e-02 -1.48257852e-01  3.45086381e-02  5.99187100e-03
    -1.11889802e-01  1.01022333e-01 -6.91959709e-02 -2.43858576e-01
     1.83791108e-02 -1.15484148e-02  1.05123576e-02 -4.80517559e-02
     3.92568335e-02 -4.34362948e-01 -1.79698408e-01  5.99917471e-02]
   [ 2.85541993e-02 -1.29787549e-01 -9.04529840e-02  4.81508709e-02
    -8.89132097e-02  3.53957713e-01  9.93401408e-02 -1.78142041e-01
     4.35695089e-02  7.46548623e-02  1.32802054e-01  1.48759663e-01
     1.44001231e-01 -3.96669567e-01 -1.41467527e-01  2.31029361e-01]
   [ 9.86297578e-02  1.09743044e-01  2.93202370e-01  2.75596261e-01
    -1.14656284e-01  8.48140270e-02 -1.32272011e-02 -2.86782272e-02
     1.66474044e-01  1.78743809e-01 -2.96102434e-01  3.66511226e-01
    -6.11052588e-02 -4.78863478e-01  1.59951910e-01  2.97905624e-01]
   [ 1.31595973e-03 -8.63506123e-02  1.15705043e-01 -4.46662940e-02
    -9.91154015e-02  9.05971900e-02  7.24756019e-03  2.75520533e-01
     3.97393614e-01  1.46180987e-02 -3.95766050e-01  5.20294547e-01
    -1.61624894e-01 -5.12969792e-01  2.68981457e-01  1.90544367e-01]]]


 [[[ 1.40701011e-01  2.79736251e-01 -9.29947346e-02  1.49085134e-01
    -6.40088096e-02 -3.03831816e-01 -2.22843643e-02 -1.59428701e-01
     7.59075508e-02  3.40243988e-02 -2.05085665e-01 -9.01397020e-02
    -5.04612364e-02  3.06933701e-01  3.95167887e-01 -2.11611167e-02]
   [-2.83894718e-01  1.78212561e-02 -3.77116472e-01 -1.51309669e-02
    -3.01817000e-01  2.51364522e-02 -3.86441089e-02 -1.39710367e-01
    -1.17413834e-01 -2.20347717e-01  3.86722870e-02 -1.52815267e-01
     1.52683154e-01  8.18617716e-02 -1.71406284e-01 -2.49531996e-02]
   [-7.59249181e-02  2.00083200e-02 -2.74084389e-01 -5.91156669e-02
     6.82404190e-02 -2.76899070e-01  1.74861925e-03  7.03289136e-02
    -1.03153937e-01 -1.35352761e-01 -1.47620412e-02 -3.75346899e-01
     1.67241424e-01  8.19953904e-02 -3.18851292e-01 -1.38013363e-01]
   [-1.37427151e-01  1.92180589e-01 -2.21881315e-01  3.29754166e-02
    -1.82246655e-01 -6.17020205e-02 -2.93279556e-03 -1.53487772e-01
     5.71007356e-02  3.45070101e-02  2.10977588e-02 -2.99470305e-01
     1.73025966e-01  2.55667269e-01  1.98533405e-02 -6.01057634e-02]
   [ 2.52114773e-01  3.23494405e-01  1.18879393e-01  9.51818973e-02
     8.73157457e-02 -3.88446957e-01  2.10699901e-01  9.28670987e-02
     1.85449526e-01  2.15770915e-01 -1.49011657e-01 -2.63796121e-01
    -8.35602283e-02  7.18125254e-02  3.35122734e-01 -1.23849921e-01]
   [ 7.92146027e-02  1.92376599e-02  4.92663980e-02 -2.51396090e-01
     4.21983860e-02 -4.04128253e-01  7.60451406e-02  5.87297715e-02
     3.52641135e-01  2.34273281e-02 -3.00212383e-01 -2.59218097e-01
     2.62322780e-02  1.28858536e-01  2.73323953e-01 -4.30677123e-02]]

  [[ 4.32936363e-02  1.35645017e-01 -1.73360612e-02  2.43595779e-01
    -1.82631880e-01 -2.88709998e-01 -1.73432529e-01 -1.81139171e-01
     2.15349853e-01  9.84663963e-02 -1.82906255e-01 -3.07029188e-02
    -1.51826739e-01  3.71203899e-01  2.47600809e-01 -1.42061278e-01]
   [-1.47787303e-01 -1.20003410e-01 -1.29686147e-01  4.36495803e-02
    -8.34563449e-02  2.89550088e-02  6.56158254e-02 -1.70883298e-01
    -2.38984391e-01 -2.05329016e-01  9.73177850e-02 -1.31868035e-01
     4.64005694e-02 -5.03994450e-02 -1.77453682e-01 -6.02331385e-02]
   [ 2.90050264e-03 -1.73043877e-01 -1.91364586e-01 -4.93808761e-02
    -8.88901763e-03 -4.05581668e-02 -1.17067387e-02 -9.96978506e-02
    -1.95711896e-01 -7.62869120e-02 -4.39626388e-02 -4.23227221e-01
     8.76660831e-03 -1.68258443e-01 -2.62973160e-01 -1.21962629e-01]
   [-6.71047419e-02  3.26378107e-01 -2.86298990e-01  6.37044907e-02
    -1.27300099e-01 -2.88004994e-01 -1.23072058e-01 -2.30772048e-01
    -2.53962837e-02  6.12332411e-02  9.30262953e-02 -2.94637144e-01
     1.52941152e-01  6.08846724e-01 -6.38490468e-02 -7.87128806e-02]
   [ 9.24699828e-02  1.56346560e-01 -1.48398671e-02  1.85795516e-01
    -3.35625745e-02 -3.18437666e-01 -1.47333190e-01 -9.23517048e-02
     2.70784259e-01  8.95361379e-02 -1.90213695e-01 -1.38350561e-01
    -3.37686017e-02  2.51026839e-01  3.23403001e-01 -8.71865004e-02]
   [-2.57054046e-02 -1.98238473e-02 -2.69598681e-02 -1.25867784e-01
    -2.26255789e-01 -2.69010454e-01 -1.12545073e-01 -1.01979300e-02
     3.87891263e-01  4.44803294e-03 -3.30032349e-01  3.52089703e-01
    -1.63985476e-01  2.70768195e-01  4.07365054e-01  1.52795598e-01]]

  [[ 1.58313349e-01 -6.47863969e-02  1.85727045e-01  2.38808513e-01
    -2.97217309e-01  6.71524256e-02 -1.99983984e-01 -1.30981192e-01
     4.69530970e-02  1.43310219e-01 -1.97282568e-01  2.68668026e-01
    -3.44291218e-02  1.77325457e-02  1.22450203e-01 -4.70505208e-02]
   [-1.06164359e-01 -1.85506120e-01 -3.77032161e-02  4.13553976e-02
    -1.55330196e-01  1.32065326e-01 -7.31849344e-03 -2.08025947e-01
    -2.98574448e-01 -2.40685791e-01  4.90850806e-02 -2.69135535e-01
     1.06943995e-01 -7.69805759e-02 -1.80839255e-01 -2.05748409e-01]
   [ 2.83750966e-02 -2.58621037e-01  1.58275012e-02  4.72178757e-02
    -4.71674912e-02 -4.48439829e-02  6.74619945e-03  7.67707005e-02
    -2.46339917e-01 -6.90474063e-02 -1.92628559e-02 -1.77967861e-01
     5.55479228e-02 -2.60384828e-01 -2.23982766e-01 -8.25656354e-02]
   [ 9.62047800e-02  6.10242747e-02 -1.21178001e-01  9.68190003e-03
    -2.47996151e-01 -4.12414558e-02  2.70813890e-02 -2.18850508e-01
     6.35355338e-02  8.73304009e-02 -3.61127742e-02 -2.32767940e-01
     5.57231493e-02  6.24257565e-01 -1.53930604e-01 -1.04571097e-02]
   [ 5.72304390e-02 -2.17321236e-02  2.40001515e-01  3.01602125e-01
    -1.13060854e-01 -1.95337400e-01 -2.27137998e-01 -2.37713056e-03
     1.24373585e-01  3.38379554e-02 -3.10143501e-01  6.18019179e-02
    -1.32297173e-01  9.53287333e-02  2.14599222e-01  1.36914179e-02]
   [ 1.04756393e-02 -3.40419441e-01  6.19682930e-02  9.05507826e-04
    -2.06632018e-01 -1.36324629e-01 -2.31805965e-01 -1.48063172e-02
     5.05874515e-01 -1.67066202e-01 -4.36658800e-01  7.01313913e-01
    -1.86215267e-01  1.62956417e-01  3.46344262e-01  1.03161901e-01]]

  [[ 2.18539894e-01  4.41082194e-02  2.42852733e-01  3.61341417e-01
    -1.36961728e-01  1.75805479e-01 -1.38899580e-01 -2.36151814e-01
     1.83492957e-03  2.08006263e-01 -2.21929312e-01  2.18686208e-01
    -7.09696040e-02 -2.65184224e-01  2.69423604e-01 -1.29621893e-01]
   [-2.48833746e-01 -1.00900397e-01 -2.22445726e-02  9.52203274e-02
    -1.25509799e-01  6.89735487e-02 -2.71635316e-03 -1.44955695e-01
    -1.58207789e-01 -1.73238367e-01  1.90339491e-01 -2.19091594e-01
    -6.12770692e-02 -2.84149885e-01 -2.30121195e-01 -1.62947476e-01]
   [-4.75951061e-02 -1.04576126e-01  6.21897802e-02  1.55827910e-01
    -5.55902347e-02  3.78355347e-02 -2.29307368e-01 -8.60286653e-02
    -2.19217002e-01 -1.46621034e-01 -1.42710373e-01 -1.03226714e-01
    -2.90016495e-02 -5.28430402e-01 -2.07059562e-01 -1.10440724e-01]
   [ 2.54228897e-02 -2.81182587e-01 -1.75057396e-01  1.00854106e-01
    -1.40056655e-01 -1.34179117e-02 -2.12459024e-02 -2.50922292e-01
    -4.57157344e-02  8.64768215e-03  6.21468425e-02  9.57134292e-02
     4.27141450e-02  1.25780120e-01 -1.19543672e-02 -1.06929727e-01]
   [ 9.68356952e-02 -1.36009976e-01  1.18959077e-01  3.08554262e-01
    -1.86128780e-01 -5.20668700e-02 -2.90667623e-01 -1.82848170e-01
     6.44943342e-02  5.56212552e-02 -3.12420130e-01  3.11956614e-01
    -1.85413361e-01 -3.54495496e-01  1.29594609e-01 -5.64025249e-03]
   [-4.27344255e-02 -1.95990011e-01  5.73625974e-03 -7.18233660e-02
    -1.98333830e-01 -4.42265440e-03 -1.60175666e-01  7.71897137e-02
     5.26255012e-01 -9.95471179e-02 -3.26715857e-01  7.64987826e-01
    -1.17091618e-01 -2.18900070e-01  3.12419385e-01  2.21391886e-01]]

  [[ 1.27281964e-01  2.93727160e-01  3.73110235e-01  3.26477766e-01
    -2.27048039e-01  2.89381176e-01 -1.88919693e-01 -2.43192121e-01
     3.67204882e-02  2.33380869e-01 -1.47011206e-01  1.06458679e-01
    -8.30380619e-02 -3.48967195e-01  1.40435427e-01 -1.28825888e-01]
   [-1.47813469e-01 -1.72216296e-01 -1.58477470e-01  5.39832078e-02
    -1.95830986e-01  1.65414855e-01 -1.52296364e-01 -1.70300916e-01
    -1.56440079e-01 -2.39384145e-01  1.27866134e-01 -6.39995337e-02
    -1.25236690e-01 -2.64477164e-01 -1.40042916e-01 -1.40871003e-01]
   [-1.02195203e-01  3.78821157e-02  1.11597538e-01 -1.96852610e-02
    -1.20387748e-01  1.29562626e-02 -2.01559752e-01 -1.72885031e-01
    -7.31291324e-02 -6.54518232e-02 -4.30541784e-02 -5.43675758e-02
    -7.24883191e-03 -4.25889999e-01 -3.12380314e-01 -1.29530668e-01]
   [-2.60251481e-02 -1.71610638e-01 -2.32630089e-01  1.68726742e-01
    -2.14307219e-01  3.39384258e-01 -1.18085518e-01 -2.95768321e-01
     1.34086236e-01 -1.50555477e-01  1.52646735e-01  3.65597039e-01
     2.69668326e-02 -4.61254597e-01  1.40819371e-01  2.66956585e-03]
   [ 1.02304466e-01  1.15221538e-01  2.22040519e-01  3.13850284e-01
    -2.74134606e-01  4.78093214e-02 -4.02896434e-01 -1.41859666e-01
     5.76104484e-02  1.91698045e-01 -1.17271118e-01  1.94521278e-01
    -2.40862936e-01 -4.33125436e-01  2.17046916e-01 -7.91652594e-03]
   [ 9.71028805e-02 -3.92812788e-02  7.00048283e-02 -4.53455597e-02
    -1.93790138e-01  1.58869430e-01 -2.66992390e-01  4.07346934e-02
     5.33399343e-01  4.82544638e-02 -5.12230635e-01  4.14686948e-01
    -2.50118107e-01 -3.22046191e-01  2.46940002e-01  2.29903266e-01]]]


 [[[ 1.19116612e-01  2.78162479e-01 -2.45756850e-01  7.55323246e-02
     4.42887619e-02 -2.93871790e-01 -2.00830892e-01 -9.82671455e-02
     5.03234267e-02  1.27869412e-01 -3.49578440e-01 -8.09384733e-02
    -2.04554364e-01  6.33595511e-02  3.87086958e-01 -3.90094191e-01]
   [-2.67251313e-01 -1.04205512e-01 -5.32245517e-01 -2.62717038e-01
     4.69850702e-03 -3.88214476e-02 -1.27576172e-01 -1.87339738e-01
    -2.75717467e-01 -4.32974368e-01  2.76892111e-02 -1.71120062e-01
    -7.09734559e-02 -6.83668032e-02 -4.03812602e-02 -3.19416195e-01]
   [-7.49977771e-04  6.07354790e-02 -3.88246357e-01 -1.36389554e-01
     1.26550779e-01 -2.21626475e-01 -1.68811217e-01 -3.22238132e-02
    -2.06413507e-01 -2.14623883e-01 -1.18444085e-01 -4.34188187e-01
    -1.17128722e-01 -1.14410639e-01 -1.88395768e-01 -2.34211549e-01]
   [ 6.66212887e-02  3.95412952e-01 -2.79301345e-01 -8.16256180e-02
    -9.00101066e-02 -1.80295005e-01 -2.27227226e-01 -1.39758348e-01
    -8.13938007e-02  6.37085363e-02  9.63450819e-02 -2.87617058e-01
     3.19918282e-02  2.25923881e-01  1.30530715e-01 -3.86611789e-01]
   [ 2.32850075e-01  3.37240666e-01  1.70313772e-02  1.66415647e-02
     7.85418823e-02 -3.45235825e-01 -2.42062405e-01 -4.35991026e-02
    -3.96649167e-02  2.09415644e-01 -2.39377707e-01 -1.69003695e-01
    -1.56414926e-01 -1.10987835e-02  3.39783669e-01 -2.71666139e-01]
   [ 2.65730135e-02 -4.48008180e-02 -2.04334129e-02 -1.14280798e-01
     9.95640978e-02 -3.37460935e-01 -1.54802173e-01 -8.03667605e-02
     2.99125642e-01 -1.97911672e-02 -3.24336350e-01  5.43016531e-02
    -9.75631326e-02  1.43736616e-01  6.67255163e-01 -5.34485243e-02]]

  [[-3.27150263e-02  1.68977648e-01  9.78204794e-03  1.24377407e-01
     4.02476341e-02 -2.10062265e-01 -3.11248004e-01 -1.93833783e-01
    -7.77435005e-02 -1.96839124e-02 -1.88770339e-01  2.56034974e-02
    -9.61619541e-02  1.95188418e-01  4.02120411e-01 -2.36326486e-01]
   [-1.71141520e-01 -1.70181617e-01 -3.32101107e-01 -3.62286121e-02
    -9.14339572e-02 -1.09081632e-02 -5.32255061e-02 -4.10708413e-02
    -2.57196993e-01 -4.17502820e-01  1.84024200e-02 -1.62734523e-01
    -1.52350198e-02 -7.21415579e-02 -1.38865516e-01 -2.02686548e-01]
   [-1.37977883e-01 -1.87423527e-01 -2.39623427e-01 -6.42250180e-02
     3.82096693e-02 -2.10847929e-01 -2.90706515e-01 -9.20171663e-03
    -1.98564947e-01 -9.20530260e-02  4.47825529e-02 -3.43730330e-01
    -6.35159686e-02 -1.69154927e-01 -2.63873994e-01 -3.44825178e-01]
   [-5.88004291e-02  3.93522769e-01 -2.47947127e-01  9.65894163e-02
    -1.24131262e-01 -1.79032058e-01 -3.05557787e-01 -7.20946044e-02
    -1.67736486e-01  1.49803445e-01  1.87275082e-01 -3.23916286e-01
     5.55538125e-02  6.64507091e-01  2.81896085e-01 -3.34550321e-01]
   [ 6.04139343e-02  7.43716732e-02  4.52650562e-02  9.55440477e-02
     1.15876488e-01 -2.60566086e-01 -3.71954083e-01 -1.81432664e-02
     6.05972670e-02 -1.30496628e-03 -2.90678352e-01 -4.47728261e-02
    -1.82822570e-01  1.92652494e-01  3.01174670e-01 -3.81446481e-01]
   [-1.36496291e-01 -7.84558803e-02 -6.72046542e-02 -1.61343202e-01
    -2.83929869e-03 -2.92625844e-01 -1.59888685e-01 -1.13736644e-01
     3.11396003e-01 -5.31902313e-02 -4.67473447e-01  3.29064190e-01
    -4.86304276e-02  1.66897684e-01  7.79798567e-01  8.17538574e-02]]

  [[ 8.99707079e-02 -1.55588001e-01  2.19886079e-01  2.02543736e-01
    -4.62176800e-02  3.53477802e-03 -5.05450308e-01 -3.49074341e-02
     4.48280498e-02  9.81138945e-02 -2.73840576e-01  8.11127797e-02
    -1.19267158e-01  2.04645380e-01  4.39801604e-01 -3.45709622e-01]
   [-2.16045588e-01 -2.33152181e-01 -2.97152728e-01  3.21086235e-02
    -1.23026401e-01 -8.92211720e-02 -1.11528151e-01 -8.27262104e-02
    -4.08023089e-01 -3.91258001e-01  2.44278371e-01 -1.52907178e-01
     2.21161190e-02 -4.86958399e-02 -4.76606861e-02 -2.94611901e-01]
   [-9.37408023e-03 -2.67184615e-01 -1.26373932e-01 -5.23941359e-03
     6.37265220e-02 -2.37734360e-03 -3.09933990e-01 -4.18327264e-02
    -3.43417913e-01 -1.30401269e-01 -6.56868890e-02 -1.28210649e-01
    -8.13394263e-02 -2.54444748e-01 -2.33784199e-01 -1.91193134e-01]
   [ 2.71278806e-02  1.55564658e-02 -1.83835730e-01 -6.20309636e-03
    -1.14823140e-01 -1.39362708e-01 -5.39753675e-01 -1.64370060e-01
     1.07255969e-02  4.54442948e-03 -2.06850972e-02  1.78205475e-01
    -1.34153236e-02  5.95230222e-01  2.26369023e-01 -2.48196349e-01]
   [-2.36450185e-04 -1.87490374e-01  1.13930121e-01  3.48100007e-01
    -9.06160995e-02 -1.73209310e-01 -5.49723446e-01 -8.89328346e-02
    -4.14734967e-02 -1.92332752e-02 -1.08728454e-01  1.80805966e-01
    -1.03361465e-01  1.26655567e-02  3.78581434e-01 -2.97086626e-01]
   [-1.17849283e-01 -1.53463095e-01 -3.47820446e-02  1.88829247e-02
    -6.53653443e-02 -9.06570405e-02 -1.59043342e-01 -1.39526367e-01
     4.99702036e-01 -1.41074657e-01 -4.90387827e-01  5.33623517e-01
    -1.65714458e-01 -4.40737307e-02  7.18975365e-01  1.84210181e-01]]

  [[ 1.07132956e-01 -7.73750991e-03  3.23848695e-01  3.57918918e-01
    -1.46931902e-01  7.32194632e-02 -5.53464830e-01 -1.14667956e-02
    -9.97858495e-02  1.17190979e-01 -9.78665054e-02  2.37188697e-01
    -2.01146662e-01 -1.54045165e-01  2.25526601e-01 -3.85959744e-01]
   [-2.49841571e-01 -1.33259773e-01 -1.27123728e-01  1.27283707e-02
    -1.46987602e-01 -6.82995990e-02 -2.52087444e-01 -6.76727220e-02
    -3.08396548e-01 -2.92324871e-01  8.08077678e-02 -2.37471640e-01
    -7.81812239e-03 -6.20191507e-02 -2.29599595e-01 -2.79125571e-01]
   [-3.23534496e-02 -2.21395954e-01 -1.26605883e-01 -1.70977823e-02
    -3.21735516e-02  9.78571624e-02 -3.97545606e-01  3.06461249e-02
    -3.15483630e-01 -4.89766411e-02 -7.75009468e-02 -1.26194641e-01
    -7.29525760e-02 -3.88781220e-01 -2.99012661e-01 -2.05549330e-01]
   [ 6.73485473e-02 -3.74352932e-01 -1.59503594e-01  7.26653934e-02
    -2.77190000e-01 -2.20153742e-02 -4.14758980e-01 -1.26751393e-01
    -1.24158628e-01 -1.06957249e-01  9.89773870e-02  5.29353917e-01
     3.20863985e-02  1.00675121e-01  1.67830884e-01 -3.38858604e-01]
   [ 1.42872408e-01 -4.13141996e-02  2.52497524e-01  2.10684225e-01
    -5.14231212e-02  2.48609502e-02 -5.53079545e-01  2.49910932e-02
     3.78393456e-02  1.06148668e-01 -2.92500645e-01  6.11388758e-02
    -3.03679645e-01 -1.21800162e-01  2.49813199e-01 -2.65636265e-01]
   [ 1.73038393e-02 -2.75919199e-01  2.89163962e-02 -5.50211966e-03
    -1.80052623e-01 -1.38456464e-01 -1.81645200e-01 -2.75409698e-01
     4.99857634e-01 -1.00638278e-01 -3.35670054e-01  3.61014158e-01
    -2.76351869e-01 -2.33523533e-01  6.58052742e-01  1.52586903e-02]]

  [[ 1.39432535e-01  3.19091409e-01  4.06135052e-01  4.61220801e-01
    -1.12029314e-01  2.14634597e-01 -4.82195646e-01 -1.10764183e-01
    -1.85218051e-01  2.94355124e-01 -3.05365205e-01  8.21117237e-02
    -1.60942942e-01 -1.34166554e-01  2.23887637e-01 -3.66398931e-01]
   [-8.84449035e-02 -6.16851337e-02 -1.35963336e-01 -2.75177900e-02
    -3.67442667e-02  1.09177105e-01 -1.38886318e-01  9.96991619e-03
    -3.18152964e-01 -2.22913176e-01  1.27459690e-01 -1.46178022e-01
    -1.36502936e-01 -2.35914171e-01 -1.86028779e-01 -3.06294531e-01]
   [-2.47996077e-02 -4.84828884e-03  7.49174505e-02  8.39903578e-02
    -2.43974850e-02  1.05496615e-01 -2.86685199e-01 -4.58271131e-02
    -3.03403258e-01 -9.16196629e-02 -2.14580044e-01 -2.24704459e-01
     1.22826807e-02 -3.06063145e-01 -2.95444161e-01 -3.20958585e-01]
   [-2.03908607e-01 -2.29422927e-01 -1.47868037e-01  9.81332138e-02
    -1.46103457e-01  1.72255024e-01 -5.81135869e-01 -1.98713467e-01
    -5.70141245e-03 -7.41347149e-02 -4.55353037e-02  6.49777889e-01
     4.25401749e-03 -2.74587214e-01  1.69991016e-01 -2.74552792e-01]
   [ 1.45869032e-01  3.00698988e-02  2.91245013e-01  3.69254440e-01
     1.31752072e-02  9.73742083e-02 -4.87746507e-01 -6.22321218e-02
    -8.48364830e-02  1.26263663e-01 -1.14451647e-01  3.51376906e-02
    -1.55374408e-01 -2.76335537e-01  2.06979349e-01 -2.91184753e-01]
   [ 1.11006849e-01 -2.98695453e-02  9.18817520e-02 -9.35726762e-02
    -9.83045548e-02 -9.74216405e-03 -2.37059653e-01 -1.86114863e-01
     4.13120419e-01  3.24976854e-02 -3.69411111e-01  1.80314139e-01
    -2.58252263e-01 -1.58887371e-01  2.17976525e-01 -2.94407532e-02]]]


 [[[-7.29064718e-02  3.24975401e-01 -1.75871134e-01  1.33083865e-01
     2.97074109e-01 -4.38702643e-01 -2.46116325e-01  2.03198329e-01
    -2.37981603e-01 -7.71148643e-03 -4.60109770e-01 -2.16905192e-01
    -1.66327804e-01  7.11693466e-02  1.39315352e-01 -4.73154932e-01]
   [-3.51815253e-01  1.71633791e-02 -5.29204965e-01 -2.24320263e-01
     9.38188210e-02 -1.83479249e-01 -3.62102352e-02 -1.00768186e-01
    -3.56577814e-01 -3.52702290e-01  2.90428065e-02 -1.90169990e-01
    -7.55908638e-02 -7.75578916e-02 -2.07703203e-01 -3.74738216e-01]
   [ 2.34787147e-02 -2.86328774e-02 -2.32764214e-01 -1.92634061e-01
     5.76958023e-02 -2.04927772e-01 -2.95256615e-01  1.14191927e-01
    -3.27739179e-01 -1.63642272e-01 -8.21160004e-02 -3.58218342e-01
    -1.66020080e-01 -2.01318607e-01 -2.59774595e-01 -4.02370006e-01]
   [ 1.21005893e-01  4.65198547e-01 -5.88242859e-02 -4.01138738e-02
     1.28511176e-01 -1.39035061e-01 -3.72801334e-01  6.83750659e-02
    -3.22257638e-01  2.76036948e-01 -7.84699544e-02 -3.55430603e-01
    -1.84848815e-01  2.24343002e-01  1.05837502e-01 -4.96305823e-01]
   [ 6.22270592e-02  1.34242997e-01 -1.36568815e-01 -7.88783003e-03
     3.54577750e-01 -3.60662878e-01 -2.17493042e-01  2.52756864e-01
    -3.06000084e-01  1.17156334e-01 -4.22568917e-01 -4.58688825e-01
    -2.62534112e-01  1.65330898e-02 -2.23073307e-02 -5.38121581e-01]
   [-8.45402032e-02 -8.50145146e-02 -1.90502554e-01 -1.43395588e-01
     2.05314457e-01 -3.17899197e-01  1.51261240e-01  9.39509645e-02
     6.31756037e-02 -4.50698566e-03 -5.56400597e-01  2.21579388e-01
    -3.57553512e-01 -3.81172635e-02  2.44612485e-01  3.28968465e-02]]

  [[ 1.25797261e-02 -2.42851488e-02 -1.73546925e-01  2.00951606e-01
     2.03610569e-01 -3.15378577e-01 -1.80471778e-01  1.62158221e-01
    -1.53249338e-01 -4.92066033e-02 -4.23088938e-01 -1.39230322e-02
    -2.68426389e-01  1.84897363e-01  2.77024239e-01 -4.31079865e-01]
   [-3.49478483e-01 -1.23280041e-01 -3.97713065e-01 -2.11838812e-01
     1.12516657e-01 -2.42825389e-01 -1.64237931e-01 -7.88000301e-02
    -3.53013247e-01 -4.28817987e-01 -2.96875257e-02 -3.22652400e-01
    -9.31171998e-02 -1.63971946e-01 -5.96122108e-02 -2.24736422e-01]
   [-1.22999780e-01 -8.66626799e-02 -2.85873115e-01 -8.93504620e-02
     1.50839984e-01 -2.25436926e-01 -2.99652666e-01  3.48724164e-02
    -2.99622506e-01 -1.35097072e-01 -6.41599149e-02 -2.10984260e-01
    -1.33030802e-01 -1.87524304e-01 -2.91268528e-01 -3.20510477e-01]
   [ 2.89228056e-02  2.84782499e-01 -1.82799876e-01 -7.22331519e-04
     5.94673306e-02 -2.69343704e-01 -4.91227955e-01 -9.86143248e-04
    -2.94065535e-01  2.35394746e-01 -1.54196486e-01 -1.32023871e-01
    -8.79638195e-02  4.52058852e-01  2.63255328e-01 -3.69289607e-01]
   [-1.05558358e-01 -5.01669757e-02 -9.17285979e-02  1.37404427e-01
     3.17900747e-01 -3.80026788e-01 -3.55479062e-01  1.78814188e-01
    -2.91815728e-01 -1.21969007e-01 -2.65577078e-01 -2.71387488e-01
    -3.42497349e-01  8.45449269e-02  1.78007167e-02 -4.15837705e-01]
   [-6.64539635e-02 -6.31899163e-02 -7.62748644e-02 -1.54897168e-01
     3.09195012e-01 -3.71584982e-01  2.57719457e-01  1.71428442e-01
     8.03516731e-02 -1.41841337e-01 -5.28211355e-01  3.69412392e-01
    -1.21563867e-01 -1.19821712e-01  4.23464745e-01  9.24147516e-02]]

  [[ 7.26942122e-02 -1.62292168e-01  8.95714909e-02  1.75256401e-01
     1.83466852e-01 -1.14862077e-01 -2.27658153e-01  1.11513220e-01
    -3.28783482e-01 -9.40727964e-02 -2.72915632e-01 -7.85476491e-02
    -2.63638824e-01  1.15942203e-01  1.69024721e-01 -3.42639714e-01]
   [-2.47571677e-01 -5.63094504e-02 -3.32578242e-01 -2.59625018e-01
    -1.81182865e-02 -1.92616433e-01 -1.70689777e-01 -7.10141845e-03
    -3.01075786e-01 -2.99988180e-01  6.40894473e-02 -2.63947487e-01
    -2.80449122e-01 -2.04676196e-01 -1.09325863e-01 -3.76030982e-01]
   [-8.81616622e-02 -1.10435784e-01 -1.19093172e-01 -4.69611734e-02
     7.80060887e-02 -1.86044589e-01 -3.24787825e-01  1.75630927e-01
    -3.73153210e-01 -1.29667014e-01 -3.90265174e-02 -2.59943366e-01
    -1.59717962e-01 -2.56895095e-01 -3.52342844e-01 -3.93302172e-01]
   [ 1.13883037e-02  1.48158893e-01 -1.04428448e-01  5.11773452e-02
    -3.03948037e-02 -1.44820705e-01 -4.81578857e-01  1.52727142e-02
    -2.42924288e-01 -3.83649068e-03 -2.76778430e-01  2.21148103e-01
    -1.42421052e-01  2.98758447e-01  2.79416502e-01 -3.11419278e-01]
   [-2.89539695e-02 -1.56774864e-01  1.29176825e-01  1.19452670e-01
     2.40039438e-01 -3.01108688e-01 -4.34882611e-01  1.78455308e-01
    -2.11682156e-01 -1.06160201e-01 -3.63048971e-01 -1.68052033e-01
    -4.17278022e-01 -1.41813383e-01  1.22819573e-01 -3.39341462e-01]
   [-1.34665444e-01 -2.76785612e-01 -1.39839888e-01 -4.87542003e-02
     3.42735618e-01 -2.08600312e-01  3.01173300e-01  3.81086543e-02
     2.32980512e-02 -1.60330027e-01 -5.21817446e-01  1.85598969e-01
    -2.71727234e-01 -1.23171456e-01  4.05905604e-01  1.23250373e-01]]

  [[ 9.70556512e-02  1.56126320e-02  3.31347138e-01  1.38684228e-01
     2.12229446e-01 -1.72495231e-01 -3.97192836e-01  1.45876229e-01
    -2.15350017e-01  3.12007517e-02 -3.16599846e-01  1.04677498e-01
    -2.95584887e-01 -8.19950402e-02  2.28292763e-01 -4.26273972e-01]
   [-2.38239989e-01 -9.73721668e-02 -2.90501773e-01 -1.54861152e-01
     1.51958391e-01 -2.91958619e-02 -1.85189575e-01  9.23189595e-02
    -4.36784476e-01 -2.94569671e-01 -7.13464106e-03 -1.86380923e-01
    -2.20621273e-01 -2.01199740e-01 -2.42906183e-01 -3.64677548e-01]
   [ 1.36821523e-01 -1.22950003e-01  1.85865425e-02  5.44078350e-02
     1.51257887e-01 -6.37096465e-02 -2.00736821e-01  4.14824113e-02
    -2.94345289e-01 -2.29323246e-02 -2.36437708e-01 -3.08215588e-01
    -1.78875864e-01 -4.01327938e-01 -3.13905209e-01 -3.93259406e-01]
   [-6.69254409e-03 -3.08067858e-01 -7.83129036e-02 -4.80188169e-02
     4.38625813e-02 -2.67053191e-02 -5.83890617e-01 -1.33224502e-01
    -2.00964436e-01 -6.56562522e-02 -2.04697207e-01  3.92458230e-01
    -2.43216306e-01  1.99828044e-01  1.72160253e-01 -3.70084375e-01]
   [ 7.35629573e-02 -2.03395456e-01  2.79364616e-01  2.42715552e-01
     2.34686211e-01 -9.57397446e-02 -2.83227414e-01  1.54179484e-01
    -3.05815220e-01 -4.45740744e-02 -2.61693835e-01  2.07787696e-02
    -4.62274909e-01 -3.03844184e-01 -6.84776343e-03 -5.51231444e-01]
   [-3.87700275e-02 -1.97477564e-01 -2.39197873e-02 -6.42287880e-02
     2.86964327e-01 -2.92463958e-01  2.24549025e-01  9.55805108e-02
     3.71493921e-02 -5.16915545e-02 -5.45857370e-01  1.56767201e-02
    -2.39514977e-01 -1.69155106e-01  4.09858167e-01  2.08991226e-02]]

  [[ 3.46821636e-01  2.44751498e-01  4.67393875e-01  2.71918923e-01
     2.08482116e-01 -6.87206984e-02 -3.85638922e-01  9.30919945e-02
    -2.93595701e-01  3.89649868e-01 -4.00313526e-01  9.41108465e-02
    -2.33788401e-01 -2.55915582e-01 -1.08586021e-01 -4.80403990e-01]
   [-8.07404220e-02 -5.04677743e-02 -2.17241570e-02 -2.15684399e-01
    -4.68237139e-02 -1.88034832e-01 -1.14566833e-01  3.44484299e-02
    -3.56616974e-01 -5.48243970e-02 -4.03230004e-02 -9.40680429e-02
    -2.21470013e-01 -3.11354756e-01 -3.41870666e-01 -3.59836489e-01]
   [ 1.42010465e-01  1.26311570e-01  1.56090617e-01  5.81509694e-02
     6.34944066e-02 -8.22905302e-02 -3.18462789e-01  8.89362171e-02
    -4.10297662e-01  1.01815909e-01 -1.09296940e-01 -1.81953236e-01
    -1.81441724e-01 -4.05170649e-01 -3.37162673e-01 -2.94430941e-01]
   [-3.58971804e-02 -1.89352974e-01 -9.90283489e-02 -2.90248059e-02
    -8.36416706e-02  1.53679043e-01 -5.67945361e-01 -1.36058554e-01
    -2.60037273e-01 -6.88597187e-02 -2.60686427e-01  4.32480156e-01
    -1.18527710e-01 -1.14551388e-01  2.82487750e-01 -4.13895458e-01]
   [ 1.87248886e-01  1.38289213e-01  3.92309099e-01  3.21723670e-01
     1.16915368e-01 -2.96541750e-02 -2.73614794e-01  1.95716649e-01
    -2.90518224e-01  1.99504957e-01 -3.72441590e-01 -6.48160428e-02
    -3.51553500e-01 -4.31639642e-01 -9.82177854e-02 -4.22200501e-01]
   [ 6.16599172e-02 -3.60413082e-02  3.25493902e-01 -1.03005946e-01
     2.14169741e-01 -2.93682307e-01  1.64795458e-01  1.43524617e-01
    -2.24104588e-04  4.99321707e-02 -5.90888917e-01 -1.14581481e-01
    -3.78904432e-01 -1.56567797e-01  1.95404738e-01 -1.23509683e-01]]]]
baseline/conv2d_1/bias:0
(16,)
[ 0.43988675  0.32934532  0.41761297 -0.5738204   0.25375128 -0.38131922
  0.33123988  0.29793364 -0.5613711   0.40828848 -0.27740702 -0.5420263
 -0.28521568 -0.49212667 -0.66245043 -0.44558945]
baseline/dense/kernel:0
(400, 120)
[[ 1.71504617e-01  3.53431702e-01 -4.28443521e-01  8.04680660e-02
   3.32652666e-02  1.48317546e-01  4.46179301e-01  2.38017082e-01
   1.99722141e-01 -3.36329848e-01 -1.31322712e-01  1.13792896e-01
   1.14254400e-01  7.81402141e-02  1.07750766e-01 -2.61703935e-02
  -1.80654898e-01  2.11692855e-01  2.80324101e-01  7.08888352e-01
   4.10005115e-02 -1.03279464e-01  6.92692339e-01 -1.89820096e-01
  -1.74885299e-02 -1.35653019e-01  2.17585117e-01  3.60728912e-02
   1.49981022e-01  5.13359867e-02 -1.83522478e-01  3.97739530e-01
   7.97986910e-02  1.68872595e-01 -1.17883675e-01 -1.50142476e-01
   2.37818599e-01 -6.05288893e-02 -3.04186523e-01  8.56280103e-02
  -2.65621126e-01 -2.41942927e-01  3.94207031e-01  2.06794307e-01
   3.79604171e-03  1.56514019e-01  2.71604389e-01  2.27301583e-01
   1.77196190e-01 -1.61287069e-01 -1.47579946e-02 -2.18944982e-01
   9.00489688e-02  6.50224447e-01 -5.02364814e-01 -3.68163139e-01
  -1.81777075e-01  1.01944814e-02 -2.27407545e-01 -1.00412227e-01
   8.77914876e-02 -9.86699164e-02 -2.35988393e-01  1.87063277e-01
  -3.62441361e-01 -1.54496014e-01 -2.00365245e-01 -2.98420697e-01
  -3.49764347e-01 -3.46294433e-01  1.49580553e-01 -9.52302441e-02
   3.00880432e-01 -3.35380584e-02 -9.50406343e-02 -1.34289348e-02
   4.65244651e-02  1.81235895e-01 -4.67122309e-02 -2.00806662e-01
  -6.53831586e-02  1.13562299e-02  3.71526778e-02  2.17143416e-01
   7.31173694e-01  1.49598435e-01 -2.30116859e-01 -1.75499767e-01
  -4.47427243e-01 -2.41890643e-02  3.12711239e-01  3.80118728e-01
   3.11017096e-01 -1.57649323e-01  2.95687795e-01  1.92589983e-01
   5.04400015e-01  1.58712238e-01  3.00892234e-01  5.58844917e-02
  -1.00595042e-01  4.87683713e-02  4.25116643e-02 -1.22498877e-01
   2.04889923e-01  8.49320292e-02  2.40057737e-01 -1.93356350e-01
   6.66506495e-03  3.46519172e-01  1.52770445e-01 -6.45342618e-02
  -1.20297797e-01  8.80868807e-02  1.47515848e-01 -1.11062407e-01
   4.88116927e-02 -1.95791706e-01  4.78278518e-01  2.88089216e-01]
 [ 3.21814567e-01  3.88956785e-01 -8.99445340e-02  1.54743463e-01
  -6.30761981e-02  7.94124007e-02  1.98192850e-01  3.08728307e-01
   2.35776633e-01  1.33329719e-01  4.17359881e-02  1.26960337e-01
  -2.21136793e-01 -2.19832599e-01 -7.92984739e-02 -4.42023389e-02
   1.11012571e-01  4.95647304e-02  3.42662901e-01  8.82679403e-01
  -4.25109193e-02 -7.51156509e-02  6.16479516e-01  1.42454103e-01
   4.04361300e-02 -7.90390745e-03  2.30531096e-01  1.43181011e-01
   5.19191846e-03 -2.44439200e-01  2.42658220e-02  2.59224445e-01
  -2.32953988e-02 -3.57401464e-03 -1.41110718e-01  8.65206420e-02
   9.62409154e-02  2.96774842e-02 -2.83026099e-01  2.43587270e-01
  -2.59479344e-01  1.11719206e-01  3.63033950e-01  1.29821613e-01
   7.52147436e-02 -1.02416333e-02  8.91344547e-02  1.71798080e-01
   2.39876315e-01 -2.02474445e-01  1.37385860e-01  1.21085253e-02
   1.69376507e-02  4.37421590e-01 -4.70068961e-01 -1.58606216e-01
  -2.32878760e-01  2.73264736e-01 -1.09257251e-01 -1.23202458e-01
  -1.80135593e-01 -1.03088737e-01  1.36465713e-01  4.79152240e-02
   2.75889207e-02  1.93744987e-01 -1.45277902e-01 -2.00741127e-01
   3.59472856e-02 -3.93862724e-01  1.47004304e-02 -1.21603966e-01
   1.77914053e-01  3.04759499e-02  1.91454753e-01  2.10893840e-01
   1.68667093e-01  3.78314257e-02 -2.21731335e-01 -1.20638430e-01
   2.19903383e-02 -1.88839763e-01  1.51981294e-01 -1.28495812e-01
   4.76597726e-01  3.32097471e-01 -1.79610714e-01  9.18880627e-02
   2.61521041e-02  8.70252028e-02  9.78052691e-02  1.48137748e-01
   2.20168829e-01 -2.61406720e-01  2.00542524e-01  1.19956955e-01
   5.22465520e-02  6.63438737e-02  5.06084859e-02  1.97534189e-01
  -1.36977851e-01 -2.73421347e-01 -2.07303464e-01 -4.02948439e-01
   3.42610747e-01  1.90451980e-01 -5.33008873e-02 -1.93528444e-01
   3.13406020e-01  2.96664238e-01  4.10141736e-01 -1.66423455e-01
  -1.41734064e-01  2.41575003e-01  2.09945510e-03 -7.76485279e-02
   1.07075386e-01 -1.37084916e-01  3.39508355e-01  1.82900995e-01]
 [ 6.16843477e-02  1.78660557e-01 -3.31423879e-01  1.72961086e-01
  -8.80050734e-02  6.89582303e-02  1.29527047e-01  2.11839616e-01
   1.51546970e-01 -1.59237221e-01 -1.31389862e-02  1.19245060e-01
  -1.44769207e-01 -1.24465592e-01 -4.08445746e-02  9.84067619e-02
  -4.69828490e-03 -4.03947309e-02  3.24386477e-01  9.38994229e-01
   1.42015010e-01  1.43795237e-01  5.81330061e-01 -1.87527582e-01
  -5.35548814e-02 -3.57312225e-02  2.22672686e-01  3.01197886e-01
   6.04705103e-02 -1.19387358e-01 -1.40412018e-01  1.68533891e-01
   1.17063478e-01 -1.29756480e-01  3.58132704e-04  1.01227164e-01
   2.53029376e-01  3.96272317e-02 -3.06249052e-01  1.92085743e-01
  -2.65927136e-01 -9.15515050e-02  2.53774494e-01  1.54371634e-01
   1.91324353e-02  1.33636117e-01  8.36884752e-02  2.85324216e-01
   2.13645220e-01 -8.10461193e-02  8.59212428e-02 -2.27069587e-01
   1.02475159e-01  5.29347509e-02 -2.35035017e-01 -2.40933523e-01
  -2.21607372e-01  9.40505639e-02 -1.39063776e-01  4.22298871e-02
  -1.04159273e-01 -1.11456931e-01 -1.00852139e-02 -7.29671568e-02
   7.19247535e-02 -6.68913126e-02 -2.33756706e-01 -2.41402417e-01
  -1.97108075e-01 -2.26061419e-01 -1.34296641e-02 -4.17270586e-02
   1.28572971e-01 -1.84730738e-01  4.56385352e-02  5.70895784e-02
   1.17268704e-01  1.55640870e-01 -1.64652079e-01 -1.53240323e-01
  -1.99283168e-01 -1.07058443e-01  4.42872196e-02 -1.93715766e-01
   2.76961207e-01 -2.13929196e-03 -1.61269560e-01  1.53973633e-02
  -2.03036472e-01  4.45104949e-02  1.93949908e-01  2.69108832e-01
   3.44225913e-01 -2.31096044e-01  1.72677428e-01  2.78384507e-01
   3.55330974e-01  1.46330029e-01  1.27542660e-01  6.83023110e-02
   1.10230923e-01 -2.07149491e-01 -8.98967162e-02 -3.78185540e-01
   1.62911296e-01  2.48465404e-01  1.44394189e-01 -2.13094980e-01
   2.21524715e-01  3.05546552e-01  2.89824009e-01  7.93018267e-02
  -1.77356586e-01  3.15855592e-01 -9.16623548e-02 -1.73916101e-01
   1.83392033e-01 -1.48343578e-01  1.01603225e-01  1.43528253e-01]
 [-1.29780427e-01 -2.33456388e-01  2.35556781e-01  6.34847581e-02
   3.72723714e-02 -5.65287583e-02 -3.69699523e-02  1.05306752e-01
   8.83456133e-03  8.93831104e-02 -8.84858966e-02 -1.68600053e-01
   1.57056361e-01  9.93105695e-02  2.96885446e-02 -1.37992993e-01
   3.57509665e-02  3.90746370e-02 -2.33169138e-01 -6.99639246e-02
  -1.84237078e-01  1.09051295e-01 -7.74417445e-02 -1.52818309e-02
  -1.43819690e-01 -4.86020483e-02 -5.87698296e-02 -1.93440527e-01
  -1.63773984e-01 -3.96255963e-02 -4.19857958e-03 -2.78992236e-01
  -2.41901223e-02 -5.72163239e-02 -6.17795624e-02  2.36915108e-02
  -1.77266240e-01 -8.43320638e-02  2.59399742e-01  3.76330428e-02
  -3.28479409e-02  7.80495852e-02 -9.40170735e-02 -1.37089670e-01
   1.38684958e-02 -1.48279406e-02 -1.57152101e-01  1.05957910e-01
   6.72212988e-02 -5.78722619e-02  5.63730299e-02  1.86628655e-01
  -9.87158492e-02 -1.49968415e-01  5.09828962e-02  2.26703703e-01
   1.16432920e-01  2.76047960e-02 -9.90573410e-03 -6.20270446e-02
  -1.29873052e-01  8.16961601e-02  1.18039295e-01 -2.71293893e-02
   7.16549018e-03 -3.58227491e-02  7.11254328e-02  5.69783002e-02
   8.41104016e-02  1.44086719e-01 -1.22204423e-01 -1.16523225e-02
  -7.30995461e-02  8.62405226e-02 -1.05589651e-01 -9.03941616e-02
  -6.65889233e-02 -5.64885624e-02  5.06302156e-02  1.36300623e-01
   1.25788718e-01  5.03312014e-02 -1.61406621e-01  5.81694245e-02
  -2.26245359e-01 -3.40930857e-02  3.42587493e-02  6.57268316e-02
   2.04912305e-01 -1.00536130e-01 -6.24882206e-02 -1.59009993e-01
  -1.43821657e-01  5.29633537e-02  6.58138841e-02 -7.31782839e-02
  -3.43485102e-02  1.89175550e-02  3.28266956e-02 -1.32970372e-02
  -2.82584075e-02 -1.14842772e-01 -2.91674845e-02  8.70965570e-02
  -3.73200746e-03 -9.08792540e-02 -2.88540963e-03  1.20323546e-01
  -2.12590620e-02 -4.35276479e-02 -1.38106585e-01 -5.48429415e-02
   2.39154138e-02 -3.67374085e-02 -7.69651383e-02  8.89854580e-02
  -1.84332803e-01 -8.16461816e-02 -2.54104912e-01 -2.17009634e-01]
 [ 3.04662809e-03  5.62245287e-02 -2.56318957e-01  1.30011469e-01
   1.49264801e-02 -1.56840041e-01  3.06619793e-01 -6.36439845e-02
   4.39064242e-02 -3.37739021e-01  1.36027291e-01  2.60349542e-01
   6.89239800e-02  1.29901052e-01  1.12566531e-01 -2.31809057e-02
  -1.81904301e-01  2.54178494e-01 -6.42460436e-02  2.00425640e-01
  -5.52835353e-02 -1.37068173e-02  3.10712934e-01 -1.47446441e-02
   3.49777564e-02 -1.19847611e-01 -1.15198204e-02 -1.50388420e-01
   3.61362584e-02  1.29691392e-01 -1.50400952e-01  2.39713237e-01
   7.43319318e-02  2.08075806e-01  1.46404747e-02 -2.87410051e-01
  -8.47888514e-02  1.09461851e-01 -1.88542232e-01  1.65972523e-02
   6.49788976e-02 -2.00938225e-01  1.67948574e-01  1.23707645e-01
  -6.39169961e-02 -6.66901842e-02  1.98601320e-01  1.32441416e-01
  -1.70562908e-01 -1.67397052e-01 -1.03719542e-02 -1.45172626e-01
   2.07999229e-01  5.35474956e-01 -1.62016511e-01 -3.77018332e-01
   2.37945557e-01 -7.81443343e-02 -4.97942939e-02 -2.12344617e-01
   8.11426044e-02 -2.96124637e-01 -1.89439848e-01  2.25979641e-01
  -1.10381082e-01 -2.77401954e-01 -1.21336229e-01 -3.16194504e-01
  -3.88480783e-01 -1.59923136e-01  1.58895865e-01 -1.69705448e-03
   2.78378904e-01 -2.66510155e-02 -2.69823093e-02 -1.44646928e-01
   1.02265868e-02  8.90898556e-02 -1.16002813e-01 -1.86291918e-01
  -1.73658863e-01 -1.20492347e-01  8.36913511e-02  2.41354436e-01
   4.07903433e-01 -2.85289846e-02 -1.78062305e-01 -1.43390179e-01
  -3.91530186e-01  4.77508008e-02  2.26622134e-01  3.39086264e-01
   2.70061612e-01 -1.31122634e-01  7.79778361e-02  6.70019388e-02
   3.22734088e-01 -4.04990055e-02  1.83740154e-01 -1.53099000e-02
  -2.57294595e-01 -5.02434187e-02 -1.54134789e-02  5.20035028e-02
   1.54435281e-02  1.81340296e-02  1.88754767e-01 -7.37614408e-02
  -6.91859946e-02 -4.27317061e-03  8.47709626e-02  6.56827614e-02
   1.62682310e-01 -2.52308380e-02  1.84449866e-01 -1.32048875e-01
   9.21273883e-03  6.25022724e-02  3.57479572e-01  1.98086306e-01]
 [ 2.53138095e-02  2.20038574e-02  6.06209189e-02  1.39387786e-01
   4.18996327e-02  1.10094309e-01 -6.92203864e-02  5.27562164e-02
   2.38516126e-02  7.42283389e-02 -1.21406667e-01 -1.76088333e-01
  -3.49380106e-01 -1.13049701e-01  9.73266491e-04  1.36783823e-01
   2.28776243e-02 -1.51124626e-01  1.02514543e-01  1.65550724e-01
   1.66361466e-01 -1.77170917e-01  1.87798023e-01  1.36089876e-01
   9.41626653e-02 -8.67616013e-02  1.17393687e-01  1.68945044e-01
  -1.54059500e-01 -1.02027103e-01  1.14933185e-01 -2.54314721e-01
  -1.76410288e-01  2.51208115e-02 -7.79380873e-02  1.48754686e-01
   8.12163502e-02 -4.35354970e-02 -1.90777466e-01  9.65077151e-03
  -1.76588446e-01  1.01680942e-01  6.50396198e-03 -1.62269190e-01
  -4.49753925e-02 -3.21127884e-02 -1.16715021e-01  1.88754812e-01
   2.31215775e-01  2.66618934e-02  9.28977653e-02  7.11941049e-02
  -2.21805066e-01 -3.36678624e-01 -1.31644383e-02  2.07733616e-01
  -3.10528159e-01  6.92520738e-02  5.82979880e-02  8.53529349e-02
  -2.71483451e-01  1.98944703e-01  2.50502259e-01 -1.07952394e-01
   1.93149373e-01  1.48112491e-01  7.98619837e-02  2.32647955e-01
   3.27710927e-01 -5.41241355e-02 -2.90905535e-01 -1.58717092e-02
  -1.43326968e-01 -8.30373093e-02  7.06274360e-02  1.72730878e-01
  -6.12658039e-02  2.60841437e-02 -1.33686960e-01  2.90371142e-02
   9.63482335e-02  5.73387090e-03 -6.84923232e-02 -2.80974567e-01
  -2.20910624e-01  4.67229337e-02 -5.52765280e-02  7.63879567e-02
  -2.03184579e-02  1.53111191e-02 -2.36865252e-01 -1.45924017e-01
   1.88905478e-01 -1.15145259e-02  1.43117726e-01  3.00387833e-02
  -1.35769278e-01  8.25855285e-02  4.65976447e-02  1.10602900e-01
   1.31191880e-01 -8.66656229e-02 -2.26120085e-01 -1.21586256e-01
  -9.92561355e-02  4.76018712e-02 -8.60659927e-02 -6.46959841e-02
   2.38340601e-01  2.94662099e-02  2.95660496e-01 -1.21669732e-01
  -2.79529214e-01  1.75511956e-01 -9.76387784e-02  4.83863428e-02
  -5.20340465e-02 -1.33557826e-01 -2.08299220e-01 -4.71789949e-02]
 [-2.79992938e-01  7.37482160e-02  1.40692011e-01  1.74358860e-01
  -1.77076682e-01  4.91573885e-02  4.41879220e-02  1.88452631e-01
  -1.18156886e-02 -2.00847387e-01 -5.53396270e-02 -3.67758572e-02
  -5.45080081e-02 -2.21445024e-01 -5.64686470e-02  3.10720205e-02
   1.58974886e-01 -2.00686026e-02  2.81512849e-02  4.92468268e-01
  -4.60461192e-02  5.42923175e-02  2.86256701e-01 -1.15582176e-01
  -4.23966758e-02 -1.84155077e-01 -7.35775605e-02  1.71913713e-01
  -3.21210138e-02 -2.52316557e-02 -4.81959479e-03 -3.90485153e-02
   7.63954818e-02 -1.09651342e-01  2.30259284e-01  7.67119750e-02
  -9.30276662e-02 -9.81612951e-02 -2.49783337e-01  2.07502753e-01
  -1.00608535e-01 -1.78043079e-02  1.75624520e-01 -3.21076140e-02
   9.19037219e-03 -6.06459193e-02  8.73865560e-02 -1.19608650e-02
   2.52979040e-01  5.51187359e-02 -6.02766760e-02  1.86808527e-01
   1.85853437e-01 -1.49395674e-01 -2.63589621e-01 -1.18242152e-01
  -3.17974806e-01  9.69210863e-02  3.57198343e-02 -2.40029246e-02
  -1.17126226e-01  1.05124041e-01 -3.84791149e-03  5.30868173e-02
   2.99275126e-02 -1.48984659e-02  8.67318138e-02  2.42269374e-02
   2.00462401e-01 -1.04352022e-02 -9.24473181e-02  2.00267732e-02
   5.30867018e-02 -6.89733326e-02  8.61607268e-02  1.81708992e-01
  -6.85274228e-02 -5.79768047e-02  7.85628334e-02  1.63989872e-01
   9.09837857e-02 -4.99281511e-02  1.55673698e-02 -3.71322408e-02
  -1.11686923e-01  9.92418602e-02  1.10393748e-01  2.58994728e-01
  -2.01230198e-01  1.00715011e-01 -2.60302946e-02  2.14588076e-01
  -5.71765117e-02 -2.35829279e-02  2.17643768e-01  1.29592776e-01
  -1.28608093e-01 -7.08655342e-02 -5.45576252e-02  1.02393910e-01
   3.38982008e-02 -9.35050938e-03  4.37670276e-02 -9.97335762e-02
  -3.78703997e-02  2.05541134e-01  4.43872325e-02 -1.16186850e-01
   2.01561227e-01  2.00523287e-01  9.25158709e-02  2.11579517e-01
   8.19189399e-02  5.00049107e-02 -7.48993158e-02  1.65432885e-01
   1.32501796e-01 -5.65803051e-02  3.11832540e-02  1.38371706e-01]
 [ 1.87105477e-01  1.34053007e-01 -5.56351423e-01  1.44622788e-01
  -2.00085506e-01 -1.55443907e-01  3.72797668e-01 -3.96139435e-02
   4.83295508e-02 -4.45531875e-01  3.54407430e-02  2.68969297e-01
   8.66140872e-02  1.91727474e-01  1.72874227e-01 -9.32277925e-03
  -1.62227228e-01  2.76623011e-01  3.34935963e-01  6.08826518e-01
   1.78117171e-01 -1.93146974e-01  5.71695447e-01 -2.13483050e-01
  -2.70380266e-02 -2.64297634e-01 -2.16760356e-02  1.31969824e-01
   1.31258443e-01  1.80495024e-01 -1.55736282e-01  3.41669738e-01
   1.92974836e-01  2.90428966e-01  1.06183559e-01 -7.60463625e-02
   2.26884112e-01 -1.75731946e-02 -3.00181895e-01  6.91229105e-02
  -6.60278574e-02 -3.17466348e-01  5.34107804e-01  1.01385556e-01
   8.82138461e-02 -6.98606391e-03  1.59694716e-01  8.70086402e-02
   9.25446972e-02 -1.57720044e-01 -3.89000215e-02 -2.44287714e-01
   1.65700480e-01  7.09625483e-01 -3.06688249e-01 -5.28434336e-01
  -2.43725572e-02 -3.97034809e-02 -1.18673511e-01 -6.54310361e-02
   8.73338878e-02 -1.84614226e-01 -3.50816637e-01  1.98833317e-01
  -2.17035577e-01 -4.10025984e-01 -3.20906281e-01 -2.73650050e-01
  -3.56664777e-01 -2.84911126e-01  3.02984238e-01  2.26385482e-02
   4.14267689e-01 -1.30958185e-01 -6.22510649e-02 -8.85078162e-02
   2.29882579e-02  1.07528217e-01 -1.73358060e-02 -2.75541842e-01
  -1.31169781e-01 -9.23568010e-02 -5.13089402e-03  2.37386167e-01
   5.05810857e-01 -1.71142071e-03 -2.55365998e-01 -9.11850389e-03
  -5.17975390e-01  4.15974371e-02  5.08807182e-01  3.32166642e-01
   3.15881848e-01 -1.20571129e-01  1.87117726e-01  1.33107379e-01
   5.68092883e-01 -7.78093338e-02  4.09614474e-01  5.79665527e-02
  -2.47022599e-01  3.70241441e-02  9.82022379e-03 -1.04871519e-01
   1.60780326e-01  1.42003626e-01  1.28636077e-01 -1.25215515e-01
   1.52054012e-01  6.04555495e-02  2.25170776e-01  1.45951986e-01
   2.91947406e-02 -2.74754260e-02  1.94331780e-01 -1.16864555e-01
   1.45540088e-01  8.18532780e-02  5.14171720e-01  2.24888310e-01]
 [-3.49721424e-02  1.05781490e-02 -1.56371415e-01  1.49444342e-01
  -7.94769730e-03 -1.92000926e-01 -1.91418864e-02 -8.81194919e-02
  -5.61229736e-02  4.79905643e-02 -9.63728726e-02  1.78854000e-02
   3.22627842e-01 -1.26885939e-02  1.06162034e-01 -8.18549469e-02
  -4.02679108e-02  4.84004095e-02 -1.72371075e-01  7.67072514e-02
  -6.26240373e-02 -2.72990048e-01  1.30189985e-01 -8.00764635e-02
  -1.63475111e-01 -1.34081662e-01 -4.73758690e-02  1.03748562e-02
   2.70367086e-01  1.33065209e-01  1.85599215e-02 -8.76796916e-02
  -7.95404688e-02 -4.19562981e-02 -1.46633029e-01 -2.48037465e-02
   1.43676639e-01  7.15182871e-02 -1.80106521e-01 -6.26939014e-02
   1.08173683e-01 -8.43843445e-02  1.43291146e-01 -2.17724904e-01
   2.66200975e-02 -3.92402038e-02 -1.67731673e-01 -5.91528453e-02
  -1.71544105e-01  1.30881563e-01 -1.06855176e-01 -5.53317629e-02
   1.84368506e-01 -5.46695339e-03 -2.39350885e-01 -8.90019611e-02
  -1.68899372e-01 -5.24280779e-02 -4.46471348e-02  1.65582687e-01
   1.34593725e-01  1.60441220e-01 -6.99360855e-03  2.02498585e-02
  -1.38705764e-02  5.53017622e-03  5.07618636e-02 -5.95497936e-02
   1.62766472e-01  1.13735192e-01 -1.42150477e-01  2.77465396e-02
   9.74198151e-03 -9.85988304e-02 -2.38512933e-01 -2.98971143e-02
  -1.41206652e-01  4.20410298e-02  2.60265946e-01 -1.13116212e-01
   6.58021867e-02  1.94036111e-01 -1.04506619e-01  1.23863295e-01
   4.04997580e-02  1.04003482e-01 -1.73215702e-01  1.54202804e-01
  -1.40547361e-02 -7.19514675e-03 -3.15360464e-02 -2.86921728e-02
   1.80893391e-01 -5.35845421e-02 -3.15348916e-02  3.59426532e-03
   3.14018220e-01 -2.00417027e-01  1.43107995e-01 -3.40259105e-01
   5.76313771e-02  1.62434042e-01  1.15860872e-01 -1.34311365e-02
  -2.83401515e-02  7.61871785e-02  6.78082332e-02  1.29088119e-04
   9.08723101e-02 -8.33545402e-02 -1.54167861e-01  1.28656983e-01
  -2.55185575e-03 -5.98702841e-02  1.41311243e-01 -4.91618514e-02
  -1.38518125e-01 -6.53053168e-03  3.20790261e-02  6.33807182e-02]
 [-1.84181221e-02  4.75540049e-02 -3.12955052e-01  7.67609328e-02
   6.77728429e-02  4.98877913e-02  2.18220204e-01  1.53384984e-01
   1.49314418e-01 -1.15080409e-01  5.74942604e-02  8.55122209e-02
   1.39867738e-01 -1.75082102e-01  1.12765089e-01 -9.48838191e-04
  -2.15857685e-01  1.13835625e-01  7.21457973e-02  6.49803758e-01
   2.45193467e-02  1.76562488e-01  4.54543650e-01 -1.29054219e-01
  -4.70479652e-02  7.35098720e-02  1.60391152e-01  6.94221705e-02
   8.32982063e-02 -2.92523652e-02 -1.47025615e-01  1.83999911e-01
   1.30563468e-01 -8.82566348e-02  1.26137659e-02 -1.57927975e-01
   1.52558297e-01 -1.46199949e-02 -2.44087011e-01  3.30969483e-01
  -2.46167347e-01 -1.26527041e-01  2.31435284e-01  2.69315559e-02
  -7.30764344e-02  1.83484614e-01  2.02520579e-01  3.53858948e-01
   9.83739346e-02 -2.05554932e-01  7.43314698e-02 -2.40756631e-01
   1.55493543e-01  2.30242193e-01 -2.20620349e-01 -3.18148583e-01
  -7.85484836e-02  1.14266336e-01 -1.37827843e-01 -1.57744125e-01
   1.52477752e-02 -1.34149962e-03 -1.17786884e-01 -9.57986247e-03
  -1.00159824e-01 -4.44837101e-02 -7.74718821e-02 -1.21578991e-01
  -1.97142482e-01 -9.74629149e-02  1.60951406e-01 -2.39265263e-01
   2.68307567e-01 -2.01176498e-02  3.34294029e-02 -1.22476399e-01
   2.06857949e-01  1.60808593e-01 -1.89965129e-01 -2.65162140e-01
  -8.39151219e-02  1.53254736e-02  1.27796963e-01 -6.49804994e-02
   2.74491668e-01  1.17722809e-01 -2.74148017e-01 -6.47832081e-02
  -1.21217832e-01  1.32690445e-01  4.30660434e-02  3.71427089e-02
   1.30684927e-01 -2.92454004e-01  3.13273847e-01  2.54798532e-01
   1.59197465e-01  9.04301479e-02  1.50990352e-01  2.16360781e-02
  -1.32788718e-02 -8.37909952e-02  1.10998331e-03 -1.17303863e-01
   2.65493512e-01  2.06283674e-01  6.63711205e-02 -8.94081220e-02
   1.29199222e-01  3.14270645e-01  1.27554566e-01 -1.82846680e-01
  -1.29224613e-01  2.22277358e-01 -1.46730676e-01 -8.15956504e-04
   9.27681625e-02 -5.74201532e-02  1.23134375e-01 -5.36227599e-04]
 [-2.37332866e-01  1.74996912e-01  4.13768053e-01  1.24549091e-01
   1.10922866e-01  1.62531450e-01 -6.45333603e-02  8.31880271e-02
  -5.65727130e-02  1.46243364e-01 -1.29373059e-01 -1.47112310e-01
  -3.39313000e-01 -1.71634525e-01  1.04457252e-01 -1.59356967e-01
   1.39111370e-01 -3.05450231e-01  1.36978403e-01  7.97766224e-02
  -9.97660235e-02 -6.81665391e-02  1.39038682e-01  1.43472105e-01
   1.05322801e-01  2.56557800e-02  2.25873694e-01 -5.85420281e-02
  -3.36453803e-02 -1.25152785e-02  1.54044777e-01 -3.70956033e-01
  -1.56630769e-01 -3.68016697e-02 -9.60135311e-02  1.69390947e-01
  -1.64009556e-01 -1.17290281e-01 -9.07270908e-02  1.64494157e-01
  -1.30166428e-03  9.95032936e-02 -6.25582337e-02 -1.40152872e-01
  -3.72672826e-02  5.52540161e-02 -1.27648503e-01  1.00922666e-01
   2.32101977e-01 -2.97009200e-02  1.92106009e-01  1.13396659e-01
  -9.59230810e-02 -3.86370182e-01 -3.39182317e-02  1.45152330e-01
  -2.10107073e-01  1.19075678e-01 -9.37622264e-02 -3.53770182e-02
  -3.30841154e-01  2.89976895e-01  1.40522003e-01 -1.67039722e-01
   1.90702900e-01  3.12489569e-01  1.03573918e-01  3.03189039e-01
   2.95017064e-01  4.62477356e-02 -2.97179312e-01 -7.07699358e-02
  -6.71379119e-02  1.19433058e-02  2.03088269e-01  2.07228228e-01
   5.02596349e-02 -2.02323928e-01 -1.17257223e-01  1.13063075e-01
   1.18972205e-01  1.18167460e-01 -1.97989255e-01 -2.51807064e-01
  -3.55590075e-01  1.25046849e-01  6.72853068e-02  1.79305851e-01
   1.94186009e-02 -9.40184295e-02 -2.07392916e-01 -1.81779504e-01
  -1.67372733e-01  9.26019773e-02  1.34529516e-01  2.50610650e-01
  -4.40459967e-01  5.16964830e-02 -2.56257564e-01  1.17919885e-01
  -3.05541568e-02 -8.15746561e-02 -1.13676945e-02 -2.70599555e-02
  -4.70606387e-02  2.42297724e-01 -2.50736829e-02 -2.39297062e-01
   1.62953362e-01  1.73751846e-01  5.37491664e-02 -1.41785532e-01
  -1.88074201e-01 -4.65747481e-03 -1.77374482e-01  1.73098415e-01
   3.21781747e-02 -1.39483050e-01 -2.42042199e-01 -1.77730739e-01]
 [ 1.36906439e-02 -4.62752283e-02  8.91997591e-02 -3.42390053e-02
  -3.97182822e-01  1.23796664e-01  1.25871003e-02  9.06243846e-02
  -1.28470421e-01  1.21523619e-01 -3.75516340e-02 -7.42858797e-02
  -1.88325018e-01  3.27723384e-01 -3.08207814e-02  3.50485556e-02
   1.76875919e-01  1.08048134e-01  3.87899317e-02  2.34105572e-01
   1.71802297e-01 -3.70292775e-02  1.04427449e-01  7.29785860e-02
  -1.53702140e-01 -3.80748004e-01  1.74866498e-01  2.39948690e-01
  -1.88636184e-01 -1.27832204e-01  2.27802336e-01 -2.76798941e-02
  -1.73720807e-01 -2.07434386e-01  1.23115562e-01  3.37231427e-01
   8.27190280e-02 -3.81701738e-01 -3.03409219e-01 -2.32615285e-02
  -5.32032223e-04 -4.15886864e-02  4.92084146e-01 -2.02172458e-01
  -3.24422479e-01 -3.09222817e-01 -3.41749370e-01  6.85669109e-02
  -1.98275112e-02  1.52431242e-02 -3.70867789e-01  2.45739624e-01
   5.33082262e-02 -6.20669127e-02  1.27875477e-01  2.27524057e-01
  -1.32110000e-01  2.26124063e-01 -1.05310835e-01  2.96404332e-01
  -1.02672122e-01  1.34252980e-01  1.01316437e-01  1.07886866e-02
   3.37403089e-01  7.74055868e-02  1.58970848e-01  4.59112637e-02
  -7.43860230e-02 -1.96518734e-01 -3.75668198e-01  2.71853477e-01
  -1.28603846e-01 -2.99144596e-01 -2.25059345e-01  9.40228701e-02
  -2.59510845e-01 -1.12818152e-01 -7.45433122e-02  1.09922476e-01
   1.80813864e-01 -2.37389818e-01 -3.87774333e-02  3.04715693e-01
  -9.82022882e-02  1.30684510e-01  1.10051297e-01  1.90688938e-01
   4.48050685e-02 -1.11947462e-01 -1.41920641e-01  9.65043679e-02
   4.59591717e-01 -3.53275418e-01  1.64112344e-01 -2.11698800e-01
   2.88513452e-01 -3.51849258e-01  4.14286494e-01  3.62901576e-02
  -8.16767365e-02 -1.50294498e-01 -4.37700637e-02  1.46380559e-01
   1.18326031e-01  1.58272490e-01  1.88239589e-01  1.88896045e-01
   3.74699458e-02 -1.76708698e-01  3.08976412e-01  1.24178670e-01
   7.09275156e-02 -1.81755736e-01 -7.76645243e-02  2.12195143e-01
  -2.95475155e-01 -2.28325814e-01 -8.28785300e-02 -1.55320372e-02]
 [-3.65167260e-01 -1.98218554e-01  3.65711421e-01 -1.00349085e-02
   1.78797394e-01  1.22927710e-01 -1.03850015e-01  4.89638187e-02
   1.29671246e-01 -3.87936062e-03  2.37636850e-05 -2.25450739e-01
   1.22711629e-01 -2.28507981e-01 -3.30074131e-03 -1.34810850e-01
   1.25398347e-02 -2.03338172e-02 -1.66813374e-01 -3.51824045e-01
  -1.11121140e-01  1.58022806e-01 -1.15329579e-01 -2.24685092e-02
  -1.13423310e-01  1.60240769e-01 -4.44909371e-02 -1.54729798e-01
  -2.22374842e-01 -1.24090888e-01 -4.34893323e-03 -2.45246336e-01
  -1.96549684e-01 -1.83463112e-01  4.92621474e-02 -8.76482576e-02
  -2.89238513e-01  7.55406395e-02  1.25195459e-01  3.17394249e-02
  -5.86486831e-02  1.98803738e-01 -4.71831024e-01 -1.31093919e-01
  -3.20269056e-02  2.11598724e-01 -2.53648043e-01  5.58503792e-02
   5.10776881e-04 -5.27235381e-02  3.72906998e-02  1.55285582e-01
   2.58064386e-03 -3.39589745e-01  8.28713179e-02  9.85113904e-02
  -1.83879621e-02 -1.00014927e-02 -2.97114104e-02 -9.48204920e-02
   4.70789783e-02  9.40768421e-02  1.38678655e-01 -1.41330391e-01
  -2.12710693e-01 -9.07382593e-02  7.43620694e-02  1.31941140e-01
   1.82839781e-01  2.97560036e-01 -1.69079825e-01 -1.75897554e-01
  -3.35782431e-02  1.70963928e-01 -6.29659593e-02 -1.67937964e-01
  -8.42207149e-02 -2.83303916e-01 -1.83957051e-02  2.11090907e-01
   3.29525769e-01  8.39442462e-02 -3.19721967e-01 -1.95879757e-01
  -5.23639202e-01 -4.93520908e-02 -1.53809292e-02  1.11125121e-02
   2.33466268e-01 -1.34195328e-01 -2.15034172e-01 -1.63698792e-01
  -3.84928286e-01  1.99966535e-01 -1.92723367e-02  8.10857341e-02
  -4.33466345e-01  1.26611069e-01 -3.94073933e-01 -1.15847148e-01
   2.05448434e-01 -4.16717604e-02 -8.58144015e-02  2.01311439e-01
  -7.78870210e-02  1.01893976e-01 -4.28883769e-02  1.03935614e-01
   4.39659285e-04 -2.72833794e-01 -2.44074702e-01 -1.30696833e-01
  -5.89361414e-02 -4.40604165e-02 -2.16841385e-01  8.61859024e-02
  -1.10629775e-01  4.92633544e-02 -3.36498559e-01 -2.49072537e-01]
 [-2.28876531e-01  3.74102682e-01  6.22784317e-01  1.94073588e-01
  -6.74335137e-02  4.26730029e-02 -1.71095535e-01  4.57228683e-02
  -1.78454146e-02  3.71894091e-01  1.12488076e-01 -2.10016012e-01
  -6.18023396e-01 -1.33763179e-01  8.44257697e-02 -3.00038099e-01
   6.31587505e-01 -2.78229892e-01  1.96265534e-01  1.80372834e-01
  -1.99864477e-01 -2.61049837e-01  1.65134016e-02  3.27157468e-01
   2.61877358e-01 -2.23268107e-01  1.62008032e-01  3.50715220e-01
  -2.76569247e-01 -3.44047517e-01  4.51369524e-01 -3.58631551e-01
  -2.05701813e-01 -4.15801167e-01  1.70503020e-01  2.31516257e-01
  -5.33271991e-02 -3.63215268e-01 -1.34841695e-01  2.74596903e-02
  -1.38826847e-01  4.39529985e-01  1.31825581e-01 -6.10161841e-01
  -8.03471729e-02 -2.28334352e-01 -3.46051961e-01  1.83175564e-01
   4.05802548e-01  4.11989123e-01 -1.85790420e-01  4.94806200e-01
  -2.58092880e-01 -3.42824936e-01 -2.01984659e-01  3.64597917e-01
   8.57973397e-02  1.50649950e-01 -8.59383047e-02  5.42768165e-02
  -3.28498453e-01  1.13938041e-01  2.19728291e-01 -4.58807573e-02
   4.28322941e-01  3.64696532e-01  1.90642029e-01  2.82676637e-01
   3.03603590e-01 -1.82834834e-01 -5.78852952e-01  5.97059093e-02
  -3.36745791e-02  8.11019018e-02 -1.09093361e-01  2.73741752e-01
  -3.67644489e-01 -1.38639748e-01 -1.08711988e-01  3.20394844e-01
   4.53921705e-01 -9.65569764e-02 -1.03267193e-01 -9.06131715e-02
  -2.07925126e-01  4.28003103e-01  4.97429669e-01  3.29756677e-01
   3.15924019e-01 -1.92661896e-01 -2.90405005e-01 -1.88659146e-01
  -1.85278580e-01  4.75197518e-03 -1.01145685e-01 -3.00630391e-01
  -1.78553194e-01 -2.01586843e-01 -1.36335358e-01  4.31559980e-03
  -1.39112905e-01 -2.32277647e-01 -7.34839141e-02  1.25001103e-01
  -1.70991525e-01  3.32798392e-01 -2.26540357e-01 -1.03548251e-01
   2.47563362e-01  1.00102909e-01  4.63144422e-01 -1.75342098e-01
   1.39907256e-01 -1.95796475e-01 -2.65142441e-01  3.44834387e-01
  -2.75658548e-01 -8.21364224e-02 -2.06407487e-01 -7.38446265e-02]
 [ 1.62706003e-01  1.64675772e-01  2.17942800e-02 -1.08633950e-01
  -1.21391065e-01 -4.36707400e-02  2.15227187e-01  9.83016789e-02
  -2.27964953e-01  1.22662075e-01 -7.52568096e-02 -6.13062605e-02
   8.22750926e-02  1.04043158e-02 -1.33685738e-01 -9.76736769e-02
   3.17861587e-01  1.54613793e-01 -1.73820645e-01  1.54820740e-01
  -2.37297460e-01 -2.37497017e-01 -6.87195584e-02  1.24298476e-01
  -5.09290509e-02 -4.12886113e-01  7.83016086e-02  1.50866032e-01
  -5.74102364e-02  5.39892204e-02  4.10579480e-02 -9.19891894e-02
  -1.49448484e-01  6.24648109e-03  7.03087375e-02  1.54573545e-01
   6.62965626e-02 -2.31269687e-01 -3.49686220e-02 -8.82850736e-02
  -2.29206961e-02  7.12547600e-02  4.20629561e-01 -1.91608921e-01
  -2.14916751e-01 -3.57284367e-01 -2.90802479e-01  4.23264392e-02
  -1.48291007e-01  6.94153160e-02 -3.65951806e-01  4.80552576e-02
   1.41824577e-02  1.89045101e-01  4.18167412e-02  7.44033754e-02
   1.04416266e-01  9.87682715e-02  3.28659415e-02  3.30901623e-01
  -1.55938983e-01  1.73042417e-01  8.32591131e-02 -6.79327026e-02
   1.30446002e-01  6.22980408e-02  5.48630133e-02  2.18359195e-02
  -8.27363059e-02 -8.66666064e-02 -1.85569242e-01  2.34829843e-01
  -1.22682080e-02  6.02859631e-02 -2.08696976e-01  9.07560810e-02
  -1.61584556e-01  3.30864117e-02 -7.41715655e-02  6.14136234e-02
  -1.38954278e-02 -7.04402626e-02  2.21533477e-02  2.08618209e-01
  -2.06207316e-02  3.50159436e-01  1.20460749e-01 -1.42088681e-02
   8.87123197e-02 -9.23845619e-02 -1.16517186e-01 -1.42161146e-01
   2.99153090e-01 -2.67512381e-01 -1.02123566e-01 -5.24067461e-01
   1.46651551e-01 -3.20361286e-01  4.51608181e-01  1.40836742e-02
  -1.75699830e-01 -1.10929787e-01  7.17820078e-02  2.48657212e-01
  -3.38118337e-02  1.79548602e-04 -5.38973063e-02  2.58304685e-01
  -1.33341119e-01 -9.02952105e-02  3.01908642e-01  2.11895700e-03
   3.71643603e-01 -4.25908804e-01  1.82332713e-02  7.06753805e-02
  -2.22906485e-01  6.36599213e-02 -3.14996392e-02  4.89309505e-02]
 [-2.85969615e-01 -1.54230729e-01  4.82975133e-02  2.03884900e-01
  -3.78336920e-03 -2.82455951e-01  1.31774187e-01 -1.68702707e-01
   1.96622927e-02 -2.09540844e-01  4.06563282e-02 -5.50171882e-02
   1.16556704e-01  1.62585992e-02  1.54845968e-01  5.80101879e-03
   1.11691989e-01  1.84180215e-01 -2.19806761e-01  2.72681624e-01
  -9.19821188e-02 -2.56556243e-01  8.64915699e-02  6.18517734e-02
  -7.04620779e-02 -3.55084956e-01 -1.87499806e-01  1.17712598e-02
   1.01621211e-01  1.69820294e-01  1.46604916e-02 -2.59267539e-01
   1.34580910e-01  1.32340193e-01  9.59211439e-02 -1.28910571e-01
   2.81735174e-02 -1.48017928e-01  2.41489038e-02 -6.03888277e-03
   2.15270504e-01 -2.54133463e-01  5.24455458e-02 -3.73159528e-01
   7.84101635e-02 -7.67508969e-02 -1.74947560e-01 -3.87471840e-02
  -3.55198607e-02  2.56363273e-01 -2.20936790e-01  2.22475335e-01
  -1.77820530e-02 -1.15593649e-01 -2.06393808e-01 -1.78392157e-01
  -2.38842256e-02 -1.26150757e-01  9.64674354e-02  9.25222710e-02
  -5.36025390e-02  1.41797647e-01 -9.18096378e-02  1.44078031e-01
  -9.49943587e-02 -2.41057247e-01 -5.84349297e-02  8.14696178e-02
   1.94654718e-01  2.91856289e-01 -1.28821760e-01  2.04706028e-01
   4.01743725e-02  3.18238623e-02 -4.66982313e-02 -8.44407007e-02
  -1.30135983e-01 -5.85024692e-02  2.17149004e-01  1.74681604e-01
   2.12473527e-01  9.39623937e-02 -1.00613512e-01  3.57397199e-01
  -3.42754900e-01  1.24041855e-01 -2.06911005e-02  1.97546065e-01
  -2.30433702e-01 -1.40389577e-01 -7.70381093e-02 -1.03744939e-01
   2.92701393e-01 -5.12238480e-02  1.32916600e-01  1.29761577e-01
   1.52281493e-01 -8.44288915e-02  1.04206853e-01 -2.07101077e-01
  -7.66699612e-02  1.32149830e-01 -5.19161001e-02  2.52953082e-01
  -1.16578385e-01  1.62352726e-01  1.28727295e-02  4.57799844e-02
  -5.55395037e-02 -4.70958650e-02 -3.26116271e-02  1.60657316e-01
   3.45439970e-01 -2.84442127e-01  9.06214193e-02  2.23744109e-01
  -6.70934990e-02  6.00281321e-02 -1.77431896e-01 -3.31876501e-02]
 [ 1.12350620e-01  2.69734055e-01 -2.54124522e-01  1.18351385e-01
   2.26245165e-01  1.18128724e-01  3.64682227e-01  5.47972210e-02
   2.41787657e-01 -2.08877906e-01  2.66261362e-02  1.43584058e-01
   8.57816711e-02 -3.35469395e-02  2.36273214e-01  9.11894962e-02
  -3.54554094e-02 -1.39848264e-02  1.57540515e-01  2.24700168e-01
  -5.10390662e-03 -1.36307925e-01  4.07188952e-01  2.58147791e-02
  -8.47387984e-02 -4.93604243e-02 -1.66201089e-02 -1.58817500e-01
   2.53946036e-01  1.25550359e-01 -2.38793045e-01  1.71951875e-01
   2.07108110e-01  4.83615510e-02 -1.23921462e-04 -2.87322044e-01
   2.21814677e-01  8.08250606e-02 -1.30001441e-01  3.28107588e-02
  -1.65726215e-01 -1.69820845e-01  8.88906643e-02  3.15415896e-02
   6.93107322e-02  5.09494916e-02  2.97269881e-01  1.78275898e-01
  -1.44349560e-01 -2.02763677e-02  1.65005885e-02 -2.36645386e-01
  -4.59670871e-02  3.06913465e-01 -3.62477064e-01 -4.41981375e-01
  -2.09877063e-02 -7.16006267e-04 -3.66790500e-03 -2.57732868e-01
   7.32132047e-02 -2.37455830e-01 -1.33701816e-01  7.77061209e-02
  -2.73166418e-01 -2.05504268e-01 -3.19740735e-02 -2.73373604e-01
  -2.05098867e-01 -2.90550459e-02  4.19157036e-02 -2.17328966e-01
   3.28834832e-01 -5.58159314e-02 -3.52598429e-02 -2.28921026e-01
   9.51087773e-02  8.80864188e-02 -2.60899821e-03 -2.54379302e-01
  -1.93905666e-01 -7.40937367e-02  9.20795649e-02  1.62900314e-01
   4.19450104e-01  8.40515345e-02 -1.33274794e-01 -5.53131960e-02
  -3.57650697e-01  1.61271438e-01  1.76591203e-01  1.47530064e-01
   1.28997773e-01 -5.43179549e-03  1.74608067e-01  1.04047336e-01
   4.37891126e-01  1.54388830e-01  2.33795777e-01  3.67687531e-02
  -2.14579642e-01  9.59740803e-02 -3.77631932e-02 -1.46848083e-01
   1.21305242e-01  1.40649557e-01  7.64598921e-02 -1.91334039e-01
  -3.75602692e-02 -1.39425893e-03 -1.20423228e-01 -4.46584970e-02
   1.55219100e-02 -8.34955741e-03  9.44853127e-02 -3.67696285e-02
   1.56638160e-01 -1.83538170e-04  2.12816820e-01  1.42680779e-01]
 [ 1.53255478e-01  4.58355755e-01  4.59080236e-03  3.36053967e-01
   1.08256526e-01  2.18467444e-01  2.50307798e-01  1.51618049e-01
   2.34053195e-01 -1.13584157e-02 -7.13670924e-02 -7.65459239e-02
   7.55055249e-02 -4.94047999e-02  2.03062728e-01  7.59770274e-02
   3.43520306e-02 -2.18579441e-01  2.64209867e-01  4.40148830e-01
  -5.44359460e-02 -7.34203011e-02  3.73909295e-01  1.77001785e-02
   4.17686217e-02  8.10207278e-02  3.64872038e-01 -1.49865568e-01
   2.84015179e-01 -6.44550174e-02 -2.07053766e-01  1.70486629e-01
   1.21271424e-02  3.22054923e-02 -2.08602488e-01  4.80925888e-02
   2.89458752e-01  1.13412328e-01  3.76603194e-02  2.02158153e-01
  -3.23030919e-01  9.32028666e-02  1.64602399e-01  1.84088260e-01
   1.41647249e-01  1.29334241e-01  2.19090194e-01  2.33755499e-01
   1.83397144e-01 -9.26273242e-02 -1.41156875e-02 -1.96169958e-01
  -1.84551924e-02  3.02988946e-01 -4.50533837e-01 -1.03528216e-01
  -8.28043744e-02  2.02557117e-01 -1.32631566e-02 -2.08628997e-01
  -3.53101268e-02  9.77945253e-02 -4.69016656e-02 -1.68613810e-02
  -2.29638100e-01  1.95489213e-01  3.29005606e-02 -3.73589694e-02
  -7.93368928e-03 -1.49432212e-01  1.04669325e-01 -2.62278467e-01
   1.99895829e-01  1.69065997e-01  1.52750552e-01 -8.30528513e-02
   9.61270109e-02  8.83905515e-02 -1.65617391e-01 -2.11940408e-01
  -1.57461241e-01  1.24719990e-02  1.25773162e-01  2.74693454e-03
   4.16481912e-01  2.17449710e-01 -4.40448448e-02 -2.20821705e-02
  -1.14424653e-01  1.18903533e-01  1.32538155e-01  8.42428356e-02
  -1.65914789e-01 -3.72189581e-02  6.81801289e-02  2.35045820e-01
   2.22234368e-01  2.72305936e-01 -1.07144322e-02  2.13086888e-01
  -1.41943231e-01 -1.92485273e-01  6.98006675e-02 -2.13575155e-01
   1.41228020e-01  9.44895521e-02 -2.84145288e-02 -4.32428479e-01
   2.15195026e-02  1.81649670e-01  9.39065218e-02 -3.51371974e-01
  -9.12766084e-02  1.18872993e-01 -5.41360080e-02 -1.71168283e-01
   2.51749426e-01 -1.36934385e-01  7.93964118e-02  4.48092371e-02]
 [-7.62831792e-02  2.07738101e-01 -1.45438194e-01  2.34301448e-01
   1.01747736e-01  6.93615600e-02  1.82800651e-01 -2.88301817e-04
   1.65393710e-01 -4.08643819e-02  1.89882159e-01  1.79396123e-02
  -7.19622374e-02 -2.48312026e-01 -2.30042189e-02  1.14699580e-01
  -7.38722011e-02 -8.86562914e-02  6.64453655e-02  2.41226301e-01
   1.16466545e-01 -1.10973835e-01  2.05082983e-01 -2.09165774e-02
  -1.39846038e-02  1.60515025e-01  2.42169313e-02 -5.13527915e-02
   3.91425146e-03  1.65856065e-04 -9.83288288e-02  1.83528155e-01
   9.96080041e-02 -1.28698960e-01 -4.58068103e-02  2.07953770e-02
   2.46127211e-02  7.56375417e-02  9.31486953e-03  8.20208862e-02
   7.25827590e-02 -1.77999750e-01 -1.04057454e-02  1.88515291e-01
   3.17897126e-02  1.23679653e-01  2.58068264e-01  1.13546871e-01
  -4.41819541e-02 -5.35300300e-02  2.02076495e-01 -1.16287425e-01
  -1.47479728e-01  2.98267137e-02 -2.38217950e-01 -2.19562873e-01
  -1.34907812e-01  8.71187523e-02  6.74341843e-02 -8.38406533e-02
   3.09184380e-02 -1.72026291e-01 -3.50524522e-02 -3.70008200e-02
   2.20598634e-02 -8.43683779e-02 -7.14560151e-02 -2.86396563e-01
  -1.47811517e-01  3.01485062e-02 -3.73569876e-02 -1.71011969e-01
   9.43220258e-02  7.48550147e-02  2.17368737e-01  2.74850801e-02
   1.14518031e-01  9.55973864e-02  4.12132069e-02 -1.28924057e-01
  -1.28698915e-01 -4.01231125e-02  4.66502123e-02 -2.54453748e-01
   2.14353576e-01 -2.68128738e-02 -2.06458308e-02 -2.73115411e-02
  -1.56481877e-01  2.15059042e-01  4.23102938e-02  1.61567688e-01
  -1.21954404e-01 -3.38086151e-02  4.52128425e-03  1.18815951e-01
   2.44882684e-02  7.51327202e-02 -2.25285113e-01 -4.91580702e-02
  -4.22778763e-02 -1.21927001e-01 -4.24425863e-02 -2.62385696e-01
  -1.90271586e-02 -2.54892446e-02  1.15458719e-01 -1.88419849e-01
   1.07133523e-01  1.59373611e-01 -5.09556085e-02  7.12202564e-02
   2.41184700e-02  1.08412430e-01 -6.79964125e-02  3.64568457e-02
   1.05484046e-01 -6.94240853e-02  7.03616962e-02  7.95837715e-02]
 [-1.60757646e-01 -1.23811148e-01  9.80160832e-02 -6.69859350e-02
  -6.98596332e-03  1.07618667e-01 -3.15071717e-02  9.47128534e-02
  -6.22647628e-02  1.28820568e-01 -3.41715082e-03 -1.32276446e-01
   1.01222217e-01  5.90103865e-02  4.22395244e-02 -1.99434593e-01
   2.12688074e-02 -1.09632865e-01  4.23053466e-02 -6.57912120e-02
   3.35485525e-02 -9.48604122e-02 -8.06908086e-02 -1.04439482e-01
  -9.18051004e-02  9.65704024e-02  9.30478647e-02 -1.53065234e-01
   4.50467728e-02 -6.74228892e-02  6.89944178e-02 -1.88553214e-01
  -3.66045125e-02  2.53941882e-02 -3.09310295e-02 -5.50757945e-02
  -8.68022144e-02 -9.44488794e-02  6.55339509e-02  2.84171989e-03
  -9.78175178e-03  3.40338610e-02 -4.13009599e-02 -5.42340577e-02
   6.78009912e-02 -4.48068343e-02 -9.69611332e-02  5.08556329e-02
   4.99621034e-02 -6.99461550e-02  5.67621700e-02  1.52241021e-01
   4.27651629e-02 -9.49759558e-02  1.31511405e-01  1.30462185e-01
   2.51860768e-02  1.02487840e-01 -5.15602194e-02  7.89210126e-02
   2.20838655e-02 -7.81890750e-03  6.32340312e-02  3.17698978e-02
   4.84816544e-02  1.36172287e-02  1.84870914e-01  1.15637980e-01
   8.70875083e-03  1.93482582e-02 -2.71051917e-02  1.77191999e-02
  -1.74258631e-02 -3.46272774e-02 -1.64678507e-02 -7.60417730e-02
  -1.83664009e-01 -1.14439189e-01 -1.79898329e-02 -1.00976281e-01
   2.13593856e-01  1.40332524e-02 -1.01525851e-01 -8.93835127e-02
  -2.51345366e-01  6.17605299e-02 -5.28450757e-02  1.58918537e-02
  -1.60651132e-02 -1.90186307e-01 -5.11906929e-02 -2.04077423e-01
  -6.00729547e-02  6.98588137e-03 -2.23907717e-02 -1.41403884e-01
  -1.50822923e-01 -2.18179133e-02 -3.33473738e-03  4.20801044e-02
  -2.02809628e-02 -1.21811196e-01 -4.11564484e-02  2.62184069e-02
  -8.18893090e-02  1.01160705e-01 -5.56601211e-02 -1.87432300e-03
  -1.23134531e-01 -4.68720607e-02 -1.02709077e-01 -5.47106527e-02
   8.83835554e-02 -4.73010652e-02 -1.98095232e-01  1.54834852e-01
  -1.01925194e-01 -1.10388502e-01 -4.47739027e-02 -1.74569085e-01]
 [-5.16432663e-03  2.88629625e-02 -1.77395418e-01 -1.95083600e-02
   9.32185650e-02 -1.71727136e-01  1.50026962e-01 -5.32564297e-02
   1.72238290e-01 -1.37012601e-01  6.65092394e-02  1.34677023e-01
   1.04487658e-01  4.35109846e-02  9.41912159e-02  3.64609919e-02
  -5.51966652e-02  3.08301952e-03 -2.71306820e-02 -5.12423292e-02
  -4.80968766e-02  6.89940229e-02  2.37260431e-01  1.50478110e-02
  -1.25496551e-01 -9.09908190e-02  1.48090615e-03 -1.05996393e-02
   4.50579152e-02 -1.00988813e-01 -6.66100308e-02  2.12054148e-01
   1.18950661e-02  4.08343337e-02  6.86743930e-02 -1.29134849e-01
   8.00051168e-02  9.74186212e-02 -1.28532514e-01 -1.08964453e-02
  -9.06127840e-02 -7.83886462e-02 -3.79856233e-03  1.71640545e-01
  -9.70903188e-02 -5.95721230e-02  5.98277226e-02 -6.95846528e-02
  -7.27428868e-02 -3.51396240e-02  5.84149919e-02 -5.25423735e-02
   4.86592278e-02  2.02612489e-01 -1.91190876e-02 -1.26589075e-01
   1.37142271e-01 -1.35866269e-01 -8.71099532e-02 -1.97089091e-01
   1.28424466e-01 -1.66145369e-01 -8.49634036e-02  1.74251258e-01
  -7.73715451e-02 -7.81503171e-02 -1.38216972e-01  9.67410672e-03
  -2.06044167e-01  1.25578225e-01  8.70210081e-02  1.51714124e-03
   1.34608671e-01  9.71106160e-03 -5.67845702e-02 -2.97957025e-02
   1.05326548e-01  1.20331019e-01  5.21072857e-02  4.27671075e-02
  -1.50946543e-01 -3.56927700e-02  4.69083190e-02  1.40121564e-01
   2.09043041e-01 -1.06779821e-01 -9.98385102e-02 -9.47949216e-02
  -2.34576806e-01  1.07909121e-01  1.97147116e-01  1.79457948e-01
  -5.02754487e-02 -1.25738099e-01 -6.40721701e-04  1.30513653e-01
   1.19089738e-01  7.88136050e-02 -9.19661298e-02  5.68599440e-02
  -1.55394554e-01 -8.98568332e-02 -3.67403142e-02  1.99800264e-03
   2.67859660e-02  1.19668558e-01 -7.87835270e-02 -1.82700902e-02
  -1.12968065e-01 -1.47992581e-01 -5.09217158e-02  6.36314824e-02
   2.20098987e-01 -7.22390860e-02 -4.46077213e-02 -6.27930984e-02
   1.21579766e-01  2.81138774e-02  1.44991443e-01  3.69573310e-02]
 [-2.88533457e-02  5.92954867e-02  6.88531697e-02  1.47514716e-01
   8.93236548e-02 -2.57455483e-02 -9.20802820e-03  1.96004689e-01
   1.09433830e-01 -7.25322813e-02 -4.16243561e-02 -4.13179621e-02
  -5.96670881e-02 -1.68626040e-01  9.60297044e-03 -1.49912491e-01
   1.17486395e-01 -1.43133894e-01  1.23133995e-01  2.23667145e-01
   1.29824117e-01 -3.79950702e-02  8.76499042e-02  1.27313569e-01
  -7.03616664e-02  1.13439746e-01  1.61256678e-02  3.67934145e-02
   3.09757404e-02 -3.65114845e-02  1.79519922e-01 -1.60728350e-01
  -3.13276350e-02  6.24286793e-02 -2.07818344e-01 -9.38216373e-02
  -5.15711233e-02 -7.06884563e-02  5.73963113e-03  2.03114063e-01
  -1.64645597e-01  1.32270698e-02  4.51663658e-02 -7.57499486e-02
   1.56873122e-01  6.10338384e-03 -3.52537744e-02  1.12297609e-01
   2.59743571e-01  1.25143826e-01 -3.94748189e-02 -1.64029673e-02
  -1.14274569e-01 -4.04851623e-02 -1.66943103e-01  9.27326456e-02
  -1.20926805e-01 -7.01086596e-02  1.05645001e-01 -1.32704452e-02
  -2.24122494e-01  8.31310228e-02  1.09753966e-01 -4.65014502e-02
   7.92782158e-02  1.36647476e-02 -5.91003560e-02  4.73120511e-02
   6.38290718e-02 -1.89981490e-01 -5.64670414e-02 -1.03751123e-01
  -7.97841325e-03  7.16240108e-02  1.08172126e-01  1.54102340e-01
  -8.65315422e-02  3.85468267e-02 -6.01809472e-02 -1.56939644e-02
   1.51022896e-01  6.91927075e-02  2.12357994e-02 -3.12014937e-01
  -4.63632606e-02  1.07029609e-01 -6.30704639e-03  4.81164418e-02
   2.08045337e-02 -1.89506039e-02 -1.35994842e-02 -5.39162681e-02
  -3.04275416e-02  3.52738425e-02  1.33321106e-01  8.46831277e-02
  -2.97472388e-01  5.26272468e-02 -2.08284825e-01  1.69304490e-01
  -7.85799202e-05 -5.40737323e-02 -1.90483741e-02 -2.22952113e-01
  -8.16694424e-02  7.49804005e-02 -1.38811603e-01 -2.57840842e-01
   9.11789536e-02  4.15527262e-02  1.74752235e-01  1.06790271e-02
  -1.61797777e-01 -1.40217263e-02 -1.25023797e-01  1.91826560e-02
  -1.07382804e-01 -9.19687003e-02 -2.61891093e-02  1.76932216e-02]
 [-2.38949493e-01  2.22981870e-01  2.32625350e-01  7.98419341e-02
  -5.06328419e-02  2.98888404e-02  9.06676725e-02 -3.08765899e-02
   1.02679648e-01 -2.15477645e-01  9.94833186e-02 -1.44579541e-02
   6.95628598e-02 -4.55830479e-03 -2.04871781e-02 -5.87042086e-02
  -1.41686238e-02  5.22799306e-02  1.61582351e-01  1.72227085e-01
  -6.62526628e-03 -1.92279592e-01  2.21889064e-01  4.04312871e-02
   1.00192372e-02 -2.46984512e-01  1.13968983e-01 -9.07145143e-02
  -1.30690724e-01 -4.50358018e-02 -8.01753551e-02  6.20628521e-02
   1.71996728e-01 -7.43594542e-02  2.59456635e-01 -1.02107264e-01
  -1.53700903e-01 -1.36698112e-01 -9.47788078e-03  1.27380833e-01
  -4.90085557e-02 -1.27100274e-02 -2.09447672e-03  6.45148158e-02
   1.65976137e-02 -9.49323252e-02  2.33730257e-01 -6.42331168e-02
   5.50561212e-02  2.17955217e-01 -1.02592513e-01  7.68235549e-02
   3.15499566e-02 -7.21816719e-02 -1.91274434e-01 -1.49427308e-02
  -1.42057568e-01  4.03021462e-02  7.99212903e-02 -1.14879221e-01
  -2.51462813e-02  2.47035213e-02 -4.86677922e-02 -1.36825703e-02
  -3.43611091e-02  3.35799493e-02  6.64096773e-02 -2.10328796e-03
  -4.53274436e-02  2.11567134e-01 -8.59392807e-03 -2.94991722e-03
  -4.23933603e-02  2.32444942e-01  1.25694841e-01  1.17825627e-01
   2.92194560e-02  3.99234854e-02  2.87870765e-02  1.73081085e-01
  -1.94144230e-02  3.84422503e-02  1.50095262e-02 -1.41488407e-02
  -1.61994234e-01  3.76744121e-02  5.19462973e-02  5.04093654e-02
  -2.69732118e-01  1.19472496e-01  8.11719820e-02  1.87009245e-01
  -1.51124537e-01  1.75318167e-01 -1.52003746e-02  2.95000207e-02
  -1.87123641e-01 -1.21696256e-01 -2.51488984e-01  2.48496756e-01
  -1.00433581e-01 -1.67683497e-01  1.48411632e-01  1.05503149e-01
  -7.36692473e-02  1.83983043e-01  1.54193921e-03 -3.45995054e-02
  -1.79953098e-01  6.24348503e-03  1.35363638e-01  1.47315904e-01
   8.25813860e-02 -1.42024457e-01  5.79194613e-02  1.54903948e-01
   1.69937253e-01 -3.52449380e-02 -6.60822541e-02  1.88889615e-02]
 [ 3.00038494e-02  1.18144795e-01 -8.08046162e-02  4.68681231e-02
  -8.24987739e-02 -1.90677539e-01  2.58882433e-01 -1.18802078e-01
  -2.16138028e-02 -2.72738397e-01  7.94260472e-04  4.25615609e-02
  -1.15915380e-01  8.57653692e-02  1.60173237e-01  1.47763252e-01
  -1.24601565e-01  2.28918478e-01  1.66954234e-01  1.89566225e-01
   2.42116034e-01 -1.74482271e-01  2.72526294e-01 -1.52371795e-04
   9.38727781e-02 -5.80494292e-02 -6.86191320e-02  1.01647481e-01
  -8.20585266e-02 -2.88118385e-02 -1.73759162e-01  2.27063015e-01
   2.12737203e-01  1.37601376e-01  1.84900567e-01 -5.18844537e-02
   2.76000090e-02  2.91208364e-02 -1.75282791e-01 -7.83198252e-02
  -7.07795173e-02 -1.29500076e-01  4.54325601e-03  1.72743395e-01
  -1.28122777e-01 -2.35650856e-02  5.58979250e-03  7.00603426e-02
   6.65324852e-02  1.10042028e-01 -1.03733279e-01 -1.23834036e-01
  -7.05357641e-02  3.68802786e-01 -7.39205256e-02 -2.14125574e-01
   1.31325573e-01  1.20946895e-02  1.45999212e-02 -7.62266666e-02
   1.89420432e-01 -1.02760755e-01 -1.01361856e-01  1.48017809e-01
  -8.16959888e-03 -1.58023655e-01 -8.96864459e-02 -3.10530454e-01
  -3.08688521e-01  4.10795957e-03  1.98711738e-01  1.28614321e-01
   2.72675365e-01 -2.60852039e-01  1.23497592e-02 -7.28441179e-02
   7.76866153e-02  1.94366891e-02  1.13087529e-02  1.61589622e-01
  -1.69689164e-01  8.34225863e-02  8.69570673e-02  8.72770846e-02
   3.19963843e-01 -1.59775853e-01  8.79849717e-02  1.17664099e-01
  -3.84791791e-01  1.13136806e-01  2.38290280e-01  3.47276300e-01
   5.30461222e-02 -9.30750892e-02  1.19730886e-02 -5.56191131e-02
   2.48082206e-01 -1.85067400e-01  6.76323622e-02 -5.77663518e-02
  -1.32545754e-01  5.06170467e-02 -5.07834330e-02 -5.22832153e-04
  -7.22669289e-02  6.39762431e-02  5.11894785e-02  6.40464853e-03
   7.21279010e-02 -9.23287049e-02  5.27605675e-02  9.42423195e-02
   1.77416146e-01 -2.77414285e-02  2.05402583e-01 -1.72376800e-02
   2.51880754e-02  8.34648237e-02  1.89884514e-01  2.76866853e-01]
 [-7.96899796e-02 -3.93075682e-02  1.51808280e-02  1.35384887e-01
  -2.76345666e-02 -2.75877446e-01 -9.85610485e-02 -1.46071790e-02
  -1.12418972e-01 -5.02607375e-02  5.67742661e-02  2.64143627e-02
   1.19291052e-01 -2.16568977e-01 -1.49768651e-01  6.98064938e-02
  -2.77658664e-02 -4.55984510e-02  6.72371909e-02  1.64803714e-01
   2.00815544e-01 -3.81893456e-01  1.22206815e-01  1.72536135e-01
   2.60004271e-02  1.11316942e-01 -1.20769709e-01  8.92433226e-02
   6.07202249e-03  1.89586863e-01  2.05096919e-02 -7.92756826e-02
   9.85962227e-02 -5.47821692e-05 -1.62057787e-01  7.64082447e-02
  -2.13291701e-02 -2.70869657e-02 -1.14533387e-01 -3.59521031e-01
   1.85201094e-01  1.11171663e-01  1.48426145e-01 -2.78149247e-01
   8.27681459e-03 -2.56015867e-01 -2.54151791e-01 -1.26519158e-01
   1.11892791e-02  3.68972152e-01 -2.66997635e-01  1.05108658e-03
  -3.53237063e-01 -1.93761036e-01 -1.32801324e-01 -6.14388958e-02
  -2.30557382e-01 -1.74427032e-01  2.10473835e-01  2.77790844e-01
   1.45052254e-01  1.09826848e-01  5.65438680e-02  1.07411511e-01
   3.03799272e-01  1.22514896e-01 -2.02856213e-01 -4.95112948e-02
   3.07338517e-02  8.10481086e-02 -2.08059605e-02  1.41557083e-01
  -6.04138672e-02 -1.72099806e-02  3.16863135e-02  9.08615813e-02
  -4.83230084e-01 -8.81211832e-02  5.11079691e-02  1.38869792e-01
   1.73634693e-01  1.83418959e-01  8.21654033e-03 -2.78803915e-01
  -4.96740267e-02 -1.25043571e-01  5.22285551e-02  1.67472407e-01
   5.29680634e-03 -2.36888856e-01 -4.88303266e-02  3.99665758e-02
   2.64120191e-01 -3.52917053e-02 -1.38580754e-01 -2.55650282e-01
   6.40839264e-02 -7.72813484e-02  1.71326876e-01 -3.26496549e-02
   1.70220464e-01  2.16160625e-01 -2.40318961e-02 -1.49858803e-01
  -1.97667539e-01 -1.13105029e-01 -7.09183663e-02 -4.50153835e-02
   2.42074087e-01  1.81100145e-01  5.80114312e-03 -7.54156262e-02
   3.45084481e-02  5.90350293e-02  1.28684640e-01  2.04106510e-01
  -1.38205245e-01  1.65838331e-01 -7.81795755e-02  4.49650399e-02]
 [ 6.94093406e-02  1.71968192e-01 -9.53621939e-02  2.28731036e-01
   2.28954092e-01  1.45539403e-01  3.54328245e-01  3.70102823e-02
   3.44735414e-01 -6.49575666e-02  1.08656563e-01 -7.25095868e-02
   1.80161595e-01 -6.68525621e-02  1.54780388e-01  6.88659921e-02
  -1.47749409e-01  5.16869538e-02 -6.30707890e-02  1.84764639e-01
  -8.57992694e-02  5.78544885e-02  2.23893479e-01 -2.69143041e-02
  -2.16309234e-01  1.88081503e-01  6.92220312e-03 -1.85065016e-01
   2.83421904e-01  5.18666841e-02 -3.28508466e-01  8.22747424e-02
   5.73471747e-03 -1.03394561e-01 -9.99601558e-02 -1.01456404e-01
   7.34186620e-02  2.01244280e-01  6.67973310e-02  2.46530056e-01
   2.55547911e-02 -5.63776009e-02 -1.81651399e-01  1.10111326e-01
   3.46916318e-02  2.32864529e-01  3.27863067e-01  2.05111995e-01
  -1.06592909e-01 -6.82939216e-02  1.52344778e-01 -1.32788479e-01
   8.77716467e-02  3.08498800e-01 -1.91482142e-01 -2.38796994e-01
  -4.35248502e-02 -9.53193307e-02 -7.71748275e-02 -1.07118607e-01
  -3.34654972e-02 -1.16190583e-01 -5.97942956e-02  1.19991768e-02
  -3.34541082e-01 -1.11221932e-01 -9.93281305e-02 -4.22788002e-02
  -6.08331859e-02  6.58041462e-02  1.01448983e-01 -2.20547840e-01
   2.77056366e-01  1.17315866e-01 -5.45838615e-03 -3.33771795e-01
   9.03409794e-02  6.58433139e-02  1.12631746e-01 -2.04901427e-01
  -1.98379278e-01 -1.52315069e-02  1.89110845e-01 -4.15497571e-02
   2.27597639e-01  6.83981329e-02 -2.18757913e-01 -2.49400645e-01
  -5.77890314e-02  1.88155785e-01  2.00659037e-01  6.07541157e-03
  -1.83506340e-01  3.47939227e-03  9.94772464e-02  2.87527174e-01
   6.31108135e-02  1.50626525e-01 -7.67752603e-02 -2.53544133e-02
   3.94106889e-03  2.92790383e-02  6.56324476e-02 -1.72890723e-01
   1.38583869e-01 -6.81224838e-02  1.11396536e-01 -1.97666034e-01
  -1.97982147e-01  2.40360461e-02 -2.39109844e-01 -1.86244771e-01
   8.16653296e-02  1.03430182e-01 -1.13469422e-01 -1.46430925e-01
   9.21686739e-02 -7.76843056e-02  1.84993297e-01 -6.15562592e-03]
 [ 1.19569630e-03  1.83795303e-01  5.50504066e-02 -1.53417038e-02
  -1.20038174e-01  1.54687136e-01 -3.26714627e-02  2.13525333e-02
   3.83724570e-02 -1.06400825e-01 -6.22955430e-03 -1.11598179e-01
  -1.04051180e-01 -1.32843688e-01  9.42240730e-02 -1.84540495e-01
   1.90768838e-01 -8.27968344e-02  1.94342047e-01  8.62187073e-02
   4.35706079e-02 -1.50944740e-01 -1.77806169e-02 -2.52421219e-02
   3.01681869e-02 -1.03307031e-01  2.37008147e-02 -5.88535098e-03
  -4.18645144e-02 -1.35416433e-01  8.17434490e-02 -9.76304114e-02
   3.22002657e-02  6.66616336e-02 -2.78583821e-02  8.09009671e-02
  -1.83547080e-01 -4.55888882e-02  1.61860511e-01  1.91092297e-01
   3.85920294e-02  1.14110388e-01  1.79049820e-01  4.60170768e-03
  -3.62557508e-02 -1.75630227e-02 -6.89245667e-03  1.44296348e-01
   2.47023419e-01  9.87178013e-02 -8.34899023e-02  1.83657795e-01
   6.66535739e-03 -8.59376341e-02 -1.16551511e-01  1.16892271e-01
