sequential/dense/kernel:0
(784, 128)
[[ 1.91172659e-02  7.23936483e-02 -7.41498172e-03  6.71559945e-02
   5.07457629e-02  1.11729950e-02 -5.14234602e-02 -4.00341302e-03
   4.62642536e-02 -6.03419542e-02 -2.55483128e-02  3.26989219e-02
   7.91125745e-03 -3.47965620e-02 -6.34893999e-02  6.17557019e-03
  -5.78366369e-02 -7.94503838e-02  5.08085564e-02  6.52356446e-03
   6.16465285e-02  5.47158495e-02  6.99838325e-02 -2.22281590e-02
   8.96223634e-03  4.45752665e-02  2.08763704e-02 -3.73204052e-02
   6.22658804e-02 -6.13135323e-02 -2.07295157e-02  1.54606625e-02
   3.14977393e-02 -5.30274175e-02 -7.47797340e-02  7.18022361e-02
   2.67106593e-02 -6.08033277e-02 -2.37377733e-03 -6.97393268e-02
  -9.73733515e-03 -1.46917924e-02 -7.50987604e-02  3.80185768e-02
   8.84533674e-03 -3.29572186e-02  7.69288912e-02 -5.71083575e-02
   3.78379226e-03 -2.77120732e-02  1.86844543e-02 -2.16527656e-02
  -4.02543917e-02 -6.77560419e-02  7.45943561e-02  6.12772480e-02
  -7.24782050e-03  5.79396635e-03  3.91074196e-02 -5.31632304e-02
   2.80092061e-02 -9.85632837e-03  6.20653257e-02 -1.65359676e-02
  -7.47738406e-02 -3.61513086e-02 -2.13959329e-02 -5.09259254e-02
  -3.06414589e-02  5.20036593e-02  6.16948083e-02  3.76056284e-02
   7.25723878e-02 -7.47362450e-02 -7.68203288e-02  1.35768801e-02
   5.05611822e-02 -2.10647471e-02 -3.04630436e-02 -7.91098699e-02
  -1.44762248e-02 -5.79964146e-02 -4.99892160e-02  3.57396305e-02
   9.70873237e-03  3.21818143e-03 -1.07905790e-02  7.95264542e-03
  -7.48114139e-02 -1.86880305e-02  5.67353740e-02 -3.82195599e-02
   7.75014684e-02  2.64416263e-02 -3.86290289e-02  2.07000226e-02
  -1.09055042e-02 -2.10596584e-02 -3.04649957e-02  5.63354045e-03
   3.64843756e-03 -2.67186463e-02 -6.02573901e-03 -8.81925225e-04
  -3.43559384e-02 -2.29519717e-02 -4.89597768e-03  5.05410209e-02
   4.83523980e-02 -7.13213310e-02 -5.97097650e-02  7.43553713e-02
   2.07382217e-02  1.31735578e-02 -6.87860027e-02  6.38926029e-03
   3.61148715e-02 -8.78210366e-03  3.76194119e-02  5.06257191e-02
   1.58691257e-02  6.67831376e-02 -5.52223697e-02  4.13857400e-02
   4.76128981e-02 -4.46729213e-02 -1.12881735e-02  5.94132170e-02]
 [ 7.42992982e-02  5.16197756e-02 -4.82778996e-03 -1.58215687e-02
  -6.56020865e-02 -1.91883892e-02 -5.72309420e-02  5.14971539e-02
   5.05390093e-02 -7.75532946e-02 -2.68003345e-03 -7.61468932e-02
  -7.64168799e-04 -6.74834922e-02  7.26011917e-02  4.91017625e-02
   5.29195741e-02 -6.35693595e-02 -3.55024301e-02 -2.47025527e-02
  -3.32578160e-02 -1.90510489e-02  2.21291631e-02  7.13975951e-02
   2.75175273e-02  6.44460693e-02 -5.86467199e-02  9.96572524e-03
   1.89592466e-02 -4.93696928e-02  3.90263125e-02  1.15225688e-02
   3.96953598e-02  2.46396661e-03 -2.84706056e-03  4.92610559e-02
   7.20915720e-02 -2.98002809e-02 -3.44662443e-02 -3.31801325e-02
   7.39153549e-02  1.62031204e-02 -4.30417769e-02  4.69537452e-02
   3.96729261e-03 -3.90473008e-03 -6.90499544e-02  5.87804839e-02
  -2.58397385e-02 -7.63091817e-02  2.18255520e-02 -3.06121223e-02
   2.39669979e-02  7.89854154e-02  4.49787900e-02 -8.55669379e-03
   6.38725534e-02  3.88983935e-02  1.35793909e-02 -5.60950898e-02
  -6.80512041e-02 -3.51405926e-02  6.38265386e-02  6.77333102e-02
  -2.40283608e-02  7.62679502e-02  1.34567320e-02  4.04314175e-02
   3.03399563e-02 -2.32540071e-04 -1.20190457e-02  7.37083778e-02
   5.40813729e-02  1.39657110e-02  5.40946200e-02  6.37647435e-02
   6.19135275e-02 -4.70287129e-02 -1.91174969e-02 -2.41485871e-02
  -6.70114458e-02  2.00996473e-02 -3.17649767e-02  6.88843951e-02
   6.82900175e-02 -2.59131864e-02  7.87780508e-02 -1.25859454e-02
  -2.70006582e-02 -5.09431921e-02 -5.28390817e-02 -5.54540828e-02
   6.65058419e-02  5.52899167e-02 -3.65180001e-02 -2.95314789e-02
  -3.46107222e-02  6.63334504e-02 -4.87666279e-02 -3.85361910e-03
  -2.84843482e-02  3.25949341e-02 -7.36055896e-02 -6.94733858e-03
  -5.51373437e-02  5.66437617e-02  2.38199532e-02 -7.25096539e-02
  -3.19527499e-02  7.04332814e-02 -6.41906857e-02  7.16078356e-02
  -2.91385055e-02 -2.98904181e-02  8.10673088e-03  5.64144626e-02
   3.26629728e-03 -6.91161305e-02  6.60106614e-02  2.11295485e-02
  -5.83072752e-02  6.00631163e-02 -7.30195418e-02  3.92566100e-02
  -7.31175393e-03 -3.94878983e-02  2.08934471e-02  4.65413854e-02]
 [-2.56383903e-02 -4.97410856e-02 -3.87077034e-03  3.41602936e-02
   1.08546019e-03  4.65976968e-02  6.79587945e-02  4.66713235e-02
  -6.84373751e-02 -4.87400778e-02 -5.09748310e-02  1.09051764e-02
   3.47319543e-02  3.47815007e-02  6.10478595e-02  1.52466074e-02
   5.05796745e-02  3.42079252e-03 -1.79019123e-02 -2.63450295e-02
   4.95321229e-02  3.36218402e-02  2.40796283e-02  9.52366740e-03
  -4.29274663e-02 -3.47707272e-02 -3.29747014e-02  2.71927044e-02
  -6.11955300e-02 -3.00341100e-03 -6.07714951e-02  6.20250478e-02
  -2.90963277e-02 -4.78316993e-02  6.89340904e-02 -7.98299313e-02
   6.49425909e-02 -2.29025818e-02  4.11735028e-02 -7.39967674e-02
  -5.64671010e-02  3.22995633e-02  1.18512064e-02 -5.67287281e-02
   3.02885324e-02 -3.36076431e-02 -5.02857566e-03  7.09652528e-02
  -1.29550695e-04 -6.59088492e-02  5.33015504e-02  5.43634593e-03
   3.73135209e-02 -1.90163180e-02 -7.26896301e-02 -5.06436601e-02
   1.95155963e-02 -6.51179701e-02 -4.01587076e-02  7.97278062e-02
  -6.41313121e-02 -4.49140891e-02 -7.38748163e-02  3.62040251e-02
   4.07022685e-02  4.98294011e-02 -1.90517269e-02 -3.47841270e-02
   3.04436088e-02  2.08030790e-02  3.39018926e-02  4.32391614e-02
  -6.96038231e-02  2.78408825e-02  6.12031892e-02  7.71811232e-02
   7.63087943e-02  6.59482852e-02 -2.61228345e-02 -5.54545857e-02
  -6.62065819e-02 -2.90801600e-02 -5.33013642e-02 -7.96056688e-02
   1.91154480e-02 -4.86131385e-02  6.81748018e-02 -3.04345787e-02
   3.33062932e-02 -3.61200199e-02 -3.44895683e-02  9.66737419e-03
   1.53600276e-02  4.39995453e-02 -5.55427298e-02  2.69923210e-02
  -1.02835149e-03  9.15099680e-03  3.97810116e-02 -6.46232069e-02
  -3.86929214e-02  2.68613398e-02 -3.44523415e-02  4.87534776e-02
   5.76969758e-02 -7.17327520e-02 -4.81772758e-02  6.08796999e-02
  -1.53274760e-02  3.33045945e-02 -3.52513418e-02  6.26472756e-02
  -4.84107472e-02  2.88098305e-03  6.42099455e-02  3.40600461e-02
  -5.17209023e-02 -3.38321254e-02  3.15442681e-03 -2.71646269e-02
  -1.47773251e-02  4.21632975e-02 -7.98791274e-02 -7.20478520e-02
  -3.81886549e-02 -3.68453786e-02  4.79974523e-02 -2.35044286e-02]
 [-7.68247843e-02  4.63755056e-02 -7.82132670e-02  1.16999224e-02
   5.05654588e-02  2.13677734e-02  7.25246221e-03 -4.53139096e-02
   5.12908027e-02 -5.50573580e-02 -8.09245929e-02 -1.56177059e-02
   2.19419524e-02 -8.00723583e-03 -7.83609003e-02  4.32142317e-02
   5.92491403e-02  2.95509920e-02  4.12502587e-02  3.91552225e-02
   4.71866056e-02  6.35507032e-02 -7.55118430e-02 -4.14417461e-02
  -6.30182400e-02  1.96916312e-02 -9.01505351e-03 -7.32099712e-02
  -4.22040224e-02  5.60138151e-02  3.56416628e-02  1.01593733e-02
   1.91541240e-02 -4.08604927e-02 -1.04471520e-02 -4.60008271e-02
  -2.15898380e-02 -5.53166121e-03 -7.64920861e-02 -1.51789784e-02
  -6.38774782e-03  6.34121969e-02 -1.53950825e-02  2.24046186e-02
   4.08449769e-03 -1.87368989e-02  2.52379104e-02 -3.87219675e-02
   2.98753902e-02  1.97203830e-02 -1.75554454e-02 -4.30012494e-03
  -1.64621323e-02  5.86604103e-02  9.13660973e-03 -4.63216864e-02
  -7.38920718e-02 -2.64584683e-02  4.05049995e-02 -5.71222045e-02
  -7.42863566e-02  4.75070104e-02  2.73838267e-02 -1.20227337e-02
  -3.80299240e-03 -2.05070861e-02  1.21195093e-02  3.44498679e-02
  -5.09933382e-03  6.38749078e-02 -3.52982581e-02  3.01733613e-03
  -5.73970228e-02  2.52458230e-02 -7.03599676e-02 -1.75694078e-02
  -7.55965859e-02  3.18285078e-03 -3.68528068e-03 -1.48231387e-02
  -5.25389686e-02  4.44734171e-02 -8.04468468e-02  6.75430670e-02
   8.08164254e-02  3.79809067e-02  2.95787230e-02  2.40857527e-02
   2.79289111e-02  7.36312792e-02 -5.02360873e-02  1.01187453e-02
  -2.92743370e-02  3.63638997e-03 -4.02596332e-02 -7.86345527e-02
   6.68064430e-02 -3.22961994e-02 -2.76533812e-02  8.64903629e-03
   6.02721646e-02  6.72732517e-02 -6.56726956e-02  9.06188786e-03
   5.89433312e-03  2.09295899e-02 -7.95983523e-03 -1.95864104e-02
  -6.47427142e-02  5.43573722e-02 -1.90304741e-02  2.80024409e-02
  -6.97821602e-02  2.36364454e-03 -5.25046140e-03 -4.17476557e-02
  -6.45674467e-02 -1.70977041e-02 -7.40816817e-02 -3.03189345e-02
   4.30083424e-02 -1.50862709e-02 -5.05949110e-02  7.95460865e-02
  -2.06965432e-02  8.04366097e-02 -6.86526895e-02  1.03508458e-02]
 [ 4.19933498e-02  6.82255551e-02 -6.53209463e-02  1.07969046e-02
  -1.33861080e-02 -4.42067347e-02 -7.47047961e-02  6.37766644e-02
  -6.66987821e-02 -5.43692634e-02  5.15276417e-02 -8.03347602e-02
   7.31152818e-02 -4.21446338e-02 -4.87068743e-02  2.09831223e-02
   5.55285290e-02 -4.67776470e-02  3.48031968e-02  3.88549790e-02
   5.54045811e-02  5.31554148e-02 -7.41916373e-02 -6.01970330e-02
  -4.06547934e-02 -6.00033775e-02  2.49254256e-02 -6.64215311e-02
   5.40517271e-03  7.09612295e-02 -4.14360017e-02 -4.98127528e-02
  -3.70393023e-02 -3.16467807e-02 -2.53618322e-02 -5.07095680e-02
  -4.82110009e-02  3.95208746e-02 -5.90689704e-02 -2.08608992e-02
  -6.80937916e-02 -7.48016685e-02  1.77436322e-03 -7.55979419e-02
  -6.43971413e-02  5.89146987e-02 -2.43546367e-02 -6.64993674e-02
   1.06244609e-02 -6.40494153e-02 -4.15821783e-02  4.21025306e-02
   6.00600466e-02  7.09203556e-02  6.95332512e-02 -2.75657400e-02
   5.93667254e-02  7.61701390e-02 -6.41577691e-02  7.53692463e-02
  -1.29088536e-02 -3.68780419e-02  1.47268474e-02 -7.97302276e-03
  -1.43442452e-02 -6.29521906e-04 -6.53203130e-02  2.74547413e-02
  -7.39126280e-02  6.89256862e-02 -6.73930869e-02 -1.36717334e-02
  -3.55266817e-02  7.63603523e-02 -6.05864301e-02  2.62109563e-02
   1.21947899e-02 -1.45235434e-02  3.60487401e-02  2.28917152e-02
  -4.89216447e-02  4.71681878e-02 -7.84981623e-02 -1.86893456e-02
   1.85114890e-02  7.61654153e-02  1.80105120e-03 -5.62234744e-02
   2.52752900e-02 -3.70098650e-03  6.08350858e-02  6.59886226e-02
   1.82395726e-02  1.46991611e-02  6.19559661e-02  1.67823210e-02
   2.35476270e-02 -5.07932156e-03 -3.81078608e-02 -7.91695714e-02
  -4.98068556e-02  1.86469331e-02  4.84129861e-02 -6.12195432e-02
  -3.49626392e-02 -6.09051250e-02 -6.71021044e-02  5.66737875e-02
  -1.47027373e-02 -7.21812844e-02  1.09315366e-02 -2.51758546e-02
  -3.29526775e-02 -3.16265710e-02 -3.32922488e-03 -3.96139175e-03
   2.56848559e-02  7.20866993e-02 -7.11776465e-02 -1.37956142e-02
  -2.14410126e-02 -7.82186240e-02 -1.41129568e-02  4.44456860e-02
   6.14705756e-02  5.77749088e-02  4.01903689e-03 -1.16501749e-03]
 [-3.20591293e-02  1.97065398e-02  3.42175737e-02  1.79622620e-02
  -7.25266710e-02  2.97645479e-03  4.35608551e-02 -7.02466220e-02
  -2.19289362e-02  6.29630312e-02 -4.37641181e-02  7.41246268e-02
  -1.15148574e-02 -1.45898014e-02  6.52781948e-02  7.28073642e-02
  -6.06190711e-02  5.05932644e-02  7.24261627e-02 -3.35214138e-02
   5.93801066e-02  5.47759235e-03  3.36451381e-02 -1.63423344e-02
   7.16634318e-02 -9.05198604e-03  8.07510689e-02 -5.58680594e-02
   4.39897552e-02 -3.15890759e-02  1.69607326e-02 -4.43542078e-02
  -3.67998555e-02 -4.67434749e-02 -4.60224599e-03 -6.87873363e-02
  -3.09617817e-03  6.75313994e-02  4.80508581e-02  6.04839697e-02
  -1.51025131e-02 -6.62988275e-02 -2.45079510e-02  7.58218542e-02
   8.11068937e-02  2.11154297e-02  6.03791550e-02 -3.05044837e-02
  -5.71983606e-02 -8.02754909e-02 -3.86849530e-02  7.01429918e-02
  -5.53346425e-03 -6.64624721e-02 -7.54695907e-02 -4.90824021e-02
   8.02363679e-02 -1.02601871e-02  2.27692798e-02 -5.32810166e-02
   2.60520726e-02  7.73006305e-02  3.04191038e-02  2.57376507e-02
   3.96147594e-02  3.58139500e-02  7.27744401e-03  4.22377512e-02
  -1.24606490e-03  4.07811701e-02  3.49297673e-02 -4.89003137e-02
   6.95565715e-02  5.57460859e-02 -7.14190677e-02 -2.68531069e-02
  -1.81060806e-02 -3.52137871e-02  2.05397084e-02  4.72499803e-02
  -9.58585739e-03  3.09883058e-03 -4.87427451e-02  2.18686983e-02
   1.34018064e-03 -5.42512536e-03  2.97956020e-02 -2.51028538e-02
  -1.16041973e-02  7.54764900e-02 -5.38777038e-02  5.82064614e-02
  -4.58124280e-03  1.60485506e-05 -5.11296839e-03 -2.65505388e-02
   1.29398927e-02  3.93405408e-02  3.46082672e-02 -1.61931366e-02
  -6.41495287e-02 -1.84594095e-03 -7.00190738e-02 -7.67644271e-02
   3.11942399e-03 -3.75046618e-02  5.59554473e-02 -2.14052349e-02
   1.81052536e-02  5.91875091e-02 -3.26221064e-02  4.78218123e-02
  -2.62426920e-02  7.70552084e-02 -7.64034688e-04  5.99214211e-02
   4.17692736e-02 -6.41025975e-02 -1.11348405e-02  1.58802047e-02
   3.93467471e-02 -1.11257285e-02 -3.37825418e-02  4.17843610e-02
  -4.88061942e-02  7.38519952e-02  4.39286903e-02  3.64279225e-02]
 [ 3.75778228e-03  5.37136421e-02  7.00832531e-02  8.38754326e-03
  -6.71806559e-02  6.30637780e-02 -7.73480386e-02  1.32635757e-02
   1.25679001e-02 -2.08295882e-04  3.19946185e-02 -6.45836592e-02
   2.97276303e-02 -2.53976472e-02 -5.16639128e-02 -2.12998800e-02
   5.42141572e-02 -2.69932486e-02 -5.61897531e-02  3.25399414e-02
  -7.41484165e-02  7.12049678e-02  4.16809767e-02 -9.76187736e-03
   2.55772397e-02 -7.15727136e-02  4.64718416e-02  3.29024568e-02
  -7.05946013e-02  1.14292055e-02 -4.25759740e-02  4.65232506e-02
   5.03644422e-02 -4.11988795e-03  4.17364761e-02 -6.08715527e-02
  -6.10980392e-03  4.15728018e-02  4.55676839e-02  5.04278019e-02
   7.30547979e-02 -2.69959196e-02  3.53644118e-02  5.19066676e-02
  -4.02803458e-02  4.94686887e-02  4.76212427e-02  1.51380152e-03
  -4.22545336e-02  5.35628572e-02  6.09189346e-02  2.50050575e-02
  -2.49596722e-02 -5.56626096e-02  1.33869573e-02 -5.02300151e-02
  -7.27864355e-03  3.62894684e-03  6.75529912e-02 -6.42029196e-02
   3.99058387e-02  1.36282220e-02  6.25380501e-02  1.32193714e-02
  -2.06462257e-02 -5.28037101e-02 -3.05546112e-02 -1.68703496e-02
  -4.04594168e-02  3.51769254e-02  5.49838319e-02 -2.49422863e-02
  -1.10342354e-03  4.32901010e-02 -3.40955295e-02 -1.25793517e-02
   6.57928959e-02 -4.82565984e-02 -4.23143059e-03  7.29604587e-02
  -5.43636531e-02 -3.80299278e-02 -1.17797330e-02 -3.93922329e-02
   1.24412775e-02 -4.51769754e-02  2.72039250e-02  2.91190520e-02
   5.89563325e-02 -7.37410188e-02  6.40005693e-02 -3.48859467e-02
   3.92212048e-02 -4.72237431e-02 -6.18417189e-02 -9.34254378e-03
   6.16033152e-02 -3.77358869e-02 -4.27825637e-02 -1.04813576e-02
  -2.69280598e-02 -2.69311741e-02 -4.17806283e-02  1.36574060e-02
  -3.99791487e-02 -4.25886214e-02 -5.11134490e-02 -7.84184709e-02
   5.61133772e-03  6.23293445e-02 -7.19577372e-02  3.04207206e-05
  -1.27604157e-02 -5.93767241e-02  4.44896147e-02  1.45189241e-02
   6.38110563e-02  1.85723081e-02 -3.23804170e-02 -7.44392648e-02
  -2.14692242e-02  5.48711643e-02  1.64520741e-03  1.18423104e-02
   2.99177319e-03  7.96623901e-02 -1.47306621e-02  6.85248002e-02]
 [-4.17083614e-02 -7.02473968e-02 -1.64834633e-02 -4.67198417e-02
   4.66223434e-02 -3.13153006e-02 -5.43523021e-02  2.02772096e-02
   7.77431950e-02 -2.56114304e-02  2.29533762e-03  7.29333386e-02
   5.01222685e-02 -7.66080618e-03  2.91164219e-02  6.58833608e-02
  -3.06344181e-02  3.81763577e-02  4.10474390e-02 -4.13535610e-02
  -7.21204132e-02 -3.61622125e-03 -1.47776529e-02  2.50534862e-02
  -6.44530356e-03 -5.41981012e-02 -1.60614252e-02 -4.80456203e-02
  -5.79140708e-02 -4.99328822e-02 -4.23819534e-02 -6.69938475e-02
  -7.03255460e-02 -6.40776679e-02 -5.91273941e-02  6.73347488e-02
   2.25995854e-02  7.76549503e-02 -7.67246485e-02  6.34002611e-02
  -5.10250926e-02 -2.38177478e-02  6.28674254e-02 -7.54224509e-03
  -5.99916801e-02  8.01481679e-02  3.75637785e-02  1.57189220e-02
  -6.48292527e-02  3.38982791e-02 -3.59081291e-02 -5.89057356e-02
   3.29655930e-02 -7.79617578e-03  2.69142911e-02 -6.70907348e-02
   3.57601717e-02 -5.33410162e-03 -4.03702110e-02 -5.07597476e-02
  -3.98737937e-02 -1.56389773e-02  9.75116342e-03  4.82879058e-02
  -4.04096022e-02  6.62542209e-02  4.71562147e-04  6.63971156e-03
  -4.63412367e-02 -7.74399117e-02 -4.82550524e-02  3.00043076e-03
   3.32600549e-02 -6.61169291e-02 -7.40404353e-02  7.36244023e-03
  -4.82284240e-02  7.04501346e-02  4.62438837e-02  4.50665280e-02
   2.16184407e-02 -2.64599957e-02  1.10753328e-02  1.16173476e-02
   6.41079023e-02 -5.07943332e-04 -3.19150202e-02  4.40979376e-02
   5.55807725e-02 -3.57113034e-02 -6.69832081e-02  6.65404424e-02
  -1.86242349e-02  6.15716353e-02 -2.75123864e-03  5.69206104e-02
  -1.63917243e-02 -6.31431043e-02  4.37670574e-02  6.78383633e-02
   3.60942036e-02 -6.70830160e-03  7.41306022e-02  4.98609617e-02
  -3.16681489e-02 -5.34187667e-02 -4.65741083e-02  2.87473127e-02
  -2.77251452e-02  7.57993087e-02  7.80199841e-02 -1.21216476e-03
  -7.89505392e-02  4.16683331e-02  7.27127418e-02  6.69210181e-02
   2.47485936e-02 -3.91682163e-02 -5.24910502e-02  3.46586853e-03
  -3.86869833e-02  5.30032888e-02 -2.78120339e-02 -5.30904233e-02
  -2.80086659e-02 -4.98519838e-03  6.26483038e-02 -2.81991661e-02]
 [ 3.68321911e-02 -7.37668127e-02  6.32852986e-02 -6.46256357e-02
  -4.90675122e-02 -7.85018578e-02 -4.41127904e-02  4.54261526e-02
   3.15157026e-02  8.70385766e-03  4.31401730e-02 -4.93558645e-02
  -6.66404217e-02 -4.71081547e-02  7.95577690e-02  5.24781644e-04
   7.80115500e-02  7.47603551e-02 -5.25329188e-02 -6.47681057e-02
  -4.78266701e-02 -2.46878937e-02  7.54082128e-02  1.13907978e-02
   2.85599977e-02 -6.16238117e-02 -7.85309970e-02  6.66773692e-02
   6.61438331e-02  4.32914346e-02 -5.99901155e-02  4.39033881e-02
  -4.81005758e-03 -1.88248605e-03  6.16543666e-02  4.55982015e-02
  -4.75718118e-02  5.34684584e-02 -5.61606064e-02 -7.89921433e-02
   2.28898749e-02  7.67660886e-03 -8.98704678e-03  5.70305437e-03
   4.03486490e-02 -7.14854002e-02  1.98033825e-02  7.33270422e-02
   5.35774603e-02 -6.51506782e-02  6.71848655e-04  3.08784917e-02
  -7.02746063e-02 -9.81546193e-03  5.90923503e-02 -7.15582818e-02
   6.56650588e-02 -5.33021390e-02  3.90081555e-02 -7.61820152e-02
   4.11797911e-02  2.14852020e-02 -2.54340991e-02  1.80948302e-02
  -2.93402374e-03  2.09557191e-02  7.57416859e-02 -2.69833691e-02
   3.43638882e-02  8.81534815e-03  3.89257520e-02 -5.31195253e-02
  -6.83299452e-03  1.94186866e-02 -6.22060895e-02 -3.58972214e-02
  -3.97144854e-02  4.33928519e-03  8.10549781e-02  4.53817323e-02
  -7.72299170e-02 -2.85776556e-02  1.22457072e-02  6.80526569e-02
  -3.00050154e-02 -7.78405443e-02  4.04155254e-03 -4.27605212e-02
   3.03742588e-02  7.25482404e-03  3.37271765e-02 -2.18391679e-02
  -6.65723085e-02 -1.71756744e-03 -7.64611810e-02  4.96249422e-02
   4.11967486e-02 -2.19770893e-02 -2.51587033e-02 -3.43535990e-02
  -7.73509741e-02 -3.73312719e-02  1.34795085e-02  4.23959717e-02
  -1.69655308e-02 -5.43397143e-02 -6.07773662e-03 -7.57900849e-02
   1.48888677e-02 -4.85946350e-02 -2.85112485e-02 -2.29988284e-02
  -7.86473155e-02  1.95569992e-02  6.48280606e-02  3.13325152e-02
   6.61515221e-02  5.10348305e-02  5.57109714e-03  7.61561617e-02
  -6.12757802e-02  2.53597051e-02 -4.17952500e-02  1.69145167e-02
  -5.31312078e-03  1.16594508e-02 -1.39427036e-02 -4.02996428e-02]
 [ 2.38110870e-03  2.62688771e-02  4.61100414e-02  7.74366483e-02
   6.21659681e-02 -5.36483303e-02  5.27905598e-02  7.53381848e-03
   1.81811899e-02  4.70344052e-02 -2.63650827e-02 -8.01149979e-02
  -5.80527857e-02  4.25569639e-02  6.85946643e-03  6.18406907e-02
  -3.85883413e-02 -4.73208763e-02  5.08241728e-02  5.60460910e-02
  -7.26224929e-02  5.34948036e-02 -3.98657694e-02 -2.74804793e-02
   7.44353607e-02 -7.30162561e-02 -6.08701222e-02 -9.92735475e-03
  -3.66959311e-02 -6.66767359e-03  1.38339847e-02 -2.99389176e-02
   1.62805095e-02 -7.11033121e-02  4.27974537e-02  1.91207230e-03
  -2.95200311e-02  2.77993828e-02  6.15023300e-02 -4.52641733e-02
   7.77275860e-03 -5.44281304e-02  1.15069076e-02  7.53492489e-02
   1.66902468e-02  3.10445055e-02 -7.06062764e-02 -2.18201578e-02
  -8.08011591e-02 -5.00714406e-02 -1.61259770e-02 -2.98500583e-02
   4.59180996e-02 -5.57351857e-02 -7.62145594e-02 -1.06935948e-02
   7.02428594e-02  4.92768511e-02  1.08240917e-02  2.48362347e-02
   7.34184906e-02 -1.40087828e-02  2.24113464e-05 -5.01086488e-02
  -6.08383119e-02  2.50069126e-02 -6.69625923e-02  4.71253023e-02
  -4.52795848e-02 -2.58844681e-02  6.49981126e-02  1.25989616e-02
   5.19869253e-02 -7.57825077e-02 -7.13568926e-02  2.64472142e-02
   5.18869087e-02  5.33923283e-02  6.93079010e-02 -2.79664323e-02
  -3.18912938e-02  7.91105703e-02 -5.62932491e-02 -7.09148049e-02
  -5.46236783e-02  2.90959999e-02 -7.73391202e-02 -1.61566287e-02
   5.11378124e-02  3.53184268e-02 -1.89448819e-02 -5.76373190e-02
   7.07399100e-03  4.92331907e-02 -7.40883499e-02 -6.94160461e-02
   3.63988578e-02  4.02705595e-02 -4.91780117e-02 -4.83017564e-02
  -2.86831073e-02 -6.22925535e-02 -4.67079878e-03  1.97828487e-02
  -4.45167087e-02  1.78938434e-02  5.08935750e-03 -6.73697442e-02
  -7.92770311e-02  3.15962136e-02  5.55651113e-02  2.81515941e-02
   6.98738024e-02 -1.58825517e-03  4.21277434e-03  2.49489173e-02
   4.16929126e-02  1.09797865e-02  4.91740927e-02  7.71603361e-02
  -5.38927689e-02 -5.58634847e-03  7.22065195e-02 -6.69679493e-02
   5.01095578e-02  4.95887622e-02 -7.35024214e-02  6.36706725e-02]
 [-3.89811955e-02 -6.37187511e-02 -6.03200644e-02  8.03531632e-02
   7.32105747e-02 -4.67413478e-02  1.79729760e-02 -2.13126428e-02
  -1.15196407e-03  6.61457255e-02  2.65363827e-02 -6.43237680e-02
  -7.31815249e-02  4.97413501e-02 -1.81495920e-02 -1.91016570e-02
   1.93705186e-02  1.90120935e-03 -2.73731127e-02  3.71124968e-02
   3.99802923e-02  4.00039256e-02 -6.12120815e-02  1.40689015e-02
   2.35204995e-02  1.30930915e-02 -2.29614973e-03 -4.84310091e-04
   7.05705956e-02  7.41320029e-02 -5.88094518e-02 -2.51507163e-02
   6.40553311e-02 -1.82903782e-02 -7.74352923e-02  6.10238239e-02
  -4.86528240e-02 -6.61690533e-03  9.23730433e-03 -3.84409614e-02
   7.93220773e-02  6.27208427e-02  6.09685108e-02  1.38507262e-02
   4.02159318e-02 -9.70332325e-03 -7.02212304e-02  1.00079179e-02
  -2.44727731e-02  7.51127377e-02 -6.80628493e-02 -7.66199306e-02
   5.61955348e-02 -1.76178887e-02  1.60965621e-02  1.21843293e-02
  -7.18199909e-02  1.62607282e-02 -4.85149212e-02 -8.03635940e-02
  -6.27648681e-02 -1.02711543e-02 -7.52091408e-02 -4.58118916e-02
   2.03073621e-02  7.26299956e-02  7.40422532e-02  9.57319140e-03
  -1.09036714e-02 -6.18984923e-02  2.48080418e-02 -4.12693247e-02
   6.62580505e-02  4.43250313e-02  6.23172522e-03 -2.47352310e-02
  -7.45554119e-02  5.98714873e-02 -1.67858154e-02  7.84736872e-03
   5.57944253e-02  3.09006870e-03 -4.45338599e-02 -4.38523591e-02
  -5.76561354e-02  3.63009870e-02  2.93668881e-02  1.32232606e-02
  -4.72271070e-02 -4.45251986e-02  1.57354549e-02 -1.50283501e-02
   3.91259417e-02  6.84273168e-02 -3.95084545e-02  7.67761394e-02
   7.26980492e-02  4.57169339e-02 -6.09563142e-02 -5.54645844e-02
  -2.53788382e-03 -5.18682227e-02  7.95403793e-02  2.88897157e-02
   5.19986227e-02  1.13765448e-02  3.84660214e-02 -1.41743347e-02
   2.81394869e-02  3.81251276e-02  1.08573511e-02  4.53573093e-02
   6.45591542e-02 -2.54800841e-02  5.12830094e-02  3.53841186e-02
  -1.36790797e-02 -4.67851497e-02 -7.36565888e-02  6.61048964e-02
  -7.52848908e-02 -5.97403012e-02  4.41606566e-02  9.11624730e-03
  -6.70575052e-02  3.70681733e-02 -6.58010393e-02  6.36480525e-02]
 [-1.36063322e-02  7.56549612e-02 -1.00388005e-02  7.65068159e-02
  -6.89396262e-02  2.31528580e-02 -7.45615438e-02  1.51017010e-02
  -4.40066233e-02  4.20399010e-03  1.05776861e-02  6.93580434e-02
   5.92848584e-02 -1.54661313e-02  2.52590477e-02  5.64688817e-02
  -6.57281354e-02  4.36248630e-02 -1.56943277e-02 -7.02783391e-02
   6.72335401e-02 -6.59750253e-02 -6.64826930e-02  2.15937272e-02
   5.71214929e-02 -6.45626187e-02  2.64282227e-02  5.37241921e-02
  -5.56004941e-02 -5.24175838e-02  7.43205920e-02  7.17020705e-02
  -3.84256244e-03 -2.49232203e-02  5.06924167e-02 -3.71892713e-02
  -7.72544369e-02 -4.92218509e-02 -2.80242339e-02  2.48957574e-02
  -6.47981018e-02 -3.89903039e-03 -7.66756013e-02 -1.74765810e-02
  -3.70672457e-02 -3.43075171e-02  2.05925852e-03  3.91183048e-03
   5.03683090e-03  5.10083959e-02 -2.50008442e-02  5.58924004e-02
   4.14945185e-04 -7.24862143e-02  3.71985734e-02 -6.69150427e-02
  -5.92845380e-02 -1.64108500e-02 -4.35204171e-02  5.15317544e-02
   1.30440295e-02 -6.87331930e-02  2.98059285e-02 -3.16472240e-02
   6.87569156e-02  6.07656315e-02 -6.12481274e-02  1.21342242e-02
  -1.16240382e-02  7.17482194e-02 -1.75229013e-02 -4.92800996e-02
  -7.75408372e-02 -3.54458094e-02 -3.59669328e-04 -3.54095884e-02
   7.47879520e-02  3.03570479e-02  3.58337909e-02  3.69230062e-02
  -4.71056812e-02  2.82491967e-02  2.56042928e-03 -6.16934672e-02
  -2.78698951e-02 -2.87343748e-02  5.12385294e-02  3.65782604e-02
  -2.62245312e-02  6.30149916e-02  1.79234147e-02 -5.23860231e-02
   5.53637370e-02  5.39329574e-02 -5.51540293e-02  5.52442893e-02
  -1.20337233e-02  5.72089180e-02  7.09439591e-02  5.04121259e-02
   4.10756320e-02  6.24986961e-02  3.62963676e-02 -2.84343399e-02
   2.14882717e-02 -5.76967262e-02  3.53097916e-03 -3.28492150e-02
  -2.77794860e-02 -3.36365364e-02 -1.94610022e-02 -4.70833443e-02
  -1.11763924e-03 -5.01536094e-02  7.08686188e-02  6.02430776e-02
   7.69838691e-03  3.79460379e-02 -4.06256504e-02 -3.07144411e-02
  -6.60779849e-02  2.15122551e-02 -4.80064414e-02  2.84441859e-02
  -8.09235945e-02  5.60794696e-02  4.53468189e-02 -4.94193137e-02]
 [ 2.44134315e-03  8.72183312e-03 -7.22531676e-02 -1.04211226e-01
  -4.14747931e-02  2.30143080e-03 -6.20160550e-02  2.96313614e-02
   5.01096155e-03 -9.93872155e-03  6.97345957e-02  9.84576717e-03
   4.83140871e-02 -3.46114114e-02  3.37970839e-03 -7.90708587e-02
  -1.09447986e-01 -9.13072657e-03  1.00644529e-01  3.47551657e-03
   3.10292409e-04  4.32844721e-02  7.40088001e-02 -6.87866434e-02
  -2.63221711e-02 -4.30058353e-02 -7.66698197e-02 -5.36882551e-03
   1.87084954e-02  7.74286613e-02  1.00237869e-01 -6.23448417e-02
  -1.29864253e-02 -7.13771209e-02  1.09279975e-02 -4.87228259e-02
  -4.86965738e-02 -1.41977025e-02 -5.56563376e-04 -3.11494172e-02
   7.02810064e-02 -5.20305559e-02 -1.53480787e-02  9.92702134e-03
   9.34821814e-02  4.08057822e-03  3.72602120e-02  6.95559978e-02
  -3.33167873e-02 -3.60565633e-02  5.85699268e-02 -1.76754612e-02
  -4.06589732e-03 -7.93974549e-02  3.98840494e-02  9.39929858e-02
  -3.59795466e-02 -2.28881352e-02  5.21489307e-02  2.02238560e-04
   4.54771668e-02 -1.18376538e-02  4.02890295e-02 -4.50367741e-02
   8.03235099e-02 -2.23574578e-03 -1.46492897e-02  4.72750925e-02
  -5.55269867e-02  2.74071060e-02 -4.00900468e-02 -4.50320914e-02
  -5.60808778e-02  6.51639476e-02 -6.11528866e-02  3.12205069e-02
   1.86052360e-02  3.29539441e-02  5.04237488e-02 -9.73570347e-03
   1.37416355e-04 -2.31727622e-02  7.66885467e-03  1.86814014e-02
  -6.16946667e-02 -3.08237989e-02  8.89538080e-02  7.57065639e-02
   4.41276580e-02  1.31521467e-02 -3.40893790e-02  1.41748041e-03
   1.17708798e-02  1.74546912e-02  3.87410671e-02  3.36639360e-02
  -3.89638916e-02 -5.34105860e-02 -2.42924709e-02 -3.80184539e-02
  -4.02684771e-02 -1.32474899e-02 -3.77579741e-02 -3.65417190e-02
   2.98929289e-02 -6.97701722e-02  1.79714076e-02  2.73030344e-02
   9.43614841e-02 -2.87919641e-02  4.14428636e-02 -6.74128830e-02
  -5.89244347e-03 -9.03500766e-02  4.60982323e-03  2.93570757e-03
   6.04070537e-02  3.21257971e-02  9.57502574e-02 -1.48137920e-02
   1.21957073e-02  7.87567813e-03 -7.05752000e-02 -7.05683082e-02
   9.64203011e-03 -4.06894833e-02  1.31902657e-02 -8.97448584e-02]
 [ 5.95514365e-02 -3.49978432e-02 -9.92402136e-02  1.59961786e-02
  -8.06480199e-02  1.19191380e-02  6.51875883e-02  1.46729127e-02
  -3.40010338e-02 -3.67263407e-02  5.98367006e-02  4.04911116e-02
   7.10275918e-02  8.50506127e-02 -1.57779101e-02  6.58771256e-03
   1.63356997e-02  7.46282414e-02  1.50563926e-01  6.18700385e-02
  -1.48676084e-02 -5.49995434e-03 -7.16818571e-02  6.54712096e-02
   3.31145748e-02 -3.25280949e-02 -7.08406568e-02  1.00977778e-01
   1.51763231e-01 -2.56804302e-02 -2.92984322e-02 -9.69279036e-02
   1.29314614e-02  7.18261972e-02 -4.11910415e-02  1.18003950e-01
   3.82403694e-02 -3.02055683e-02 -1.21296698e-03  5.22725210e-02
   4.41394672e-02  2.00141184e-02 -4.51288037e-02 -5.63719729e-03
   3.72796580e-02  4.54521105e-02 -4.86130677e-02  9.54706967e-02
  -1.15126511e-02  4.81589548e-02  8.61496776e-02 -1.05058596e-01
   4.91363443e-02 -7.11461678e-02  8.20620805e-02  2.04863463e-04
  -7.40636364e-02  2.70781666e-02  3.65447551e-02  3.46373096e-02
  -6.19069561e-02 -3.47579457e-02  6.85773790e-02 -1.58934575e-02
   1.12798065e-03  5.65544777e-02  1.05017379e-01  9.70107913e-02
   1.07610106e-01 -3.97162288e-02 -2.29032636e-02 -2.05969512e-02
  -6.06819019e-02 -2.59004235e-02 -7.75421336e-02  6.26006797e-02
  -3.57265994e-02 -6.20245598e-02  5.32593951e-02  6.47446886e-02
  -2.82573309e-02  1.24796391e-01  5.41908219e-02 -2.86104716e-02
  -6.65073916e-02 -1.90425906e-02  3.95890661e-02  8.20865482e-03
   4.11900692e-02  5.95451482e-02 -6.52986243e-02 -2.56757326e-02
  -4.27996404e-02  3.91108990e-02  6.85689822e-02 -2.55489280e-03
   3.90960984e-02  7.23518953e-02  7.43170157e-02  7.23066032e-02
  -1.48222502e-02  6.54191002e-02 -1.01861153e-02 -9.49620306e-02
   2.88576614e-02 -5.82829490e-02 -4.32078876e-02  7.18843937e-02
  -9.45412263e-04  8.35868716e-03 -7.30569810e-02 -5.88534847e-02
   4.22449782e-02 -5.08800037e-02 -5.70669547e-02  4.94613722e-02
   1.84872057e-02  1.52272172e-02  6.98521063e-02  1.32189259e-01
   4.20991071e-02  1.83915123e-02 -2.34088115e-02  3.71688767e-03
   2.43635569e-02  6.55421242e-02 -4.12856601e-02  1.95231717e-02]
 [ 3.50586325e-02 -3.47179137e-02 -3.43725160e-02 -3.70623991e-02
  -3.09575349e-03 -5.21036498e-02  2.50842050e-02  7.14971200e-02
   8.18170011e-02  4.93730558e-03  2.40983460e-02 -1.09185148e-02
   1.23280257e-01  9.38901007e-02  6.06795773e-02 -1.08521329e-02
   1.81794632e-02 -8.83015767e-02  8.90131295e-02  2.64915880e-02
   2.92401835e-02  4.43187393e-02  1.26635516e-02 -8.78171623e-03
   9.94841084e-02 -6.62863255e-02 -6.38133511e-02  1.61001444e-01
   1.88124999e-01 -4.15150821e-03  5.74055314e-02 -2.74531916e-02
  -3.29092816e-02  2.94176936e-02 -1.27138123e-02  5.02101555e-02
  -2.47988454e-03 -2.88250037e-02  7.96778724e-02  6.92359880e-02
   2.72262953e-02 -9.64823663e-02 -2.81684622e-02 -7.29249567e-02
  -5.95468767e-02 -4.43304926e-02  9.90032405e-02  4.89331856e-02
   7.26058260e-02 -3.19921121e-04  1.70410685e-02 -4.18979526e-02
  -2.19591800e-02  3.95298228e-02  2.17622817e-02  1.80614144e-02
  -5.43331951e-02 -4.25861068e-02  6.44968748e-02  5.55038527e-02
  -2.18225848e-02  9.02926177e-03 -6.08153045e-02 -3.26184109e-02
  -4.29343134e-02 -5.78368716e-02  1.70417372e-02 -3.52024537e-04
   1.00111537e-01  4.06504422e-03  3.06595787e-02  9.97109711e-03
   5.65771684e-02  6.56840950e-03  1.72952116e-02 -4.16131802e-02
   6.70048073e-02 -1.17108254e-02  3.59008759e-02 -4.18622307e-02
   1.78476460e-02 -1.69212781e-02  1.80835463e-02  7.83272833e-02
  -5.13058826e-02  3.18477792e-03  1.36759635e-02 -4.55539748e-02
   5.95742650e-02  1.02750771e-01  1.08377255e-01  1.34834200e-02
   3.92529368e-02 -2.74236426e-02  7.14535713e-02  5.62035963e-02
  -2.50835475e-02  6.59560785e-02  2.62446199e-02  8.01573247e-02
   5.14894910e-02  1.21976830e-01 -1.32929489e-01  5.42069301e-02
   1.78706199e-02  1.79009140e-03 -4.56049368e-02 -2.87533794e-02
   1.12482876e-01 -7.51862824e-02 -1.45656466e-02 -4.39145751e-02
   2.10404191e-02  4.59227636e-02 -3.96871418e-02  1.43939257e-02
  -7.33827502e-02  1.51993781e-02  5.14194891e-02  2.34078113e-02
   3.39917354e-02  1.23839818e-01 -6.03412054e-02 -4.61071655e-02
  -5.48759662e-02 -9.08610225e-03 -5.11204414e-02  4.50191423e-02]
 [ 4.23587393e-03 -4.25528474e-02  2.91271657e-02 -2.29550637e-02
  -4.84109782e-02  7.33378306e-02 -4.54570539e-02  6.08691797e-02
  -5.14426567e-02 -5.45782670e-02  5.56626059e-02 -7.71469548e-02
   2.19036243e-03 -3.02190203e-02  2.55027600e-02  4.90982048e-02
   9.09801424e-02 -7.82627240e-02 -4.13204171e-03  1.01598138e-02
   6.64560944e-02 -6.09862991e-02  1.92234050e-02 -6.89274445e-02
   9.13076401e-02 -6.64363196e-03  5.31808808e-02  5.94123937e-02
   9.30681229e-02  3.37311178e-02  3.57573815e-02  4.19014171e-02
  -4.86783916e-03  4.64908257e-02  4.23417315e-02 -5.72065450e-02
   1.75621472e-02 -4.62045409e-02  4.57324870e-02  7.50416592e-02
  -3.73293795e-02 -2.18398683e-02  6.20153993e-02  2.57738754e-02
  -3.75310592e-02 -4.32241755e-03 -6.32463098e-02 -4.02153470e-02
   8.75346363e-04 -4.02897522e-02 -3.61319371e-02 -9.61681902e-02
  -1.90980937e-02  6.09146804e-03 -6.96400404e-02 -1.22707114e-02
  -6.44627512e-02  1.25979558e-02  3.96965593e-02  3.94538641e-02
  -7.31603727e-02  2.04825476e-02  3.98615375e-02 -4.81960922e-03
  -2.29626261e-02 -6.05750605e-02 -3.37224752e-02 -8.34144354e-02
  -1.80619936e-02 -1.33931637e-02 -7.62526542e-02 -7.21540600e-02
  -2.02042125e-02  5.81055954e-02 -5.79282455e-02  6.55281916e-02
   5.76972440e-02 -2.18541790e-02  6.63870052e-02  6.69478104e-02
  -4.17417027e-02  4.74856887e-03  1.41399528e-03  7.35935122e-02
   6.29171729e-04  5.87107129e-02  6.97989687e-02 -3.87492739e-02
   7.32917280e-04 -3.47416513e-02  6.41415194e-02 -1.93148851e-03
   3.61906812e-02  1.51681304e-02  1.90015491e-02 -2.83992402e-02
   8.82541314e-02  4.92234603e-02 -1.89168658e-02  8.49834830e-02
  -9.90652014e-03 -2.79163364e-02  6.17561266e-02 -5.76032065e-02
   7.86776841e-03 -1.41463727e-02 -9.23505984e-03  5.75608648e-02
  -2.27482989e-04  6.77491948e-02  5.72059378e-02  4.84554768e-02
  -6.25952110e-02 -6.82512447e-02 -2.65885778e-02 -1.69968158e-02
  -4.58072461e-02  5.92099354e-02 -5.06553054e-02  6.25130385e-02
   6.00143569e-03  5.78405708e-02 -6.47935420e-02 -6.97113723e-02
  -1.72723383e-02 -1.06760859e-03  1.09998602e-02 -6.68832660e-03]
 [ 7.55245984e-03  4.30373102e-02 -9.20023769e-03  7.85807744e-02
   6.41408935e-02  1.27390847e-02  3.89307812e-02 -2.65516341e-04
   1.04782805e-02  5.45700565e-02  7.75538012e-02 -4.47417498e-02
   2.26009637e-02  7.52645507e-02 -5.43617979e-02 -7.66035467e-02
  -8.08767974e-04 -3.83413509e-02 -4.51325960e-02  3.19986567e-02
   6.01342544e-02  1.49567425e-02 -2.71925330e-03  2.85893381e-02
  -7.27630630e-02  4.66403440e-02 -1.21738091e-02  3.85893062e-02
   1.17638558e-02  4.53887135e-03  3.58861983e-02  8.30572098e-03
  -4.48611602e-02  1.09217092e-02  4.36632931e-02 -3.30647416e-02
   1.26412883e-02 -6.93215579e-02 -4.32447903e-02 -2.06103139e-02
  -2.08202899e-02 -2.47775242e-02 -4.23612408e-02  6.56159595e-02
  -7.67567903e-02  8.23026150e-03 -6.24839813e-02 -2.11494081e-02
   2.30915099e-03  1.06852651e-02  4.68982831e-02 -5.64587079e-02
   6.64883628e-02  3.70264649e-02  3.33608314e-02  3.38526815e-03
   6.15683720e-02 -7.35777020e-02 -6.78988025e-02  3.14612314e-02
   5.68602607e-02 -5.58281057e-02  3.06872502e-02  2.84548178e-02
  -3.87315787e-02 -7.21359551e-02 -5.75235710e-02 -5.63384220e-02
  -3.18167619e-02 -4.70867679e-02 -6.75233677e-02 -8.54220986e-03
  -6.15997948e-02  1.20704845e-02 -4.79254909e-02 -3.87827493e-02
   4.91947457e-02  2.96912491e-02  3.36837620e-02 -1.57347620e-02
  -2.93296464e-02  3.95681337e-02  5.21726161e-03  5.93591854e-02
  -8.02941695e-02  7.53376260e-02 -3.46185938e-02  7.70129189e-02
   7.90260360e-02  5.96280172e-02 -1.98324025e-03 -5.28266281e-02
   6.06874749e-02 -4.67275083e-03  4.64955941e-02  3.57007980e-03
  -2.68882439e-02  7.24903718e-02  6.56990334e-02 -3.97013538e-02
   9.80359316e-03 -4.39461321e-02  3.95901203e-02  1.60428435e-02
  -3.03354673e-02  6.23695552e-04 -2.79713050e-02 -2.02186964e-02
  -2.88509056e-02  4.43334654e-02  6.73666820e-02  1.76523849e-02
  -3.32069919e-02 -7.45738447e-02  6.04703948e-02 -8.80211592e-03
   1.02991536e-02 -2.03847550e-02  1.02152228e-02  3.78090441e-02
   8.09841231e-02 -5.03592528e-02 -4.00405675e-02  7.02626780e-02
   7.95849338e-02 -2.25296803e-02  1.98333636e-02 -4.16366756e-02]
 [ 7.23906234e-02 -2.48648226e-04 -8.02745000e-02 -4.02634628e-02
  -1.29011199e-02  1.57335997e-02  7.93489739e-02  9.77493078e-03
  -7.67127126e-02 -1.29768699e-02 -5.15026525e-02  3.27680930e-02
  -4.57903855e-02 -2.99891010e-02  8.05068687e-02  2.56782249e-02
   1.61942020e-02  2.56033689e-02  2.52135098e-02 -1.58133358e-03
   1.70304850e-02 -1.34815797e-02  2.39935145e-02  7.40622506e-02
   3.58991548e-02  1.23189017e-02  2.11426765e-02  4.43248674e-02
  -5.79025075e-02  4.12869230e-02 -3.16058025e-02 -5.45476191e-02
  -7.69285113e-02  5.33630773e-02  9.40243900e-03 -1.32840946e-02
  -7.02432841e-02  2.07869336e-02 -2.35779136e-02  4.74532694e-03
   7.61928037e-02  8.09818581e-02  2.54045427e-03 -6.58196807e-02
  -4.31995764e-02 -8.03099871e-02  5.37680089e-03 -1.53310597e-02
   5.42930737e-02  7.33709857e-02 -6.74603134e-03  5.97382262e-02
   7.96307102e-02  8.78389925e-03  4.40694168e-02 -7.39941150e-02
   3.58870849e-02  4.10266221e-03 -6.88412711e-02 -5.93907833e-02
  -6.48684725e-02 -6.58012927e-03  1.66815668e-02 -1.82240456e-03
   1.96712464e-02 -1.28041953e-02 -1.54549181e-02  2.82888934e-02
   6.59523830e-02 -6.53193220e-02 -7.09788129e-02  2.11527944e-03
  -2.69100554e-02 -6.35133386e-02 -4.59490009e-02  4.55954894e-02
   5.47922328e-02 -1.35022923e-02  3.05765048e-02  2.07547694e-02
  -2.85774618e-02  3.39739099e-02 -1.82758570e-02  5.74568883e-02
   5.81035241e-02  6.28089383e-02  7.38582015e-03  2.86350921e-02
  -4.84416299e-02  6.53363243e-02  6.68013915e-02  3.36476341e-02
  -4.94383425e-02  4.15232033e-03  2.47032642e-02  6.96086213e-02
   1.94191709e-02  3.83876488e-02 -3.65295447e-02  5.26561663e-02
   8.99118930e-03  8.98577273e-03 -1.11494362e-02 -4.53503430e-02
  -4.09596413e-02 -4.65925969e-02 -1.41333938e-02  1.63250864e-02
  -2.36765370e-02 -4.08123620e-02  3.93967554e-02  8.63002241e-03
  -5.85483089e-02  6.17364570e-02 -6.77144527e-02 -5.41177318e-02
  -3.14710736e-02  3.69867831e-02  2.21840292e-02 -2.67627947e-02
   5.86988553e-02  1.35503709e-03  1.49423927e-02 -2.23725773e-02
   2.23943591e-03  7.88076222e-03 -2.46155076e-02  3.98528874e-02]
 [ 1.10175312e-02 -1.28103048e-03 -5.07371649e-02 -5.69447950e-02
  -5.98749369e-02 -5.35773598e-02  7.33222589e-02  4.57781628e-02
  -6.34804443e-02  4.29647714e-02 -3.05649564e-02 -3.40865590e-02
   4.66968045e-02  1.20366812e-02 -6.05156720e-02 -4.13373001e-02
  -4.28827107e-03  5.40736392e-02 -3.53848189e-03  4.39654514e-02
   5.54905087e-03  5.31228855e-02 -6.14167750e-02  4.01647240e-02
  -6.92965388e-02 -5.95469177e-02  2.26275325e-02  8.05980638e-02
   6.55246601e-02 -2.22773328e-02  6.67866692e-02 -1.59871429e-02
   1.34516805e-02 -7.95141011e-02 -1.34788305e-02 -7.99253657e-02
   6.75539598e-02  2.67239064e-02  5.63508272e-03  6.25229254e-02
   1.30382702e-02 -6.11883141e-02 -7.42806494e-02  4.92845848e-02
  -9.64965671e-03 -6.94425777e-02 -1.17958039e-02 -7.74413645e-02
  -2.34117396e-02 -3.00530531e-02  7.57535920e-02  3.30139771e-02
  -3.08740586e-02  3.60876471e-02 -1.67560205e-02 -3.18645686e-02
   1.00504979e-02 -6.82745799e-02  6.78144470e-02  3.95370945e-02
   1.93974748e-02 -5.47882840e-02  6.42580912e-02  3.14534903e-02
   4.09815311e-02  4.62859869e-04  6.39810935e-02 -2.77609378e-03
   4.75820079e-02 -7.86543936e-02 -1.68931261e-02  5.11217192e-02
   6.94595277e-03  4.27260995e-02 -6.21329695e-02  2.49201804e-02
   7.41511211e-02  5.26868328e-02  6.99192286e-04 -4.55007367e-02
  -6.07551560e-02 -1.70352086e-02 -3.01823281e-02  5.92008978e-03
   2.78868750e-02 -4.47270311e-02 -2.10404396e-03  8.03804174e-02
   3.63957062e-02  2.37504691e-02 -2.85989493e-02  6.53423145e-02
   1.90680102e-02 -2.19979733e-02 -1.61030218e-02  4.93328795e-02
  -1.24772042e-02 -7.86813349e-03 -2.03141682e-02  3.73319462e-02
   1.76294893e-02  1.95287615e-02 -5.75885177e-03  3.50139663e-02
   1.20492876e-02 -7.88728148e-03 -1.45399645e-02  3.64830792e-02
  -6.41191453e-02  5.21866456e-02 -5.48243523e-02 -6.72642365e-02
   4.11416143e-02 -2.34692693e-02  5.55041358e-02 -3.62949707e-02
  -2.82781459e-02 -7.93470740e-02 -6.36269525e-02 -4.69988175e-02
  -2.92694271e-02 -7.37282559e-02  4.31516767e-02  4.58687544e-04
  -2.27154233e-02  5.52332029e-02 -1.05561167e-02 -1.95653327e-02]
 [-1.56205669e-02  5.11348993e-03  1.50677264e-02  5.08301184e-02
   4.90983203e-02 -2.15241835e-02  5.94924018e-02  7.07620159e-02
  -1.56691670e-02  6.76175430e-02 -6.63790405e-02 -7.57866800e-02
   7.68359825e-02 -3.01504210e-02  6.99405149e-02  3.41691673e-02
   5.28608784e-02 -5.65834977e-02  2.16897205e-02 -6.61692992e-02
   6.60588071e-02 -5.51335514e-02 -1.09843686e-02 -2.30415054e-02
  -3.21336836e-03  1.64945275e-02 -1.80508718e-02 -3.10923122e-02
   1.41544640e-03  3.40827703e-02  2.19256133e-02  4.54639718e-02
  -3.07780057e-02 -1.95024051e-02 -4.67814505e-03 -2.23150067e-02
  -3.55029926e-02  9.14409757e-04 -6.45702779e-02 -6.16704747e-02
  -4.89994027e-02  5.45404777e-02  5.66147938e-02 -1.40374228e-02
   5.70232943e-02 -7.63084069e-02 -5.02377115e-02 -1.80417448e-02
  -7.87212327e-02  9.85868275e-04 -7.36012235e-02 -8.02440643e-02
  -1.16850138e-02 -3.40910815e-02 -3.50951403e-03  5.42433560e-03
   2.37885267e-02  7.91743472e-02 -8.01996589e-02 -6.80095553e-02
   5.50211146e-02 -6.77333251e-02  4.88107726e-02  1.13596842e-02
   5.78076169e-02  5.49150333e-02 -7.35832974e-02  5.91951981e-02
  -3.17028984e-02 -2.89708413e-02 -1.63096935e-03  1.72005892e-02
   5.18580303e-02  7.72109702e-02 -7.83529505e-02  3.70208770e-02
   5.66548035e-02 -1.62263066e-02  1.46356300e-02 -3.84323373e-02
   6.78480342e-02  3.71347368e-02  5.82780614e-02 -5.89840971e-02
   2.01050267e-02 -3.62748392e-02  1.47285536e-02 -1.21740997e-02
  -6.32715672e-02 -7.89070353e-02 -9.48831439e-03 -1.16593316e-02
  -1.23118237e-02 -3.34458053e-03 -4.23065349e-02  3.14688459e-02
   1.48298442e-02 -6.33955672e-02  3.91420722e-03 -4.11133803e-02
  -3.70792374e-02 -3.92305069e-02 -6.51059300e-02 -4.33503576e-02
   4.17656973e-02 -8.25869292e-03  7.54025504e-02  2.68420428e-02
   6.88941851e-02  3.80434990e-02 -2.74447016e-02  5.17353639e-02
   3.16096097e-02 -2.22817622e-02  4.54856679e-02 -4.72392887e-02
  -2.76164860e-02 -6.49733841e-02  5.57099506e-02 -6.07208908e-02
  -6.20535314e-02 -5.26629090e-02 -9.02489573e-03  4.06599343e-02
   4.52846289e-04 -6.91686720e-02 -6.05591051e-02  6.59256428e-03]
 [ 6.48230240e-02  4.85287830e-02 -3.64934616e-02  1.90505236e-02
  -6.49761260e-02  3.05291787e-02  8.25081766e-03 -1.31453425e-02
   6.67146519e-02 -2.41834335e-02 -7.12759644e-02 -5.09678572e-03
  -1.80770010e-02 -8.14289600e-03 -7.13477880e-02  8.09933767e-02
   5.08395210e-02  3.35223600e-02  7.07964674e-02 -2.45565847e-02
  -7.57565349e-02  6.81947097e-02 -6.94556087e-02  2.29740888e-03
  -7.38602951e-02 -6.93419427e-02 -1.84944943e-02 -2.85809450e-02
  -3.96242552e-02  6.81107417e-02  6.55784532e-02  4.08209488e-02
   1.07218474e-02 -5.52501418e-02  3.70535925e-02  3.17713767e-02
  -7.58779794e-02  5.70714474e-06 -3.28484215e-02 -1.20958537e-02
  -2.97535025e-02  1.52550191e-02 -2.25077905e-02 -5.53127602e-02
   1.42783597e-02 -7.14849681e-03 -1.77582651e-02 -6.16211444e-02
  -5.61527908e-03 -6.56744316e-02 -3.68294455e-02  5.33328280e-02
  -3.40773128e-02  6.54851720e-02  9.52645391e-03  2.46167853e-02
  -4.87754866e-02 -5.16086817e-03 -4.46509160e-02 -6.46978617e-04
  -3.97099815e-02  5.14935628e-02 -3.84508818e-02 -4.79687676e-02
  -6.50794730e-02 -4.81387973e-03 -2.10500695e-02  6.85068145e-02
  -7.58998096e-02 -1.23297423e-03  5.00558540e-02  4.47185561e-02
  -6.92747608e-02  3.23199630e-02 -2.87245698e-02 -4.01503146e-02
  -4.95394245e-02  1.14605501e-02 -6.94267377e-02  4.43572626e-02
   2.17420086e-02  2.50607729e-02  3.42111140e-02 -5.50489873e-03
  -1.03092119e-02  1.21296942e-02 -2.51297913e-02  2.88877487e-02
  -3.34816761e-02  3.49842012e-02 -6.73373044e-03  7.03288391e-02
  -4.75307554e-02  4.98306081e-02  4.90709916e-02 -7.53216743e-02
  -8.64110887e-04 -4.15750630e-02  6.60263374e-02 -8.10945034e-02
   5.91892973e-02  2.03347430e-02 -2.64353193e-02  8.04147497e-02
  -2.13817991e-02 -5.12676910e-02  6.50143996e-02  7.76321366e-02
   5.08838072e-02 -1.32781789e-02  3.70722786e-02  2.89665908e-02
  -6.60094097e-02  6.73073754e-02 -3.28601412e-02 -6.42587915e-02
  -3.05238254e-02  3.51302251e-02  1.35525092e-02  2.76561081e-03
   6.91064373e-02  3.47004682e-02  2.59683803e-02  9.78036225e-03
   4.87614498e-02 -1.15667805e-02 -6.53362647e-02 -7.84157217e-02]
 [ 7.50074610e-02  7.34683350e-02 -6.57557324e-02 -5.68459556e-02
   4.01171669e-02 -7.90343136e-02 -6.50813058e-02  6.87070191e-04
   2.72909403e-02 -2.86611021e-02 -6.84409887e-02  2.92479992e-02
  -7.79100284e-02 -2.42478698e-02 -6.31873757e-02 -4.07209098e-02
  -2.85388827e-02  5.77804372e-02 -6.88807964e-02  6.27576336e-02
  -4.98190522e-04  3.42576802e-02 -1.18460804e-02 -3.97809148e-02
   5.29060289e-02  2.74178386e-02  7.73143843e-02 -6.87533244e-02
   6.97707906e-02 -2.34375373e-02  6.99665472e-02 -7.48407692e-02
   9.17151570e-03 -3.14629897e-02 -3.61169837e-02  2.33923048e-02
   2.24358886e-02 -6.38509244e-02  7.47168735e-02  5.08726314e-02
  -2.76257657e-02 -3.52726541e-02  2.88883448e-02 -7.65728801e-02
  -6.66844696e-02 -6.59703091e-02  5.04244044e-02  5.95405772e-02
   7.22189769e-02  1.79350376e-02 -3.12890783e-02 -2.18752772e-03
  -4.03948277e-02 -7.94150904e-02  9.29081440e-03 -1.50276199e-02
  -1.50480419e-02  3.09793726e-02 -6.03484139e-02 -4.04958501e-02
  -5.96808940e-02  6.54839501e-02  5.99788874e-03 -6.98730350e-04
   1.86298043e-02 -2.76123472e-02  7.30547383e-02  5.95706925e-02
   4.26996201e-02  3.75045836e-02  7.06185326e-02 -2.54836231e-02
  -4.57244366e-03 -8.44981521e-03 -8.01148266e-02 -3.45050208e-02
  -5.91447577e-02  5.78000173e-02  3.74396071e-02 -5.58992326e-02
   3.57216671e-02  7.24914744e-02 -6.65115714e-02  7.09345713e-02
   4.22067866e-02 -1.42369494e-02  6.04497641e-03  5.97945079e-02
  -6.17551953e-02 -6.48009777e-02  5.71748093e-02 -7.59268850e-02
  -3.04900855e-03 -2.02265456e-02 -6.62309527e-02 -5.03453501e-02
   1.99873298e-02 -5.34965619e-02  2.28122696e-02  4.74180207e-02
  -7.16951415e-02 -5.84386811e-02 -4.06987853e-02  3.68435830e-02
  -2.64053643e-02  4.13470045e-02  6.96221665e-02  3.28094736e-02
   6.45800456e-02 -8.05123076e-02 -5.69665730e-02 -2.91805454e-02
   2.18034685e-02 -3.55325975e-02 -7.95111582e-02 -1.83576941e-02
   5.17818108e-02 -5.00894450e-02 -4.67834286e-02 -2.63628215e-02
  -6.83391541e-02 -4.17882279e-02 -2.45837159e-02 -4.82436828e-02
  -2.47762091e-02 -2.60600597e-02  5.08547798e-02  6.50258288e-02]
 [-1.51130557e-03  6.95568696e-02  5.90927377e-02 -2.25043483e-02
   2.91636437e-02 -2.84690894e-02 -6.93595409e-03 -3.33558209e-02
   1.59512535e-02 -8.51833075e-03  8.07016864e-02  6.64381757e-02
   5.26335165e-02  6.43121079e-02 -1.23855844e-02 -7.11732358e-02
  -3.28690745e-02 -4.08178531e-02 -6.64361864e-02  1.29850879e-02
  -4.09693308e-02 -4.06753495e-02  5.79426512e-02  1.04639754e-02
  -1.57503486e-02 -4.47397381e-02 -6.85991347e-03  8.07658359e-02
   1.20453835e-02 -4.18676510e-02  4.96863350e-02 -2.99117677e-02
   4.67653051e-02  7.68886134e-02  2.17851773e-02  4.55048606e-02
   1.18896291e-02 -5.55863976e-03  1.93347409e-02 -6.94857836e-02
  -7.83398747e-02 -5.08168936e-02  7.17073604e-02  3.90465036e-02
   4.72323820e-02 -6.37210906e-02  4.00078893e-02  7.55489543e-02
  -7.18187541e-02  4.36331183e-02  8.00179914e-02  3.65742743e-02
   3.06258351e-02 -7.42839202e-02 -6.98689073e-02  2.04266757e-02
   2.83884257e-03  6.71305731e-02 -4.78071980e-02  3.66692245e-02
  -4.17950749e-03 -2.79964805e-02 -1.41197667e-02 -6.94332719e-02
  -5.95764294e-02  2.47671232e-02  2.33429521e-02 -2.01817416e-02
   1.96829289e-02 -7.91166201e-02 -1.72553733e-02  4.53527272e-03
   6.55390322e-03  4.65760008e-02  1.84034482e-02 -5.81858493e-02
  -1.20380744e-02 -2.31220312e-02  1.08124465e-02 -6.67392015e-02
  -1.08542368e-02  3.11078429e-02 -6.30162880e-02  8.97154212e-03
   1.70428306e-03 -4.20322195e-02 -7.58305565e-02 -1.60179734e-02
   5.91858104e-02 -4.71838079e-02 -5.10856211e-02 -5.76355010e-02
  -4.97019067e-02  5.79223111e-02  3.98877412e-02 -5.90912327e-02
   1.77065283e-03  3.00687775e-02 -4.55173105e-03  7.07490668e-02
  -5.85882030e-02 -1.38979927e-02 -2.65228078e-02  6.05814159e-04
  -6.15380667e-02  6.24884292e-02  9.18522477e-03  4.19116244e-02
   2.37119496e-02  7.12580308e-02  4.69219908e-02  6.63647726e-02
   6.65857121e-02 -7.83266723e-02 -4.20965999e-03  1.94990411e-02
   5.09843901e-02  2.97171623e-02  1.29428357e-02  7.11585060e-02
  -1.38428807e-02  3.26826721e-02  2.73174196e-02  1.56251714e-02
  -7.63574690e-02  1.49836466e-02  4.09675464e-02 -5.42300865e-02]
 [ 7.65936896e-02 -5.19336835e-02  4.40708324e-02  2.93902159e-02
  -1.13817900e-02 -8.98561627e-03  2.15005502e-02  3.75915244e-02
   4.45334539e-02 -4.83408943e-02  1.53939798e-02  3.52872312e-02
  -5.82678616e-03  3.65992039e-02 -4.49525937e-02  2.42376402e-02
   6.51116446e-02 -7.95969442e-02 -6.34650737e-02  6.99197277e-02
   8.84197652e-03  6.21246770e-02  2.77057141e-02 -2.48550326e-02
   1.18654594e-02 -4.58528847e-03 -4.52750213e-02  1.82648301e-02
  -4.52585258e-02  6.14076480e-02 -7.18883276e-02  5.86490855e-02
  -3.14115286e-02 -4.70521897e-02 -6.32598698e-02  3.81518751e-02
   4.91858050e-02 -3.14465314e-02  6.91794604e-03  7.62750953e-03
  -7.73807988e-02  4.72657606e-02 -8.08140561e-02 -7.41405115e-02
  -3.81805934e-02 -7.47313350e-03 -2.43393965e-02 -3.06398533e-02
   6.33272007e-02  3.80610824e-02  6.47095069e-02  5.62765077e-02
   2.97415704e-02 -1.30001307e-02 -5.38156182e-03  5.06756678e-02
   2.93605104e-02  8.07202831e-02 -1.58920884e-04 -1.85912251e-02
  -8.88912380e-03  2.73025110e-02 -6.15955219e-02 -5.64173236e-02
  -4.28152084e-02  7.70299211e-02  4.91860732e-02 -6.81338981e-02
   2.76262909e-02 -1.32849663e-02  5.87706342e-02 -4.53849025e-02
   7.11504743e-02 -6.55955672e-02  7.79552981e-02 -5.26381731e-02
  -7.28206336e-02  1.89001113e-03 -4.76394556e-02 -6.54484481e-02
   1.28521398e-02  7.14745447e-02  3.72706279e-02 -2.96263136e-02
  -3.66796479e-02 -6.26126751e-02  4.79227379e-02  1.51480362e-02
  -7.90047497e-02 -3.32052521e-02 -7.33555853e-03  5.77848777e-02
  -6.74073994e-02 -3.77440490e-02 -1.20921060e-02  2.94317305e-02
   6.96571171e-03  7.95262083e-02  5.79778627e-02  7.64503554e-02
  -6.36844635e-02 -3.68502140e-02 -5.33219390e-02 -4.16541100e-03
   6.08267859e-02  7.91150406e-02  4.30037379e-02 -8.01456720e-02
  -5.50730415e-02  7.29252473e-02 -1.86549798e-02  2.40000263e-02
   7.42144510e-02  1.80487260e-02  6.17746934e-02 -7.37938508e-02
   4.20630872e-02 -7.56472722e-02 -6.65706247e-02  1.61455646e-02
   6.24219701e-02 -3.45185399e-05  6.30915686e-02 -4.24775817e-02
  -4.53200005e-02 -8.01172107e-03  4.59946617e-02 -6.95644096e-02]
 [-5.12178354e-02  2.31199041e-02  4.69272509e-02 -6.53961301e-03
   1.96372122e-02  1.80211887e-02  4.61427495e-02 -3.07876356e-02
   5.39801493e-02  2.58724242e-02  4.87226769e-02 -2.27302946e-02
  -1.24540031e-02 -7.05748722e-02 -3.30075957e-02  2.74696648e-02
  -1.79460943e-02 -6.74306601e-02  9.38475132e-05  5.52602485e-02
  -7.01722875e-02 -1.48019791e-02 -4.22729440e-02 -7.64946193e-02
  -3.28138657e-02  6.43013343e-02  7.77552649e-02 -2.08205730e-03
   6.89120069e-02 -7.34884217e-02 -4.82799783e-02  3.93916368e-02
   3.90980765e-02  1.02573037e-02  5.05287126e-02  1.64071321e-02
  -6.55492917e-02  3.59659642e-03 -3.89088131e-02 -3.77049260e-02
  -1.04535371e-03 -4.43773195e-02 -4.07700092e-02 -3.89333144e-02
   4.54759225e-02  1.88012570e-02  6.61947057e-02 -4.41818833e-02
  -7.06318840e-02 -2.22584605e-02 -7.63429701e-02 -2.83555947e-02
  -4.17413525e-02  5.98682389e-02 -3.72270383e-02  4.01159897e-02
  -8.80747288e-03 -2.52384134e-02  6.57825992e-02  2.36959755e-02
  -2.29898542e-02  2.84959674e-02  2.42774338e-02 -1.62876472e-02
  -2.89601274e-02 -1.26008689e-03 -5.88481873e-03 -4.24328893e-02
   4.84434888e-02 -2.08285861e-02  1.91294402e-03 -1.88092813e-02
  -7.35126883e-02  4.10159677e-03  2.87840515e-02 -4.62920219e-03
   5.12009189e-02 -6.13886416e-02  2.63135657e-02 -2.12956257e-02
  -3.54881957e-02 -5.48938513e-02  3.18822637e-02 -4.86344509e-02
  -5.02869114e-02  7.56432340e-02  3.84458974e-02  7.03181401e-02
   3.98978293e-02  1.58786997e-02  1.24144331e-02  7.07682446e-02
  -2.94634700e-03 -1.49238855e-02  2.01670453e-02  8.96670669e-03
   6.03277236e-03  7.88595304e-02  3.11817303e-02 -5.16472235e-02
   8.51237029e-03 -3.58090214e-02  2.74568796e-03 -3.53044830e-02
   3.92869115e-03  7.67191723e-02 -1.13491863e-02 -6.87910318e-02
  -6.52368665e-02  2.92734653e-02  8.03963318e-02 -4.59292755e-02
  -7.03019127e-02  1.68962777e-03 -5.40796146e-02  5.05130365e-02
  -3.91601734e-02  7.16024712e-02  2.45196074e-02  6.47069588e-02
  -2.74856612e-02  1.08018890e-02  1.18050650e-02  7.73193017e-02
   1.38306543e-02 -5.13555408e-02 -5.39808124e-02 -1.33348182e-02]
 [ 4.99552563e-02  6.95283711e-03  1.77954286e-02 -7.16397986e-02
   7.53927752e-02  6.81797341e-02 -5.22400960e-02 -4.42755967e-02
  -2.08523907e-02  4.82038483e-02 -5.74890524e-02  7.57522061e-02
  -3.48995775e-02  6.36511818e-02  4.33022454e-02 -2.18511969e-02
   7.00165257e-02  3.08424979e-02  1.81405470e-02 -7.14625046e-02
  -5.43184616e-02 -2.07379870e-02 -3.94404642e-02 -4.82378602e-02
   5.88009283e-02 -8.24382156e-03 -4.60138395e-02  5.89616075e-02
   2.43466645e-02 -5.21899126e-02 -7.29370862e-02 -7.95520991e-02
  -2.27485895e-02  6.19221404e-02 -7.74169564e-02 -4.10188921e-02
   4.71883938e-02  5.81235960e-02  5.02577648e-02  5.29216006e-02
   7.37172440e-02 -6.84377030e-02  1.08363554e-02  2.65950337e-02
  -7.12009892e-02 -1.94079764e-02 -4.24399972e-04 -7.82638192e-02
  -5.71799688e-02  2.48787776e-02  6.20365143e-03 -1.12914294e-03
  -4.10685688e-03  8.03095177e-02  4.91782650e-02  6.19240031e-02
  -7.01102689e-02  8.03179219e-02  7.64758214e-02 -5.46041839e-02
  -6.91717267e-02 -1.47411600e-02  4.60563824e-02  1.09834000e-02
   5.70719019e-02 -2.83875018e-02 -3.14947031e-02  1.73107013e-02
   4.28956971e-02  4.93955538e-02 -5.00262678e-02  7.06773475e-02
  -4.16528210e-02 -5.22217453e-02  6.59210309e-02 -6.67652264e-02
  -5.38527742e-02  3.83226722e-02  1.49932355e-02 -1.33264884e-02
   6.02202117e-03  2.43245289e-02  7.57456794e-02 -4.61795107e-02
   7.39098266e-02  3.46679091e-02 -1.49618834e-03 -4.38139550e-02
   3.76449376e-02  3.52477282e-03 -1.24227703e-02  7.20787868e-02
   2.56228447e-03 -7.64864683e-03 -7.60200769e-02 -6.09212518e-02
  -2.19812840e-02 -3.65219861e-02  4.74800542e-02 -7.39345774e-02
  -3.67080569e-02  6.24023601e-02  3.77084836e-02  3.27393189e-02
   4.57224175e-02 -5.95470518e-02  1.45198330e-02 -8.92559439e-03
   5.43100312e-02  3.55391726e-02 -8.77794623e-03  7.13479295e-02
  -6.96927309e-05 -2.31772624e-02 -9.53890383e-03  6.15558848e-02
   7.90787712e-02  3.14708799e-02 -7.82383308e-02 -4.76670526e-02
  -1.13376603e-02 -2.92621553e-02  1.25027522e-02  2.09820569e-02
   2.47716457e-02 -2.61869282e-03 -3.60427052e-03 -7.43664205e-02]
 [ 5.85023835e-02  1.74411535e-02  1.43330470e-02  9.65984911e-03
   7.03325048e-02  7.99966231e-02  1.37148350e-02 -6.01384193e-02
   7.71259144e-02  3.94530520e-02 -2.65002586e-02 -4.20797355e-02
  -5.26501089e-02  2.22410187e-02 -2.86924094e-03  3.83052677e-02
   5.63492402e-02  1.55267566e-02 -3.14392783e-02 -6.45812005e-02
  -7.85193741e-02  2.15723366e-02 -6.41234815e-02  4.77490351e-02
  -6.92134798e-02 -2.45785713e-03 -7.79973716e-03 -6.64959848e-02
  -5.24950698e-02  7.72733167e-02  2.38792971e-02  4.11135554e-02
  -3.08983102e-02 -6.70515522e-02 -1.26312003e-02  1.86805055e-02
  -5.79679683e-02  3.11754644e-04 -1.34241432e-02  4.78152856e-02
  -6.71559572e-03  6.43375516e-03  1.09946951e-02 -5.55451289e-02
  -6.92918152e-02 -2.77226903e-02  7.60604665e-02  7.45044127e-02
   7.88889304e-02 -5.28071076e-03  6.33907989e-02  4.49244604e-02
  -3.90433706e-02  3.47286835e-02 -6.25058711e-02  8.51888955e-03
  -7.08718523e-02 -5.82566485e-02  1.11088827e-02 -2.67728306e-02
  -4.45368774e-02 -3.63066718e-02 -4.91761565e-02 -1.24671087e-02
  -5.69140092e-02  7.78922215e-02  1.78752393e-02 -3.00685987e-02
  -9.28200781e-04 -5.09207398e-02 -1.01537853e-02 -7.24760592e-02
  -7.77353644e-02  5.00251576e-02 -4.28843610e-02  1.32958964e-02
  -1.50613412e-02  5.11246100e-02 -4.67693061e-03 -2.08202340e-02
   3.25651541e-02  2.49928385e-02 -2.69281194e-02 -2.54777446e-02
   7.57360980e-02 -5.57244122e-02  3.38435173e-02  2.72035599e-03
  -5.13464361e-02  4.98118177e-02 -1.34109557e-02  1.60998479e-02
  -6.21362403e-02 -6.57796338e-02 -3.57308239e-03  9.33873653e-03
  -2.81159915e-02 -5.62115833e-02 -2.12872513e-02  2.80929580e-02
  -1.00552216e-02 -7.88792595e-02  6.55648485e-02  3.34744602e-02
   2.25922614e-02 -5.29452488e-02 -2.68426426e-02  3.96850705e-02
   5.42327985e-02  5.21739051e-02  2.61008292e-02  7.52164647e-02
   1.80252492e-02  3.15800309e-03 -2.37890668e-02  2.36544535e-02
   9.73716378e-03  5.98758683e-02  8.53431970e-03  5.55442944e-02
   4.73861769e-02 -2.32999772e-03 -2.62761079e-02 -5.83003126e-02
   3.49255875e-02 -1.95094422e-02  7.94302300e-02 -4.92194928e-02]
 [ 7.95697495e-02  5.55226430e-02 -3.21777128e-02  6.27558678e-03
  -2.16226764e-02  6.16386905e-02  1.45539865e-02 -6.16667643e-02
   5.91300949e-02  4.34057415e-02 -4.86470610e-02  2.13925689e-02
   1.33422688e-02 -5.60798720e-02  4.25841734e-02 -4.75757383e-02
   8.11070129e-02  7.65788034e-02  5.87829426e-02  8.05210993e-02
   5.00439480e-02 -3.70495319e-02 -4.74527441e-02 -1.69025213e-02
   3.14024761e-02 -5.23752347e-02  6.66165575e-02 -4.14588191e-02
  -5.40410504e-02  6.57755956e-02 -3.05779129e-02  1.02955922e-02
  -4.10718806e-02 -7.31703639e-02 -3.95764671e-02 -3.34179364e-02
  -6.79816827e-02  4.63894680e-02 -5.18670604e-02 -2.83480436e-03
   5.13374582e-02  7.11991861e-02 -1.50942802e-02  7.00189695e-02
   1.14211440e-02 -1.97177567e-02 -7.51465559e-04  7.86863044e-02
  -6.43234029e-02  5.82059398e-02  6.25340864e-02  7.32557848e-02
  -1.26004666e-02  6.98728487e-02  4.96435165e-03  2.78047025e-02
  -2.78744102e-03  4.52637896e-02  1.67490169e-02  2.89179161e-02
  -8.10698047e-02  2.17339471e-02 -5.64754009e-04 -4.16355133e-02
   1.76980346e-03 -2.44095959e-02 -2.70898640e-03 -4.72223759e-03
  -8.48879665e-03 -1.41326264e-02  1.46607533e-02 -5.91672100e-02
   2.25539505e-02 -5.84446564e-02  1.25590041e-02 -2.68760808e-02
  -3.41028795e-02 -5.26796281e-03 -1.35051906e-02  5.06326780e-02
  -5.93180880e-02  6.71262369e-02 -5.82656972e-02  2.14300677e-02
  -2.50255764e-02  6.11477345e-03  7.25437626e-02  2.37506032e-02
  -4.73606177e-02  7.08541349e-02 -2.43074112e-02 -6.86315298e-02
   2.15699598e-02 -5.80094457e-02 -5.60327992e-02  2.71093845e-03
   2.78122649e-02 -2.14345530e-02  3.51568535e-02 -3.91786024e-02
   2.47523114e-02  5.76747581e-02  3.47864702e-02  6.17276803e-02
   2.40451097e-02  3.66286933e-03 -3.44291925e-02 -5.67111112e-02
   7.63130859e-02 -4.20543998e-02 -1.30799264e-02  6.08562157e-02
  -5.71220703e-02 -2.46393345e-02 -6.57739267e-02  2.26504505e-02
   7.11677149e-02 -3.24940868e-02  3.67046148e-02 -3.47258225e-02
  -3.76398861e-03 -7.21948072e-02  6.27073422e-02 -2.98643298e-02
   3.99600267e-02 -7.52848163e-02 -6.86347187e-02 -4.36955653e-02]
 [-6.11669272e-02  3.81913632e-02  2.81843916e-02 -5.58843799e-02
  -4.12336439e-02  6.58052340e-02 -3.20613533e-02 -2.04853304e-02
   2.04181671e-02 -3.28767523e-02 -5.33029512e-02 -6.45956993e-02
  -1.76222026e-02 -5.65494634e-02 -4.05608453e-02 -1.93754286e-02
   3.48899513e-03  6.41082749e-02  7.14711323e-02  5.74795380e-02
   3.75234187e-02 -1.05132908e-03 -8.06917995e-02  2.58954912e-02
   6.55657575e-02  1.65518448e-02 -7.29290247e-02  6.03871122e-02
  -6.99261129e-02 -5.85645884e-02  6.80412874e-02 -3.49402651e-02
  -2.78447531e-02  5.61267808e-02  1.11234486e-02  4.68165502e-02
   4.12459821e-02  2.63438150e-02  3.22366580e-02  6.37578592e-02
  -7.04750270e-02  4.84136418e-02  3.27994972e-02 -8.10123533e-02
  -5.18325232e-02  7.29152486e-02  7.63751045e-02  2.96532884e-02
  -3.20983082e-02 -6.62460327e-02  2.09233835e-02  1.74269378e-02
   2.53530890e-02 -1.58151537e-02 -1.17620155e-02  4.28884253e-02
   3.21561098e-03  2.29972824e-02  2.91416943e-02 -3.92032973e-02
  -3.94332111e-02 -1.44144818e-02 -4.16527651e-02 -5.67572117e-02
   5.79866245e-02  1.53727308e-02 -6.27491474e-02 -7.75618851e-03
   2.87855044e-02 -3.20836529e-02  7.29824081e-02 -6.10880256e-02
  -2.39583924e-02  5.41428253e-02 -6.08858839e-02 -2.62007117e-03
  -5.89740574e-02  6.67303801e-04  4.99436483e-02  4.93232980e-02
   7.00455680e-02  2.31711864e-02 -6.19757324e-02 -6.63271025e-02
   1.88356787e-02  1.31043792e-03 -2.99280509e-02 -5.06302044e-02
   4.16341200e-02 -6.98114783e-02  2.13852376e-02  3.04415748e-02
   5.35156056e-02  5.88538572e-02 -8.05479810e-02 -5.70019595e-02
   4.61207405e-02  7.27172270e-02  2.47634500e-02  1.46739185e-04
   1.26550645e-02 -5.71568199e-02  4.66279164e-02 -7.65186921e-02
  -4.09278274e-02  3.42181325e-02  5.76628521e-02  3.10371816e-02
  -3.69222499e-02 -2.92841792e-02  4.07440737e-02  6.11692294e-02
   7.08429515e-03  2.31236368e-02 -4.22816277e-02 -8.69241357e-03
   2.00883970e-02  5.26959375e-02  5.85134551e-02 -3.36814001e-02
  -1.71338916e-02 -6.17218763e-03 -4.54294197e-02 -3.98752838e-02
   6.37391284e-02  4.46848571e-04 -3.66454795e-02  2.12787837e-02]
 [ 7.28461891e-03 -1.52628496e-02 -7.60004297e-02 -3.98090892e-02
  -6.88488185e-02 -2.10427493e-03 -7.30484352e-02 -5.76682240e-02
  -1.70904920e-02 -6.52211457e-02  5.63117489e-02 -6.70392364e-02
   1.88332051e-02  3.95037532e-02  1.15538239e-02  2.36733854e-02
  -2.90496834e-02  5.32166660e-03  4.78195772e-02  3.96490619e-02
   4.77893651e-03 -1.74905807e-02  1.23247206e-02 -5.80725297e-02
  -4.19417173e-02 -1.46214142e-02 -4.00770977e-02 -6.52030632e-02
  -5.12153581e-02 -5.73145226e-02 -4.78134640e-02 -7.76095465e-02
  -2.09640525e-02  9.82832164e-03 -3.40977535e-02  4.67100069e-02
  -3.26270387e-02  7.38096908e-02 -5.88466004e-02  6.25745207e-03
  -2.20151469e-02 -3.90374325e-02 -6.73048422e-02 -4.91699092e-02
  -4.68988717e-03  2.06661448e-02 -2.66043767e-02  2.41809934e-02
  -4.04859111e-02 -6.71631545e-02  2.21231505e-02  7.67310932e-02
   7.42809400e-02  5.61741218e-02  5.57545796e-02  6.65022060e-02
  -9.34188813e-03 -7.21365362e-02  4.91190925e-02  1.49827749e-02
  -7.44291097e-02  3.13000083e-02 -5.77051193e-03 -4.28042263e-02
   2.22451389e-02 -7.84129947e-02  5.61210290e-02 -1.73613653e-02
   5.48061356e-02  1.88499093e-02  3.23952138e-02  5.24813458e-02
   5.07880971e-02  7.78700933e-02 -5.62718995e-02  7.45149776e-02
  -1.37736872e-02  2.78253555e-02  3.16543058e-02  3.38736027e-02
  -6.04850389e-02 -3.71087268e-02  4.25356925e-02 -7.82743767e-02
  -2.05523372e-02 -1.34298876e-02 -9.13328677e-03  2.27762014e-02
   7.71648660e-02  2.76323259e-02  7.81779811e-02 -1.34124830e-02
  -8.60608369e-03  5.37978485e-02 -5.13422787e-02 -2.26225816e-02
  -4.74544466e-02 -6.32063448e-02 -6.20558858e-05 -5.65603524e-02
   4.71518412e-02  8.10331181e-02  4.36612815e-02 -4.81118709e-02
   2.80494690e-02 -6.08247742e-02  6.76506087e-02 -1.25567615e-03
  -1.64621547e-02  5.00372723e-02  6.95392862e-02  6.74218461e-02
  -6.43911436e-02 -8.50125402e-03 -3.16547677e-02  4.08573002e-02
  -3.66575457e-02  7.96373859e-02 -6.83049411e-02 -7.12307096e-02
   3.47553566e-02 -4.42377515e-02  1.29556656e-03 -5.75752631e-02
  -5.46379872e-02  3.20794359e-02 -2.71904990e-02 -1.60257816e-02]
 [ 3.62626761e-02  4.85443324e-03 -8.71440023e-03  3.55753377e-02
   5.05303219e-02  5.53738102e-02 -6.29478693e-03  7.42255822e-02
  -4.40168120e-02 -3.87153924e-02 -8.00696909e-02  3.71129066e-03
   7.74484798e-02 -1.32521689e-02  2.92404369e-02  4.46265861e-02
  -4.33123186e-02 -6.71790466e-02 -1.04908347e-02 -5.66834770e-02
  -2.89948806e-02  9.47512686e-03  4.42917123e-02 -3.99473198e-02
  -1.29927248e-02 -7.14260712e-02  6.05394021e-02  2.36037523e-02
   1.26443058e-02  2.79627740e-03  3.16341519e-02 -1.07448995e-02
   7.88175091e-02 -4.88959812e-02  1.37370229e-02 -1.68769062e-03
   3.88409346e-02  3.63681093e-02  4.67429683e-02  3.39593738e-03
   5.24467453e-02  5.86727485e-02 -4.49309722e-02 -3.81582975e-03
  -4.12515327e-02 -4.09790762e-02 -1.73785016e-02  8.43635201e-03
   1.75200552e-02 -4.29943576e-02  8.05650726e-02 -6.94127604e-02
  -1.36480406e-02  5.66399470e-02  6.34498522e-02 -3.82048227e-02
   2.37165689e-02  1.54948309e-02  6.74419925e-02 -5.68955392e-02
  -3.97295132e-02 -2.70929933e-03  9.16401297e-03  1.77479163e-02
   5.37720248e-02 -6.00410700e-02  7.97965303e-02 -4.34820503e-02
  -5.53213283e-02 -7.86910653e-02 -5.85778952e-02 -7.21380115e-03
  -2.73714215e-03 -4.72645648e-02 -5.40756881e-02 -5.15250824e-02
  -2.38619931e-02  6.05672076e-02 -1.42517090e-02 -7.10927323e-02
   6.27743378e-02  4.62639108e-02 -3.74842770e-02  3.02995741e-02
  -2.45609172e-02  6.12718984e-02 -5.38921654e-02  3.27280834e-02
  -1.37920380e-02 -2.16614082e-02  3.51458117e-02  1.18168443e-02
   1.69418752e-03 -2.07184181e-02  2.68290713e-02  2.39112079e-02
   1.00997165e-02  5.35058901e-02  5.19783124e-02 -2.27306820e-02
  -3.64155062e-02  2.99835503e-02  3.31906155e-02  2.68805474e-02
  -7.19769970e-02 -7.37410560e-02 -4.68200743e-02 -1.13938525e-02
   6.55638948e-02 -3.07318456e-02  7.89410695e-02 -4.24530618e-02
  -4.10972722e-02  7.81024173e-02  2.08997503e-02 -6.83309734e-02
   3.52438539e-03 -8.06252584e-02 -1.12257451e-02 -1.37095004e-02
   5.61364666e-02  4.57823351e-02 -5.90330586e-02  4.01611254e-02
  -7.25311786e-03 -7.38532767e-02 -1.80356354e-02  2.28395388e-02]
 [ 7.43332878e-02  8.35969299e-03 -4.56572808e-02  9.88175720e-03
   1.63798332e-02  3.35468426e-02  2.47801393e-02  1.11897364e-02
   2.20127106e-02  4.32519093e-02 -4.92830761e-02 -7.40431175e-02
   4.29080129e-02 -6.57390207e-02 -7.47960582e-02  7.01979324e-02
  -4.18105833e-02 -5.10102585e-02 -1.85554475e-02  2.85785273e-02
  -5.04207090e-02 -7.22444430e-02 -6.63141236e-02  4.31563184e-02
   6.65482506e-02  6.27311096e-02 -4.31805104e-02 -6.41945675e-02
   4.70930114e-02 -6.61984086e-05 -4.02284004e-02  3.78950387e-02
   5.72761521e-02  7.12959394e-02 -2.70685330e-02 -6.04307950e-02
  -2.95484960e-02  2.30094418e-02 -5.18252924e-02  2.51269266e-02
   3.97415608e-02  2.48413607e-02  7.84136131e-02  5.19620702e-02
   2.23710835e-02  3.95876169e-03 -5.29758632e-02  7.52812549e-02
   5.76254651e-02 -2.91140415e-02 -1.12483576e-02  3.83528173e-02
  -5.65464869e-02  1.87424123e-02 -6.99797943e-02  5.71624413e-02
   6.55615702e-02  5.68088070e-02  4.96918708e-03 -4.98106256e-02
  -6.81402609e-02 -1.84552372e-02  1.66768283e-02  7.22892955e-02
  -4.93420586e-02 -5.11270799e-02  7.22552910e-02  8.00372437e-02
   2.59659588e-02 -4.80829626e-02  7.66469911e-02 -8.69850069e-03
  -6.58912212e-03  2.45588124e-02 -6.82493448e-02 -3.84193994e-02
   5.74612990e-02 -6.08088225e-02  3.27016488e-02  6.63854405e-02
  -6.29970655e-02  4.20803353e-02  5.36452606e-02 -1.78439692e-02
   3.43012139e-02  7.47385100e-02 -3.43103968e-02 -1.24296322e-02
  -2.10875645e-02 -8.07758868e-02 -2.78486200e-02  3.80215347e-02
   5.73764518e-02  4.40014079e-02  6.14618883e-02 -1.27801821e-02
  -8.08309764e-03 -2.14828588e-02 -3.78915034e-02  6.66831955e-02
   8.03484097e-02  2.17431933e-02 -7.65522420e-02  1.05511472e-02
  -3.38045284e-02  6.34795800e-02  3.44343558e-02  3.08242440e-02
  -3.82620096e-03 -1.11548305e-02  5.68045154e-02 -7.61768892e-02
   9.69096273e-03  2.58454084e-02  5.55091128e-02  6.52981922e-02
   5.40686473e-02 -8.08074623e-02  1.43152177e-02  9.03993845e-03
  -8.10687989e-02  7.81044737e-02 -5.14090136e-02  6.26673028e-02
   4.25294042e-02 -2.24647038e-02 -2.14942880e-02 -1.86932907e-02]
 [-8.84996578e-02 -2.78726816e-02 -7.86833242e-02  1.01846186e-02
  -4.44419868e-02 -4.89728339e-02 -7.99754411e-02 -5.60536683e-02
  -3.14612947e-02 -7.93333054e-02  4.78977486e-02 -2.31035184e-02
   1.94626418e-03  4.28183191e-02  5.81310764e-02 -9.04652700e-02
   4.93614338e-02  5.27989455e-02  1.89345181e-02 -7.58410245e-02
   5.45670167e-02 -6.29556403e-02  2.48897038e-02  5.58335558e-02
   5.59013411e-02 -5.12262136e-02  5.73244728e-02  1.64523553e-02
   6.86684996e-02 -4.46967147e-02  7.26821497e-02  6.32259175e-02
   1.79833043e-02 -2.60938611e-02 -7.95049369e-02  8.01675916e-02
   3.73062864e-02 -9.03679803e-02  5.32488413e-02  4.88863587e-02
   2.08010292e-03  2.23316010e-02  5.11108227e-02  7.11217970e-02
   4.08756658e-02 -4.87348959e-02  1.73106082e-02 -3.79343815e-02
  -4.33691554e-02 -2.23061088e-02 -1.35732889e-02  5.89441415e-03
  -3.21067423e-02 -3.52821499e-03  4.47018743e-02 -5.10909148e-02
   5.71613088e-02 -3.44858952e-02 -3.34239043e-02 -5.00797778e-02
   4.91777323e-02 -3.72859240e-02 -5.85368574e-02  5.96140102e-02
   6.04103506e-03  2.89979950e-02  5.96868917e-02  1.19733429e-02
   5.54128252e-02 -1.14547685e-02 -6.59002066e-02  6.42264709e-02
   2.00323761e-04  1.59431696e-02  5.66447526e-03 -6.53463453e-02
  -5.35156727e-02 -5.30926883e-02  4.59297635e-02  2.06793286e-02
  -6.88907579e-02  6.74994010e-03  8.34766552e-02  7.88996294e-02
   6.37784079e-02 -1.43892271e-02  3.59255634e-02  5.51160723e-02
   1.47088123e-02 -5.70458658e-02 -8.79815742e-02  1.99975222e-02
  -5.01665287e-02  9.04785469e-03  5.50777055e-02  4.95584384e-02
   2.63526328e-02 -4.79982607e-02 -3.90587226e-02  2.14655455e-02
  -3.61921787e-02  6.47787452e-02 -4.57579307e-02  4.06769626e-02
   3.32964770e-02  4.02162597e-02 -4.11205739e-03  7.68544152e-03
   8.09803456e-02  5.57134822e-02 -1.98587775e-04 -5.70156649e-02
   1.54149309e-02 -8.77094269e-03  3.25537249e-02  1.71577483e-02
   4.26727459e-02 -8.83006230e-02 -2.09431574e-02  2.44675912e-02
   1.77378077e-02  3.74405868e-02 -9.16816816e-02 -1.56506822e-02
   8.00834373e-02  3.12565342e-02  4.66686562e-02  4.05704305e-02]
 [-4.47825296e-03 -4.94979583e-02 -3.36342417e-02 -7.79811991e-03
  -1.25797018e-02 -7.23282471e-02  4.78781126e-02  5.02213836e-04
   1.02467490e-02 -4.98505160e-02  8.89731646e-02  1.60584971e-02
   2.01899204e-02 -7.70450085e-02 -9.75290406e-03 -4.90375422e-02
   4.28400785e-02 -2.87249796e-02 -7.68868923e-02  2.58301366e-02
   3.04914149e-03 -6.59155054e-03  8.81941915e-02  3.98827232e-02
  -3.38104814e-02  1.62143093e-02 -3.73527482e-02  5.65160438e-02
  -6.75870106e-03 -7.04957247e-02  9.50142518e-02  2.01874766e-02
   3.29559036e-02 -5.81771135e-02  6.63301721e-02  4.89826910e-02
   2.59337258e-02  2.54001543e-02 -6.03204183e-02 -3.76290455e-02
   3.29465531e-02  5.58926389e-02 -1.03071548e-01  8.46619830e-02
  -4.58947122e-02  1.88094545e-02  3.61510850e-02  6.44626245e-02
   2.53302157e-02 -4.09633759e-03 -5.04197255e-02 -4.14684508e-03
   9.02753472e-02 -4.13995869e-02  1.23750204e-02  6.64330646e-02
   7.16916621e-02  1.71305239e-02  2.34832019e-02  6.51869848e-02
  -4.09786366e-02  8.25457498e-02  1.68706328e-02  4.46909294e-02
  -2.74039768e-02  3.78162935e-02  8.90108868e-02  6.03213115e-03
  -8.50597471e-02 -1.14162313e-02 -7.85334110e-02  6.18483126e-03
  -4.95099351e-02 -6.40788600e-02 -4.94647399e-02 -5.46996519e-02
   1.45485699e-02 -9.52358823e-03  9.12841558e-02 -7.71184787e-02
  -8.86359215e-02  5.59822470e-02 -7.87811354e-03  8.23493451e-02
  -4.67404984e-02  1.61143877e-02 -1.49639137e-02 -3.88644747e-02
   3.43882805e-03 -4.91390266e-02  5.15822209e-02  2.54861563e-02
  -8.44733566e-02  6.46192580e-02  3.39054689e-02  8.01778063e-02
   4.84810062e-02 -6.06922731e-02 -4.36458690e-03 -9.56226140e-02
   3.28027830e-03  1.22270230e-02 -7.28928670e-02  1.15776351e-02
   5.57838976e-02 -5.74896149e-02 -9.62842256e-03 -4.49726395e-02
   2.72963364e-02 -1.29140392e-02  7.27356747e-02 -1.06921777e-01
   6.66892305e-02 -8.01806971e-02  3.67641635e-02 -8.30501318e-04
  -3.38861756e-02  1.91773362e-02  2.30762106e-03  3.03111058e-02
   5.49606606e-02  2.21975744e-02 -2.36502253e-02  8.50942731e-02
   2.41855858e-03  1.15148658e-02  6.26108050e-02 -4.93638031e-02]
 [-7.35162944e-02 -5.38458154e-02 -1.73165977e-01 -1.16342209e-01
  -9.07476991e-03 -1.54459193e-01 -5.21904416e-02  1.45796556e-02
   1.58729386e-02 -7.97283351e-02  1.40131280e-01  8.04918185e-02
   7.43512511e-02  1.75133925e-02  9.89023875e-03 -5.49715832e-02
   1.24657393e-01  1.77887395e-01  7.71714747e-02  7.09618554e-02
   1.09415025e-01  1.02195010e-01 -1.12156831e-01 -1.63042381e-01
  -7.26714879e-02  1.13148071e-01 -6.82889521e-02  6.89133778e-02
   1.71964362e-01 -6.29362613e-02  2.07021058e-01 -1.37731582e-01
   1.41570002e-01  6.87270239e-03  2.09476203e-02  1.46110743e-01
   1.81335621e-02  4.18032110e-02 -1.15543142e-01 -6.54033273e-02
   8.37561768e-03  1.97843179e-01 -1.45166144e-01  1.56377688e-01
   1.83319896e-01  1.88966170e-01 -1.28590941e-01 -2.70152986e-02
  -1.00430073e-02  1.21538706e-01  1.82933118e-02 -2.93802060e-02
   8.40684772e-02 -1.93429030e-02  1.49690121e-01 -9.56110507e-02
  -2.98762880e-02 -1.30183056e-01 -6.37732670e-02 -4.13273387e-02
  -4.22956906e-02  1.37166842e-03  4.94983569e-02 -2.10843652e-01
  -3.31426598e-03  4.65074554e-03  9.56030563e-03  1.41163856e-01
  -1.27981678e-01 -1.32320613e-01 -1.00932799e-01  3.12586054e-02
   4.46068235e-02 -8.16582218e-02 -5.01845665e-02 -1.75310344e-01
  -5.03926761e-02 -1.00361459e-01 -3.65645289e-02 -2.10844785e-01
  -1.82340264e-01  2.01474026e-01  2.02213023e-02  1.18437782e-01
   7.52973631e-02 -4.94195968e-02  2.82437373e-02 -1.60228804e-01
  -7.09750652e-02  9.95066110e-03 -7.72735253e-02  6.90605566e-02
  -1.38889283e-01  1.47837447e-02 -4.09887321e-02 -2.41253059e-02
   1.85621753e-02  6.51713461e-02  1.83997333e-01 -2.69195926e-03
  -3.16247903e-02  2.06256136e-02 -6.93820342e-02 -7.64781088e-02
   3.40548605e-02  7.75369182e-02 -1.67899951e-02  1.80760473e-02
   1.01254962e-01  7.72527233e-02  4.09639180e-02 -1.78915024e-01
   1.59738064e-01 -1.30431280e-01 -3.36406054e-03 -1.32088072e-03
  -5.07119559e-02 -1.99277159e-02  1.71151295e-01 -3.53045985e-02
   1.61950216e-01  3.15471664e-02 -1.99995160e-01  2.95436326e-02
   2.60407217e-02 -1.84556767e-01 -1.39688170e-02 -6.66553602e-02]
 [ 6.58441782e-02 -1.88503470e-02 -1.78858325e-01 -1.08268246e-01
  -9.11228210e-02 -1.17473461e-01  4.78393734e-02 -3.69712599e-02
   4.61093411e-02 -1.28919303e-01  1.98164687e-01 -7.73368776e-03
   5.80946244e-02  2.15580873e-02  5.16139716e-02 -2.53747012e-02
   1.20901234e-01  7.17720687e-02  5.94208501e-02  5.04673310e-02
  -1.97442211e-02  6.45397305e-02 -1.47670945e-02 -1.29104078e-01
  -9.50954668e-03  6.38208538e-02  6.19400032e-02  4.03573662e-02
   8.17477033e-02  3.73231731e-02  1.08569063e-01 -1.66239038e-01
   4.16481122e-02  2.74883192e-02  2.30808649e-02  5.52098230e-02
  -1.46926604e-02  7.10667344e-04 -4.20230739e-02  8.34861770e-02
   7.59725869e-02  1.47956297e-01 -6.91576004e-02  3.23053338e-02
   4.21763249e-02  8.97068381e-02 -2.65823472e-02 -5.35530746e-02
  -4.04140772e-03  6.04710877e-02  3.83450314e-02  1.00390213e-02
   5.55592105e-02  8.00467357e-02  1.02023326e-01 -1.02568887e-01
  -2.40085777e-02  4.51588258e-03 -1.72631606e-01 -3.77136581e-02
  -6.03752807e-02  4.50273380e-02  6.50424510e-03 -4.30840068e-02
  -1.45134125e-02  2.91906446e-02 -2.74308044e-02  1.79350138e-01
  -6.97090030e-02 -8.03580806e-02 -5.10177985e-02  8.56561679e-03
  -7.66822174e-02  3.04370206e-02 -5.00734197e-03 -1.48184523e-01
   2.60717086e-02 -6.86741769e-02 -5.34028336e-02 -1.59839347e-01
  -1.61253382e-02  8.78879502e-02  6.27192780e-02  4.69086580e-02
   1.94901824e-02 -3.65472846e-02 -1.60452388e-02 -5.27208718e-03
  -7.00641423e-02 -7.56002124e-03 -6.95728511e-02  1.88389625e-02
  -8.94368961e-02 -7.46823940e-03 -7.57006705e-02 -1.78564880e-02
  -4.09285054e-02 -2.57782787e-02  8.87142569e-02  1.02632716e-02
   6.15408830e-03 -1.87161844e-02 -5.05203381e-02 -4.38405611e-02
   1.00592792e-01  3.94961610e-03 -2.13802177e-02 -8.60418752e-03
   1.50412515e-01  4.32663485e-02 -2.20934115e-02 -1.15347765e-01
   9.68430042e-02 -1.53773814e-01 -4.92071435e-02  6.95662871e-02
  -8.54758993e-02 -1.00128047e-01  1.05216071e-01 -5.77406138e-02
   8.19139555e-02  1.99629702e-02 -9.23843533e-02  4.17483598e-02
  -2.59155873e-02 -1.21800065e-01 -5.17159887e-02 -1.25055745e-01]
 [-1.03801861e-01  1.99348647e-02 -1.27710477e-01 -7.33350292e-02
  -1.54493541e-01 -7.86302909e-02  5.96277900e-02  3.79385911e-02
   4.10683192e-02 -7.41589218e-02  1.81452900e-01  7.47876763e-02
  -6.72925115e-02 -9.99372173e-03  5.78023233e-02 -8.69369954e-02
  -1.99562404e-02  3.81906214e-03 -1.33644948e-02  4.73007886e-03
   6.34983629e-02  7.51430392e-02  6.55864701e-02 -9.19192284e-02
  -4.30408306e-02  1.43769398e-01  4.89715338e-02  6.01793639e-02
   8.27174783e-02 -4.08005267e-02  1.78422064e-01 -1.42685731e-03
   1.11139759e-01  1.13376109e-02  6.85577393e-02  3.84963653e-03
   2.45103184e-02  4.56660464e-02 -3.66336592e-02  1.84145302e-01
  -3.37915048e-02  7.13679120e-02 -4.72274646e-02  4.14290233e-03
   1.14721008e-01  2.26038005e-02  3.73806246e-02  4.50383639e-03
  -5.24125360e-02  1.23951465e-01 -2.33486318e-03  3.50596309e-02
   9.62594077e-02 -4.61595170e-02  8.48990828e-02  1.16999529e-01
   1.99419186e-02 -4.29481119e-02 -1.76630989e-02 -9.76081789e-02
   2.47306563e-03 -1.79971736e-02 -6.67478070e-02 -3.53315063e-02
  -1.50932679e-02  1.36571661e-01 -5.79183884e-02  3.12879384e-02
  -7.95238316e-02  8.23909231e-03 -7.05332309e-02 -4.97360853e-03
  -2.96000391e-02  2.77482495e-02  4.47199531e-02 -4.94391583e-02
   2.08880380e-02  3.21976678e-03  7.98992589e-02 -3.25696846e-03
  -1.20099001e-01  8.26844797e-02 -2.02971287e-02  7.24607855e-02
   7.23037794e-02  6.74210489e-02  7.72625357e-02  1.19307853e-01
  -3.93259265e-02 -9.57683846e-02 -9.07631889e-02 -3.28164324e-02
  -2.13113874e-01 -8.31895247e-02  2.66270456e-03  6.32966906e-02
  -2.91948691e-02 -3.99098881e-02  8.10118683e-04  3.26440408e-04
   1.79683790e-02 -6.87401667e-02 -7.79520273e-02 -3.17627452e-02
  -4.25432809e-02 -4.23379540e-02  1.38988672e-02  1.60530526e-02
   1.07493259e-01 -5.51892184e-02  1.28744766e-02 -1.22391582e-01
   1.30416706e-01 -1.62272081e-01 -7.74912909e-02  4.74589244e-02
   3.60632092e-02 -7.02213198e-02  1.22918032e-01  8.16147104e-02
   1.38983816e-01 -2.40947790e-02 -1.30502596e-01  5.70119023e-02
   4.97757085e-02 -1.82718217e-01  4.96763475e-02 -5.85282855e-02]
 [-1.38400182e-01 -1.43396379e-02 -1.86860055e-01 -8.22705105e-02
  -8.67043212e-02 -1.18355863e-01  2.21307743e-02  5.12570478e-02
  -7.27664009e-02 -3.92409414e-02  2.11307123e-01  9.11619440e-02
  -1.24746881e-01 -3.29852812e-02 -1.50290236e-01 -1.23677179e-01
  -6.14087842e-02  7.44042546e-02  1.34856375e-02  4.48239371e-02
  -9.83027443e-02  7.35741183e-02  1.17995348e-02 -7.58588985e-02
  -1.40111938e-01  8.02214518e-02 -1.02261193e-01 -1.91967729e-02
   1.07381597e-01 -5.34567311e-02  1.02077514e-01 -7.82112628e-02
   1.43616915e-01  6.14699796e-02  4.09930833e-02  2.04197783e-02
   7.11725233e-03  3.22316922e-02 -1.18118510e-01  1.41735345e-01
   2.32139379e-02  9.69827175e-02 -4.94944863e-02  1.79395646e-01
   8.66758674e-02  7.94145465e-02 -1.75550189e-02  4.30444703e-02
  -3.12784165e-02  1.80055812e-01  1.56184793e-01  1.63158745e-01
   8.49737599e-02  1.15788877e-02  8.37956816e-02  2.00281776e-02
   7.97936507e-03 -1.07758686e-01 -2.41821520e-02  1.57236699e-02
  -1.28929451e-01  1.44756764e-01 -4.84082885e-02 -1.41593099e-01
  -3.49843428e-02  7.79254958e-02  7.47849494e-02  8.29255059e-02
  -1.45388588e-01 -2.34892610e-02 -1.52693540e-01  4.20862660e-02
  -3.47346291e-02  6.63160086e-02 -6.37101084e-02 -8.77535120e-02
   5.02572246e-02 -7.62638748e-02  7.62372389e-02 -5.34583814e-02
  -1.51685271e-02  1.08483121e-01  5.53824380e-02  1.07235722e-01
   4.26881537e-02 -1.01572752e-01  3.79337147e-02  1.40084475e-02
  -6.06498383e-02 -5.33340573e-02 -7.50523806e-02 -1.26025835e-02
  -2.50483781e-01 -1.37118506e-03 -6.23257831e-02 -4.71191071e-02
  -9.00134817e-02 -3.28088030e-02  2.74778027e-02 -2.86411447e-03
  -8.01436678e-02 -2.18440425e-02 -9.37812105e-02 -1.12077519e-01
   3.35791670e-02 -1.85141061e-02  8.46896023e-02 -2.85230167e-02
   6.67560659e-03  2.95712389e-02 -5.82793504e-02 -1.77081063e-01
   8.50788355e-02 -2.05863491e-01 -7.42956623e-02  7.45986551e-02
   3.70567553e-02 -3.07057612e-02  9.97757539e-02  3.23666036e-02
   1.74927607e-01 -6.77856728e-02 -1.27641469e-01  4.47550043e-02
   1.05654277e-01 -2.50857174e-01  1.01333685e-01 -6.10851087e-02]
 [-7.09214285e-02 -1.75962988e-02 -1.96492169e-02  2.69714533e-03
  -1.63610522e-02 -7.74323940e-02  3.23372856e-02  9.37185623e-03
  -7.82924667e-02 -9.48729441e-02  1.55411541e-01  2.10530102e-01
  -2.17606515e-01  7.86516964e-02 -3.47162224e-02 -1.91294700e-01
  -2.36456439e-01  1.12554245e-01 -5.91788702e-02 -5.27291074e-02
   1.45689705e-02  7.71233812e-02  1.66328058e-01  8.98982212e-03
  -2.39811063e-01  1.80304721e-01 -8.09105858e-02  5.17288856e-02
   1.05626710e-01 -5.39811477e-02  2.08176300e-01 -1.06218658e-01
   1.47830978e-01  5.57206720e-02 -1.13342009e-01  1.75828971e-02
   3.89131419e-02 -8.71689245e-02 -6.53889179e-02  1.19065441e-01
   2.13289633e-02  2.20515385e-01 -2.80233175e-02  1.13131911e-01
   1.71596244e-01  1.28414705e-01 -4.26211804e-02  4.74847220e-02
  -3.90808284e-02  1.85845196e-01  9.87796634e-02  2.32167512e-01
   1.16405845e-01 -7.14479759e-02  4.58805189e-02  3.03074587e-02
   8.11685324e-02  1.08432323e-02 -1.63758084e-01  7.33615161e-05
  -2.10178364e-03  1.40430212e-01 -2.11302638e-01 -1.31484434e-01
   6.72836006e-02  1.00026123e-01  9.81250405e-03  1.19866103e-01
  -1.39064014e-01 -1.40927350e-02 -3.38317826e-02 -8.00391659e-02
   6.76762487e-04  6.81426004e-02  5.12414984e-02 -2.05493763e-01
  -1.19634070e-01  1.81670990e-02 -3.84590328e-02 -7.70669505e-02
  -1.75219215e-02  4.08021435e-02  1.19881138e-01  1.40365824e-01
   6.92782402e-02 -1.12599865e-01  7.76739493e-02  7.80762807e-02
  -1.15275872e-03 -2.44402699e-02 -5.20405956e-02 -3.40242051e-02
  -2.59856999e-01  4.42680717e-03 -2.64087673e-02 -7.93512911e-03
   5.06839044e-02  3.24607454e-02  3.84555459e-02 -6.71332376e-03
   3.39460634e-02 -4.76239584e-02 -3.96397375e-02 -6.94857584e-03
   1.17858037e-01  9.26443338e-02 -5.60820997e-02 -9.03334543e-02
   4.23999364e-03  7.08262771e-02 -2.15717591e-02 -1.64896905e-01
   1.50455102e-01 -2.26653054e-01 -6.14941195e-02  1.14938151e-02
   1.09812152e-02 -1.09699115e-01  8.34387913e-02  9.32762176e-02
   1.65789083e-01  1.10971350e-02 -1.23450704e-01 -1.68658309e-02
   7.40283802e-02 -2.25526467e-01  5.20866886e-02  6.05932064e-02]
 [-7.42196739e-02  8.06737971e-03 -4.93714437e-02  5.95159717e-02
   1.64049134e-01 -2.10277542e-01 -3.97906639e-02 -1.22224115e-01
  -1.79408967e-01 -2.29976058e-01  2.68520385e-01  8.47992301e-02
  -1.92001864e-01  1.22121789e-01  3.52356508e-02 -1.16907656e-01
  -3.58882025e-02  4.30897586e-02 -1.64662465e-01  1.12049438e-01
   4.71638255e-02  2.63291635e-02  2.32877061e-01 -1.30852044e-01
  -9.47159454e-02  1.14178918e-01 -7.79735968e-02  1.84067100e-01
   2.51648813e-01 -8.60636383e-02  1.25286877e-01  4.97650029e-03
   5.62234260e-02  4.84663434e-02  8.07746947e-02  1.64976954e-01
   1.32124260e-01  1.08269863e-02 -8.24169293e-02  5.38747273e-02
   4.76163477e-02  1.42662138e-01  2.89961193e-02  9.69102830e-02
   7.09508955e-02  1.20839506e-01 -2.02324197e-01  2.10634500e-01
  -2.06155926e-02  1.42911837e-01  4.60943989e-02  8.90631154e-02
   1.43084824e-01  7.18673319e-03  9.23415646e-03  1.42741323e-01
  -1.99613459e-02 -3.16436887e-02 -5.87926991e-02  1.22209564e-02
   4.84617539e-02  1.85675204e-01 -2.28989631e-01 -1.71756580e-01
  -2.89928988e-02 -4.01934870e-02 -1.34600282e-01  1.56396274e-02
  -2.06007492e-02  1.99739765e-02 -9.51187015e-02 -9.97840688e-02
  -6.97412044e-02  1.99307054e-02  1.19471438e-02 -3.86887267e-02
  -1.31184772e-01 -5.77420034e-02 -1.45133939e-02 -1.84077471e-02
  -3.57088260e-02  2.44561091e-01 -6.66006980e-03  1.05592817e-01
   1.38064370e-01  1.85632408e-01  1.92803562e-01  1.00602821e-01
  -1.56193286e-01 -1.03493795e-01 -5.24086617e-02  8.01851973e-02
  -7.51940981e-02 -8.71782228e-02 -3.55596691e-02 -1.04057631e-02
  -1.13835686e-03 -1.31285572e-02  9.85882208e-02 -3.03674601e-02
  -5.03123179e-02 -2.82601081e-02 -1.37902886e-01 -1.73702627e-01
   1.25708923e-01 -9.85764489e-02 -1.23975813e-01  2.36259680e-02
   2.21616805e-01 -5.23026697e-02  8.57426599e-03 -2.12643206e-01
   7.05112144e-02 -2.99950808e-01 -4.94054668e-02  3.86263207e-02
   9.22634080e-02 -9.73141864e-02  4.09815647e-02  1.12919018e-01
   7.31107220e-02  4.59760390e-02 -5.78521006e-02  1.16838172e-01
   1.08364068e-01 -2.69113511e-01 -8.98671150e-02 -3.27443667e-02]
 [-3.71131599e-02 -1.13137133e-01 -1.74009740e-01  1.91957671e-02
   2.07026303e-01 -2.17630982e-01 -1.58058852e-01 -9.24246944e-03
  -1.90929830e-01 -3.17727208e-01  2.63207555e-01  2.81227261e-01
  -1.31179675e-01  2.69961685e-01 -1.55866919e-02 -8.13270286e-02
  -8.72818008e-02  1.25985384e-01 -4.98837568e-02  1.30107820e-01
   1.08908214e-01  1.06037267e-01  7.26647824e-02 -1.61341220e-01
  -2.80138046e-01  2.28297576e-01 -1.89473912e-01  1.53661799e-02
   2.58657873e-01 -1.49221838e-01  1.09513685e-01 -7.90415406e-02
   2.08648905e-01 -3.37383337e-02  1.22196637e-01  1.70406684e-01
   1.43220231e-01 -5.37186349e-03 -9.89612788e-02  3.20152417e-02
   1.22120880e-01  2.97092378e-01 -7.35230371e-02  2.18992919e-01
   2.05705941e-01  4.61639725e-02 -1.89238563e-01  1.71880722e-01
  -1.05739065e-01  1.41655758e-01  2.93172330e-01  1.22920655e-01
   2.93857127e-01 -3.48052382e-03  3.80088687e-01  9.29817408e-02
   2.15799753e-02 -8.80932808e-02 -4.61606383e-02 -4.15156186e-02
   2.61974018e-02  2.43935421e-01 -8.19428042e-02 -1.64891168e-01
  -3.06204148e-02  2.29866356e-01 -1.35266304e-01  6.03254475e-02
  -1.33766249e-01 -1.03868291e-01 -2.23753855e-01 -3.56544964e-02
   4.83945310e-02 -1.84891000e-02 -2.86631417e-02 -1.78044066e-01
  -1.71890467e-01 -1.62331775e-01  2.57419974e-01  6.01332895e-02
  -2.11946145e-02  2.62954980e-01  1.27726033e-01  2.11922973e-01
  -6.14619954e-03  1.52906775e-01  2.20122159e-01 -8.78207088e-02
  -1.21923201e-01 -6.01993948e-02 -1.61531731e-01 -9.59121436e-03
  -3.65738198e-02 -1.00799568e-01 -2.91830778e-01 -1.31506741e-01
  -2.71778218e-02 -4.85597029e-02  1.94452927e-01 -9.50575769e-02
  -1.37101067e-02 -1.44303516e-01 -9.74569768e-02 -2.47532710e-01
   2.05792859e-01 -1.58173405e-02  5.16003929e-02  1.68964104e-03
   2.78581500e-01  9.37345400e-02 -1.84203107e-02 -3.73195082e-01
   1.17966525e-01 -3.36862087e-01 -2.06798032e-01  7.18410686e-03
   3.62306014e-02 -5.37760109e-02  1.56543553e-01  9.74652022e-02
   2.78670073e-01  1.87434498e-02 -1.83000922e-01  2.63092127e-02
   1.43795803e-01 -1.01532876e-01  2.10080929e-02  2.75321510e-02]
 [ 1.71451624e-02 -1.62658021e-01 -2.37539381e-01 -1.48690879e-01
  -2.38791499e-02 -3.82870793e-01 -1.28911018e-01  1.13280928e-02
  -4.27538931e-01 -3.18501472e-01  3.73500288e-01  1.73256770e-01
  -1.57875106e-01  1.56456649e-01 -8.14917013e-02 -7.80442916e-03
  -3.88474949e-02  1.85802102e-01  3.47521976e-02 -2.30989680e-02
   7.92317986e-02 -4.38221619e-02  8.92834812e-02 -8.03450868e-02
  -3.88666540e-01  1.85457096e-01  7.66181666e-03  1.04773557e-02
   2.07763031e-01 -9.76472348e-02  9.18425769e-02 -1.10762636e-03
   1.82006389e-01 -2.38680504e-02  8.78705233e-02  2.46867806e-01
   1.95549101e-01 -3.41341309e-02 -3.46597552e-01  6.60985857e-02
   9.18186307e-02  3.94949168e-01 -1.52667537e-01  1.95816979e-01
   2.81854570e-01  4.11904529e-02 -9.81741771e-02  2.87576735e-01
  -2.82136146e-02  2.17761114e-01  2.06539810e-01  1.18113846e-01
   1.69405371e-01 -3.28415968e-02  2.97757089e-01  7.05183670e-02
   7.13786483e-02 -3.69116552e-02 -7.66183212e-02 -1.08517505e-01
  -1.45363612e-02  4.15034890e-01 -1.02234229e-01 -3.36627692e-01
   6.16481081e-02  2.91719496e-01 -7.07400739e-02  1.08251952e-01
   8.16413201e-03 -3.80256549e-02 -3.75750303e-01 -7.96739906e-02
  -6.51135892e-02  9.71250087e-02 -8.86555109e-03 -2.77103215e-01
  -9.84432772e-02 -8.23697224e-02  1.78285062e-01 -1.22953385e-01
  -4.84107155e-03  2.02400297e-01  1.21442989e-01  2.21363589e-01
  -8.27082321e-02  1.12871855e-01  1.50488198e-01 -6.75360411e-02
  -3.27424370e-02 -1.23018548e-01 -1.09619088e-01 -4.47695553e-02
  -5.46265170e-02  6.14117198e-02 -1.75274715e-01 -1.03865787e-01
  -2.84640491e-02 -4.15017568e-02  2.31952742e-01 -2.56208569e-01
  -2.22947881e-01  5.06641902e-02 -2.00433016e-01 -2.34383538e-01
   2.38243282e-01 -1.00003131e-01  2.90357526e-02 -3.31292115e-02
   9.92098153e-02  9.40833613e-02  1.25178680e-01 -3.21743488e-01
   2.59280026e-01 -5.59241354e-01 -1.82795644e-01  5.00674685e-03
   1.01102203e-01 -3.35993096e-02  1.97548017e-01  1.10117951e-02
   2.84377515e-01 -6.48932829e-02 -2.25016087e-01  1.68315694e-01
   9.93623510e-02 -5.44292033e-02  1.61839887e-01 -5.24081141e-02]
 [-2.88924456e-01 -1.33345410e-01 -2.02058256e-01 -8.84768069e-02
  -2.63138950e-01 -6.22369722e-02  1.18216053e-02  3.44028063e-02
  -2.15000853e-01 -2.68796057e-01  3.23044986e-01 -4.19869050e-02
  -2.83018082e-01 -1.32646486e-01 -2.04157680e-01 -7.21435547e-02
  -1.60204276e-01 -6.88405409e-02 -1.88204739e-03  2.71262586e-01
  -5.16715199e-02  5.35600148e-02  4.70690839e-02 -1.43930122e-01
   1.85356997e-02 -8.95982794e-03  1.21329293e-01  5.04789464e-02
  -1.11331135e-01  1.00001231e-01  5.94837256e-02 -5.87144904e-02
   2.18039125e-01  2.11493880e-01 -5.68621084e-02 -8.93554911e-02
   2.02172156e-02  2.67486162e-02 -2.20558599e-01  2.00519890e-01
   7.31409667e-03  1.31043926e-01 -1.06386594e-01  5.44401892e-02
  -4.14229417e-03 -3.58567433e-03  1.42844692e-01  2.04293624e-01
  -1.08481333e-01 -2.25848719e-01 -1.50846015e-03 -8.37228354e-03
  -1.44241497e-01 -4.45355251e-02 -1.70732811e-01 -4.99758571e-02
   2.20868140e-02 -1.19524635e-01 -1.32427007e-01 -1.42759860e-01
  -2.13852778e-01  2.63273954e-01  1.56713188e-01 -1.02115646e-01
   1.19700711e-02  1.22764543e-01  2.64141858e-01 -1.21257953e-01
   2.85343062e-02  4.34566848e-02 -3.31870973e-01  4.67179753e-02
  -1.82934534e-02  2.66356736e-01  7.40954727e-02 -1.63319200e-01
  -8.58188421e-02  1.24565028e-01  1.35230705e-01  2.33658981e-02
  -1.75191499e-02  2.10027158e-01  1.03673667e-01 -1.05887875e-01
   1.97115213e-01 -2.47233540e-01 -1.37726637e-03  1.55053154e-01
   3.55934948e-02 -1.46601841e-01  1.36047393e-01  1.29460990e-01
  -3.87990735e-02  4.28433158e-02  3.40126827e-02 -1.17976114e-01
   2.79061273e-02  6.21879399e-02  7.56593570e-02 -6.19994514e-02
   1.86242551e-01 -4.69117891e-03 -3.37593840e-03  2.67967790e-01
  -2.71617286e-02  1.66848391e-01  1.71345085e-01 -7.98501819e-02
  -1.61173977e-02  1.03991903e-01  1.00523472e-01  4.29846272e-02
   1.59435809e-01 -4.39199001e-01 -8.29965621e-02  4.32076342e-02
  -1.27594760e-02 -2.47314051e-02  2.92592585e-01 -6.71107769e-02
   6.05775379e-02  1.80649921e-01  6.35611936e-02  1.14937380e-01
  -8.75882059e-02 -9.89072677e-03 -5.39339669e-02 -1.20872632e-01]
 [-1.59874901e-01 -5.68310954e-02 -3.78012687e-01 -9.75014046e-02
  -2.67564952e-01 -2.54997820e-01 -7.22546875e-02 -1.02947012e-01
  -1.53246388e-01 -2.70557642e-01  4.18655872e-01 -1.08716041e-02
  -1.69858113e-01 -1.32560536e-01 -1.86926067e-01 -1.06414750e-01
  -5.50492592e-02 -3.83950993e-02  3.68804894e-02  3.71161669e-01
   1.45847350e-02 -1.55892611e-01 -1.33840844e-01  1.57099124e-02
   8.46450776e-02  6.31678030e-02  1.43710792e-01  7.15531260e-02
  -4.61779609e-02  1.67326406e-01  1.33075058e-01 -1.56951845e-02
  -1.74651109e-02  3.35820585e-01  2.16482338e-02  2.02601239e-01
  -1.10701971e-01  2.51414906e-02 -2.66658813e-01  2.89842576e-01
  -1.64619192e-01  5.09510860e-02 -1.04154818e-01  8.93154815e-02
  -7.54882768e-02  1.98023468e-01  1.32157700e-02  2.88108736e-01
  -1.70363970e-02 -2.77890235e-01 -4.09734771e-02 -1.56712860e-01
  -3.38152945e-01  4.03697416e-02 -1.44213259e-01 -1.30490601e-01
   8.21832661e-03 -1.66724533e-01 -1.17572568e-01 -2.33320490e-01
  -6.31607994e-02  4.18011755e-01  1.09053254e-01 -1.32330269e-01
  -6.00192435e-02  2.15120062e-01  2.76432604e-01 -3.35368633e-01
   4.68567982e-02 -2.99056922e-03 -1.96996346e-01 -1.55336037e-01
  -1.15676180e-01  1.69665113e-01 -8.49906448e-03 -3.00186247e-01
  -2.00656518e-01 -1.74089536e-01  3.58731329e-01 -8.05829316e-02
  -1.15237333e-01  2.32427523e-01  2.65604734e-01 -9.53432918e-03
   2.46883959e-01 -1.13383785e-01  1.87557623e-01  2.68794652e-02
  -2.52668336e-02 -2.25914866e-01  4.62161005e-02  1.31377429e-01
   1.66809008e-01 -5.59808798e-02  6.64878935e-02 -8.59574452e-02
   5.64670563e-02  4.53723110e-02  1.25685722e-01 -4.67596762e-02
  -1.29523436e-02  1.98034689e-01 -1.51231796e-01  2.30903834e-01
  -9.72600505e-02  1.38001129e-01  2.46688113e-01  1.05967242e-02
   2.45986879e-01  4.19796631e-02  1.83708727e-01 -2.14026794e-02
   2.00228021e-01  4.25802451e-03 -2.33848691e-01  7.05534294e-02
   1.03499964e-01 -5.57138026e-02  1.35002494e-01  4.20746394e-02
   9.81859639e-02  2.06164867e-01 -2.11081341e-01  4.44881245e-03
  -1.87464982e-01 -8.67665187e-02 -1.87168047e-01 -1.38595894e-01]
 [-1.76546961e-01 -3.22143398e-02 -2.49531150e-01 -7.60767311e-02
  -1.33880943e-01 -9.29616764e-02  3.57441194e-02 -1.08402491e-01
  -1.42942101e-01 -1.85605794e-01  5.09885132e-01  8.56154710e-02
   4.66541611e-02  3.11090704e-02 -1.42446414e-01 -9.65726897e-02
   1.62321597e-01  1.02715552e-01  1.00354530e-01  2.53806174e-01
   2.01745331e-01  1.56429019e-02 -6.57762215e-02  1.39095515e-01
  -1.94982544e-01  8.37245435e-02  2.55362969e-02  2.92484015e-01
   2.90349424e-01  2.56912671e-02  5.37030213e-02  2.23034155e-02
  -9.03784633e-02  1.97354734e-01  8.56690332e-02  2.74681687e-01
  -4.11488749e-02  8.36571902e-02 -1.59699693e-01  2.98271894e-01
  -2.21907660e-01  1.37317479e-01 -2.66971976e-01 -4.74334545e-02
  -1.62351429e-01  2.09556043e-01  7.45502475e-04  1.70172885e-01
   5.53520210e-02 -1.66936845e-01 -1.81369066e-01 -1.87862501e-01
  -1.69039905e-01  7.13495240e-02 -8.63581616e-03 -2.01367691e-01
   3.86338606e-02 -5.82455471e-02 -8.75721425e-02 -1.62904501e-01
  -1.16337985e-01  4.71062839e-01  1.65024772e-02 -2.02456955e-02
  -7.31972083e-02  1.92461178e-01  8.20099413e-02 -1.44818962e-01
   1.41002044e-01  4.29273695e-02 -2.55389631e-01 -2.14329496e-01
  -7.79169872e-02 -1.39534464e-02 -2.62135770e-02 -1.55796230e-01
  -3.91060948e-01 -1.50446549e-01  1.84697390e-01 -3.80662233e-02
  -1.39719546e-01  2.63483822e-01  1.47105783e-01  7.44360462e-02
   1.42725900e-01  2.15348393e-01  1.74580231e-01  6.38967454e-02
  -4.66890074e-02 -1.24683529e-01  6.24919385e-02  2.02779309e-03
   5.14526069e-02 -4.81621735e-02 -5.74145839e-02 -2.42311060e-02
   1.23491846e-01 -1.76259652e-02  1.64403662e-01 -1.07802242e-01
  -1.09270543e-01  1.85572565e-01  3.35772336e-02  9.66844112e-02
  -5.78163899e-02  1.95293501e-01 -1.84936244e-02  9.06196162e-02
   2.17394844e-01  9.20819640e-02  1.00914992e-01 -2.51009434e-01
   2.38061607e-01  2.60697044e-02 -2.31835112e-01 -1.68077722e-02
   2.30678514e-01 -2.56626611e-03  2.33101606e-01  1.51243478e-01
   1.67739645e-01  2.37191811e-01 -2.29803503e-01  3.55054587e-02
  -1.50633544e-01 -4.80998717e-02 -1.27142504e-01 -1.35765642e-01]
 [ 1.24687527e-03  2.99465787e-02 -2.18119621e-01 -1.78280566e-02
  -1.81235194e-01 -1.94191128e-01  4.21883799e-02 -1.85183838e-01
  -8.78561959e-02 -1.76066443e-01  3.89458567e-01  3.12270910e-01
   1.04281723e-01  8.71401280e-02 -1.88580513e-01 -2.22413819e-02
   1.96054384e-01  2.17379496e-01 -9.16102808e-03  2.71370374e-02
   3.34433056e-02  1.26387343e-01  4.17029969e-02  6.29625991e-02
  -2.74536669e-01  1.79169223e-01  7.01883622e-03  1.33695528e-01
   3.86254847e-01 -1.39484867e-01  1.67514160e-01  3.01472750e-02
  -4.85335775e-02  7.66956806e-02  1.15121819e-01  3.90271276e-01
   1.25783652e-01 -2.28622230e-03 -5.34528904e-02  1.93337411e-01
  -1.02612376e-01  3.95680070e-01 -2.18663573e-01  5.94736673e-02
   4.28963974e-02  2.42548883e-01 -9.70969498e-02  2.83801496e-01
  -7.30567500e-02  4.35752124e-02  1.83836490e-01  3.68896537e-02
   6.29981421e-03  1.91235840e-02  1.50996879e-01 -1.77424952e-01
  -2.29021367e-02  4.56501450e-03 -4.35290672e-02 -1.79712519e-01
  -1.18963525e-01  4.30618554e-01 -1.34104222e-01 -4.50381637e-02
   6.46398813e-02  1.47908926e-01 -1.20568767e-01 -4.36703078e-02
   9.36691388e-02 -5.46282390e-04 -2.22270653e-01 -2.35344872e-01
  -5.91361150e-03 -1.38988584e-01  2.93994006e-02 -3.91535580e-01
  -2.88394153e-01 -2.18865886e-01  2.05187261e-01 -1.98794067e-01
  -8.16992670e-02  2.96026558e-01  1.38838843e-01  8.65257457e-02
   1.81259587e-01  1.70067653e-01  1.83519840e-01  1.75789036e-02
  -1.31126205e-02  9.33224708e-03 -1.29442066e-01  1.47478193e-01
   6.99165538e-02 -5.81928268e-02 -2.34100282e-01  1.00013003e-01
  -1.20861260e-02  7.50169083e-02  2.04219356e-01 -2.14644805e-01
  -9.93537605e-02  1.85144216e-01 -8.08813050e-02 -3.32048982e-01
   9.14328545e-03  1.34585816e-02  8.86410922e-02 -3.64558026e-02
   2.53360182e-01  3.32903191e-02  1.89353988e-01 -3.93242389e-01
   4.72732395e-01  3.23991962e-02 -1.15190461e-01  7.49415383e-02
   1.66510999e-01  2.01086961e-02  8.55875686e-02 -1.52046410e-02
   4.54191864e-01  9.75151807e-02 -2.38040194e-01  1.17227018e-01
   6.81214109e-02 -1.34235263e-01  1.60946976e-02 -1.92713201e-01]
 [-6.77786022e-02 -2.03734357e-02 -6.20055981e-02  9.98506844e-02
  -6.08918406e-02 -2.97757715e-01 -9.20124054e-02  1.84627220e-01
  -1.18744329e-01 -1.08464181e-01  3.58934253e-01  2.89750904e-01
  -7.67995119e-02  8.47039372e-02 -1.30796656e-01 -1.95979565e-01
  -3.00299436e-01  2.52640605e-01 -3.64337340e-02 -4.89082113e-02
   6.37679771e-02  1.99195281e-01  1.16405450e-01 -4.63922396e-02
  -3.32978785e-01  2.69871503e-01 -1.61860615e-01 -9.85912383e-02
   2.61126488e-01 -2.61852503e-01  1.05867572e-01 -1.40952110e-01
   4.00522143e-01 -4.05633524e-02  1.95243090e-01  4.17380840e-01
   2.12431192e-01 -2.21725091e-01  1.74864908e-04  2.19699398e-01
   2.65888602e-01  3.60583723e-01 -2.24618614e-01  3.24729979e-01
   3.08170885e-01  1.03043042e-01 -7.91202560e-02  3.33662033e-01
  -1.86740365e-02  3.66827458e-01  2.51806974e-01  2.26056978e-01
   4.00415003e-01 -4.44668159e-02  3.45978498e-01  1.47270918e-01
   4.55374308e-02  1.08123245e-02 -1.56772599e-01 -5.68592399e-02
  -1.89176410e-01  2.14605272e-01 -4.24937457e-02 -2.42308289e-01
   1.46779101e-02  1.02053784e-01 -1.00989275e-01  4.24352437e-01
  -2.28518978e-01 -4.09395136e-02 -2.99114406e-01  1.51610083e-03
  -1.41991079e-02  6.58253059e-02 -1.70155149e-02 -2.23276094e-01
  -7.61197507e-02 -2.13983819e-01  1.63736612e-01 -2.98501194e-01
  -7.01928139e-02  2.12866232e-01  2.66396761e-01  2.88320899e-01
   9.12740752e-02 -6.98370188e-02  2.73227077e-02 -7.14561641e-02
  -5.58442473e-02 -1.21260174e-01 -1.47288546e-01  3.72709818e-02
  -2.44144142e-01 -5.94268665e-02 -2.98960119e-01 -1.33003183e-02
  -1.06177077e-01  5.24305273e-03  3.52327079e-01 -3.14675391e-01
  -4.04274371e-03  4.12992239e-02 -1.60101101e-01 -1.75965905e-01
   1.56910837e-01  3.03071067e-02  3.07979971e-01 -1.79835469e-01
   1.60237119e-01  8.77852887e-02  1.68649256e-01 -3.47103268e-01
   3.13525796e-01 -2.23728210e-01 -2.34262854e-01  2.81002000e-02
  -1.43754601e-01 -1.38338963e-02  1.87000886e-01 -9.05209631e-02
   3.21250379e-01  8.04357156e-02 -3.76349896e-01  8.16244334e-02
   2.20925942e-01 -6.08621836e-02  5.96011505e-02  1.43899675e-02]
 [-5.39827421e-02 -7.29548372e-03 -1.64769664e-01 -1.95282012e-01
  -7.67911747e-02 -3.75921905e-01 -5.67367002e-02  9.97421220e-02
  -5.10452725e-02 -2.04776213e-01  4.02300328e-01  3.89368623e-01
  -1.57333344e-01  1.53110772e-01 -1.28233090e-01 -2.65407652e-01
  -1.37091622e-01  3.28850657e-01 -1.32075801e-01 -1.19507007e-01
   1.71761438e-01 -1.03338165e-02  9.43214446e-02 -5.53698614e-02
  -4.80138600e-01  2.68435657e-01 -1.71520412e-01 -5.77815697e-02
   1.93404347e-01  6.14857487e-03  1.57437563e-01  1.25619015e-02
   3.33209455e-01 -7.43629225e-03  2.30226740e-01  3.10348898e-01
