sequential/dense/kernel:0
(784, 128)
[[ 1.91172659e-02  7.23936483e-02 -7.41498172e-03  6.71559945e-02
   5.07457629e-02  1.11729950e-02 -5.14234602e-02 -4.00341302e-03
   4.62642536e-02 -6.03419542e-02 -2.55483128e-02  3.26989219e-02
   7.91125745e-03 -3.47965620e-02 -6.34893999e-02  6.17557019e-03
  -5.78366369e-02 -7.94503838e-02  5.08085564e-02  6.52356446e-03
   6.16465285e-02  5.47158495e-02  6.99838325e-02 -2.22281590e-02
   8.96223634e-03  4.45752665e-02  2.08763704e-02 -3.73204052e-02
   6.22658804e-02 -6.13135323e-02 -2.07295157e-02  1.54606625e-02
   3.14977393e-02 -5.30274175e-02 -7.47797340e-02  7.18022361e-02
   2.67106593e-02 -6.08033277e-02 -2.37377733e-03 -6.97393268e-02
  -9.73733515e-03 -1.46917924e-02 -7.50987604e-02  3.80185768e-02
   8.84533674e-03 -3.29572186e-02  7.69288912e-02 -5.71083575e-02
   3.78379226e-03 -2.77120732e-02  1.86844543e-02 -2.16527656e-02
  -4.02543917e-02 -6.77560419e-02  7.45943561e-02  6.12772480e-02
  -7.24782050e-03  5.79396635e-03  3.91074196e-02 -5.31632304e-02
   2.80092061e-02 -9.85632837e-03  6.20653257e-02 -1.65359676e-02
  -7.47738406e-02 -3.61513086e-02 -2.13959329e-02 -5.09259254e-02
  -3.06414589e-02  5.20036593e-02  6.16948083e-02  3.76056284e-02
   7.25723878e-02 -7.47362450e-02 -7.68203288e-02  1.35768801e-02
   5.05611822e-02 -2.10647471e-02 -3.04630436e-02 -7.91098699e-02
  -1.44762248e-02 -5.79964146e-02 -4.99892160e-02  3.57396305e-02
   9.70873237e-03  3.21818143e-03 -1.07905790e-02  7.95264542e-03
  -7.48114139e-02 -1.86880305e-02  5.67353740e-02 -3.82195599e-02
   7.75014684e-02  2.64416263e-02 -3.86290289e-02  2.07000226e-02
  -1.09055042e-02 -2.10596584e-02 -3.04649957e-02  5.63354045e-03
   3.64843756e-03 -2.67186463e-02 -6.02573901e-03 -8.81925225e-04
  -3.43559384e-02 -2.29519717e-02 -4.89597768e-03  5.05410209e-02
   4.83523980e-02 -7.13213310e-02 -5.97097650e-02  7.43553713e-02
   2.07382217e-02  1.31735578e-02 -6.87860027e-02  6.38926029e-03
   3.61148715e-02 -8.78210366e-03  3.76194119e-02  5.06257191e-02
   1.58691257e-02  6.67831376e-02 -5.52223697e-02  4.13857400e-02
   4.76128981e-02 -4.46729213e-02 -1.12881735e-02  5.94132170e-02]
 [ 7.42992982e-02  5.16197756e-02 -4.82778996e-03 -1.58215687e-02
  -6.56020865e-02 -1.91883892e-02 -5.72309420e-02  5.14971539e-02
   5.05390093e-02 -7.75532946e-02 -2.68003345e-03 -7.61468932e-02
  -7.64168799e-04 -6.74834922e-02  7.26011917e-02  4.91017625e-02
   5.29195741e-02 -6.35693595e-02 -3.55024301e-02 -2.47025527e-02
  -3.32578160e-02 -1.90510489e-02  2.21291631e-02  7.13975951e-02
   2.75175273e-02  6.44460693e-02 -5.86467199e-02  9.96572524e-03
   1.89592466e-02 -4.93696928e-02  3.90263125e-02  1.15225688e-02
   3.96953598e-02  2.46396661e-03 -2.84706056e-03  4.92610559e-02
   7.20915720e-02 -2.98002809e-02 -3.44662443e-02 -3.31801325e-02
   7.39153549e-02  1.62031204e-02 -4.30417769e-02  4.69537452e-02
   3.96729261e-03 -3.90473008e-03 -6.90499544e-02  5.87804839e-02
  -2.58397385e-02 -7.63091817e-02  2.18255520e-02 -3.06121223e-02
   2.39669979e-02  7.89854154e-02  4.49787900e-02 -8.55669379e-03
   6.38725534e-02  3.88983935e-02  1.35793909e-02 -5.60950898e-02
  -6.80512041e-02 -3.51405926e-02  6.38265386e-02  6.77333102e-02
  -2.40283608e-02  7.62679502e-02  1.34567320e-02  4.04314175e-02
   3.03399563e-02 -2.32540071e-04 -1.20190457e-02  7.37083778e-02
   5.40813729e-02  1.39657110e-02  5.40946200e-02  6.37647435e-02
   6.19135275e-02 -4.70287129e-02 -1.91174969e-02 -2.41485871e-02
  -6.70114458e-02  2.00996473e-02 -3.17649767e-02  6.88843951e-02
   6.82900175e-02 -2.59131864e-02  7.87780508e-02 -1.25859454e-02
  -2.70006582e-02 -5.09431921e-02 -5.28390817e-02 -5.54540828e-02
   6.65058419e-02  5.52899167e-02 -3.65180001e-02 -2.95314789e-02
  -3.46107222e-02  6.63334504e-02 -4.87666279e-02 -3.85361910e-03
  -2.84843482e-02  3.25949341e-02 -7.36055896e-02 -6.94733858e-03
  -5.51373437e-02  5.66437617e-02  2.38199532e-02 -7.25096539e-02
  -3.19527499e-02  7.04332814e-02 -6.41906857e-02  7.16078356e-02
  -2.91385055e-02 -2.98904181e-02  8.10673088e-03  5.64144626e-02
   3.26629728e-03 -6.91161305e-02  6.60106614e-02  2.11295485e-02
  -5.83072752e-02  6.00631163e-02 -7.30195418e-02  3.92566100e-02
  -7.31175393e-03 -3.94878983e-02  2.08934471e-02  4.65413854e-02]
 [-2.56383903e-02 -4.97410856e-02 -3.87077034e-03  3.41602936e-02
   1.08546019e-03  4.65976968e-02  6.79587945e-02  4.66713235e-02
  -6.84373751e-02 -4.87400778e-02 -5.09748310e-02  1.09051764e-02
   3.47319543e-02  3.47815007e-02  6.10478595e-02  1.52466074e-02
   5.05796745e-02  3.42079252e-03 -1.79019123e-02 -2.63450295e-02
   4.95321229e-02  3.36218402e-02  2.40796283e-02  9.52366740e-03
  -4.29274663e-02 -3.47707272e-02 -3.29747014e-02  2.71927044e-02
  -6.11955300e-02 -3.00341100e-03 -6.07714951e-02  6.20250478e-02
  -2.90963277e-02 -4.78316993e-02  6.89340904e-02 -7.98299313e-02
   6.49425909e-02 -2.29025818e-02  4.11735028e-02 -7.39967674e-02
  -5.64671010e-02  3.22995633e-02  1.18512064e-02 -5.67287281e-02
   3.02885324e-02 -3.36076431e-02 -5.02857566e-03  7.09652528e-02
  -1.29550695e-04 -6.59088492e-02  5.33015504e-02  5.43634593e-03
   3.73135209e-02 -1.90163180e-02 -7.26896301e-02 -5.06436601e-02
   1.95155963e-02 -6.51179701e-02 -4.01587076e-02  7.97278062e-02
  -6.41313121e-02 -4.49140891e-02 -7.38748163e-02  3.62040251e-02
   4.07022685e-02  4.98294011e-02 -1.90517269e-02 -3.47841270e-02
   3.04436088e-02  2.08030790e-02  3.39018926e-02  4.32391614e-02
  -6.96038231e-02  2.78408825e-02  6.12031892e-02  7.71811232e-02
   7.63087943e-02  6.59482852e-02 -2.61228345e-02 -5.54545857e-02
  -6.62065819e-02 -2.90801600e-02 -5.33013642e-02 -7.96056688e-02
   1.91154480e-02 -4.86131385e-02  6.81748018e-02 -3.04345787e-02
   3.33062932e-02 -3.61200199e-02 -3.44895683e-02  9.66737419e-03
   1.53600276e-02  4.39995453e-02 -5.55427298e-02  2.69923210e-02
  -1.02835149e-03  9.15099680e-03  3.97810116e-02 -6.46232069e-02
  -3.86929214e-02  2.68613398e-02 -3.44523415e-02  4.87534776e-02
   5.76969758e-02 -7.17327520e-02 -4.81772758e-02  6.08796999e-02
  -1.53274760e-02  3.33045945e-02 -3.52513418e-02  6.26472756e-02
  -4.84107472e-02  2.88098305e-03  6.42099455e-02  3.40600461e-02
  -5.17209023e-02 -3.38321254e-02  3.15442681e-03 -2.71646269e-02
  -1.47773251e-02  4.21632975e-02 -7.98791274e-02 -7.20478520e-02
  -3.81886549e-02 -3.68453786e-02  4.79974523e-02 -2.35044286e-02]
 [-7.68247843e-02  4.63755056e-02 -7.82132670e-02  1.16999224e-02
   5.05654588e-02  2.13677734e-02  7.25246221e-03 -4.53139096e-02
   5.12908027e-02 -5.50573580e-02 -8.09245929e-02 -1.56177059e-02
   2.19419524e-02 -8.00723583e-03 -7.83609003e-02  4.32142317e-02
   5.92491403e-02  2.95509920e-02  4.12502587e-02  3.91552225e-02
   4.71866056e-02  6.35507032e-02 -7.55118430e-02 -4.14417461e-02
  -6.30182400e-02  1.96916312e-02 -9.01505351e-03 -7.32099712e-02
  -4.22040224e-02  5.60138151e-02  3.56416628e-02  1.01593733e-02
   1.91541240e-02 -4.08604927e-02 -1.04471520e-02 -4.60008271e-02
  -2.15898380e-02 -5.53166121e-03 -7.64920861e-02 -1.51789784e-02
  -6.38774782e-03  6.34121969e-02 -1.53950825e-02  2.24046186e-02
   4.08449769e-03 -1.87368989e-02  2.52379104e-02 -3.87219675e-02
   2.98753902e-02  1.97203830e-02 -1.75554454e-02 -4.30012494e-03
  -1.64621323e-02  5.86604103e-02  9.13660973e-03 -4.63216864e-02
  -7.38920718e-02 -2.64584683e-02  4.05049995e-02 -5.71222045e-02
  -7.42863566e-02  4.75070104e-02  2.73838267e-02 -1.20227337e-02
  -3.80299240e-03 -2.05070861e-02  1.21195093e-02  3.44498679e-02
  -5.09933382e-03  6.38749078e-02 -3.52982581e-02  3.01733613e-03
  -5.73970228e-02  2.52458230e-02 -7.03599676e-02 -1.75694078e-02
  -7.55965859e-02  3.18285078e-03 -3.68528068e-03 -1.48231387e-02
  -5.25389686e-02  4.44734171e-02 -8.04468468e-02  6.75430670e-02
   8.08164254e-02  3.79809067e-02  2.95787230e-02  2.40857527e-02
   2.79289111e-02  7.36312792e-02 -5.02360873e-02  1.01187453e-02
  -2.92743370e-02  3.63638997e-03 -4.02596332e-02 -7.86345527e-02
   6.68064430e-02 -3.22961994e-02 -2.76533812e-02  8.64903629e-03
   6.02721646e-02  6.72732517e-02 -6.56726956e-02  9.06188786e-03
   5.89433312e-03  2.09295899e-02 -7.95983523e-03 -1.95864104e-02
  -6.47427142e-02  5.43573722e-02 -1.90304741e-02  2.80024409e-02
  -6.97821602e-02  2.36364454e-03 -5.25046140e-03 -4.17476557e-02
  -6.45674467e-02 -1.70977041e-02 -7.40816817e-02 -3.03189345e-02
   4.30083424e-02 -1.50862709e-02 -5.05949110e-02  7.95460865e-02
  -2.06965432e-02  8.04366097e-02 -6.86526895e-02  1.03508458e-02]
 [ 4.19933498e-02  6.82255551e-02 -6.53209463e-02  1.07969046e-02
  -1.33861080e-02 -4.42067347e-02 -7.47047961e-02  6.37766644e-02
  -6.66987821e-02 -5.43692634e-02  5.15276417e-02 -8.03347602e-02
   7.31152818e-02 -4.21446338e-02 -4.87068743e-02  2.09831223e-02
   5.55285290e-02 -4.67776470e-02  3.48031968e-02  3.88549790e-02
   5.54045811e-02  5.31554148e-02 -7.41916373e-02 -6.01970330e-02
  -4.06547934e-02 -6.00033775e-02  2.49254256e-02 -6.64215311e-02
   5.40517271e-03  7.09612295e-02 -4.14360017e-02 -4.98127528e-02
  -3.70393023e-02 -3.16467807e-02 -2.53618322e-02 -5.07095680e-02
  -4.82110009e-02  3.95208746e-02 -5.90689704e-02 -2.08608992e-02
  -6.80937916e-02 -7.48016685e-02  1.77436322e-03 -7.55979419e-02
  -6.43971413e-02  5.89146987e-02 -2.43546367e-02 -6.64993674e-02
   1.06244609e-02 -6.40494153e-02 -4.15821783e-02  4.21025306e-02
   6.00600466e-02  7.09203556e-02  6.95332512e-02 -2.75657400e-02
   5.93667254e-02  7.61701390e-02 -6.41577691e-02  7.53692463e-02
  -1.29088536e-02 -3.68780419e-02  1.47268474e-02 -7.97302276e-03
  -1.43442452e-02 -6.29521906e-04 -6.53203130e-02  2.74547413e-02
  -7.39126280e-02  6.89256862e-02 -6.73930869e-02 -1.36717334e-02
  -3.55266817e-02  7.63603523e-02 -6.05864301e-02  2.62109563e-02
   1.21947899e-02 -1.45235434e-02  3.60487401e-02  2.28917152e-02
  -4.89216447e-02  4.71681878e-02 -7.84981623e-02 -1.86893456e-02
   1.85114890e-02  7.61654153e-02  1.80105120e-03 -5.62234744e-02
   2.52752900e-02 -3.70098650e-03  6.08350858e-02  6.59886226e-02
   1.82395726e-02  1.46991611e-02  6.19559661e-02  1.67823210e-02
   2.35476270e-02 -5.07932156e-03 -3.81078608e-02 -7.91695714e-02
  -4.98068556e-02  1.86469331e-02  4.84129861e-02 -6.12195432e-02
  -3.49626392e-02 -6.09051250e-02 -6.71021044e-02  5.66737875e-02
  -1.47027373e-02 -7.21812844e-02  1.09315366e-02 -2.51758546e-02
  -3.29526775e-02 -3.16265710e-02 -3.32922488e-03 -3.96139175e-03
   2.56848559e-02  7.20866993e-02 -7.11776465e-02 -1.37956142e-02
  -2.14410126e-02 -7.82186240e-02 -1.41129568e-02  4.44456860e-02
   6.14705756e-02  5.77749088e-02  4.01903689e-03 -1.16501749e-03]
 [-3.20591293e-02  1.97065398e-02  3.42175737e-02  1.79622620e-02
  -7.25266710e-02  2.97645479e-03  4.35608551e-02 -7.02466220e-02
  -2.19289362e-02  6.29630312e-02 -4.37641181e-02  7.41246268e-02
  -1.15148574e-02 -1.45898014e-02  6.52781948e-02  7.28073642e-02
  -6.06190711e-02  5.05932644e-02  7.24261627e-02 -3.35214138e-02
   5.93801066e-02  5.47759235e-03  3.36451381e-02 -1.63423344e-02
   7.16634318e-02 -9.05198604e-03  8.07510689e-02 -5.58680594e-02
   4.39897552e-02 -3.15890759e-02  1.69607326e-02 -4.43542078e-02
  -3.67998555e-02 -4.67434749e-02 -4.60224599e-03 -6.87873363e-02
  -3.09617817e-03  6.75313994e-02  4.80508581e-02  6.04839697e-02
  -1.51025131e-02 -6.62988275e-02 -2.45079510e-02  7.58218542e-02
   8.11068937e-02  2.11154297e-02  6.03791550e-02 -3.05044837e-02
  -5.71983606e-02 -8.02754909e-02 -3.86849530e-02  7.01429918e-02
  -5.53346425e-03 -6.64624721e-02 -7.54695907e-02 -4.90824021e-02
   8.02363679e-02 -1.02601871e-02  2.27692798e-02 -5.32810166e-02
   2.60520726e-02  7.73006305e-02  3.04191038e-02  2.57376507e-02
   3.96147594e-02  3.58139500e-02  7.27744401e-03  4.22377512e-02
  -1.24606490e-03  4.07811701e-02  3.49297673e-02 -4.89003137e-02
   6.95565715e-02  5.57460859e-02 -7.14190677e-02 -2.68531069e-02
  -1.81060806e-02 -3.52137871e-02  2.05397084e-02  4.72499803e-02
  -9.58585739e-03  3.09883058e-03 -4.87427451e-02  2.18686983e-02
   1.34018064e-03 -5.42512536e-03  2.97956020e-02 -2.51028538e-02
  -1.16041973e-02  7.54764900e-02 -5.38777038e-02  5.82064614e-02
  -4.58124280e-03  1.60485506e-05 -5.11296839e-03 -2.65505388e-02
   1.29398927e-02  3.93405408e-02  3.46082672e-02 -1.61931366e-02
  -6.41495287e-02 -1.84594095e-03 -7.00190738e-02 -7.67644271e-02
   3.11942399e-03 -3.75046618e-02  5.59554473e-02 -2.14052349e-02
   1.81052536e-02  5.91875091e-02 -3.26221064e-02  4.78218123e-02
  -2.62426920e-02  7.70552084e-02 -7.64034688e-04  5.99214211e-02
   4.17692736e-02 -6.41025975e-02 -1.11348405e-02  1.58802047e-02
   3.93467471e-02 -1.11257285e-02 -3.37825418e-02  4.17843610e-02
  -4.88061942e-02  7.38519952e-02  4.39286903e-02  3.64279225e-02]
 [ 3.75778228e-03  5.37136421e-02  7.00832531e-02  8.38754326e-03
  -6.71806559e-02  6.30637780e-02 -7.73480386e-02  1.32635757e-02
   1.25679001e-02 -2.08295882e-04  3.19946185e-02 -6.45836592e-02
   2.97276303e-02 -2.53976472e-02 -5.16639128e-02 -2.12998800e-02
   5.42141572e-02 -2.69932486e-02 -5.61897531e-02  3.25399414e-02
  -7.41484165e-02  7.12049678e-02  4.16809767e-02 -9.76187736e-03
   2.55772397e-02 -7.15727136e-02  4.64718416e-02  3.29024568e-02
  -7.05946013e-02  1.14292055e-02 -4.25759740e-02  4.65232506e-02
   5.03644422e-02 -4.11988795e-03  4.17364761e-02 -6.08715527e-02
  -6.10980392e-03  4.15728018e-02  4.55676839e-02  5.04278019e-02
   7.30547979e-02 -2.69959196e-02  3.53644118e-02  5.19066676e-02
  -4.02803458e-02  4.94686887e-02  4.76212427e-02  1.51380152e-03
  -4.22545336e-02  5.35628572e-02  6.09189346e-02  2.50050575e-02
  -2.49596722e-02 -5.56626096e-02  1.33869573e-02 -5.02300151e-02
  -7.27864355e-03  3.62894684e-03  6.75529912e-02 -6.42029196e-02
   3.99058387e-02  1.36282220e-02  6.25380501e-02  1.32193714e-02
  -2.06462257e-02 -5.28037101e-02 -3.05546112e-02 -1.68703496e-02
  -4.04594168e-02  3.51769254e-02  5.49838319e-02 -2.49422863e-02
  -1.10342354e-03  4.32901010e-02 -3.40955295e-02 -1.25793517e-02
   6.57928959e-02 -4.82565984e-02 -4.23143059e-03  7.29604587e-02
  -5.43636531e-02 -3.80299278e-02 -1.17797330e-02 -3.93922329e-02
   1.24412775e-02 -4.51769754e-02  2.72039250e-02  2.91190520e-02
   5.89563325e-02 -7.37410188e-02  6.40005693e-02 -3.48859467e-02
   3.92212048e-02 -4.72237431e-02 -6.18417189e-02 -9.34254378e-03
   6.16033152e-02 -3.77358869e-02 -4.27825637e-02 -1.04813576e-02
  -2.69280598e-02 -2.69311741e-02 -4.17806283e-02  1.36574060e-02
  -3.99791487e-02 -4.25886214e-02 -5.11134490e-02 -7.84184709e-02
   5.61133772e-03  6.23293445e-02 -7.19577372e-02  3.04207206e-05
  -1.27604157e-02 -5.93767241e-02  4.44896147e-02  1.45189241e-02
   6.38110563e-02  1.85723081e-02 -3.23804170e-02 -7.44392648e-02
  -2.14692242e-02  5.48711643e-02  1.64520741e-03  1.18423104e-02
   2.99177319e-03  7.96623901e-02 -1.47306621e-02  6.85248002e-02]
 [-4.17083614e-02 -7.02473968e-02 -1.64834633e-02 -4.67198417e-02
   4.66223434e-02 -3.13153006e-02 -5.43523021e-02  2.02772096e-02
   7.77431950e-02 -2.56114304e-02  2.29533762e-03  7.29333386e-02
   5.01222685e-02 -7.66080618e-03  2.91164219e-02  6.58833608e-02
  -3.06344181e-02  3.81763577e-02  4.10474390e-02 -4.13535610e-02
  -7.21204132e-02 -3.61622125e-03 -1.47776529e-02  2.50534862e-02
  -6.44530356e-03 -5.41981012e-02 -1.60614252e-02 -4.80456203e-02
  -5.79140708e-02 -4.99328822e-02 -4.23819534e-02 -6.69938475e-02
  -7.03255460e-02 -6.40776679e-02 -5.91273941e-02  6.73347488e-02
   2.25995854e-02  7.76549503e-02 -7.67246485e-02  6.34002611e-02
  -5.10250926e-02 -2.38177478e-02  6.28674254e-02 -7.54224509e-03
  -5.99916801e-02  8.01481679e-02  3.75637785e-02  1.57189220e-02
  -6.48292527e-02  3.38982791e-02 -3.59081291e-02 -5.89057356e-02
   3.29655930e-02 -7.79617578e-03  2.69142911e-02 -6.70907348e-02
   3.57601717e-02 -5.33410162e-03 -4.03702110e-02 -5.07597476e-02
  -3.98737937e-02 -1.56389773e-02  9.75116342e-03  4.82879058e-02
  -4.04096022e-02  6.62542209e-02  4.71562147e-04  6.63971156e-03
  -4.63412367e-02 -7.74399117e-02 -4.82550524e-02  3.00043076e-03
   3.32600549e-02 -6.61169291e-02 -7.40404353e-02  7.36244023e-03
  -4.82284240e-02  7.04501346e-02  4.62438837e-02  4.50665280e-02
   2.16184407e-02 -2.64599957e-02  1.10753328e-02  1.16173476e-02
   6.41079023e-02 -5.07943332e-04 -3.19150202e-02  4.40979376e-02
   5.55807725e-02 -3.57113034e-02 -6.69832081e-02  6.65404424e-02
  -1.86242349e-02  6.15716353e-02 -2.75123864e-03  5.69206104e-02
  -1.63917243e-02 -6.31431043e-02  4.37670574e-02  6.78383633e-02
   3.60942036e-02 -6.70830160e-03  7.41306022e-02  4.98609617e-02
  -3.16681489e-02 -5.34187667e-02 -4.65741083e-02  2.87473127e-02
  -2.77251452e-02  7.57993087e-02  7.80199841e-02 -1.21216476e-03
  -7.89505392e-02  4.16683331e-02  7.27127418e-02  6.69210181e-02
   2.47485936e-02 -3.91682163e-02 -5.24910502e-02  3.46586853e-03
  -3.86869833e-02  5.30032888e-02 -2.78120339e-02 -5.30904233e-02
  -2.80086659e-02 -4.98519838e-03  6.26483038e-02 -2.81991661e-02]
 [ 3.68321911e-02 -7.37668127e-02  6.32852986e-02 -6.46256357e-02
  -4.90675122e-02 -7.85018578e-02 -4.41127904e-02  4.54261526e-02
   3.15157026e-02  8.70385766e-03  4.31401730e-02 -4.93558645e-02
  -6.66404217e-02 -4.71081547e-02  7.95577690e-02  5.24781644e-04
   7.80115500e-02  7.47603551e-02 -5.25329188e-02 -6.47681057e-02
  -4.78266701e-02 -2.46878937e-02  7.54082128e-02  1.13907978e-02
   2.85599977e-02 -6.16238117e-02 -7.85309970e-02  6.66773692e-02
   6.61438331e-02  4.32914346e-02 -5.99901155e-02  4.39033881e-02
  -4.81005758e-03 -1.88248605e-03  6.16543666e-02  4.55982015e-02
  -4.75718118e-02  5.34684584e-02 -5.61606064e-02 -7.89921433e-02
   2.28898749e-02  7.67660886e-03 -8.98704678e-03  5.70305437e-03
   4.03486490e-02 -7.14854002e-02  1.98033825e-02  7.33270422e-02
   5.35774603e-02 -6.51506782e-02  6.71848655e-04  3.08784917e-02
  -7.02746063e-02 -9.81546193e-03  5.90923503e-02 -7.15582818e-02
   6.56650588e-02 -5.33021390e-02  3.90081555e-02 -7.61820152e-02
   4.11797911e-02  2.14852020e-02 -2.54340991e-02  1.80948302e-02
  -2.93402374e-03  2.09557191e-02  7.57416859e-02 -2.69833691e-02
   3.43638882e-02  8.81534815e-03  3.89257520e-02 -5.31195253e-02
  -6.83299452e-03  1.94186866e-02 -6.22060895e-02 -3.58972214e-02
  -3.97144854e-02  4.33928519e-03  8.10549781e-02  4.53817323e-02
  -7.72299170e-02 -2.85776556e-02  1.22457072e-02  6.80526569e-02
  -3.00050154e-02 -7.78405443e-02  4.04155254e-03 -4.27605212e-02
   3.03742588e-02  7.25482404e-03  3.37271765e-02 -2.18391679e-02
  -6.65723085e-02 -1.71756744e-03 -7.64611810e-02  4.96249422e-02
   4.11967486e-02 -2.19770893e-02 -2.51587033e-02 -3.43535990e-02
  -7.73509741e-02 -3.73312719e-02  1.34795085e-02  4.23959717e-02
  -1.69655308e-02 -5.43397143e-02 -6.07773662e-03 -7.57900849e-02
   1.48888677e-02 -4.85946350e-02 -2.85112485e-02 -2.29988284e-02
  -7.86473155e-02  1.95569992e-02  6.48280606e-02  3.13325152e-02
   6.61515221e-02  5.10348305e-02  5.57109714e-03  7.61561617e-02
  -6.12757802e-02  2.53597051e-02 -4.17952500e-02  1.69145167e-02
  -5.31312078e-03  1.16594508e-02 -1.39427036e-02 -4.02996428e-02]
 [ 2.38110870e-03  2.62688771e-02  4.61100414e-02  7.74366483e-02
   6.21659681e-02 -5.36483303e-02  5.27905598e-02  7.53381848e-03
   1.81811899e-02  4.70344052e-02 -2.63650827e-02 -8.01149979e-02
  -5.80527857e-02  4.25569639e-02  6.85946643e-03  6.18406907e-02
  -3.85883413e-02 -4.73208763e-02  5.08241728e-02  5.60460910e-02
  -7.26224929e-02  5.34948036e-02 -3.98657694e-02 -2.74804793e-02
   7.44353607e-02 -7.30162561e-02 -6.08701222e-02 -9.92735475e-03
  -3.66959311e-02 -6.66767359e-03  1.38339847e-02 -2.99389176e-02
   1.62805095e-02 -7.11033121e-02  4.27974537e-02  1.91207230e-03
  -2.95200311e-02  2.77993828e-02  6.15023300e-02 -4.52641733e-02
   7.77275860e-03 -5.44281304e-02  1.15069076e-02  7.53492489e-02
   1.66902468e-02  3.10445055e-02 -7.06062764e-02 -2.18201578e-02
  -8.08011591e-02 -5.00714406e-02 -1.61259770e-02 -2.98500583e-02
   4.59180996e-02 -5.57351857e-02 -7.62145594e-02 -1.06935948e-02
   7.02428594e-02  4.92768511e-02  1.08240917e-02  2.48362347e-02
   7.34184906e-02 -1.40087828e-02  2.24113464e-05 -5.01086488e-02
  -6.08383119e-02  2.50069126e-02 -6.69625923e-02  4.71253023e-02
  -4.52795848e-02 -2.58844681e-02  6.49981126e-02  1.25989616e-02
   5.19869253e-02 -7.57825077e-02 -7.13568926e-02  2.64472142e-02
   5.18869087e-02  5.33923283e-02  6.93079010e-02 -2.79664323e-02
  -3.18912938e-02  7.91105703e-02 -5.62932491e-02 -7.09148049e-02
  -5.46236783e-02  2.90959999e-02 -7.73391202e-02 -1.61566287e-02
   5.11378124e-02  3.53184268e-02 -1.89448819e-02 -5.76373190e-02
   7.07399100e-03  4.92331907e-02 -7.40883499e-02 -6.94160461e-02
   3.63988578e-02  4.02705595e-02 -4.91780117e-02 -4.83017564e-02
  -2.86831073e-02 -6.22925535e-02 -4.67079878e-03  1.97828487e-02
  -4.45167087e-02  1.78938434e-02  5.08935750e-03 -6.73697442e-02
  -7.92770311e-02  3.15962136e-02  5.55651113e-02  2.81515941e-02
   6.98738024e-02 -1.58825517e-03  4.21277434e-03  2.49489173e-02
   4.16929126e-02  1.09797865e-02  4.91740927e-02  7.71603361e-02
  -5.38927689e-02 -5.58634847e-03  7.22065195e-02 -6.69679493e-02
   5.01095578e-02  4.95887622e-02 -7.35024214e-02  6.36706725e-02]
 [-3.89811955e-02 -6.37187511e-02 -6.03200644e-02  8.03531632e-02
   7.32105747e-02 -4.67413478e-02  1.79729760e-02 -2.13126428e-02
  -1.15196407e-03  6.61457255e-02  2.65363827e-02 -6.43237680e-02
  -7.31815249e-02  4.97413501e-02 -1.81495920e-02 -1.91016570e-02
   1.93705186e-02  1.90120935e-03 -2.73731127e-02  3.71124968e-02
   3.99802923e-02  4.00039256e-02 -6.12120815e-02  1.40689015e-02
   2.35204995e-02  1.30930915e-02 -2.29614973e-03 -4.84310091e-04
   7.05705956e-02  7.41320029e-02 -5.88094518e-02 -2.51507163e-02
   6.40553311e-02 -1.82903782e-02 -7.74352923e-02  6.10238239e-02
  -4.86528240e-02 -6.61690533e-03  9.23730433e-03 -3.84409614e-02
   7.93220773e-02  6.27208427e-02  6.09685108e-02  1.38507262e-02
   4.02159318e-02 -9.70332325e-03 -7.02212304e-02  1.00079179e-02
  -2.44727731e-02  7.51127377e-02 -6.80628493e-02 -7.66199306e-02
   5.61955348e-02 -1.76178887e-02  1.60965621e-02  1.21843293e-02
  -7.18199909e-02  1.62607282e-02 -4.85149212e-02 -8.03635940e-02
  -6.27648681e-02 -1.02711543e-02 -7.52091408e-02 -4.58118916e-02
   2.03073621e-02  7.26299956e-02  7.40422532e-02  9.57319140e-03
  -1.09036714e-02 -6.18984923e-02  2.48080418e-02 -4.12693247e-02
   6.62580505e-02  4.43250313e-02  6.23172522e-03 -2.47352310e-02
  -7.45554119e-02  5.98714873e-02 -1.67858154e-02  7.84736872e-03
   5.57944253e-02  3.09006870e-03 -4.45338599e-02 -4.38523591e-02
  -5.76561354e-02  3.63009870e-02  2.93668881e-02  1.32232606e-02
  -4.72271070e-02 -4.45251986e-02  1.57354549e-02 -1.50283501e-02
   3.91259417e-02  6.84273168e-02 -3.95084545e-02  7.67761394e-02
   7.26980492e-02  4.57169339e-02 -6.09563142e-02 -5.54645844e-02
  -2.53788382e-03 -5.18682227e-02  7.95403793e-02  2.88897157e-02
   5.19986227e-02  1.13765448e-02  3.84660214e-02 -1.41743347e-02
   2.81394869e-02  3.81251276e-02  1.08573511e-02  4.53573093e-02
   6.45591542e-02 -2.54800841e-02  5.12830094e-02  3.53841186e-02
  -1.36790797e-02 -4.67851497e-02 -7.36565888e-02  6.61048964e-02
  -7.52848908e-02 -5.97403012e-02  4.41606566e-02  9.11624730e-03
  -6.70575052e-02  3.70681733e-02 -6.58010393e-02  6.36480525e-02]
 [-1.36063322e-02  7.56549612e-02 -1.00388005e-02  7.65068159e-02
  -6.89396262e-02  2.31528580e-02 -7.45615438e-02  1.51017010e-02
  -4.40066233e-02  4.20399010e-03  1.05776861e-02  6.93580434e-02
   5.92848584e-02 -1.54661313e-02  2.52590477e-02  5.64688817e-02
  -6.57281354e-02  4.36248630e-02 -1.56943277e-02 -7.02783391e-02
   6.72335401e-02 -6.59750253e-02 -6.64826930e-02  2.15937272e-02
   5.71214929e-02 -6.45626187e-02  2.64282227e-02  5.37241921e-02
  -5.56004941e-02 -5.24175838e-02  7.43205920e-02  7.17020705e-02
  -3.84256244e-03 -2.49232203e-02  5.06924167e-02 -3.71892713e-02
  -7.72544369e-02 -4.92218509e-02 -2.80242339e-02  2.48957574e-02
  -6.47981018e-02 -3.89903039e-03 -7.66756013e-02 -1.74765810e-02
  -3.70672457e-02 -3.43075171e-02  2.05925852e-03  3.91183048e-03
   5.03683090e-03  5.10083959e-02 -2.50008442e-02  5.58924004e-02
   4.14945185e-04 -7.24862143e-02  3.71985734e-02 -6.69150427e-02
  -5.92845380e-02 -1.64108500e-02 -4.35204171e-02  5.15317544e-02
   1.30440295e-02 -6.87331930e-02  2.98059285e-02 -3.16472240e-02
   6.87569156e-02  6.07656315e-02 -6.12481274e-02  1.21342242e-02
  -1.16240382e-02  7.17482194e-02 -1.75229013e-02 -4.92800996e-02
  -7.75408372e-02 -3.54458094e-02 -3.59669328e-04 -3.54095884e-02
   7.47879520e-02  3.03570479e-02  3.58337909e-02  3.69230062e-02
  -4.71056812e-02  2.82491967e-02  2.56042928e-03 -6.16934672e-02
  -2.78698951e-02 -2.87343748e-02  5.12385294e-02  3.65782604e-02
  -2.62245312e-02  6.30149916e-02  1.79234147e-02 -5.23860231e-02
   5.53637370e-02  5.39329574e-02 -5.51540293e-02  5.52442893e-02
  -1.20337233e-02  5.72089180e-02  7.09439591e-02  5.04121259e-02
   4.10756320e-02  6.24986961e-02  3.62963676e-02 -2.84343399e-02
   2.14882717e-02 -5.76967262e-02  3.53097916e-03 -3.28492150e-02
  -2.77794860e-02 -3.36365364e-02 -1.94610022e-02 -4.70833443e-02
  -1.11763924e-03 -5.01536094e-02  7.08686188e-02  6.02430776e-02
   7.69838691e-03  3.79460379e-02 -4.06256504e-02 -3.07144411e-02
  -6.60779849e-02  2.15122551e-02 -4.80064414e-02  2.84441859e-02
  -8.09235945e-02  5.60794696e-02  4.53468189e-02 -4.94193137e-02]
 [ 2.44134315e-03  8.72183312e-03 -7.24040046e-02 -1.04021005e-01
  -4.14747931e-02  2.37656198e-03 -6.20160550e-02  2.96313614e-02
   5.01096155e-03 -9.90874041e-03  6.85065985e-02  1.02941608e-02
   4.80511375e-02 -3.46114114e-02  3.39149032e-03 -7.90708587e-02
  -1.11734368e-01 -8.83685797e-03  9.92130935e-02  2.92713568e-03
   3.10292409e-04  4.34054770e-02  7.53642172e-02 -6.87866434e-02
  -2.57825591e-02 -4.28088680e-02 -7.66698197e-02 -7.13990349e-03
   1.69433877e-02  7.74286613e-02  1.00526594e-01 -6.23448417e-02
  -1.26036610e-02 -7.13771209e-02  1.09279975e-02 -4.95113470e-02
  -4.76383045e-02 -1.40246488e-02 -1.18192460e-03 -3.11494172e-02
   7.02810064e-02 -5.15283123e-02 -1.50146289e-02  1.02176601e-02
   9.41251069e-02  4.43130964e-03  3.72004211e-02  6.99448436e-02
  -3.35700251e-02 -3.60586941e-02  5.89089878e-02 -1.52671039e-02
  -3.65555938e-03 -7.93974549e-02  3.93644534e-02  9.42636654e-02
  -3.59795466e-02 -2.28881352e-02  5.21116853e-02  2.02238560e-04
   4.54771668e-02 -1.18376538e-02  4.02890295e-02 -4.48873378e-02
   8.03235099e-02 -1.65556092e-03 -1.51191112e-02  4.72501591e-02
  -5.59124686e-02  2.74071060e-02 -4.00900468e-02 -4.50320914e-02
  -5.60808778e-02  6.51639476e-02 -6.11528866e-02  3.07403356e-02
   1.86140146e-02  3.29539441e-02  5.06290197e-02 -9.77911521e-03
   1.37416355e-04 -2.39470378e-02  7.66885467e-03  1.93480793e-02
  -6.16946667e-02 -3.08233034e-02  8.82680267e-02  7.59751871e-02
   4.41276580e-02  1.31822675e-02 -3.41898426e-02  1.41748041e-03
   1.07509382e-02  1.74461287e-02  3.87474149e-02  3.36639360e-02
  -3.89638916e-02 -5.34105860e-02 -2.43385881e-02 -3.78501415e-02
  -4.04233672e-02 -1.32230641e-02 -3.73662114e-02 -3.65417190e-02
   2.98929289e-02 -6.97701722e-02  1.83882117e-02  2.71742232e-02
   9.34998766e-02 -2.87919641e-02  4.14428636e-02 -6.78581446e-02
  -5.54859964e-03 -9.10510570e-02  4.60982323e-03  2.93570757e-03
   6.04069158e-02  3.21257971e-02  9.62320939e-02 -1.47415604e-02
   1.28092170e-02  7.43854465e-03 -7.00844377e-02 -7.05683082e-02
   1.08947204e-02 -4.06894833e-02  1.35997422e-02 -8.95858407e-02]
 [ 5.95514365e-02 -3.49978432e-02 -9.42710191e-02  2.03792192e-02
  -8.06480199e-02  1.61001831e-02  6.51875883e-02  1.46729127e-02
  -3.40010338e-02 -3.66557501e-02  4.52189483e-02  4.59800400e-02
   6.67964965e-02  8.50506127e-02 -1.55424867e-02  6.58771256e-03
  -3.61857055e-05  7.81607255e-02  1.37232110e-01  5.49192987e-02
  -1.48676084e-02 -5.25347516e-03 -6.17498271e-02  6.54712096e-02
   3.05950679e-02 -3.22134756e-02 -7.08406568e-02  8.52403790e-02
   1.35391161e-01 -2.56804302e-02 -2.40757223e-02 -9.69279036e-02
   1.73130967e-02  7.18261972e-02 -4.11910415e-02  1.06931575e-01
   4.92834300e-02 -2.70453375e-02 -6.30550832e-03  5.22725210e-02
   4.41394523e-02  2.11271886e-02 -3.94371599e-02 -2.72565032e-03
   4.31992076e-02  4.61397022e-02 -4.97667752e-02  9.60141718e-02
  -1.19417729e-02  4.77046967e-02  8.68251100e-02 -8.80976766e-02
   5.45405671e-02 -7.11461678e-02  7.38375932e-02  6.69058762e-04
  -7.40636364e-02  2.70781666e-02  3.58701944e-02  3.46373096e-02
  -6.19069561e-02 -3.47579457e-02  6.85773864e-02 -1.05605386e-02
   1.12798065e-03  5.78023978e-02  9.75271910e-02  9.53989625e-02
   1.01184830e-01 -3.97162288e-02 -2.29032636e-02 -2.05969512e-02
  -6.06819019e-02 -2.59004235e-02 -7.75421336e-02  5.48569150e-02
  -3.57073806e-02 -6.20245598e-02  5.36964461e-02  6.38561174e-02
  -2.82573309e-02  1.14263862e-01  5.41908219e-02 -2.61731967e-02
  -6.65073916e-02 -1.90208890e-02  3.00629251e-02  8.78030714e-03
   4.11900692e-02  6.01140298e-02 -6.72954619e-02 -2.56757326e-02
  -4.44755591e-02  3.90921570e-02  6.87084496e-02 -2.55489280e-03
   3.90960984e-02  7.23518953e-02  7.46458322e-02  7.55024776e-02
  -1.54151032e-02  6.58940524e-02 -2.90116505e-03 -9.49620306e-02
   2.88576614e-02 -5.82829490e-02 -4.23332565e-02  7.16250539e-02
  -1.12701459e-02  8.35868716e-03 -7.30569810e-02 -6.02092780e-02
   4.30129021e-02 -5.22624925e-02 -5.70669547e-02  4.94613722e-02
   1.84836984e-02  1.52272172e-02  7.08049014e-02  1.32345349e-01
   4.53627408e-02  1.14361811e-02 -1.44549860e-02  3.71688767e-03
   3.73599194e-02  6.55421242e-02 -3.38185541e-02  1.98650360e-02]
 [ 3.50586325e-02 -3.47179137e-02 -2.83832718e-02 -3.25593017e-02
  -3.09575349e-03 -4.75373454e-02  2.50842050e-02  7.14971200e-02
   8.18170011e-02  4.93730558e-03  9.29015130e-03 -5.71275922e-03
   1.19049162e-01  9.38901007e-02  6.09149709e-02 -1.08521329e-02
   3.09359469e-03 -8.49003792e-02  7.65460804e-02  1.95441637e-02
   2.92401835e-02  4.43187393e-02  2.16052402e-02 -8.78171623e-03
   9.53331143e-02 -6.62863255e-02 -6.38133511e-02  1.45263940e-01
   1.72191277e-01 -4.15150821e-03  6.30191714e-02 -2.74531916e-02
  -2.86048073e-02  2.94176936e-02 -1.27138123e-02  3.91490050e-02
   7.87697732e-03 -2.56647728e-02  7.54059777e-02  6.92359880e-02
   2.72262767e-02 -9.58611891e-02 -2.24768445e-02 -6.98787421e-02
  -5.40743545e-02 -4.43304926e-02  9.77423489e-02  4.89331856e-02
   7.26058260e-02 -8.38258187e-04  1.70410685e-02 -2.65061166e-02
  -1.66566465e-02  3.95298228e-02  1.35246953e-02  1.80614144e-02
  -5.43331951e-02 -4.25861068e-02  6.36050999e-02  5.55038527e-02
  -2.18225848e-02  9.02926177e-03 -6.08152784e-02 -2.68868394e-02
  -4.29343134e-02 -5.78368716e-02  9.55153815e-03 -2.12152419e-03
   9.36862603e-02  4.06504422e-03  3.06595787e-02  9.97109711e-03
   5.65771684e-02  6.56840950e-03  1.72952116e-02 -4.93569076e-02
   6.70048073e-02 -1.17108254e-02  3.59008759e-02 -4.27917764e-02
   1.78476460e-02 -2.74074692e-02  1.80835463e-02  7.97702819e-02
  -5.13058826e-02  3.21289338e-03  4.25731158e-03 -4.55539748e-02
   5.95742650e-02  1.03319675e-01  1.06256224e-01  1.34834200e-02
   3.92529368e-02 -2.74236426e-02  7.15930387e-02  5.62035963e-02
  -2.50835475e-02  6.59560785e-02  2.69878078e-02  8.33565891e-02
   5.12071699e-02  1.22451782e-01 -1.25403166e-01  5.42069301e-02
   1.78706199e-02  1.79009140e-03 -4.56151515e-02 -2.87533794e-02
   1.02502786e-01 -7.51862824e-02 -1.45656466e-02 -4.54664566e-02
   2.13077329e-02  4.59227636e-02 -3.96871418e-02  1.43939257e-02
  -7.33862370e-02  1.51993781e-02  5.14194891e-02  2.34078113e-02
   3.67311500e-02  1.16884425e-01 -5.09376861e-02 -4.61071655e-02
  -4.24825028e-02 -9.08610225e-03 -4.36214246e-02  4.50191423e-02]
 [ 4.23587393e-03 -4.25528474e-02  2.94433422e-02 -2.27370840e-02
  -4.84109782e-02  7.35630542e-02 -4.54570539e-02  6.08691797e-02
  -5.14426567e-02 -5.45782670e-02  5.42194732e-02 -7.68813044e-02
   1.95334130e-03 -3.02190203e-02  2.55133323e-02  4.90982048e-02
   8.94668847e-02 -7.81031176e-02 -5.06098475e-03  9.66441818e-03
   6.64560944e-02 -6.09862991e-02  2.00452302e-02 -6.89274445e-02
   9.10988450e-02 -6.64363196e-03  5.31808808e-02  5.78083396e-02
   9.13891718e-02  3.37311178e-02  3.60439569e-02  4.19014171e-02
  -4.65824734e-03  4.64908257e-02  4.23417315e-02 -5.79931922e-02
   1.82429962e-02 -4.60486151e-02  4.55235168e-02  7.50416592e-02
  -3.73293795e-02 -2.18110122e-02  6.23158701e-02  2.59185396e-02
  -3.71994078e-02 -4.32241755e-03 -6.33044019e-02 -4.02153470e-02
   8.75346363e-04 -4.03118730e-02 -3.61319371e-02 -9.46300849e-02
  -1.88270472e-02  6.09146804e-03 -7.01271296e-02 -1.22707114e-02
  -6.44627512e-02  1.25979558e-02  3.96568701e-02  3.94538641e-02
  -7.31603727e-02  2.04825476e-02  3.98615375e-02 -4.52058576e-03
  -2.29626261e-02 -6.05750605e-02 -3.41460370e-02 -8.34939182e-02
  -1.84094235e-02 -1.33931637e-02 -7.62526542e-02 -7.21540600e-02
  -2.02042125e-02  5.81055954e-02 -5.79282455e-02  6.50953650e-02
   5.76972440e-02 -2.18541790e-02  6.63870052e-02  6.69072270e-02
  -4.17417027e-02  4.03550128e-03  1.41399528e-03  7.36550391e-02
   6.29171729e-04  5.87119162e-02  6.92132488e-02 -3.87492739e-02
   7.32917280e-04 -3.47145274e-02  6.40462413e-02 -1.93148851e-03
   3.61906812e-02  1.51681304e-02  1.90072618e-02 -2.83992402e-02
   8.82541314e-02  4.92234603e-02 -1.88848712e-02  8.51358026e-02
  -9.91845224e-03 -2.78943237e-02  6.21833578e-02 -5.76032065e-02
   7.86776841e-03 -1.41463727e-02 -9.23547056e-03  5.75608648e-02
  -8.86161637e-04  6.77491948e-02  5.72059378e-02  4.83823605e-02
  -6.25839084e-02 -6.82512447e-02 -2.65885778e-02 -1.69968158e-02
  -4.58073653e-02  5.92099354e-02 -5.06553054e-02  6.25130385e-02
   6.12685084e-03  5.74464351e-02 -6.42016381e-02 -6.97113723e-02
  -1.63492355e-02 -1.06760859e-03  1.13739120e-02 -6.68832660e-03]
 [ 7.55245984e-03  4.30373102e-02 -9.20023769e-03  7.85807744e-02
   6.41408935e-02  1.27390847e-02  3.89307812e-02 -2.65516341e-04
   1.04782805e-02  5.45700565e-02  7.75538012e-02 -4.47417498e-02
   2.26009637e-02  7.52645507e-02 -5.43617979e-02 -7.66035467e-02
  -8.08767974e-04 -3.83413509e-02 -4.51325960e-02  3.19986567e-02
   6.01342544e-02  1.49567425e-02 -2.71925330e-03  2.85893381e-02
  -7.27630630e-02  4.66403440e-02 -1.21738091e-02  3.85893062e-02
   1.17638558e-02  4.53887135e-03  3.58861983e-02  8.30572098e-03
  -4.48611602e-02  1.09217092e-02  4.36632931e-02 -3.30647416e-02
   1.26412883e-02 -6.93215579e-02 -4.32447903e-02 -2.06103139e-02
  -2.08202899e-02 -2.47775242e-02 -4.23612408e-02  6.56159595e-02
  -7.67567903e-02  8.23026150e-03 -6.24839813e-02 -2.11494081e-02
   2.30915099e-03  1.06852651e-02  4.68982831e-02 -5.64587079e-02
   6.64883628e-02  3.70264649e-02  3.33608314e-02  3.38526815e-03
   6.15683720e-02 -7.35777020e-02 -6.78988025e-02  3.14612314e-02
   5.68602607e-02 -5.58281057e-02  3.06872502e-02  2.84548178e-02
  -3.87315787e-02 -7.21359551e-02 -5.75235710e-02 -5.63384220e-02
  -3.18167619e-02 -4.70867679e-02 -6.75233677e-02 -8.54220986e-03
  -6.15997948e-02  1.20704845e-02 -4.79254909e-02 -3.87827493e-02
   4.91947457e-02  2.96912491e-02  3.36837620e-02 -1.57347620e-02
  -2.93296464e-02  3.95681337e-02  5.21726161e-03  5.93591854e-02
  -8.02941695e-02  7.53376260e-02 -3.46185938e-02  7.70129189e-02
   7.90260360e-02  5.96280172e-02 -1.98324025e-03 -5.28266281e-02
   6.06874749e-02 -4.67275083e-03  4.64955941e-02  3.57007980e-03
  -2.68882439e-02  7.24903718e-02  6.56990334e-02 -3.97013538e-02
   9.80359316e-03 -4.39461321e-02  3.95901203e-02  1.60428435e-02
  -3.03354673e-02  6.23695552e-04 -2.79713050e-02 -2.02186964e-02
  -2.88509056e-02  4.43334654e-02  6.73666820e-02  1.76523849e-02
  -3.32069919e-02 -7.45738447e-02  6.04703948e-02 -8.80211592e-03
   1.02991536e-02 -2.03847550e-02  1.02152228e-02  3.78090441e-02
   8.09841231e-02 -5.03592528e-02 -4.00405675e-02  7.02626780e-02
   7.95849338e-02 -2.25296803e-02  1.98333636e-02 -4.16366756e-02]
 [ 7.23906234e-02 -2.48648226e-04 -8.02745000e-02 -4.02634628e-02
  -1.29011199e-02  1.57335997e-02  7.93489739e-02  9.77493078e-03
  -7.67127126e-02 -1.29768699e-02 -5.15026525e-02  3.27680930e-02
  -4.57903855e-02 -2.99891010e-02  8.05068687e-02  2.56782249e-02
   1.61942020e-02  2.56033689e-02  2.52135098e-02 -1.58133358e-03
   1.70304850e-02 -1.34815797e-02  2.39935145e-02  7.40622506e-02
   3.58991548e-02  1.23189017e-02  2.11426765e-02  4.43248674e-02
  -5.79025075e-02  4.12869230e-02 -3.16058025e-02 -5.45476191e-02
  -7.69285113e-02  5.33630773e-02  9.40243900e-03 -1.32840946e-02
  -7.02432841e-02  2.07869336e-02 -2.35779136e-02  4.74532694e-03
   7.61928037e-02  8.09818581e-02  2.54045427e-03 -6.58196807e-02
  -4.31995764e-02 -8.03099871e-02  5.37680089e-03 -1.53310597e-02
   5.42930737e-02  7.33709857e-02 -6.74603134e-03  5.97382262e-02
   7.96307102e-02  8.78389925e-03  4.40694168e-02 -7.39941150e-02
   3.58870849e-02  4.10266221e-03 -6.88412711e-02 -5.93907833e-02
  -6.48684725e-02 -6.58012927e-03  1.66815668e-02 -1.82240456e-03
   1.96712464e-02 -1.28041953e-02 -1.54549181e-02  2.82888934e-02
   6.59523830e-02 -6.53193220e-02 -7.09788129e-02  2.11527944e-03
  -2.69100554e-02 -6.35133386e-02 -4.59490009e-02  4.55954894e-02
   5.47922328e-02 -1.35022923e-02  3.05765048e-02  2.07547694e-02
  -2.85774618e-02  3.39739099e-02 -1.82758570e-02  5.74568883e-02
   5.81035241e-02  6.28089383e-02  7.38582015e-03  2.86350921e-02
  -4.84416299e-02  6.53363243e-02  6.68013915e-02  3.36476341e-02
  -4.94383425e-02  4.15232033e-03  2.47032642e-02  6.96086213e-02
   1.94191709e-02  3.83876488e-02 -3.65295447e-02  5.26561663e-02
   8.99118930e-03  8.98577273e-03 -1.11494362e-02 -4.53503430e-02
  -4.09596413e-02 -4.65925969e-02 -1.41333938e-02  1.63250864e-02
  -2.36765370e-02 -4.08123620e-02  3.93967554e-02  8.63002241e-03
  -5.85483089e-02  6.17364570e-02 -6.77144527e-02 -5.41177318e-02
  -3.14710736e-02  3.69867831e-02  2.21840292e-02 -2.67627947e-02
   5.86988553e-02  1.35503709e-03  1.49423927e-02 -2.23725773e-02
   2.23943591e-03  7.88076222e-03 -2.46155076e-02  3.98528874e-02]
 [ 1.10175312e-02 -1.28103048e-03 -5.07371649e-02 -5.69447950e-02
  -5.98749369e-02 -5.35773598e-02  7.33222589e-02  4.57781628e-02
  -6.34804443e-02  4.29647714e-02 -3.05649564e-02 -3.40865590e-02
   4.66968045e-02  1.20366812e-02 -6.05156720e-02 -4.13373001e-02
  -4.28827107e-03  5.40736392e-02 -3.53848189e-03  4.39654514e-02
   5.54905087e-03  5.31228855e-02 -6.14167750e-02  4.01647240e-02
  -6.92965388e-02 -5.95469177e-02  2.26275325e-02  8.05980638e-02
   6.55246601e-02 -2.22773328e-02  6.67866692e-02 -1.59871429e-02
   1.34516805e-02 -7.95141011e-02 -1.34788305e-02 -7.99253657e-02
   6.75539598e-02  2.67239064e-02  5.63508272e-03  6.25229254e-02
   1.30382702e-02 -6.11883141e-02 -7.42806494e-02  4.92845848e-02
  -9.64965671e-03 -6.94425777e-02 -1.17958039e-02 -7.74413645e-02
  -2.34117396e-02 -3.00530531e-02  7.57535920e-02  3.30139771e-02
  -3.08740586e-02  3.60876471e-02 -1.67560205e-02 -3.18645686e-02
   1.00504979e-02 -6.82745799e-02  6.78144470e-02  3.95370945e-02
   1.93974748e-02 -5.47882840e-02  6.42580912e-02  3.14534903e-02
   4.09815311e-02  4.62859869e-04  6.39810935e-02 -2.77609378e-03
   4.75820079e-02 -7.86543936e-02 -1.68931261e-02  5.11217192e-02
   6.94595277e-03  4.27260995e-02 -6.21329695e-02  2.49201804e-02
   7.41511211e-02  5.26868328e-02  6.99192286e-04 -4.55007367e-02
  -6.07551560e-02 -1.70352086e-02 -3.01823281e-02  5.92008978e-03
   2.78868750e-02 -4.47270311e-02 -2.10404396e-03  8.03804174e-02
   3.63957062e-02  2.37504691e-02 -2.85989493e-02  6.53423145e-02
   1.90680102e-02 -2.19979733e-02 -1.61030218e-02  4.93328795e-02
  -1.24772042e-02 -7.86813349e-03 -2.03141682e-02  3.73319462e-02
   1.76294893e-02  1.95287615e-02 -5.75885177e-03  3.50139663e-02
   1.20492876e-02 -7.88728148e-03 -1.45399645e-02  3.64830792e-02
  -6.41191453e-02  5.21866456e-02 -5.48243523e-02 -6.72642365e-02
   4.11416143e-02 -2.34692693e-02  5.55041358e-02 -3.62949707e-02
  -2.82781459e-02 -7.93470740e-02 -6.36269525e-02 -4.69988175e-02
  -2.92694271e-02 -7.37282559e-02  4.31516767e-02  4.58687544e-04
  -2.27154233e-02  5.52332029e-02 -1.05561167e-02 -1.95653327e-02]
 [-1.56205669e-02  5.11348993e-03  1.50677264e-02  5.08301184e-02
   4.90983203e-02 -2.15241835e-02  5.94924018e-02  7.07620159e-02
  -1.56691670e-02  6.76175430e-02 -6.63790405e-02 -7.57866800e-02
   7.68359825e-02 -3.01504210e-02  6.99405149e-02  3.41691673e-02
   5.28608784e-02 -5.65834977e-02  2.16897205e-02 -6.61692992e-02
   6.60588071e-02 -5.51335514e-02 -1.09843686e-02 -2.30415054e-02
  -3.21336836e-03  1.64945275e-02 -1.80508718e-02 -3.10923122e-02
   1.41544640e-03  3.40827703e-02  2.19256133e-02  4.54639718e-02
  -3.07780057e-02 -1.95024051e-02 -4.67814505e-03 -2.23150067e-02
  -3.55029926e-02  9.14409757e-04 -6.45702779e-02 -6.16704747e-02
  -4.89994027e-02  5.45404777e-02  5.66147938e-02 -1.40374228e-02
   5.70232943e-02 -7.63084069e-02 -5.02377115e-02 -1.80417448e-02
  -7.87212327e-02  9.85868275e-04 -7.36012235e-02 -8.02440643e-02
  -1.16850138e-02 -3.40910815e-02 -3.50951403e-03  5.42433560e-03
   2.37885267e-02  7.91743472e-02 -8.01996589e-02 -6.80095553e-02
   5.50211146e-02 -6.77333251e-02  4.88107726e-02  1.13596842e-02
   5.78076169e-02  5.49150333e-02 -7.35832974e-02  5.91951981e-02
  -3.17028984e-02 -2.89708413e-02 -1.63096935e-03  1.72005892e-02
   5.18580303e-02  7.72109702e-02 -7.83529505e-02  3.70208770e-02
   5.66548035e-02 -1.62263066e-02  1.46356300e-02 -3.84323373e-02
   6.78480342e-02  3.71347368e-02  5.82780614e-02 -5.89840971e-02
   2.01050267e-02 -3.62748392e-02  1.47285536e-02 -1.21740997e-02
  -6.32715672e-02 -7.89070353e-02 -9.48831439e-03 -1.16593316e-02
  -1.23118237e-02 -3.34458053e-03 -4.23065349e-02  3.14688459e-02
   1.48298442e-02 -6.33955672e-02  3.91420722e-03 -4.11133803e-02
  -3.70792374e-02 -3.92305069e-02 -6.51059300e-02 -4.33503576e-02
   4.17656973e-02 -8.25869292e-03  7.54025504e-02  2.68420428e-02
   6.88941851e-02  3.80434990e-02 -2.74447016e-02  5.17353639e-02
   3.16096097e-02 -2.22817622e-02  4.54856679e-02 -4.72392887e-02
  -2.76164860e-02 -6.49733841e-02  5.57099506e-02 -6.07208908e-02
  -6.20535314e-02 -5.26629090e-02 -9.02489573e-03  4.06599343e-02
   4.52846289e-04 -6.91686720e-02 -6.05591051e-02  6.59256428e-03]
 [ 6.48230240e-02  4.85287830e-02 -3.64934616e-02  1.90505236e-02
  -6.49761260e-02  3.05291787e-02  8.25081766e-03 -1.31453425e-02
   6.67146519e-02 -2.41834335e-02 -7.12759644e-02 -5.09678572e-03
  -1.80770010e-02 -8.14289600e-03 -7.13477880e-02  8.09933767e-02
   5.08395210e-02  3.35223600e-02  7.07964674e-02 -2.45565847e-02
  -7.57565349e-02  6.81947097e-02 -6.94556087e-02  2.29740888e-03
  -7.38602951e-02 -6.93419427e-02 -1.84944943e-02 -2.85809450e-02
  -3.96242552e-02  6.81107417e-02  6.55784532e-02  4.08209488e-02
   1.07218474e-02 -5.52501418e-02  3.70535925e-02  3.17713767e-02
  -7.58779794e-02  5.70714474e-06 -3.28484215e-02 -1.20958537e-02
  -2.97535025e-02  1.52550191e-02 -2.25077905e-02 -5.53127602e-02
   1.42783597e-02 -7.14849681e-03 -1.77582651e-02 -6.16211444e-02
  -5.61527908e-03 -6.56744316e-02 -3.68294455e-02  5.33328280e-02
  -3.40773128e-02  6.54851720e-02  9.52645391e-03  2.46167853e-02
  -4.87754866e-02 -5.16086817e-03 -4.46509160e-02 -6.46978617e-04
  -3.97099815e-02  5.14935628e-02 -3.84508818e-02 -4.79687676e-02
  -6.50794730e-02 -4.81387973e-03 -2.10500695e-02  6.85068145e-02
  -7.58998096e-02 -1.23297423e-03  5.00558540e-02  4.47185561e-02
  -6.92747608e-02  3.23199630e-02 -2.87245698e-02 -4.01503146e-02
  -4.95394245e-02  1.14605501e-02 -6.94267377e-02  4.43572626e-02
   2.17420086e-02  2.50607729e-02  3.42111140e-02 -5.50489873e-03
  -1.03092119e-02  1.21296942e-02 -2.51297913e-02  2.88877487e-02
  -3.34816761e-02  3.49842012e-02 -6.73373044e-03  7.03288391e-02
  -4.75307554e-02  4.98306081e-02  4.90709916e-02 -7.53216743e-02
  -8.64110887e-04 -4.15750630e-02  6.60263374e-02 -8.10945034e-02
   5.91892973e-02  2.03347430e-02 -2.64353193e-02  8.04147497e-02
  -2.13817991e-02 -5.12676910e-02  6.50143996e-02  7.76321366e-02
   5.08838072e-02 -1.32781789e-02  3.70722786e-02  2.89665908e-02
  -6.60094097e-02  6.73073754e-02 -3.28601412e-02 -6.42587915e-02
  -3.05238254e-02  3.51302251e-02  1.35525092e-02  2.76561081e-03
   6.91064373e-02  3.47004682e-02  2.59683803e-02  9.78036225e-03
   4.87614498e-02 -1.15667805e-02 -6.53362647e-02 -7.84157217e-02]
 [ 7.50074610e-02  7.34683350e-02 -6.57557324e-02 -5.68459556e-02
   4.01171669e-02 -7.90343136e-02 -6.50813058e-02  6.87070191e-04
   2.72909403e-02 -2.86611021e-02 -6.84409887e-02  2.92479992e-02
  -7.79100284e-02 -2.42478698e-02 -6.31873757e-02 -4.07209098e-02
  -2.85388827e-02  5.77804372e-02 -6.88807964e-02  6.27576336e-02
  -4.98190522e-04  3.42576802e-02 -1.18460804e-02 -3.97809148e-02
   5.29060289e-02  2.74178386e-02  7.73143843e-02 -6.87533244e-02
   6.97707906e-02 -2.34375373e-02  6.99665472e-02 -7.48407692e-02
   9.17151570e-03 -3.14629897e-02 -3.61169837e-02  2.33923048e-02
   2.24358886e-02 -6.38509244e-02  7.47168735e-02  5.08726314e-02
  -2.76257657e-02 -3.52726541e-02  2.88883448e-02 -7.65728801e-02
  -6.66844696e-02 -6.59703091e-02  5.04244044e-02  5.95405772e-02
   7.22189769e-02  1.79350376e-02 -3.12890783e-02 -2.18752772e-03
  -4.03948277e-02 -7.94150904e-02  9.29081440e-03 -1.50276199e-02
  -1.50480419e-02  3.09793726e-02 -6.03484139e-02 -4.04958501e-02
  -5.96808940e-02  6.54839501e-02  5.99788874e-03 -6.98730350e-04
   1.86298043e-02 -2.76123472e-02  7.30547383e-02  5.95706925e-02
   4.26996201e-02  3.75045836e-02  7.06185326e-02 -2.54836231e-02
  -4.57244366e-03 -8.44981521e-03 -8.01148266e-02 -3.45050208e-02
  -5.91447577e-02  5.78000173e-02  3.74396071e-02 -5.58992326e-02
   3.57216671e-02  7.24914744e-02 -6.65115714e-02  7.09345713e-02
   4.22067866e-02 -1.42369494e-02  6.04497641e-03  5.97945079e-02
  -6.17551953e-02 -6.48009777e-02  5.71748093e-02 -7.59268850e-02
  -3.04900855e-03 -2.02265456e-02 -6.62309527e-02 -5.03453501e-02
   1.99873298e-02 -5.34965619e-02  2.28122696e-02  4.74180207e-02
  -7.16951415e-02 -5.84386811e-02 -4.06987853e-02  3.68435830e-02
  -2.64053643e-02  4.13470045e-02  6.96221665e-02  3.28094736e-02
   6.45800456e-02 -8.05123076e-02 -5.69665730e-02 -2.91805454e-02
   2.18034685e-02 -3.55325975e-02 -7.95111582e-02 -1.83576941e-02
   5.17818108e-02 -5.00894450e-02 -4.67834286e-02 -2.63628215e-02
  -6.83391541e-02 -4.17882279e-02 -2.45837159e-02 -4.82436828e-02
  -2.47762091e-02 -2.60600597e-02  5.08547798e-02  6.50258288e-02]
 [-1.51130557e-03  6.95568696e-02  5.90927377e-02 -2.25043483e-02
   2.91636437e-02 -2.84690894e-02 -6.93595409e-03 -3.33558209e-02
   1.59512535e-02 -8.51833075e-03  8.07016864e-02  6.64381757e-02
   5.26335165e-02  6.43121079e-02 -1.23855844e-02 -7.11732358e-02
  -3.28690745e-02 -4.08178531e-02 -6.64361864e-02  1.29850879e-02
  -4.09693308e-02 -4.06753495e-02  5.79426512e-02  1.04639754e-02
  -1.57503486e-02 -4.47397381e-02 -6.85991347e-03  8.07658359e-02
   1.20453835e-02 -4.18676510e-02  4.96863350e-02 -2.99117677e-02
   4.67653051e-02  7.68886134e-02  2.17851773e-02  4.55048606e-02
   1.18896291e-02 -5.55863976e-03  1.93347409e-02 -6.94857836e-02
  -7.83398747e-02 -5.08168936e-02  7.17073604e-02  3.90465036e-02
   4.72323820e-02 -6.37210906e-02  4.00078893e-02  7.55489543e-02
  -7.18187541e-02  4.36331183e-02  8.00179914e-02  3.65742743e-02
   3.06258351e-02 -7.42839202e-02 -6.98689073e-02  2.04266757e-02
   2.83884257e-03  6.71305731e-02 -4.78071980e-02  3.66692245e-02
  -4.17950749e-03 -2.79964805e-02 -1.41197667e-02 -6.94332719e-02
  -5.95764294e-02  2.47671232e-02  2.33429521e-02 -2.01817416e-02
   1.96829289e-02 -7.91166201e-02 -1.72553733e-02  4.53527272e-03
   6.55390322e-03  4.65760008e-02  1.84034482e-02 -5.81858493e-02
  -1.20380744e-02 -2.31220312e-02  1.08124465e-02 -6.67392015e-02
  -1.08542368e-02  3.11078429e-02 -6.30162880e-02  8.97154212e-03
   1.70428306e-03 -4.20322195e-02 -7.58305565e-02 -1.60179734e-02
   5.91858104e-02 -4.71838079e-02 -5.10856211e-02 -5.76355010e-02
  -4.97019067e-02  5.79223111e-02  3.98877412e-02 -5.90912327e-02
   1.77065283e-03  3.00687775e-02 -4.55173105e-03  7.07490668e-02
  -5.85882030e-02 -1.38979927e-02 -2.65228078e-02  6.05814159e-04
  -6.15380667e-02  6.24884292e-02  9.18522477e-03  4.19116244e-02
   2.37119496e-02  7.12580308e-02  4.69219908e-02  6.63647726e-02
   6.65857121e-02 -7.83266723e-02 -4.20965999e-03  1.94990411e-02
   5.09843901e-02  2.97171623e-02  1.29428357e-02  7.11585060e-02
  -1.38428807e-02  3.26826721e-02  2.73174196e-02  1.56251714e-02
  -7.63574690e-02  1.49836466e-02  4.09675464e-02 -5.42300865e-02]
 [ 7.65936896e-02 -5.19336835e-02  4.40708324e-02  2.93902159e-02
  -1.13817900e-02 -8.98561627e-03  2.15005502e-02  3.75915244e-02
   4.45334539e-02 -4.83408943e-02  1.53939798e-02  3.52872312e-02
  -5.82678616e-03  3.65992039e-02 -4.49525937e-02  2.42376402e-02
   6.51116446e-02 -7.95969442e-02 -6.34650737e-02  6.99197277e-02
   8.84197652e-03  6.21246770e-02  2.77057141e-02 -2.48550326e-02
   1.18654594e-02 -4.58528847e-03 -4.52750213e-02  1.82648301e-02
  -4.52585258e-02  6.14076480e-02 -7.18883276e-02  5.86490855e-02
  -3.14115286e-02 -4.70521897e-02 -6.32598698e-02  3.81518751e-02
   4.91858050e-02 -3.14465314e-02  6.91794604e-03  7.62750953e-03
  -7.73807988e-02  4.72657606e-02 -8.08140561e-02 -7.41405115e-02
  -3.81805934e-02 -7.47313350e-03 -2.43393965e-02 -3.06398533e-02
   6.33272007e-02  3.80610824e-02  6.47095069e-02  5.62765077e-02
   2.97415704e-02 -1.30001307e-02 -5.38156182e-03  5.06756678e-02
   2.93605104e-02  8.07202831e-02 -1.58920884e-04 -1.85912251e-02
  -8.88912380e-03  2.73025110e-02 -6.15955219e-02 -5.64173236e-02
  -4.28152084e-02  7.70299211e-02  4.91860732e-02 -6.81338981e-02
   2.76262909e-02 -1.32849663e-02  5.87706342e-02 -4.53849025e-02
   7.11504743e-02 -6.55955672e-02  7.79552981e-02 -5.26381731e-02
  -7.28206336e-02  1.89001113e-03 -4.76394556e-02 -6.54484481e-02
   1.28521398e-02  7.14745447e-02  3.72706279e-02 -2.96263136e-02
  -3.66796479e-02 -6.26126751e-02  4.79227379e-02  1.51480362e-02
  -7.90047497e-02 -3.32052521e-02 -7.33555853e-03  5.77848777e-02
  -6.74073994e-02 -3.77440490e-02 -1.20921060e-02  2.94317305e-02
   6.96571171e-03  7.95262083e-02  5.79778627e-02  7.64503554e-02
  -6.36844635e-02 -3.68502140e-02 -5.33219390e-02 -4.16541100e-03
   6.08267859e-02  7.91150406e-02  4.30037379e-02 -8.01456720e-02
  -5.50730415e-02  7.29252473e-02 -1.86549798e-02  2.40000263e-02
   7.42144510e-02  1.80487260e-02  6.17746934e-02 -7.37938508e-02
   4.20630872e-02 -7.56472722e-02 -6.65706247e-02  1.61455646e-02
   6.24219701e-02 -3.45185399e-05  6.30915686e-02 -4.24775817e-02
  -4.53200005e-02 -8.01172107e-03  4.59946617e-02 -6.95644096e-02]
 [-5.12178354e-02  2.31199041e-02  4.69272509e-02 -6.53961301e-03
   1.96372122e-02  1.80211887e-02  4.61427495e-02 -3.07876356e-02
   5.39801493e-02  2.58724242e-02  4.87226769e-02 -2.27302946e-02
  -1.24540031e-02 -7.05748722e-02 -3.30075957e-02  2.74696648e-02
  -1.79460943e-02 -6.74306601e-02  9.38475132e-05  5.52602485e-02
  -7.01722875e-02 -1.48019791e-02 -4.22729440e-02 -7.64946193e-02
  -3.28138657e-02  6.43013343e-02  7.77552649e-02 -2.08205730e-03
   6.89120069e-02 -7.34884217e-02 -4.82799783e-02  3.93916368e-02
   3.90980765e-02  1.02573037e-02  5.05287126e-02  1.64071321e-02
  -6.55492917e-02  3.59659642e-03 -3.89088131e-02 -3.77049260e-02
  -1.04535371e-03 -4.43773195e-02 -4.07700092e-02 -3.89333144e-02
   4.54759225e-02  1.88012570e-02  6.61947057e-02 -4.41818833e-02
  -7.06318840e-02 -2.22584605e-02 -7.63429701e-02 -2.83555947e-02
  -4.17413525e-02  5.98682389e-02 -3.72270383e-02  4.01159897e-02
  -8.80747288e-03 -2.52384134e-02  6.57825992e-02  2.36959755e-02
  -2.29898542e-02  2.84959674e-02  2.42774338e-02 -1.62876472e-02
  -2.89601274e-02 -1.26008689e-03 -5.88481873e-03 -4.24328893e-02
   4.84434888e-02 -2.08285861e-02  1.91294402e-03 -1.88092813e-02
  -7.35126883e-02  4.10159677e-03  2.87840515e-02 -4.62920219e-03
   5.12009189e-02 -6.13886416e-02  2.63135657e-02 -2.12956257e-02
  -3.54881957e-02 -5.48938513e-02  3.18822637e-02 -4.86344509e-02
  -5.02869114e-02  7.56432340e-02  3.84458974e-02  7.03181401e-02
   3.98978293e-02  1.58786997e-02  1.24144331e-02  7.07682446e-02
  -2.94634700e-03 -1.49238855e-02  2.01670453e-02  8.96670669e-03
   6.03277236e-03  7.88595304e-02  3.11817303e-02 -5.16472235e-02
   8.51237029e-03 -3.58090214e-02  2.74568796e-03 -3.53044830e-02
   3.92869115e-03  7.67191723e-02 -1.13491863e-02 -6.87910318e-02
  -6.52368665e-02  2.92734653e-02  8.03963318e-02 -4.59292755e-02
  -7.03019127e-02  1.68962777e-03 -5.40796146e-02  5.05130365e-02
  -3.91601734e-02  7.16024712e-02  2.45196074e-02  6.47069588e-02
  -2.74856612e-02  1.08018890e-02  1.18050650e-02  7.73193017e-02
   1.38306543e-02 -5.13555408e-02 -5.39808124e-02 -1.33348182e-02]
 [ 4.99552563e-02  6.95283711e-03  1.77954286e-02 -7.16397986e-02
   7.53927752e-02  6.81797341e-02 -5.22400960e-02 -4.42755967e-02
  -2.08523907e-02  4.82038483e-02 -5.74890524e-02  7.57522061e-02
  -3.48995775e-02  6.36511818e-02  4.33022454e-02 -2.18511969e-02
   7.00165257e-02  3.08424979e-02  1.81405470e-02 -7.14625046e-02
  -5.43184616e-02 -2.07379870e-02 -3.94404642e-02 -4.82378602e-02
   5.88009283e-02 -8.24382156e-03 -4.60138395e-02  5.89616075e-02
   2.43466645e-02 -5.21899126e-02 -7.29370862e-02 -7.95520991e-02
  -2.27485895e-02  6.19221404e-02 -7.74169564e-02 -4.10188921e-02
   4.71883938e-02  5.81235960e-02  5.02577648e-02  5.29216006e-02
   7.37172440e-02 -6.84377030e-02  1.08363554e-02  2.65950337e-02
  -7.12009892e-02 -1.94079764e-02 -4.24399972e-04 -7.82638192e-02
  -5.71799688e-02  2.48787776e-02  6.20365143e-03 -1.12914294e-03
  -4.10685688e-03  8.03095177e-02  4.91782650e-02  6.19240031e-02
  -7.01102689e-02  8.03179219e-02  7.64758214e-02 -5.46041839e-02
  -6.91717267e-02 -1.47411600e-02  4.60563824e-02  1.09834000e-02
   5.70719019e-02 -2.83875018e-02 -3.14947031e-02  1.73107013e-02
   4.28956971e-02  4.93955538e-02 -5.00262678e-02  7.06773475e-02
  -4.16528210e-02 -5.22217453e-02  6.59210309e-02 -6.67652264e-02
  -5.38527742e-02  3.83226722e-02  1.49932355e-02 -1.33264884e-02
   6.02202117e-03  2.43245289e-02  7.57456794e-02 -4.61795107e-02
   7.39098266e-02  3.46679091e-02 -1.49618834e-03 -4.38139550e-02
   3.76449376e-02  3.52477282e-03 -1.24227703e-02  7.20787868e-02
   2.56228447e-03 -7.64864683e-03 -7.60200769e-02 -6.09212518e-02
  -2.19812840e-02 -3.65219861e-02  4.74800542e-02 -7.39345774e-02
  -3.67080569e-02  6.24023601e-02  3.77084836e-02  3.27393189e-02
   4.57224175e-02 -5.95470518e-02  1.45198330e-02 -8.92559439e-03
   5.43100312e-02  3.55391726e-02 -8.77794623e-03  7.13479295e-02
  -6.96927309e-05 -2.31772624e-02 -9.53890383e-03  6.15558848e-02
   7.90787712e-02  3.14708799e-02 -7.82383308e-02 -4.76670526e-02
  -1.13376603e-02 -2.92621553e-02  1.25027522e-02  2.09820569e-02
   2.47716457e-02 -2.61869282e-03 -3.60427052e-03 -7.43664205e-02]
 [ 5.85023835e-02  1.74411535e-02  1.43330470e-02  9.65984911e-03
   7.03325048e-02  7.99966231e-02  1.37148350e-02 -6.01384193e-02
   7.71259144e-02  3.94530520e-02 -2.65002586e-02 -4.20797355e-02
  -5.26501089e-02  2.22410187e-02 -2.86924094e-03  3.83052677e-02
   5.63492402e-02  1.55267566e-02 -3.14392783e-02 -6.45812005e-02
  -7.85193741e-02  2.15723366e-02 -6.41234815e-02  4.77490351e-02
  -6.92134798e-02 -2.45785713e-03 -7.79973716e-03 -6.64959848e-02
  -5.24950698e-02  7.72733167e-02  2.38792971e-02  4.11135554e-02
  -3.08983102e-02 -6.70515522e-02 -1.26312003e-02  1.86805055e-02
  -5.79679683e-02  3.11754644e-04 -1.34241432e-02  4.78152856e-02
  -6.71559572e-03  6.43375516e-03  1.09946951e-02 -5.55451289e-02
  -6.92918152e-02 -2.77226903e-02  7.60604665e-02  7.45044127e-02
   7.88889304e-02 -5.28071076e-03  6.33907989e-02  4.49244604e-02
  -3.90433706e-02  3.47286835e-02 -6.25058711e-02  8.51888955e-03
  -7.08718523e-02 -5.82566485e-02  1.11088827e-02 -2.67728306e-02
  -4.45368774e-02 -3.63066718e-02 -4.91761565e-02 -1.24671087e-02
  -5.69140092e-02  7.78922215e-02  1.78752393e-02 -3.00685987e-02
  -9.28200781e-04 -5.09207398e-02 -1.01537853e-02 -7.24760592e-02
  -7.77353644e-02  5.00251576e-02 -4.28843610e-02  1.32958964e-02
  -1.50613412e-02  5.11246100e-02 -4.67693061e-03 -2.08202340e-02
   3.25651541e-02  2.49928385e-02 -2.69281194e-02 -2.54777446e-02
   7.57360980e-02 -5.57244122e-02  3.38435173e-02  2.72035599e-03
  -5.13464361e-02  4.98118177e-02 -1.34109557e-02  1.60998479e-02
  -6.21362403e-02 -6.57796338e-02 -3.57308239e-03  9.33873653e-03
  -2.81159915e-02 -5.62115833e-02 -2.12872513e-02  2.80929580e-02
  -1.00552216e-02 -7.88792595e-02  6.55648485e-02  3.34744602e-02
   2.25922614e-02 -5.29452488e-02 -2.68426426e-02  3.96850705e-02
   5.42327985e-02  5.21739051e-02  2.61008292e-02  7.52164647e-02
   1.80252492e-02  3.15800309e-03 -2.37890668e-02  2.36544535e-02
   9.73716378e-03  5.98758683e-02  8.53431970e-03  5.55442944e-02
   4.73861769e-02 -2.32999772e-03 -2.62761079e-02 -5.83003126e-02
   3.49255875e-02 -1.95094422e-02  7.94302300e-02 -4.92194928e-02]
 [ 7.95697495e-02  5.55226430e-02 -3.21777128e-02  6.27558678e-03
  -2.16226764e-02  6.16386905e-02  1.45539865e-02 -6.16667643e-02
   5.91300949e-02  4.34057415e-02 -4.86470610e-02  2.13925689e-02
   1.33422688e-02 -5.60798720e-02  4.25841734e-02 -4.75757383e-02
   8.11070129e-02  7.65788034e-02  5.87829426e-02  8.05210993e-02
   5.00439480e-02 -3.70495319e-02 -4.74527441e-02 -1.69025213e-02
   3.14024761e-02 -5.23752347e-02  6.66165575e-02 -4.14588191e-02
  -5.40410504e-02  6.57755956e-02 -3.05779129e-02  1.02955922e-02
  -4.10718806e-02 -7.31703639e-02 -3.95764671e-02 -3.34179364e-02
  -6.79816827e-02  4.63894680e-02 -5.18670604e-02 -2.83480436e-03
   5.13374582e-02  7.11991861e-02 -1.50942802e-02  7.00189695e-02
   1.14211440e-02 -1.97177567e-02 -7.51465559e-04  7.86863044e-02
  -6.43234029e-02  5.82059398e-02  6.25340864e-02  7.32557848e-02
  -1.26004666e-02  6.98728487e-02  4.96435165e-03  2.78047025e-02
  -2.78744102e-03  4.52637896e-02  1.67490169e-02  2.89179161e-02
  -8.10698047e-02  2.17339471e-02 -5.64754009e-04 -4.16355133e-02
   1.76980346e-03 -2.44095959e-02 -2.70898640e-03 -4.72223759e-03
  -8.48879665e-03 -1.41326264e-02  1.46607533e-02 -5.91672100e-02
   2.25539505e-02 -5.84446564e-02  1.25590041e-02 -2.68760808e-02
  -3.41028795e-02 -5.26796281e-03 -1.35051906e-02  5.06326780e-02
  -5.93180880e-02  6.71262369e-02 -5.82656972e-02  2.14300677e-02
  -2.50255764e-02  6.11477345e-03  7.25437626e-02  2.37506032e-02
  -4.73606177e-02  7.08541349e-02 -2.43074112e-02 -6.86315298e-02
   2.15699598e-02 -5.80094457e-02 -5.60327992e-02  2.71093845e-03
   2.78122649e-02 -2.14345530e-02  3.51568535e-02 -3.91786024e-02
   2.47523114e-02  5.76747581e-02  3.47864702e-02  6.17276803e-02
   2.40451097e-02  3.66286933e-03 -3.44291925e-02 -5.67111112e-02
   7.63130859e-02 -4.20543998e-02 -1.30799264e-02  6.08562157e-02
  -5.71220703e-02 -2.46393345e-02 -6.57739267e-02  2.26504505e-02
   7.11677149e-02 -3.24940868e-02  3.67046148e-02 -3.47258225e-02
  -3.76398861e-03 -7.21948072e-02  6.27073422e-02 -2.98643298e-02
   3.99600267e-02 -7.52848163e-02 -6.86347187e-02 -4.36955653e-02]
 [-6.11669272e-02  3.81913632e-02  2.81843916e-02 -5.58843799e-02
  -4.12336439e-02  6.58052340e-02 -3.20613533e-02 -2.04853304e-02
   2.04181671e-02 -3.28767523e-02 -5.33029512e-02 -6.45956993e-02
  -1.76222026e-02 -5.65494634e-02 -4.05608453e-02 -1.93754286e-02
   3.48899513e-03  6.41082749e-02  7.14711323e-02  5.74795380e-02
   3.75234187e-02 -1.05132908e-03 -8.06917995e-02  2.58954912e-02
   6.55657575e-02  1.65518448e-02 -7.29290247e-02  6.03871122e-02
  -6.99261129e-02 -5.85645884e-02  6.80412874e-02 -3.49402651e-02
  -2.78447531e-02  5.61267808e-02  1.11234486e-02  4.68165502e-02
   4.12459821e-02  2.63438150e-02  3.22366580e-02  6.37578592e-02
  -7.04750270e-02  4.84136418e-02  3.27994972e-02 -8.10123533e-02
  -5.18325232e-02  7.29152486e-02  7.63751045e-02  2.96532884e-02
  -3.20983082e-02 -6.62460327e-02  2.09233835e-02  1.74269378e-02
   2.53530890e-02 -1.58151537e-02 -1.17620155e-02  4.28884253e-02
   3.21561098e-03  2.29972824e-02  2.91416943e-02 -3.92032973e-02
  -3.94332111e-02 -1.44144818e-02 -4.16527651e-02 -5.67572117e-02
   5.79866245e-02  1.53727308e-02 -6.27491474e-02 -7.75618851e-03
   2.87855044e-02 -3.20836529e-02  7.29824081e-02 -6.10880256e-02
  -2.39583924e-02  5.41428253e-02 -6.08858839e-02 -2.62007117e-03
  -5.89740574e-02  6.67303801e-04  4.99436483e-02  4.93232980e-02
   7.00455680e-02  2.31711864e-02 -6.19757324e-02 -6.63271025e-02
   1.88356787e-02  1.31043792e-03 -2.99280509e-02 -5.06302044e-02
   4.16341200e-02 -6.98114783e-02  2.13852376e-02  3.04415748e-02
   5.35156056e-02  5.88538572e-02 -8.05479810e-02 -5.70019595e-02
   4.61207405e-02  7.27172270e-02  2.47634500e-02  1.46739185e-04
   1.26550645e-02 -5.71568199e-02  4.66279164e-02 -7.65186921e-02
  -4.09278274e-02  3.42181325e-02  5.76628521e-02  3.10371816e-02
  -3.69222499e-02 -2.92841792e-02  4.07440737e-02  6.11692294e-02
   7.08429515e-03  2.31236368e-02 -4.22816277e-02 -8.69241357e-03
   2.00883970e-02  5.26959375e-02  5.85134551e-02 -3.36814001e-02
  -1.71338916e-02 -6.17218763e-03 -4.54294197e-02 -3.98752838e-02
   6.37391284e-02  4.46848571e-04 -3.66454795e-02  2.12787837e-02]
 [ 7.28461891e-03 -1.52628496e-02 -7.60004297e-02 -3.98090892e-02
  -6.88488185e-02 -2.10427493e-03 -7.30484352e-02 -5.76682240e-02
  -1.70904920e-02 -6.52211457e-02  5.63117489e-02 -6.70392364e-02
   1.88332051e-02  3.95037532e-02  1.15538239e-02  2.36733854e-02
  -2.90496834e-02  5.32166660e-03  4.78195772e-02  3.96490619e-02
   4.77893651e-03 -1.74905807e-02  1.23247206e-02 -5.80725297e-02
  -4.19417173e-02 -1.46214142e-02 -4.00770977e-02 -6.52030632e-02
  -5.12153581e-02 -5.73145226e-02 -4.78134640e-02 -7.76095465e-02
  -2.09640525e-02  9.82832164e-03 -3.40977535e-02  4.67100069e-02
  -3.26270387e-02  7.38096908e-02 -5.88466004e-02  6.25745207e-03
  -2.20151469e-02 -3.90374325e-02 -6.73048422e-02 -4.91699092e-02
  -4.68988717e-03  2.06661448e-02 -2.66043767e-02  2.41809934e-02
  -4.04859111e-02 -6.71631545e-02  2.21231505e-02  7.67310932e-02
   7.42809400e-02  5.61741218e-02  5.57545796e-02  6.65022060e-02
  -9.34188813e-03 -7.21365362e-02  4.91190925e-02  1.49827749e-02
  -7.44291097e-02  3.13000083e-02 -5.77051193e-03 -4.28042263e-02
   2.22451389e-02 -7.84129947e-02  5.61210290e-02 -1.73613653e-02
   5.48061356e-02  1.88499093e-02  3.23952138e-02  5.24813458e-02
   5.07880971e-02  7.78700933e-02 -5.62718995e-02  7.45149776e-02
  -1.37736872e-02  2.78253555e-02  3.16543058e-02  3.38736027e-02
  -6.04850389e-02 -3.71087268e-02  4.25356925e-02 -7.82743767e-02
  -2.05523372e-02 -1.34298876e-02 -9.13328677e-03  2.27762014e-02
   7.71648660e-02  2.76323259e-02  7.81779811e-02 -1.34124830e-02
  -8.60608369e-03  5.37978485e-02 -5.13422787e-02 -2.26225816e-02
  -4.74544466e-02 -6.32063448e-02 -6.20558858e-05 -5.65603524e-02
   4.71518412e-02  8.10331181e-02  4.36612815e-02 -4.81118709e-02
   2.80494690e-02 -6.08247742e-02  6.76506087e-02 -1.25567615e-03
  -1.64621547e-02  5.00372723e-02  6.95392862e-02  6.74218461e-02
  -6.43911436e-02 -8.50125402e-03 -3.16547677e-02  4.08573002e-02
  -3.66575457e-02  7.96373859e-02 -6.83049411e-02 -7.12307096e-02
   3.47553566e-02 -4.42377515e-02  1.29556656e-03 -5.75752631e-02
  -5.46379872e-02  3.20794359e-02 -2.71904990e-02 -1.60257816e-02]
 [ 3.62626761e-02  4.85443324e-03 -8.71440023e-03  3.55753377e-02
   5.05303219e-02  5.53738102e-02 -6.29478693e-03  7.42255822e-02
  -4.40168120e-02 -3.87153924e-02 -8.00696909e-02  3.71129066e-03
   7.74484798e-02 -1.32521689e-02  2.92404369e-02  4.46265861e-02
  -4.33123186e-02 -6.71790466e-02 -1.04908347e-02 -5.66834770e-02
  -2.89948806e-02  9.47512686e-03  4.42917123e-02 -3.99473198e-02
  -1.29927248e-02 -7.14260712e-02  6.05394021e-02  2.36037523e-02
   1.26443058e-02  2.79627740e-03  3.16341519e-02 -1.07448995e-02
   7.88175091e-02 -4.88959812e-02  1.37370229e-02 -1.68769062e-03
   3.88409346e-02  3.63681093e-02  4.67429683e-02  3.39593738e-03
   5.24467453e-02  5.86727485e-02 -4.49309722e-02 -3.81582975e-03
  -4.12515327e-02 -4.09790762e-02 -1.73785016e-02  8.43635201e-03
   1.75200552e-02 -4.29943576e-02  8.05650726e-02 -6.94127604e-02
  -1.36480406e-02  5.66399470e-02  6.34498522e-02 -3.82048227e-02
   2.37165689e-02  1.54948309e-02  6.74419925e-02 -5.68955392e-02
  -3.97295132e-02 -2.70929933e-03  9.16401297e-03  1.77479163e-02
   5.37720248e-02 -6.00410700e-02  7.97965303e-02 -4.34820503e-02
  -5.53213283e-02 -7.86910653e-02 -5.85778952e-02 -7.21380115e-03
  -2.73714215e-03 -4.72645648e-02 -5.40756881e-02 -5.15250824e-02
  -2.38619931e-02  6.05672076e-02 -1.42517090e-02 -7.10927323e-02
   6.27743378e-02  4.62639108e-02 -3.74842770e-02  3.02995741e-02
  -2.45609172e-02  6.12718984e-02 -5.38921654e-02  3.27280834e-02
  -1.37920380e-02 -2.16614082e-02  3.51458117e-02  1.18168443e-02
   1.69418752e-03 -2.07184181e-02  2.68290713e-02  2.39112079e-02
   1.00997165e-02  5.35058901e-02  5.19783124e-02 -2.27306820e-02
  -3.64155062e-02  2.99835503e-02  3.31906155e-02  2.68805474e-02
  -7.19769970e-02 -7.37410560e-02 -4.68200743e-02 -1.13938525e-02
   6.55638948e-02 -3.07318456e-02  7.89410695e-02 -4.24530618e-02
  -4.10972722e-02  7.81024173e-02  2.08997503e-02 -6.83309734e-02
   3.52438539e-03 -8.06252584e-02 -1.12257451e-02 -1.37095004e-02
   5.61364666e-02  4.57823351e-02 -5.90330586e-02  4.01611254e-02
  -7.25311786e-03 -7.38532767e-02 -1.80356354e-02  2.28395388e-02]
 [ 7.43332878e-02  8.35969299e-03 -4.56572808e-02  9.88175720e-03
   1.63798332e-02  3.35468426e-02  2.47801393e-02  1.11897364e-02
   2.20127106e-02  4.32519093e-02 -4.92830761e-02 -7.40431175e-02
   4.29080129e-02 -6.57390207e-02 -7.47960582e-02  7.01979324e-02
  -4.18105833e-02 -5.10102585e-02 -1.85554475e-02  2.85785273e-02
  -5.04207090e-02 -7.22444430e-02 -6.63141236e-02  4.31563184e-02
   6.65482506e-02  6.27311096e-02 -4.31805104e-02 -6.41945675e-02
   4.70930114e-02 -6.61984086e-05 -4.02284004e-02  3.78950387e-02
   5.72761521e-02  7.12959394e-02 -2.70685330e-02 -6.04307950e-02
  -2.95484960e-02  2.30094418e-02 -5.18252924e-02  2.51269266e-02
   3.97415608e-02  2.48413607e-02  7.84136131e-02  5.19620702e-02
   2.23710835e-02  3.95876169e-03 -5.29758632e-02  7.52812549e-02
   5.76254651e-02 -2.91140415e-02 -1.12483576e-02  3.83528173e-02
  -5.65464869e-02  1.87424123e-02 -6.99797943e-02  5.71624413e-02
   6.55615702e-02  5.68088070e-02  4.96918708e-03 -4.98106256e-02
  -6.81402609e-02 -1.84552372e-02  1.66768283e-02  7.22892955e-02
  -4.93420586e-02 -5.11270799e-02  7.22552910e-02  8.00372437e-02
   2.59659588e-02 -4.80829626e-02  7.66469911e-02 -8.69850069e-03
  -6.58912212e-03  2.45588124e-02 -6.82493448e-02 -3.84193994e-02
   5.74612990e-02 -6.08088225e-02  3.27016488e-02  6.63854405e-02
  -6.29970655e-02  4.20803353e-02  5.36452606e-02 -1.78439692e-02
   3.43012139e-02  7.47385100e-02 -3.43103968e-02 -1.24296322e-02
  -2.10875645e-02 -8.07758868e-02 -2.78486200e-02  3.80215347e-02
   5.73764518e-02  4.40014079e-02  6.14618883e-02 -1.27801821e-02
  -8.08309764e-03 -2.14828588e-02 -3.78915034e-02  6.66831955e-02
   8.03484097e-02  2.17431933e-02 -7.65522420e-02  1.05511472e-02
  -3.38045284e-02  6.34795800e-02  3.44343558e-02  3.08242440e-02
  -3.82620096e-03 -1.11548305e-02  5.68045154e-02 -7.61768892e-02
   9.69096273e-03  2.58454084e-02  5.55091128e-02  6.52981922e-02
   5.40686473e-02 -8.08074623e-02  1.43152177e-02  9.03993845e-03
  -8.10687989e-02  7.81044737e-02 -5.14090136e-02  6.26673028e-02
   4.25294042e-02 -2.24647038e-02 -2.14942880e-02 -1.86932907e-02]
 [-8.84996578e-02 -2.78726816e-02 -7.86833242e-02  1.01846335e-02
  -4.44419868e-02 -4.89727966e-02 -7.99754411e-02 -5.60536683e-02
  -3.14612947e-02 -7.93333054e-02  4.78976481e-02 -2.31035072e-02
   1.94614008e-03  4.28183191e-02  5.81310764e-02 -9.04652700e-02
   4.93614078e-02  5.27989455e-02  1.89345181e-02 -7.58410245e-02
   5.45670167e-02 -6.29556254e-02  2.48897448e-02  5.58335558e-02
   5.59013523e-02 -5.12262061e-02  5.73244728e-02  1.64523553e-02
   6.86684027e-02 -4.46967147e-02  7.26820901e-02  6.32259175e-02
   1.79833230e-02 -2.60938611e-02 -7.95049369e-02  8.01675841e-02
   3.73063125e-02 -9.03679803e-02  5.32488674e-02  4.88863774e-02
   2.08010292e-03  2.23316029e-02  5.11108227e-02  7.11217970e-02
   4.08756658e-02 -4.87348959e-02  1.73106082e-02 -3.79343815e-02
  -4.33691554e-02 -2.23061051e-02 -1.35732926e-02  5.89446118e-03
  -3.21067534e-02 -3.52821499e-03  4.47018519e-02 -5.10909148e-02
   5.71613088e-02 -3.44858952e-02 -3.34239528e-02 -5.00797778e-02
   4.91777323e-02 -3.72860208e-02 -5.85368574e-02  5.96140213e-02
   6.04103506e-03  2.89979950e-02  5.96868917e-02  1.19733475e-02
   5.54128252e-02 -1.14547685e-02 -6.59002066e-02  6.42264709e-02
   2.00323761e-04  1.59431975e-02  5.66447526e-03 -6.53463453e-02
  -5.35156727e-02 -5.30926846e-02  4.59297337e-02  2.06793230e-02
  -6.88907579e-02  6.74989633e-03  8.34766552e-02  7.88996294e-02
   6.37784079e-02 -1.43892299e-02  3.59255485e-02  5.51161095e-02
   1.47088123e-02 -5.70458658e-02 -8.79815742e-02  1.99975222e-02
  -5.01665287e-02  9.04785469e-03  5.50777055e-02  4.95584384e-02
   2.63526328e-02 -4.79982607e-02 -3.90587226e-02  2.14655455e-02
  -3.61921825e-02  6.47787452e-02 -4.57579307e-02  4.06769626e-02
   3.32964696e-02  4.02163081e-02 -4.11205739e-03  7.68544152e-03
   8.09803605e-02  5.57134822e-02 -1.98587775e-04 -5.70156984e-02
   1.54148992e-02 -8.77094269e-03  3.25537249e-02  1.71577483e-02
   4.26727459e-02 -8.83006230e-02 -2.09431574e-02  2.44675912e-02
   1.77378133e-02  3.74405757e-02 -9.16816816e-02 -1.56506822e-02
   8.00834820e-02  3.12565342e-02  4.66686562e-02  4.05704305e-02]
 [-4.47825436e-03 -4.94979583e-02 -3.36337127e-02 -7.79799884e-03
  -1.25797018e-02 -7.23280013e-02  4.78781126e-02  5.02213836e-04
   1.02467490e-02 -4.98505160e-02  8.89718682e-02  1.60584990e-02
   2.01895498e-02 -7.70450085e-02 -9.75290406e-03 -4.90375422e-02
   4.28397395e-02 -2.87250113e-02 -7.68868923e-02  2.58301366e-02
   3.04893800e-03 -6.59145834e-03  8.81942958e-02  3.98827232e-02
  -3.38104255e-02  1.62143204e-02 -3.73526961e-02  5.65160438e-02
  -6.76000724e-03 -7.04957247e-02  9.50136334e-02  2.01880503e-02
   3.29556763e-02 -5.81771135e-02  6.63301200e-02  4.89820987e-02
   2.59338506e-02  2.54001915e-02 -6.03202619e-02 -3.76290195e-02
   3.29465531e-02  5.58919571e-02 -1.03071153e-01  8.46618339e-02
  -4.58948687e-02  1.88085493e-02  3.61510850e-02  6.44626245e-02
   2.53302157e-02 -4.09649406e-03 -5.04199229e-02 -4.14664298e-03
   9.02752653e-02 -4.13995869e-02  1.23744803e-02  6.64329752e-02
   7.16916621e-02  1.71305239e-02  2.34834012e-02  6.51869848e-02
  -4.09786664e-02  8.25454518e-02  1.68706328e-02  4.46911752e-02
  -2.74039768e-02  3.78162935e-02  8.90110359e-02  6.03192765e-03
  -8.50591585e-02 -1.14151239e-02 -7.85334110e-02  6.18483126e-03
  -4.95099351e-02 -6.40787631e-02 -4.94647399e-02 -5.46991415e-02
   1.45485699e-02 -9.52354446e-03  9.12840590e-02 -7.71183819e-02
  -8.86349306e-02  5.59815429e-02 -7.87816290e-03  8.23490396e-02
  -4.67404984e-02  1.61143802e-02 -1.49639985e-02 -3.88642512e-02
   3.43881943e-03 -4.91390266e-02  5.15822396e-02  2.54861563e-02
  -8.44733566e-02  6.46192580e-02  3.39054391e-02  8.01778063e-02
   4.84810062e-02 -6.06922731e-02 -4.36489424e-03 -9.56226140e-02
   3.28030251e-03  1.22270230e-02 -7.28928670e-02  1.15776351e-02
   5.57839014e-02 -5.74894436e-02 -9.62842256e-03 -4.49726395e-02
   2.72961259e-02 -1.29140392e-02  7.27356747e-02 -1.06921881e-01
   6.66885301e-02 -8.01806971e-02  3.67649868e-02 -8.30501318e-04
  -3.38861756e-02  1.91773362e-02  2.30762106e-03  3.03111058e-02
   5.49606755e-02  2.21975110e-02 -2.36496720e-02  8.50939527e-02
   2.41882564e-03  1.15153780e-02  6.26108050e-02 -4.93638143e-02]
 [-7.25759119e-02 -5.38458154e-02 -1.73557386e-01 -1.16752997e-01
  -9.11511201e-03 -1.54850036e-01 -5.21904416e-02  1.45796556e-02
   1.58729386e-02 -7.97287598e-02  1.40202671e-01  8.12511072e-02
   7.43835345e-02  1.75133925e-02  9.89023875e-03 -5.49713634e-02
   1.24542072e-01  1.78430557e-01  7.68739209e-02  7.09618554e-02
   1.09842405e-01  1.00884452e-01 -1.12156868e-01 -1.63042381e-01
  -7.26078823e-02  1.13147430e-01 -6.82889521e-02  6.89133778e-02
   1.72012195e-01 -6.29362613e-02  2.07502499e-01 -1.38024539e-01
   1.42205343e-01  6.93328585e-03  2.09476203e-02  1.46435171e-01
   1.91613678e-02  4.18032110e-02 -1.16082147e-01 -6.54033273e-02
   8.37561768e-03  1.98220626e-01 -1.45562515e-01  1.57034531e-01
   1.84179187e-01  2.01245591e-01 -1.28592059e-01 -2.70152986e-02
  -1.11443521e-02  1.21907480e-01  1.76799111e-02 -2.78350376e-02
   8.50536823e-02 -1.93429030e-02  1.50010765e-01 -9.33032930e-02
  -2.98762880e-02 -1.30183056e-01 -6.42867908e-02 -4.13273387e-02
  -4.22956906e-02  1.30759762e-03  4.94983569e-02 -2.11267248e-01
   1.20305282e-03  4.65074554e-03  9.78011731e-03  1.41689658e-01
  -1.32951051e-01 -1.41681880e-01 -1.06986821e-01  3.12586054e-02
   4.46068235e-02 -8.16582218e-02 -5.12186810e-02 -1.75945938e-01
  -5.03927171e-02 -1.00361459e-01 -3.65645289e-02 -2.11591303e-01
  -1.88968897e-01  2.01681465e-01  2.01930478e-02  1.18985064e-01
   7.52973631e-02 -5.00207208e-02  2.82435343e-02 -1.60293788e-01
  -7.11470619e-02  4.91391541e-03 -7.72744045e-02  6.90605566e-02
  -1.39735311e-01  1.47837447e-02 -4.09887321e-02 -2.41253059e-02
   1.85621753e-02  6.51713461e-02  1.84304029e-01 -2.69250013e-03
  -3.16253342e-02  2.06256136e-02 -6.89178631e-02 -7.64781088e-02
   3.40548605e-02  7.75369182e-02 -1.67893004e-02  1.80760473e-02
   1.01469025e-01  7.64972940e-02  4.09639180e-02 -1.84676036e-01
   1.60076976e-01 -1.30343646e-01 -3.62590561e-03 -1.32088072e-03
  -5.07119559e-02 -1.99276917e-02  1.72509760e-01 -3.53045985e-02
   1.61663309e-01  3.15471664e-02 -2.00377494e-01  2.97253728e-02
   2.60179341e-02 -1.84833050e-01 -1.39818108e-02 -6.66553602e-02]
 [ 6.68504238e-02 -1.88503470e-02 -1.79098025e-01 -1.08589627e-01
  -9.11631212e-02 -1.17725842e-01  4.78372425e-02 -3.69676687e-02
   4.61093411e-02 -1.28919393e-01  1.98128402e-01 -6.84496108e-03
   5.81932925e-02  2.15588734e-02  5.16168959e-02 -2.53711585e-02
   1.20719902e-01  7.22797066e-02  5.90397157e-02  5.04723378e-02
  -1.94153786e-02  6.31726086e-02 -1.47673162e-02 -1.29104078e-01
  -9.42360517e-03  6.38189539e-02  6.19383417e-02  4.03592438e-02
   8.16901773e-02  3.73228081e-02  1.08840190e-01 -1.66394293e-01
   4.21476886e-02  2.75622141e-02  2.30905246e-02  5.53990118e-02
  -1.35994582e-02  7.06792343e-04 -4.24103290e-02  8.35252479e-02
   7.59586915e-02  1.48175299e-01 -6.93984628e-02  3.28329690e-02
   4.29305732e-02  1.03086412e-01 -2.65930984e-02 -5.35401367e-02
  -5.09205554e-03  6.07544295e-02  3.75413783e-02  1.16063394e-02
   5.66864237e-02  8.00467357e-02  1.02198847e-01 -9.98955145e-02
  -2.40085777e-02  4.51588258e-03 -1.72978789e-01 -3.77136581e-02
  -6.03860356e-02  4.48632538e-02  6.50424510e-03 -4.33720574e-02
  -8.42305738e-03  2.91957501e-02 -2.71233488e-02  1.79782718e-01
  -7.48998672e-02 -9.05549452e-02 -5.58875017e-02  8.56561679e-03
  -7.66822174e-02  3.04405261e-02 -6.46711793e-03 -1.48636699e-01
   2.60397494e-02 -6.86733723e-02 -5.34035154e-02 -1.60455748e-01
  -2.12748237e-02  8.79752189e-02  6.26753196e-02  4.73138392e-02
   1.94901824e-02 -3.72142605e-02 -1.60420518e-02 -5.24893682e-03
  -7.01514035e-02 -1.36498548e-02 -6.95770830e-02  1.88389625e-02
  -9.01600942e-02 -7.46823940e-03 -7.56922215e-02 -1.78564880e-02
  -4.09285054e-02 -2.57782787e-02  8.89054984e-02  1.02623487e-02
   6.11420954e-03 -1.87058579e-02 -5.00605144e-02 -4.38375473e-02
   1.00595787e-01  3.94524634e-03 -2.13672034e-02 -8.60323478e-03
   1.50500655e-01  4.21435833e-02 -2.20920164e-02 -1.21171176e-01
   9.70333666e-02 -1.53659567e-01 -4.93688770e-02  6.95662871e-02
  -8.54758993e-02 -1.00127719e-01  1.06536202e-01 -5.77406138e-02
   8.16066563e-02  1.99700631e-02 -9.26584005e-02  4.18199636e-02
  -2.58546099e-02 -1.21936627e-01 -5.17486669e-02 -1.25057310e-01]
 [-1.03805244e-01  1.99348647e-02 -1.33822620e-01 -8.75063166e-02
  -1.50513276e-01 -8.72936919e-02  5.95803186e-02  3.79385911e-02
   4.10683192e-02 -9.25631672e-02  1.86990514e-01  7.94270411e-02
  -7.19960183e-02 -9.98850353e-03  6.33914396e-02 -8.69235545e-02
  -1.15125449e-02  1.04127517e-02 -1.80902611e-02  4.96037491e-03
   8.41371119e-02  6.56573772e-02  6.09930828e-02 -7.32172728e-02
  -4.05267291e-02  1.48513138e-01  4.82765473e-02  6.05714582e-02
   1.05377585e-01 -4.08005267e-02  1.71664655e-01 -1.40810804e-02
   1.12157688e-01 -1.97619498e-02  6.81631714e-02  1.92657933e-02
   2.59477776e-02  4.55997959e-02 -3.83700728e-02  1.75711289e-01
  -3.31562497e-02  7.00147301e-02 -5.40901087e-02  1.15874726e-02
   1.16488755e-01  1.23841809e-02  3.74428965e-02  4.77093458e-03
  -6.53458163e-02  1.34226784e-01 -1.23960786e-02  2.57880427e-02
   1.00272015e-01 -4.61595170e-02  9.55106318e-02  1.15232110e-01
   1.99419186e-02 -4.29481119e-02 -1.76441781e-02 -9.76081789e-02
   3.72645818e-03 -1.80670321e-02 -6.67478070e-02 -4.61913496e-02
  -1.50295701e-02  1.40957609e-01 -5.77404462e-02  3.94648872e-02
  -7.57439435e-02 -9.54786688e-03 -8.08297917e-02 -4.97360853e-03
  -2.96000391e-02  2.83630844e-02  6.29674345e-02 -4.85693701e-02
  -1.01391412e-02  3.25457333e-03  7.98829794e-02 -9.91787110e-03
  -1.42150044e-01  9.77093726e-02 -2.04302929e-02  7.59398192e-02
   7.23037794e-02  6.49573132e-02  7.76105449e-02  1.14575386e-01
  -4.07901481e-02 -8.65617767e-02 -9.06479880e-02 -3.28164324e-02
  -2.00408936e-01 -8.33072215e-02  2.94934725e-03  6.32966906e-02
  -2.91948691e-02 -3.99098881e-02  1.21822692e-02 -1.07388692e-02
   1.83947925e-02 -6.84004724e-02 -8.97846073e-02 -3.16211469e-02
  -4.25619297e-02 -4.27359231e-02  1.26300268e-02  1.60468016e-02
   1.23890586e-01 -5.55913597e-02  1.28744766e-02 -1.17437713e-01
   1.35662183e-01 -1.74109995e-01 -7.74096698e-02  4.74589244e-02
   3.60632092e-02 -7.02202469e-02  1.24159425e-01  8.16147104e-02
   1.47827014e-01 -2.34342180e-02 -1.24666125e-01  8.72419998e-02
   3.80337946e-02 -1.88357547e-01  4.23037708e-02 -5.85355870e-02]
 [-1.24289304e-01 -1.50412126e-02 -1.82239577e-01 -8.49224329e-02
  -7.19670430e-02 -1.13424912e-01  2.15129424e-02  5.12570478e-02
  -7.51763955e-02 -4.72899266e-02  1.99490726e-01  7.94927478e-02
  -9.09406319e-02 -2.97943186e-02 -1.20389864e-01 -1.10758550e-01
  -3.26490998e-02  6.53440431e-02  6.72045862e-04  4.49667685e-02
  -8.42358172e-02  5.29245958e-02  1.43295210e-02 -6.71312585e-02
  -1.30696997e-01  7.38879815e-02 -1.13788180e-01 -4.67182416e-03
   1.21660709e-01 -5.39143384e-02  9.23031196e-02 -9.08553824e-02
   1.26582235e-01  4.36250344e-02  3.83358970e-02  2.37824209e-02
   1.17229503e-02  3.21836025e-02 -1.14179373e-01  1.08485572e-01
   2.25103386e-02  7.59810135e-02 -5.50348833e-02  1.69690609e-01
   6.91030473e-02  6.01932704e-02 -1.75742954e-02  4.33694981e-02
  -3.86507548e-02  1.76607773e-01  1.35985076e-01  1.34177029e-01
   7.34542757e-02  1.15788877e-02  8.03911090e-02  1.35725299e-02
   7.92427082e-03 -1.07758686e-01 -2.40198672e-02  1.57236699e-02
  -1.21794648e-01  1.31623432e-01 -4.84082885e-02 -1.36525780e-01
  -3.15086208e-02  8.74368399e-02  7.49282911e-02  7.59093314e-02
  -1.11917347e-01 -4.05387692e-02 -1.62877619e-01  4.20862660e-02
  -3.47346291e-02  6.98489025e-02 -5.20406477e-02 -9.60233286e-02
   2.34558042e-02 -7.61171952e-02  7.59934932e-02 -4.78549190e-02
  -3.48193273e-02  1.08650431e-01  5.51846325e-02  9.35619399e-02
   4.26881537e-02 -1.02036104e-01  4.42130528e-02  1.12883775e-02
  -5.57692535e-02 -5.66727147e-02 -6.66228011e-02 -1.26025835e-02
  -2.32867807e-01 -1.39883975e-03 -4.85801771e-02 -4.71191071e-02
  -8.93122107e-02 -3.28088030e-02  3.04448120e-02 -1.26590133e-02
  -7.25131556e-02 -2.15046443e-02 -9.26482230e-02 -1.13114305e-01
   3.36720459e-02 -1.88237093e-02  7.71269649e-02 -2.49147564e-02
   2.30645183e-02  2.99957376e-02 -5.82793504e-02 -1.67509288e-01
   7.01016337e-02 -2.20678240e-01 -7.38931298e-02  7.45986551e-02
   3.70567963e-02 -3.07057090e-02  1.05305687e-01  3.23949680e-02
   1.73798159e-01 -4.83994223e-02 -1.07896611e-01  7.95311928e-02
   8.02908018e-02 -2.48522773e-01  9.91510227e-02 -6.09865785e-02]
 [-4.37228978e-02 -1.96243022e-02 -2.99175177e-02 -5.33935474e-03
  -6.90040970e-03 -2.63687577e-02  2.58665606e-02  9.37185623e-03
  -5.52064963e-02 -1.00479789e-01  1.24153517e-01  1.79844290e-01
  -1.89742967e-01  7.58441314e-02  2.50241142e-02 -1.61621407e-01
  -2.11684257e-01  9.26933959e-02 -4.18950953e-02 -5.65993153e-02
   3.22708562e-02  5.50728142e-02  1.43388376e-01  1.53675012e-03
  -2.10869253e-01  1.50663689e-01 -7.71171227e-02  6.35878444e-02
   1.45781457e-01 -4.30197380e-02  1.77133426e-01 -1.06552407e-01
   1.36376813e-01  5.57206720e-02 -1.17955402e-01  1.18179889e-02
   1.52714560e-02 -6.53834194e-02 -3.63586023e-02  1.07897282e-01
   2.03845873e-02  1.88542277e-01 -3.84930037e-02  9.38033760e-02
   1.58845425e-01  1.45796299e-01 -3.77753079e-02  2.30121166e-02
  -4.03006710e-02  1.74900576e-01  1.07296705e-01  2.36957937e-01
   1.01132601e-01 -7.14479759e-02  4.35742475e-02  1.78503394e-02
   8.07294026e-02  1.08425729e-02 -1.16251670e-01  7.33615161e-05
  -5.68556250e-04  1.09554507e-01 -2.00747117e-01 -9.00714695e-02
   7.31908455e-02  1.00353464e-01  1.33982571e-02  1.15878910e-01
  -1.36698127e-01 -1.40926801e-02 -3.41694131e-02 -8.00391659e-02
  -5.44982543e-03  6.86622187e-02  5.15624918e-02 -2.30939940e-01
  -1.26906276e-01  9.54517908e-03 -3.12925875e-02 -9.25435722e-02
  -1.75221935e-02  2.74271965e-02  1.13398708e-01  1.28457949e-01
   6.75739199e-02 -1.17626972e-01  9.57733616e-02  7.34253526e-02
   1.79868005e-02 -2.01029461e-02 -3.93388048e-02 -3.40242051e-02
  -2.47779220e-01  4.42018639e-03 -4.60686046e-04 -7.93512911e-03
   5.25467098e-02  3.24607454e-02  3.76251824e-02 -9.46417358e-03
   4.92737852e-02 -4.57394756e-02 -4.12467048e-02 -8.32376536e-04
   9.38194618e-02  8.98850486e-02 -4.66944166e-02 -6.88377321e-02
   1.94297880e-02  7.24157020e-02 -1.20253339e-02 -1.34083748e-01
   1.33081853e-01 -2.08767071e-01 -6.12932071e-02  1.14938151e-02
   1.09812655e-02 -1.09699115e-01  8.33570287e-02  9.09444690e-02
   1.33606985e-01  2.52992846e-02 -9.72736180e-02  5.89149585e-03
   3.87753807e-02 -2.47715175e-01  3.89691144e-02  6.53982311e-02]
 [-4.96194288e-02  5.66723943e-03 -8.97432640e-02  3.16054709e-02
   1.47905454e-01 -1.67381808e-01 -5.93501851e-02 -1.16239011e-01
  -1.63977057e-01 -1.92234635e-01  2.50389487e-01  6.34347200e-02
  -1.86157867e-01  1.12357043e-01  5.69419526e-02 -1.11288898e-01
  -5.23250513e-02  4.80911694e-02 -1.42038941e-01  1.05219558e-01
   8.09931457e-02  3.45716141e-02  1.94339409e-01 -1.56796157e-01
  -8.66283402e-02  8.30327943e-02 -6.86790571e-02  1.70503020e-01
   2.74667352e-01 -7.71862194e-02  1.06478527e-01  4.82235430e-03
   6.86089545e-02  4.84663434e-02  6.64029196e-02  1.91311300e-01
   1.14576720e-01  4.41834778e-02 -5.33522181e-02  9.26875472e-02
   3.75014022e-02  1.54039711e-01 -1.46710631e-02  1.25234351e-01
   1.05978295e-01  1.60884365e-01 -1.86529025e-01  2.15025231e-01
  -2.06552800e-02  1.55135661e-01  6.89940378e-02  1.21953279e-01
   1.69585720e-01  7.18673319e-03  4.03531380e-02  1.40113443e-01
  -2.00671423e-02 -3.16454060e-02 -1.64691359e-02  1.22209564e-02
   6.05797432e-02  1.67282209e-01 -2.20123351e-01 -1.38104260e-01
  -2.75701378e-02 -4.02650274e-02 -1.44775867e-01  4.05497365e-02
  -6.81187883e-02  1.99739765e-02 -1.01251163e-01 -9.97840688e-02
  -8.95089582e-02  2.39410568e-02  1.19613782e-02 -8.34597871e-02
  -1.44193292e-01 -6.29884601e-02 -3.18589946e-03 -4.46511544e-02
  -3.57091017e-02  2.56237924e-01  2.64204666e-03  1.23557813e-01
   1.27792835e-01  1.49521932e-01  1.88605085e-01  1.10280365e-01
  -1.55352667e-01 -9.43309143e-02 -4.71743755e-02  8.01851973e-02
  -6.51497096e-02 -8.72358233e-02 -1.51133072e-02 -1.04057631e-02
   1.00730255e-03 -1.31285572e-02  1.01688989e-01 -3.09272110e-02
  -4.16734479e-02 -2.38546412e-02 -1.61164567e-01 -1.61568329e-01
   1.06190845e-01 -1.14200346e-01 -1.11847371e-01  3.55320089e-02
   2.30998114e-01 -5.00473939e-02  1.69773307e-02 -2.02045709e-01
   9.02008116e-02 -2.82899737e-01 -4.92143966e-02  3.86263207e-02
   9.39438343e-02 -9.73141864e-02  4.16548401e-02  1.05596155e-01
   7.42352679e-02  3.90473045e-02 -4.61105369e-02  1.05408072e-01
   9.97235849e-02 -3.03158641e-01 -8.09835047e-02 -1.24202883e-02]
 [-2.43201088e-02 -1.04083702e-01 -1.57614470e-01  3.65163013e-02
   2.12274164e-01 -2.01185867e-01 -1.61329716e-01 -3.37778474e-03
  -1.74995854e-01 -3.12482625e-01  2.46421993e-01  2.78256804e-01
  -1.91196650e-01  1.87986270e-01 -1.98861081e-02 -8.04926381e-02
  -8.69870782e-02  1.10568553e-01 -3.25757265e-02  1.27504304e-01
   1.21684834e-01  1.11329131e-01  5.84964193e-02 -1.78840578e-01
  -2.55731255e-01  2.10361078e-01 -1.78672895e-01  1.96995889e-03
   2.47741625e-01 -1.45777792e-01  1.05872035e-01 -7.81473368e-02
   1.98196918e-01 -3.60838808e-02  9.40369740e-02  1.57844439e-01
   1.40804842e-01  4.04449105e-02 -7.37146288e-02  7.31100366e-02
   1.12212554e-01  2.80285627e-01 -5.99493794e-02  2.16231078e-01
   1.91966668e-01  1.99864320e-02 -1.77257761e-01  1.76026553e-01
  -7.88271800e-02  1.35254398e-01  2.97968566e-01  1.32069215e-01
   3.01120102e-01 -3.48052382e-03  3.32659811e-01  1.20922036e-01
   2.15797983e-02 -8.64628032e-02 -4.37979996e-02 -4.15156186e-02
   4.37651426e-02  1.94956794e-01 -7.13701397e-02 -1.46034911e-01
  -3.03455759e-02  2.14956880e-01 -1.59245417e-01  5.20626009e-02
  -1.47557393e-01 -1.03868291e-01 -2.22548023e-01 -3.65330689e-02
   3.75530198e-02 -1.44492090e-02 -2.86606774e-02 -1.62079811e-01
  -1.80896133e-01 -1.62299976e-01  2.29885951e-01  7.72042796e-02
  -2.13900711e-02  2.52016574e-01  1.51199922e-01  2.02052504e-01
  -1.64204128e-02  1.53383449e-01  2.04593435e-01 -8.00965428e-02
  -1.06029004e-01 -8.07039365e-02 -1.60256520e-01 -9.59121436e-03
  -2.24872679e-02 -1.00732096e-01 -2.48217523e-01 -1.31506741e-01
  -2.65429001e-02 -6.47917166e-02  1.85573906e-01 -9.24301147e-02
  -5.63517539e-03 -1.44243062e-01 -9.02591869e-02 -2.47791946e-01
   1.89404041e-01 -2.40842160e-02  6.64151609e-02  2.56719114e-03
   2.71528482e-01  9.28112492e-02 -3.11303996e-02 -3.53144854e-01
   1.05447650e-01 -3.18518072e-01 -2.05492467e-01  7.18410686e-03
   5.31604066e-02 -5.37760109e-02  1.41934380e-01  9.09423009e-02
   2.63751537e-01  1.10602453e-02 -9.42315757e-02 -3.09925377e-02
   1.51171431e-01 -1.32018358e-01  3.79383750e-02  5.82203157e-02]
 [-9.86065436e-03 -1.70931280e-01 -2.24469393e-01 -1.34320155e-01
  -5.19163720e-02 -3.66182983e-01 -1.28902748e-01  2.86437068e-02
  -4.18766260e-01 -3.17372113e-01  3.55539083e-01  2.26846218e-01
  -2.03724712e-01  5.28044812e-02 -5.83559647e-02 -3.45060378e-02
  -3.80057208e-02  1.97287068e-01  2.94702575e-02 -5.91035560e-02
   6.32440522e-02 -3.45845371e-02  9.86112133e-02 -8.28717947e-02
  -3.64883870e-01  1.76790670e-01  8.38385709e-03  2.12125517e-02
   1.97040468e-01 -1.00248188e-01  8.94931257e-02  3.21344659e-03
   1.65829718e-01 -2.87954658e-02  3.93328778e-02  2.31778949e-01
   2.22426772e-01  4.55467962e-02 -3.18280816e-01  6.79447874e-02
   5.73471561e-02  3.80326837e-01 -1.45305246e-01  2.04333454e-01
   2.83257812e-01  2.00453103e-02 -1.09960161e-01  2.71667928e-01
  -6.88877888e-03  2.51958758e-01  2.28594884e-01  1.31738484e-01
   2.20085755e-01 -3.28415968e-02  2.13270411e-01  6.82839453e-02
   7.13773444e-02 -3.56411971e-02 -6.89282492e-02 -1.08517505e-01
   4.21529124e-03  3.41790974e-01 -1.30715385e-01 -3.25557947e-01
   6.48931041e-02  2.89406747e-01 -1.12913921e-01  1.12541951e-01
   2.20619724e-03 -3.80256549e-02 -3.64500344e-01 -8.03248361e-02
  -6.51135892e-02  9.87112820e-02 -8.86555109e-03 -2.71921217e-01
  -9.58119482e-02 -8.33254755e-02  1.24970019e-01 -1.04914993e-01
  -6.54983800e-03  1.93123877e-01  9.66138095e-02  2.13166609e-01
  -1.07789092e-01  1.22991666e-01  1.13305345e-01 -5.28830551e-02
  -6.43599629e-02 -1.40445560e-01 -1.32444903e-01 -4.47695553e-02
  -7.22110048e-02  6.17927052e-02 -1.60963938e-01 -1.03865787e-01
  -2.84641813e-02 -5.84074222e-02  2.46190891e-01 -2.53023654e-01
  -2.16749907e-01  3.68327014e-02 -1.91877753e-01 -2.38477007e-01
   2.35668123e-01 -1.06350817e-01 -4.07060329e-03 -4.41716090e-02
   8.59951675e-02  1.46505654e-01  1.09640852e-01 -3.03249538e-01
   2.41799995e-01 -5.60823739e-01 -1.93102345e-01  5.00674685e-03
   1.08159930e-01 -3.35993096e-02  1.56541765e-01  7.67723471e-03
   2.76207894e-01 -5.49170785e-02 -1.24548227e-01  1.62256882e-01
   1.16640516e-01 -4.54364121e-02  1.76568553e-01 -5.12497723e-02]
 [-2.80749947e-01 -1.52014568e-01 -2.45325059e-01 -6.63973019e-02
  -2.62696683e-01 -3.74686606e-02  1.18226921e-02  2.69868989e-02
  -2.34523401e-01 -2.85984278e-01  3.58687699e-01  1.36806350e-02
  -3.01378936e-01 -1.31722286e-01 -2.09669337e-01 -8.40181708e-02
  -1.39280885e-01  7.46884337e-03  2.00319644e-02  2.41668120e-01
  -4.75028269e-02  5.65630533e-02  3.44679803e-02 -1.50455073e-01
  -3.55252251e-02 -1.01937288e-02  1.10332623e-01  6.96542487e-02
  -9.62923914e-02  4.87063639e-02  8.04826841e-02 -5.36249653e-02
   2.31550589e-01  1.90155596e-01 -6.16678782e-02 -8.90272036e-02
   3.02931033e-02  4.89981510e-02 -2.37152144e-01  1.92132995e-01
   1.43046447e-04  1.41697258e-01 -8.97041187e-02  8.67493078e-02
   2.11518165e-02 -2.97391452e-02  1.15846455e-01  1.83619827e-01
  -1.07388847e-01 -1.71809450e-01 -4.63845581e-03  1.28147437e-03
  -8.94320458e-02 -4.45355251e-02 -1.77928701e-01 -5.00996895e-02
   2.20756140e-02 -1.19524635e-01 -1.43336609e-01 -1.32907704e-01
  -1.92293048e-01  2.76863277e-01  1.20182149e-01 -7.53989145e-02
   1.44432588e-02  1.31505087e-01  2.30402395e-01 -7.82183483e-02
  -5.80676552e-03  4.32612039e-02 -3.37721884e-01  4.67179753e-02
  -2.36594360e-02  2.54368126e-01  1.12840421e-01 -1.83858261e-01
  -8.74089673e-02  1.13308318e-01  8.04162994e-02  5.80730988e-03
  -1.88695583e-02  2.68937230e-01  6.46753907e-02 -1.05112076e-01
   1.99153692e-01 -2.40367532e-01 -6.46211812e-03  1.60319597e-01
  -3.76981939e-03 -1.39371946e-01  1.05791360e-01  1.29460990e-01
  -4.74353172e-02  4.31466699e-02 -5.62709896e-03 -1.11144349e-01
   2.79061403e-02  6.21879399e-02  9.81772542e-02 -4.14764062e-02
   1.44163668e-01  4.97391773e-03  2.94984598e-02  2.34204322e-01
   5.70541024e-02  1.41682461e-01  1.37230650e-01 -9.21404883e-02
  -2.77543236e-02  1.61091998e-01  1.20196395e-01  2.83503416e-03
   1.29791647e-01 -5.04675150e-01 -9.29070637e-02  4.32076342e-02
  -1.41131412e-02 -2.47314051e-02  2.82406211e-01 -7.37407506e-02
   1.70380354e-01  1.84409067e-01  9.61595401e-02  1.62972763e-01
  -6.73244894e-02 -8.86185933e-03 -1.17054889e-02 -1.04108498e-01]
 [-1.48965091e-01 -5.86824827e-02 -3.97334337e-01 -1.31823152e-01
  -3.19124818e-01 -2.33910322e-01 -7.22546875e-02 -7.20761716e-02
  -1.99745864e-01 -2.64369130e-01  4.51811314e-01 -4.39968146e-03
  -1.87741801e-01 -1.01428121e-01 -1.79388866e-01 -7.51022398e-02
  -5.61631843e-02 -1.74279138e-02  4.35805172e-02  3.59442353e-01
   4.09213193e-02 -2.03923270e-01 -1.41741529e-01  2.08477732e-02
   3.99645679e-02  3.73070017e-02  1.31722227e-01  4.67672423e-02
  -1.60143115e-02  1.44701019e-01  1.76307604e-01 -1.54978856e-02
   4.86181723e-03  3.23291272e-01  5.87890446e-02  2.15812430e-01
  -8.94846544e-02 -1.00668781e-02 -2.46427208e-01  2.82541871e-01
  -1.29679143e-01  9.52637345e-02 -1.56835556e-01  1.02235831e-01
  -2.29281466e-02  1.65865526e-01  5.08992700e-03  2.68464357e-01
  -2.84797102e-02 -2.47389540e-01 -4.00661491e-02 -1.18934855e-01
  -3.12134594e-01  4.03697416e-02 -1.32876471e-01 -9.56354812e-02
   8.21570400e-03 -1.66724533e-01 -1.60979629e-01 -2.01711580e-01
  -6.73914403e-02  4.44771767e-01  9.34878066e-02 -1.81437373e-01
  -6.52708411e-02  2.14603812e-01  2.63089031e-01 -2.98559129e-01
   1.60357950e-03 -7.99332373e-03 -1.69817865e-01 -1.26424313e-01
  -1.21543206e-01  1.50623128e-01  2.95938235e-02 -3.50467175e-01
  -2.05751196e-01 -1.50509015e-01  3.27869415e-01 -1.16768561e-01
  -1.15284473e-01  3.22373897e-01  2.54915774e-01 -9.81033035e-03
   2.22590953e-01 -1.35023683e-01  2.03692511e-01 -2.93383803e-02
  -3.99851352e-02 -2.16906205e-01  3.18437479e-02  1.31377429e-01
   1.28694370e-01 -5.39243929e-02 -3.19109857e-02 -7.80943409e-02
   5.64670563e-02  4.53723110e-02  1.26208007e-01 -4.80061434e-02
   2.09677890e-02  1.85820565e-01 -1.75576225e-01  2.16836780e-01
  -5.06226756e-02  1.23125985e-01  2.33481452e-01  1.86223891e-02
   2.35337138e-01  9.67479646e-02  1.62499502e-01 -5.42125404e-02
   2.31519520e-01 -5.73050231e-02 -2.34993070e-01  7.05534294e-02
   7.04511628e-02 -5.57138026e-02  1.27107486e-01  7.89932013e-02
   1.68449119e-01  1.99234217e-01 -2.03475848e-01  7.09065869e-02
  -1.76078632e-01 -9.12288353e-02 -1.40393451e-01 -1.05752386e-01]
 [-1.57828778e-01 -1.71329770e-02 -2.05987647e-01 -5.91328852e-02
  -1.56272471e-01 -6.08724765e-02  3.57441194e-02 -7.39525706e-02
  -1.44506440e-01 -1.83841005e-01  5.01947165e-01  7.66751692e-02
   1.25794625e-02  5.55919148e-02 -1.20406106e-01 -5.53342849e-02
   1.41631335e-01  8.78576562e-02  1.06818043e-01  2.33611405e-01
   1.48113996e-01  2.10679304e-02 -2.20238473e-02  1.41067445e-01
  -1.81807145e-01  4.43395674e-02  5.11412462e-03  2.57109344e-01
   2.93342799e-01 -4.48260223e-03  9.27974209e-02  2.23034285e-02
  -7.77207240e-02  1.86795011e-01  7.28565305e-02  2.35381916e-01
   1.69776306e-02  1.39117345e-01 -1.25144482e-01  3.11075091e-01
  -2.06799984e-01  1.34938210e-01 -2.68794924e-01 -6.55147880e-02
  -1.24753222e-01  1.76731020e-01 -1.26871709e-02  1.32412568e-01
   3.26575488e-02 -1.21011615e-01 -1.90781862e-01 -1.29300982e-01
  -1.32871509e-01  7.13495240e-02 -1.40672200e-03 -1.65600121e-01
   3.86338793e-02 -5.82455471e-02 -1.09771863e-01 -1.25514969e-01
  -7.24678636e-02  4.57714170e-01 -2.03253813e-02 -2.24449094e-02
  -5.48523292e-02  1.87443584e-01  8.94185081e-02 -1.13121450e-01
   1.03636183e-01  3.62514108e-02 -2.23145023e-01 -1.84523851e-01
  -7.87317008e-02 -2.53332742e-02 -2.57678237e-02 -1.52036622e-01
  -3.80783945e-01 -1.23930603e-01  1.34392947e-01 -5.54991439e-02
  -1.39719546e-01  2.75996387e-01  1.55922890e-01  5.00903465e-02
   1.11316442e-01  2.02107266e-01  1.56332120e-01  5.59067875e-02
  -3.97601426e-02 -1.44704551e-01  5.46186157e-02  2.02770438e-03
   1.29546598e-02 -4.18340452e-02 -6.65709525e-02 -2.30431408e-02
   1.23491846e-01 -1.76259652e-02  1.36607364e-01 -6.23743199e-02
  -8.05632323e-02  1.54508770e-01  4.62829024e-02  6.96885809e-02
  -7.67452121e-02  1.78238258e-01 -4.30146903e-02  1.12314008e-01
   1.77595422e-01  9.20483023e-02  6.75097257e-02 -2.27743179e-01
   2.05287367e-01 -1.48218041e-02 -2.31566131e-01 -1.68077722e-02
   1.97160035e-01 -2.56626611e-03  2.30969921e-01  1.55261174e-01
   1.47679687e-01  2.18620077e-01 -1.88722968e-01  3.49016823e-02
  -1.08424075e-01 -4.44794409e-02 -1.14637591e-01 -1.03331365e-01]
 [ 3.76812275e-03  4.00894322e-02 -1.79554656e-01 -1.78612154e-02
  -2.01421127e-01 -1.66300207e-01  4.21883799e-02 -1.50706053e-01
  -8.40737522e-02 -1.77376792e-01  3.23949456e-01  2.95624673e-01
   8.52984115e-02  9.63324085e-02 -1.68160364e-01 -4.46535312e-02
   1.69627473e-01  2.03311190e-01  1.63642261e-02  1.70855168e-02
   2.12164987e-02  1.18042715e-01  7.11126253e-02  3.63109149e-02
  -2.60742843e-01  1.38504669e-01 -8.36634170e-03  9.60011408e-02
   3.57996523e-01 -1.48540467e-01  1.80624589e-01  3.01562492e-02
  -4.26319540e-02  7.49600753e-02  1.08224675e-01  3.47992718e-01
   1.72805533e-01  4.27513197e-02 -2.53995601e-02  2.34417230e-01
  -1.05675265e-01  3.71693313e-01 -2.15513140e-01  3.60272601e-02
   8.27668980e-02  2.06460550e-01 -1.38178885e-01  2.53810972e-01
  -9.16709602e-02  7.51522183e-02  1.23332061e-01  9.26082134e-02
   2.72565503e-02  1.91235840e-02  1.29984856e-01 -1.54925451e-01
  -2.29021367e-02  4.56501450e-03 -4.71247770e-02 -1.48491606e-01
  -5.86930811e-02  4.16290462e-01 -1.39852956e-01 -5.24986424e-02
   7.46007562e-02  1.64561942e-01 -1.04708172e-01 -2.14827023e-02
   6.35962412e-02 -5.46282390e-04 -1.92190245e-01 -2.06143215e-01
  -5.92614571e-03 -1.14644781e-01  2.49581598e-02 -3.76601338e-01
  -2.77879775e-01 -1.92558974e-01  1.56586930e-01 -2.01943144e-01
  -8.16992670e-02  2.90278971e-01  1.58625722e-01  6.38533458e-02
   1.51919469e-01  1.56648591e-01  1.55077174e-01  8.38013366e-03
  -7.69648748e-03  4.08847397e-03 -1.37016729e-01  1.47388875e-01
   4.26950231e-02 -5.31393215e-02 -1.95360705e-01  1.00013003e-01
  -1.69613304e-05  7.50169083e-02  1.60540566e-01 -1.69032499e-01
  -7.80119374e-02  1.52852014e-01 -4.91223000e-02 -3.20739031e-01
  -1.55812092e-02  5.27546182e-03  4.93380129e-02 -1.56310014e-02
   2.09703058e-01  3.32507677e-02  1.61453217e-01 -3.51737171e-01
   4.21120495e-01 -1.27713345e-02 -1.15885444e-01  7.49415383e-02
   1.30692720e-01  2.01086961e-02  9.82649922e-02  1.61762955e-03
   4.19694781e-01  5.46573550e-02 -1.75823867e-01  1.18209995e-01
   1.05612762e-01 -1.35866597e-01  9.81785543e-03 -1.66214913e-01]
 [-6.78209811e-02 -2.01270562e-02 -5.34592308e-02  1.39289796e-01
  -5.79408929e-02 -2.68712401e-01 -9.20124054e-02  1.35927141e-01
  -1.18190594e-01 -1.08298272e-01  3.09730202e-01  2.80661106e-01
  -6.36266544e-02  9.18584093e-02 -1.25626847e-01 -1.77054793e-01
  -2.76962668e-01  2.37440631e-01 -1.84935536e-02 -5.20295873e-02
   8.02664235e-02  1.86514184e-01  7.10810125e-02 -7.50672519e-02
  -3.11281174e-01  2.49848455e-01 -1.88494906e-01 -1.10242538e-01
   2.74405926e-01 -2.58721173e-01  9.81828719e-02 -1.40883699e-01
   3.88599187e-01 -4.11839820e-02  1.65629193e-01  3.91968846e-01
   1.89942092e-01 -2.00313956e-01  5.13037154e-03  2.22984180e-01
   2.39507318e-01  3.34084719e-01 -2.21919298e-01  3.10476780e-01
   3.01369041e-01  7.87804276e-02 -1.15665033e-01  3.12230825e-01
  -2.31772773e-02  3.55893195e-01  2.35907719e-01  2.25601330e-01
   3.79607618e-01 -4.44668159e-02  3.01933497e-01  1.27923712e-01
   4.55374308e-02  1.08123245e-02 -1.30655810e-01 -5.75416200e-02
  -1.81422904e-01  1.76141694e-01 -3.34028006e-02 -2.50437289e-01
   1.51046338e-02  1.07059665e-01 -9.08587649e-02  4.02812213e-01
  -2.33699501e-01 -4.09395136e-02 -2.83710748e-01 -7.67525053e-04
  -1.41991079e-02  6.49705753e-02 -1.72263477e-02 -1.94297090e-01
  -8.92071426e-02 -1.94504395e-01  1.57919556e-01 -2.78997183e-01
  -7.01928139e-02  1.89001054e-01  2.36651018e-01  2.70642608e-01
   9.27824378e-02 -4.17647175e-02  1.95858702e-02 -7.37999231e-02
  -5.43068908e-02 -1.26934558e-01 -1.67304382e-01  3.63865905e-02
  -2.36881897e-01 -5.87022305e-02 -2.46438965e-01 -1.33003183e-02
  -7.94784352e-02  5.24305273e-03  3.23194385e-01 -2.87681311e-01
   1.20285694e-02  3.88263948e-02 -1.47148415e-01 -1.67275190e-01
   1.57695711e-01  2.29241569e-02  2.68827021e-01 -1.67545870e-01
   1.77289993e-01  8.77812877e-02  1.57250002e-01 -3.17677826e-01
   2.88196921e-01 -2.73925513e-01 -2.11919397e-01  2.81002000e-02
  -1.76209241e-01 -1.38338963e-02  1.87253833e-01 -1.20969899e-01
   3.05935413e-01  8.05373117e-02 -3.24828178e-01  9.84572545e-02
   2.06876978e-01 -6.41082674e-02  6.01275638e-02 -5.41854324e-03]
 [-5.63423373e-02 -1.25356577e-02 -1.41245216e-01 -1.52465716e-01
  -7.95141831e-02 -3.34527582e-01 -5.67367002e-02  5.65612838e-02
  -5.10452725e-02 -2.31030628e-01  3.47924531e-01  3.60842884e-01
  -1.51428580e-01  1.50495678e-01 -1.45146221e-01 -2.49575198e-01
  -1.05631024e-01  2.99581915e-01 -1.06753089e-01 -1.19507007e-01
   1.53661996e-01 -1.25734881e-02  6.84059039e-02 -5.53698614e-02
  -4.53902394e-01  2.18525752e-01 -1.92106500e-01 -7.33267292e-02
   1.96960628e-01 -6.00484125e-02  1.81537196e-01  1.26018487e-02
   3.37608933e-01 -7.45989243e-03  2.14167893e-01  2.51795799e-01
