baseline/conv2d/kernel:0
(5, 5, 3, 6)
[[[[ 1.02057252e-02  8.24032128e-02 -2.74219234e-02  8.33543986e-02
    -1.75528396e-02  1.67660877e-01]
   [ 9.18515306e-03  1.24491863e-01  2.29725037e-02  8.92921835e-02
    -1.05953462e-01 -8.54439940e-03]
   [-4.54894379e-02  2.26615027e-01 -3.31399068e-02  1.34247169e-01
     1.61085382e-01  7.40975291e-02]]

  [[-4.48550023e-02  4.76133302e-02  3.72678339e-02  1.74340144e-01
    -1.28149107e-01 -2.58314431e-01]
   [-1.12026736e-01 -7.59551153e-02  1.05803542e-01  5.07138707e-02
     8.12518820e-02 -2.70924121e-01]
   [-1.74536452e-01 -1.82041842e-02 -4.15887684e-03  6.90633580e-02
    -5.50907925e-02 -7.91357383e-02]]

  [[ 1.34303644e-01  4.88164984e-02  1.32101893e-01 -1.68664813e-01
     9.14927945e-02  9.48930755e-02]
   [ 3.39703828e-01 -2.99686044e-02  1.71992362e-01 -1.96637243e-01
    -8.54890328e-03  6.78045377e-02]
   [ 1.63639128e-01 -1.85481980e-01  3.01329046e-01 -1.06789887e-01
    -4.45804372e-02  2.31612386e-04]]

  [[-3.42740379e-02 -1.85950965e-01 -9.03146490e-02  8.46013799e-02
     2.75463939e-01  1.26153886e-01]
   [ 1.20210752e-01 -1.69597700e-01 -1.00771442e-01  5.37501909e-02
    -2.18198821e-01 -1.97331086e-01]
   [-1.26933187e-01 -1.21354982e-01  1.02916174e-02  3.57945114e-02
    -9.21543688e-02 -1.53090358e-01]]

  [[-1.10273622e-01  1.04790933e-01 -1.61010444e-01 -1.72597900e-01
     2.01497361e-01  1.30988359e-01]
   [-1.33972257e-01 -1.84278235e-01 -1.55217350e-01 -8.62618014e-02
    -7.02306256e-02  1.12054668e-01]
   [-1.24304794e-01 -1.34081781e-01 -9.74599868e-02  8.27703103e-02
    -1.65913682e-02 -5.69776110e-02]]]


 [[[ 1.36595204e-01 -2.36218899e-01  4.24976721e-02  1.77046493e-01
    -1.64215341e-01  2.85480827e-01]
   [-5.93764819e-02  8.18551425e-03  2.28552073e-01  1.88932270e-01
     1.84980869e-01  3.19244005e-02]
   [ 5.16151600e-02 -6.60580322e-02  7.06393197e-02  2.25155309e-01
     2.33757645e-02  1.41535610e-01]]

  [[-1.39077112e-01  1.71972122e-02  2.13765085e-01  3.16796362e-01
    -2.17789248e-01  2.75624812e-01]
   [-1.87474772e-01 -1.60068333e-01  5.77784143e-02 -2.01651324e-02
     4.37356718e-03  2.31632888e-01]
   [-1.06077036e-02  1.91030204e-01  2.51554847e-01  1.24837846e-01
     2.03086585e-01  1.40039504e-01]]

  [[-5.90083981e-03 -2.16618419e-01 -1.90004587e-01  3.59908119e-02
     7.37636816e-03  5.56734502e-01]
   [-9.13533866e-02 -1.70326039e-01 -1.43481851e-01 -3.12368244e-01
     2.93640904e-02  2.28622228e-01]
   [-1.89566940e-01  3.72165531e-01 -2.06681639e-01 -2.59800494e-01
    -1.93704963e-01  9.33508649e-02]]

  [[ 1.09451180e-02  2.40266547e-02 -2.44755819e-01  6.90140799e-02
     1.18302517e-01  3.76164466e-01]
   [ 2.14990377e-01 -1.83085743e-02 -2.35299110e-01 -2.35880166e-01
    -2.43081510e-01  7.73706809e-02]
   [ 8.86733681e-02  1.67894661e-01 -3.50600272e-01 -1.21643998e-01
    -1.27395108e-01 -1.18637040e-01]]

  [[-2.08301959e-03  1.66073546e-01 -7.22324252e-02 -1.53826699e-01
     1.01807646e-01 -4.28946503e-02]
   [ 1.59448579e-01 -2.79266145e-02 -3.35847698e-02 -1.65788546e-01
     1.16691343e-01  6.03531078e-02]
   [ 2.74488726e-03  1.79052241e-02  2.11729556e-01 -1.44429073e-01
    -4.84543946e-03 -1.74631681e-02]]]


 [[[ 9.91655886e-02 -1.01201743e-01  1.48274854e-01  2.41985217e-01
    -4.12903249e-01  5.34238713e-03]
   [ 1.55238509e-01 -1.40253663e-01  1.13123894e-01  3.08846384e-01
     2.53126502e-01 -3.64849627e-01]
   [ 2.95686245e-01  8.57040007e-03  4.12245207e-02  8.13260972e-02
     1.75690293e-01  3.01999208e-02]]

  [[-4.86058705e-02 -3.70838523e-01 -3.02404106e-01  3.40471476e-01
    -9.68258008e-02 -2.69555956e-01]
   [ 1.97330773e-01  1.16422800e-02 -2.31327996e-01  3.95215482e-01
     6.26844317e-02 -1.78303465e-01]
   [-7.96186328e-02  5.34270048e-01 -2.26981729e-01  1.87900722e-01
     2.60706484e-01 -1.49407953e-01]]

  [[-3.79462093e-01 -2.77135558e-02 -2.45487720e-01 -1.25887856e-01
     1.62029713e-02  2.77900230e-02]
   [-3.35193425e-01  1.99272662e-01 -1.97779223e-01 -1.54190019e-01
    -1.92347035e-01 -1.98066622e-01]
   [-3.87345523e-01  4.84988779e-01 -2.40307674e-01 -1.21944457e-01
    -6.40075281e-02 -2.61925161e-01]]

  [[ 1.84855849e-01  3.28507498e-02  2.61947997e-02  4.18200195e-02
     1.89990044e-01 -9.11904797e-02]
   [ 3.77409637e-01  8.35916772e-02  6.20855531e-03 -2.62300521e-02
    -3.17812115e-01 -1.40371412e-01]
   [ 1.38522923e-01  5.43714523e-01 -1.14504971e-01 -3.14053923e-01
    -3.37670118e-01  1.07156094e-02]]

  [[ 2.00374499e-02  1.45666802e-03  3.69271964e-01 -1.41283676e-01
     3.05386275e-01 -1.51285529e-01]
   [ 2.74673663e-02 -5.82065582e-02  3.08201909e-01 -1.55727595e-01
    -4.63555893e-03  2.05483716e-02]
   [-1.44700021e-01  3.78285199e-01  8.00149739e-02 -3.00971627e-01
     1.75626144e-01  7.04298215e-03]]]


 [[[-8.37647468e-02  1.39180580e-02 -1.83292791e-01  1.34296536e-01
    -1.76053748e-01 -2.21905246e-01]
   [-2.52695590e-01  5.37506826e-02 -1.79069832e-01  1.88625585e-02
     1.25479743e-01 -1.61521256e-01]
   [-2.24420205e-01  1.10111497e-01 -6.65765852e-02  1.36267409e-01
     1.10612940e-02  5.23524992e-02]]

  [[ 3.72944355e-01 -2.19610959e-01 -1.58805996e-01  2.72054493e-01
    -6.76103123e-03 -1.36480868e-01]
   [ 2.66232789e-01 -7.85547346e-02 -1.37280747e-01  1.44271448e-01
     2.91566044e-01 -2.17776839e-02]
   [ 3.41154993e-01  1.72829062e-01 -8.22051540e-02  3.58645976e-01
     1.46892145e-01  7.66982958e-02]]

  [[ 8.59987885e-02 -2.25126937e-01  1.26198992e-01  3.72144394e-02
    -1.18039533e-01 -1.22501247e-01]
   [-1.04343243e-01  8.24731216e-02  3.21785212e-02 -1.47424161e-01
    -1.94447920e-01 -2.27717772e-01]
   [ 1.89541399e-01  1.09303892e-01  2.45611183e-02  2.38886587e-02
     4.05948311e-02 -8.65188986e-02]]

  [[-2.45171472e-01 -1.70208588e-01  1.91128179e-01  2.24621110e-02
    -7.03457147e-02 -2.39235330e-02]
   [-2.56662816e-01  1.68582350e-01  3.04148465e-01 -6.25393093e-02
    -2.20341846e-01 -1.22425772e-01]
   [-3.28950375e-01  1.21010900e-01  2.22291648e-01 -1.61645442e-01
    -2.46454239e-01  5.90092912e-02]]

  [[-1.43888197e-03 -2.37099066e-01  1.86673671e-01 -1.20310597e-01
     2.88144767e-01 -2.19152778e-01]
   [ 1.19518600e-01  9.19006616e-02 -1.39618769e-01 -3.35531205e-01
     1.13574766e-01 -6.90643415e-02]
   [ 8.68502557e-02  1.82777807e-01  1.27952144e-01 -3.07776690e-01
     5.16234078e-02  1.16291210e-01]]]


 [[[-1.21564791e-01  7.89431259e-02  1.39234588e-01  1.29208580e-01
    -1.06381781e-01  6.69616461e-02]
   [-2.13598028e-01  3.24950665e-02 -1.33070022e-01  1.38758376e-01
    -3.93841155e-02  2.05411762e-01]
   [ 9.31906402e-02  6.48074299e-02 -1.51694670e-01  1.28770135e-02
     8.29871669e-02  2.13607848e-02]]

  [[ 3.61917652e-02  4.97905798e-02  8.28382447e-02  1.28177986e-01
    -2.21658841e-01 -1.78057373e-01]
   [-2.50268340e-01 -1.22384019e-01  9.07322951e-03  1.55589193e-01
     1.98573738e-01  1.46233931e-01]
   [ 1.75816137e-02 -1.84686761e-02  1.35846183e-01  1.70239732e-01
     2.58356482e-01  1.53110817e-01]]

  [[-2.25013737e-02 -9.00818110e-02  1.49566486e-01 -4.24537994e-02
     5.72971627e-03  1.37332723e-01]
   [ 1.93315163e-01 -1.63297638e-01  4.03819457e-02  4.66202311e-02
    -1.60124496e-01  1.14954589e-02]
   [ 2.36543328e-01 -4.70253117e-02  1.72362924e-01 -2.71792896e-03
     2.67283674e-02  9.19188857e-02]]

  [[ 9.65046417e-03 -2.51339972e-01  7.43639246e-02  2.86050159e-02
     2.73525491e-02 -1.04883425e-01]
   [-1.29306829e-03 -3.10429092e-02  4.27212082e-02  7.96060190e-02
    -3.22733670e-01  1.07514046e-01]
   [-4.50947285e-02 -2.31830031e-01  1.01698436e-01  2.31445692e-02
    -8.56258646e-02  1.53563738e-01]]

  [[ 1.03922851e-01  9.79189724e-02 -1.21019438e-01 -3.29775631e-01
     1.34147286e-01 -3.25249851e-01]
   [-1.38255790e-01 -2.11544055e-02 -2.18278453e-01 -2.91362911e-01
    -3.18631530e-02  9.28192958e-02]
   [ 1.00660566e-02 -3.81869003e-02 -9.24749225e-02  1.12864226e-02
    -1.19545601e-01  7.80462697e-02]]]]
baseline/conv2d/bias:0
(6,)
[ 0.0404018  -0.01651914 -0.03376484  0.21584113 -0.07092135 -0.11346016]
baseline/batch_normalization/gamma:0
(6,)
[0.5216174  0.42918095 0.6758035  0.6051539  0.83976984 0.81320834]
baseline/batch_normalization/beta:0
(6,)
[-0.22348353 -0.11423197 -0.43550804 -0.19275881 -0.5389049  -0.4903163 ]
baseline/dense/kernel:0
(1536, 128)
[[ 1.24769695e-02 -1.18807210e-02 -5.94918840e-02 -7.45224953e-02
   1.90082982e-01 -8.22687671e-02 -1.60834175e-02  2.65763570e-02
   1.55927725e-02 -7.06764013e-02  5.30685484e-02 -8.31779167e-02
   7.78004751e-02 -2.71345358e-02 -4.12326641e-02  6.02114610e-02
  -1.59798741e-01  1.20409384e-01  6.30353466e-02  7.52372900e-03
   4.16678041e-02 -3.75124142e-02  9.12623852e-02 -1.14550248e-01
  -5.25102690e-02 -4.47387397e-02 -3.98305804e-03 -3.94976884e-02
  -3.35828476e-02  3.17850709e-02 -6.39077201e-02  1.41381919e-01
  -2.63133068e-02  8.71110409e-02  6.28008740e-03  1.80346647e-03
  -6.90652058e-02 -9.17498022e-02 -7.48854205e-02  2.13533547e-03
   1.28190055e-01  8.71088542e-03 -2.14795507e-02 -4.94319424e-02
   5.82453758e-02  1.72444060e-02 -3.67837511e-02 -4.72726375e-02
   1.05538540e-01 -7.23705739e-02 -2.04183593e-01  4.45714965e-02
   3.62914577e-02  5.12945913e-02  7.36630149e-03  4.61791046e-02
  -1.03738770e-01 -3.18799466e-02  2.42899451e-02 -4.04223949e-02
  -1.40993103e-01  2.51767673e-02 -1.84386410e-02  4.20157844e-03
  -7.23857582e-02  1.12468787e-01  1.60647500e-02 -2.51708832e-02
  -4.31670286e-02 -2.32729968e-02 -9.09971520e-02  2.53231600e-02
  -2.37856686e-01  1.92410156e-01 -3.95766906e-02  4.91349734e-02
  -1.26996458e-01  3.40718813e-02  1.99942430e-03  3.29646841e-02
  -4.14464325e-02  4.58779000e-02  1.27255186e-01 -6.45102561e-02
  -8.44458677e-03 -2.02832967e-02 -3.91798429e-02 -9.06102583e-02
  -6.14041984e-02  1.74465124e-02  1.30071351e-03 -5.07676452e-02
   6.30006427e-03  4.50654365e-02 -3.37677673e-02  4.68128137e-02
  -6.08428493e-02 -7.90386423e-02  2.44971886e-02  4.31270115e-02
   9.72061977e-02  2.78543793e-02 -1.84657332e-02  1.11912498e-02
  -8.56504813e-02  2.09394500e-01  4.26167808e-02  1.04388259e-02
  -1.30994357e-02  1.81064278e-01  8.13235249e-03  7.87745118e-02
   1.04477376e-01  4.97314632e-02 -5.09371050e-02  2.30781004e-01
   7.57046044e-02 -2.86371764e-02  1.34372488e-02  2.91676540e-02
   1.51494262e-03  7.07395300e-02  8.02708883e-03 -3.62400562e-02
   3.92070450e-02  2.43758615e-02  1.69892907e-02  6.04658797e-02]
 [-4.41856831e-02 -5.94271943e-02 -5.05267009e-02 -2.41796188e-02
   1.15102626e-01  7.97567144e-02  2.92090587e-02 -3.47597077e-02
   1.30878672e-01  3.71023491e-02 -8.30098763e-02 -3.16737369e-02
   1.14503078e-01 -4.96568233e-02 -9.37226489e-02 -3.38671327e-01
  -1.66278139e-01  8.71538464e-03  1.21959098e-01  3.13017331e-02
  -6.42342120e-02  8.57006013e-02 -2.58980960e-01  4.26496156e-02
  -2.02553086e-02 -4.23424877e-02 -3.53849269e-02  1.83854382e-02
  -2.03365069e-02 -2.82191858e-02 -4.62666415e-02  1.99664831e-01
  -7.59016126e-02 -3.22979897e-01  1.16637200e-01 -8.82231444e-02
  -1.67267367e-01  2.97893342e-02  5.80921657e-02 -1.14794269e-01
   9.95917618e-02 -6.78906590e-02 -1.57391325e-01  6.27415851e-02
  -4.76403311e-02 -1.11691644e-02 -4.82181683e-02 -2.58784257e-02
  -1.07812576e-01 -3.66184749e-02 -1.14282042e-01 -7.86731690e-02
  -2.39537917e-02  1.03394039e-01 -2.76654631e-01  1.31141879e-02
   2.14832928e-02  2.11902633e-02  3.26965307e-03  3.85939442e-02
  -7.42599964e-02 -2.14348752e-02  1.10490918e-01 -2.53017973e-02
  -9.36652422e-02  9.57170799e-02 -4.00720000e-01 -8.34394991e-02
  -3.70969139e-02 -1.47317857e-01  1.89141072e-02  4.57354486e-02
   2.68947091e-02 -5.21618836e-02 -1.05610579e-01 -1.77976359e-02
  -3.11963618e-01 -1.14200898e-01  2.91550644e-02  1.52860992e-02
  -1.65820122e-02  2.99309921e-02 -2.00457737e-01  2.17179172e-02
   4.70930040e-02 -1.43139780e-01 -5.72041236e-02  7.42829144e-02
  -1.39957398e-01 -1.27616730e-02 -6.36885762e-02  1.25539958e-01
  -1.36342936e-03 -3.74281667e-02  3.10174599e-02 -1.07202597e-01
  -6.47577047e-02  1.30252168e-01 -5.42099997e-02  1.13799339e-02
  -2.57540680e-02  8.87544751e-02 -5.59067773e-03 -1.19753089e-02
  -4.25798595e-02  1.27772063e-01  8.96899104e-02  2.27293335e-02
  -1.65583700e-01  6.00273088e-02 -4.02233787e-02  5.19893430e-02
   9.62743834e-02 -5.01773842e-02  2.56293062e-02  2.51916386e-02
  -4.12750617e-03 -5.89455590e-02  5.20859733e-02  5.82112446e-02
  -5.75702675e-02 -1.15141012e-02 -1.21775120e-01 -2.23359466e-02
  -6.62786141e-02  3.19283195e-02 -1.17604034e-02  5.18115908e-02]
 [-2.35010851e-02 -4.76270393e-02 -8.71096796e-04  5.16614364e-03
   8.52846131e-02 -7.45730922e-02  6.78903982e-02 -1.53450649e-02
   4.92277443e-02 -6.47199433e-03  6.75861090e-02 -9.60884988e-02
   1.22922398e-01 -6.48850873e-02 -8.72913562e-03 -1.03900537e-01
  -1.31714150e-01  8.12142044e-02  1.06645092e-01 -5.00953645e-02
   8.12925305e-03  6.56233504e-02  8.64163563e-02 -6.48543313e-02
  -8.89537036e-02 -1.26459831e-02  1.94019023e-02 -6.51565194e-02
  -1.73037853e-02  3.94510999e-02  2.66958191e-03  3.21656652e-02
   3.09437290e-02  9.14743394e-02 -4.16927822e-02  5.08153178e-02
   4.48857993e-02 -9.52131152e-02 -6.44227564e-02 -9.55090374e-02
   4.71745431e-02 -3.66359092e-02  6.60150722e-02 -8.88578370e-02
   1.24688614e-02 -4.52725813e-02 -1.02673890e-02  9.27488226e-03
   2.20831670e-02 -1.73129179e-02 -9.64452177e-02  4.78285085e-03
  -1.08587630e-02  6.42457455e-02 -1.43802064e-02 -1.09521691e-02
   4.75418642e-02 -1.90690625e-02  2.10939385e-02 -4.04844545e-02
  -7.68908113e-02 -6.48837769e-03  1.14552015e-02 -2.49485113e-02
  -5.21812513e-02  6.05711639e-02  5.13193384e-02  8.42218101e-03
  -5.74884750e-02 -6.64133057e-02 -5.22952750e-02 -7.17720762e-02
   4.71666828e-02  3.99245135e-02  9.39375460e-02 -6.85220882e-02
  -8.02589059e-02 -3.98694947e-02  2.69055702e-02  1.02809109e-01
  -5.55051602e-02  7.39666680e-03  8.39652643e-02  1.85392406e-02
  -6.06790073e-02  1.07979812e-02  3.55704571e-03 -3.75838317e-02
  -1.95363462e-01 -4.89190780e-02 -5.32322377e-02  1.02268443e-01
  -6.95068985e-02 -1.97825190e-02 -2.09396575e-02  4.45531309e-02
  -3.14104813e-03 -2.92526837e-02  1.54829840e-03  7.45193139e-02
   7.19655305e-02 -5.53612737e-03 -1.26448289e-01  1.07706767e-02
   4.41499874e-02  1.98307596e-02 -4.15256508e-02 -3.02137453e-02
  -2.56138630e-02  5.72504364e-02 -1.18585071e-02  2.17999909e-02
   5.76101243e-03  9.53566656e-03 -1.17836148e-02  4.58937883e-02
   7.89573714e-02 -5.27642630e-02 -4.67258738e-03  5.11448458e-02
   1.81905627e-02  1.13536615e-03 -5.80303594e-02  2.86086388e-02
  -3.70803252e-02 -5.52482940e-02 -7.34916329e-02 -4.32819594e-03]
 [-3.49048302e-02  9.85091925e-03 -1.54113946e-02  3.38154845e-02
   1.10961884e-01  5.47092199e-01 -1.33282602e-01 -3.59302200e-02
   2.58608609e-02 -2.31739998e-01 -2.18356773e-02 -1.62786935e-02
  -2.74992943e-01  5.38409576e-02 -1.58754960e-02  9.90312174e-02
  -1.63507998e-01 -1.58215128e-02 -2.98321515e-01  1.87328551e-02
  -5.48245572e-02  1.88911200e-01  4.28317875e-01  1.27203465e-02
  -3.75943370e-02 -1.08951461e-02 -1.63634419e-02  1.82404742e-03
  -6.29796535e-02 -5.33488929e-01  4.57981154e-02 -1.73956871e-01
   3.92139405e-02 -9.23584700e-02  4.95968759e-01 -9.08872578e-03
   1.90246683e-02 -1.47229824e-02  2.28258334e-02 -7.52591789e-02
   3.58828664e-01 -4.93907221e-02 -4.70280834e-02 -1.28910914e-01
  -1.40949994e-01 -5.12331538e-02  4.93711531e-02  4.42479029e-02
   3.68595332e-01 -3.72885130e-02 -2.33058006e-01 -4.36880719e-03
   8.72828066e-03  8.77510533e-02  3.40217978e-01  8.74489322e-02
  -2.74145424e-01 -3.13795507e-02 -2.07141340e-02  2.31135041e-02
   1.90743819e-01 -7.10144341e-02  4.81288880e-01 -5.63062318e-02
   1.13080256e-02 -9.59708989e-02 -5.07909298e-01 -5.69161214e-02
  -5.67059591e-03  1.85403153e-01 -5.57539314e-02 -1.22030154e-01
   4.42824923e-02  1.10796697e-01 -2.24211499e-01  1.25717523e-03
  -3.42482299e-01  6.32913038e-02  4.70516607e-02  3.87762720e-03
   6.44726027e-03 -2.62603551e-01  1.37959436e-01 -1.40561918e-02
   7.02590466e-01  3.63607705e-01 -5.17604202e-02  3.42945121e-02
   8.35124329e-02  1.58594251e-02 -8.67592543e-02  2.27674797e-01
  -1.87002926e-03  3.95316556e-02 -2.50908658e-02 -2.57854015e-01
  -3.92049775e-02  2.89334267e-01  4.83907722e-02  2.40528286e-01
  -2.02984035e-01  1.13969576e-02  2.81410124e-02  3.78533602e-02
   2.61461884e-02  9.09167007e-02  2.20326483e-01 -3.40233929e-02
  -1.36650994e-01  3.69941927e-02 -5.70994355e-02  1.73487395e-01
   2.91057259e-01 -3.52951810e-02 -2.21253380e-01 -2.93531209e-01
   3.56389254e-01 -7.28715211e-04  3.01084965e-02  4.27779965e-02
   1.73185449e-02 -4.98265654e-01 -5.46139404e-02  2.03551129e-02
  -2.15375662e-01 -3.52291204e-02  4.81366627e-02 -2.01258995e-02]
 [-1.23587344e-02 -4.60885055e-02  1.51154222e-02 -1.51432920e-02
   1.06363960e-01  9.51912999e-02 -1.64487988e-01 -1.68255884e-02
  -4.17512245e-02  5.30877039e-02 -2.01321349e-01  1.13509856e-02
  -1.21147692e-01  3.37547548e-02 -4.49959263e-02  6.28755093e-02
   1.46645144e-01 -3.43448506e-03 -2.23148793e-01  3.16930711e-02
   5.27749248e-02 -2.07757071e-01  2.23788917e-01 -1.16302771e-02
   1.74781289e-02 -2.84564923e-02  2.56341994e-02 -2.80796308e-02
   3.30183990e-02 -2.33805273e-02  2.08275151e-02 -1.40093744e-01
   4.48548570e-02 -8.92715976e-02 -2.41219968e-01 -2.39754580e-02
   7.49449059e-02 -7.04902634e-02  2.09961515e-02  9.81663167e-02
   9.56288446e-03  3.77657376e-02 -1.72263488e-01 -1.74962908e-01
  -3.27184098e-03  2.27064323e-02 -2.09019799e-02 -4.99855680e-03
   1.96200401e-01 -2.77966373e-02 -1.40686467e-01 -6.21787645e-02
   1.13103271e-01 -1.30451143e-01  2.92599857e-01 -6.57567233e-02
   1.03827395e-01 -4.77336980e-02  3.87630723e-02 -1.39054591e-02
  -5.24081551e-02 -1.69463158e-01 -2.13654354e-01 -4.87288013e-02
  -2.66714524e-02  2.01348990e-01 -1.11175761e-01  6.46832660e-02
  -6.35103090e-03 -5.13274409e-02 -4.32171486e-02 -2.28730664e-01
   4.97808233e-02 -2.14841396e-01 -6.53582364e-02 -4.11063135e-02
  -3.66086587e-02  2.32940063e-01  1.13841696e-02  7.20739439e-02
   4.43480462e-02 -6.17191076e-01  4.21385989e-02  1.62320805e-03
  -1.51523963e-01  1.32580861e-01 -1.41583499e-03  1.19762970e-02
   1.76254019e-01 -6.64328411e-02 -7.31365606e-02 -1.70323342e-01
  -7.83129707e-02 -1.37675092e-01 -4.14525578e-03 -2.42918909e-01
   4.52873111e-03 -1.05820149e-01 -5.43192588e-02  1.67856202e-01
   6.69710934e-02  1.29611865e-01 -7.91300554e-03  1.70953311e-02
  -1.89021662e-01 -2.97677130e-01  6.93553463e-02 -2.34114788e-02
   1.44638389e-01 -8.26435611e-02  3.91346700e-02 -1.87353209e-01
   1.79904804e-01  2.93652061e-02 -7.64271542e-02 -2.47191980e-01
  -2.62572318e-02  2.46368703e-02 -2.90253181e-02  7.26291165e-02
   7.68795237e-03 -6.55914471e-02 -2.62418855e-02 -2.10887361e-02
  -2.56394781e-02 -5.55568971e-02  3.18853073e-02 -3.90171930e-02]
 [ 3.25318649e-02 -4.55505289e-02  2.16960572e-02  1.99261159e-02
   2.47165233e-01 -1.37498394e-01  1.36347756e-01  1.73055083e-02
  -7.52967447e-02  1.49232939e-01  7.51091391e-02  2.95038465e-02
   1.42642528e-01  2.23259255e-02  6.06875196e-02  3.66269201e-02
  -2.63581097e-01  2.19166517e-01  1.10017315e-01  5.24355769e-02
   4.62589711e-02  8.22730660e-02  9.21853036e-02 -6.07762039e-02
  -6.00549392e-02  4.56804782e-02  1.80100987e-03 -1.53685957e-02
  -7.34766722e-02 -4.28854935e-02  1.77658573e-02  2.30240017e-01
   1.35461055e-02  7.25762220e-03 -1.05877951e-01  2.66702957e-02
  -8.32233578e-02 -6.39093295e-02 -3.22090718e-03 -7.77538791e-02
   2.13325471e-01 -4.57081757e-02  1.42077342e-01  1.77594408e-01
   8.01093802e-02 -8.65665525e-02 -4.64516575e-04  5.97602129e-03
  -9.89193469e-02 -3.22897136e-02  1.22847505e-01  2.00400725e-02
   7.38132372e-02  2.16292925e-02 -1.14995025e-01 -1.69008881e-01
   2.24925876e-02 -3.36619429e-02 -3.55471075e-02  1.67912208e-02
   8.56815502e-02 -1.22998893e-01  1.99282318e-02  1.40154120e-02
   1.87670588e-02  2.28288502e-01 -8.85161832e-02  1.40624074e-02
   1.67103410e-02  6.15240522e-02 -2.69364938e-03  1.12595133e-01
  -7.69485608e-02 -2.27894057e-02  1.87809020e-01  8.68333504e-03
   1.80541500e-02  6.00632355e-02 -6.11350611e-02 -1.78662330e-01
   8.31212569e-03  1.46768585e-01  3.05839896e-01  2.96548638e-03
   3.78744677e-02 -6.32902309e-02  2.32801624e-02 -5.00025563e-02
   1.74983684e-02 -1.02702916e-01 -1.15429550e-01  9.77614895e-02
  -8.34357888e-02  6.79740608e-02 -1.45206824e-02 -1.42296270e-01
   6.16801567e-02  1.94386020e-01  6.58733845e-02 -1.00281075e-01
  -3.81532818e-01 -4.98480126e-02 -7.22646341e-02 -5.84785752e-02
  -3.61370184e-02  1.07627951e-01  1.47507221e-01 -5.60001619e-02
  -1.13359101e-01  1.65360108e-01 -8.17583725e-02  1.67134464e-01
   2.54673921e-02  2.32505035e-02  3.28169286e-01  3.17447111e-02
  -1.22450711e-03  3.33571136e-02 -2.47865450e-02 -1.23525172e-01
  -4.37541604e-02 -1.88393034e-02 -7.96140432e-02 -1.67906117e-02
   2.14050069e-01 -4.89636557e-03  1.21395697e-03 -2.54202615e-02]
 [ 7.26349577e-02  2.33824234e-04  1.41731519e-02  2.08263956e-02
   1.39092207e-01  7.95300677e-02 -1.44934565e-01 -4.67206202e-02
   7.94916227e-03  1.17977187e-01  7.92813003e-02 -5.82382455e-02
   4.86668088e-02  5.93467755e-03 -5.86280599e-02 -1.32768214e-01
   2.59712990e-02  4.51704338e-02 -1.60430342e-01  2.91143563e-02
  -4.19156216e-02  9.78282243e-02  3.00364681e-02 -6.15897886e-02
  -1.10050533e-02 -6.67269528e-03 -2.35658083e-02 -7.27562830e-02
   3.98110673e-02 -4.02882881e-02 -2.34385803e-02 -4.29152511e-02
  -5.79388477e-02  2.51563907e-01 -1.59134418e-01 -1.24816924e-01
  -1.44229501e-01 -5.78766838e-02  2.89569813e-04  1.45106643e-01
  -3.10171209e-02 -6.11375570e-02  6.05686866e-02 -4.46401015e-02
  -5.81639446e-03  1.39419474e-02 -4.66271490e-02 -2.86419764e-02
   9.58608091e-02  3.09618916e-02 -1.05292939e-01 -3.13411988e-02
   1.14097543e-01  9.57538784e-02  3.08712870e-01 -4.49688025e-02
   2.27596760e-01 -6.66206479e-02 -7.91102499e-02  4.14244458e-02
   2.64879853e-01  2.18611822e-01 -1.56546272e-02 -6.76289317e-04
  -5.63006997e-02 -1.25132978e-01  8.73306543e-02  1.28341615e-02
   9.24196374e-03  1.48841456e-01 -2.89277714e-02 -2.57234648e-02
   3.34941030e-01  1.15395151e-01  1.78658932e-01  9.84933078e-02
   1.39186189e-01 -2.61895880e-02 -5.59777245e-02 -1.93077683e-01
  -1.33355493e-02  3.91391218e-02 -6.78284466e-02 -4.42744866e-02
   1.65416658e-01  8.55467170e-02 -4.59669605e-02 -4.53150906e-02
  -1.31936716e-02  8.30468070e-03  1.65444687e-01 -2.23419279e-01
   3.49543430e-02  1.17064454e-01 -3.45115587e-02 -1.01647461e-02
  -7.16704801e-02  1.24443442e-01 -1.32629331e-02 -8.85780156e-03
  -3.59810203e-01 -1.63482636e-01  1.40500501e-01  4.89280187e-02
  -9.34760422e-02  1.98843732e-01 -4.56604585e-02 -4.06874111e-03
  -3.41211081e-01 -8.40698406e-02 -1.86489113e-02 -2.68266410e-01
   1.11959562e-01  4.08484228e-02 -2.55997851e-03  1.91630214e-01
   8.53033662e-02  2.10878067e-02  3.33055435e-03  1.28160585e-02
  -6.29265094e-03 -5.38910143e-02  8.37218612e-02  1.04596419e-02
   8.10296927e-03 -4.64969948e-02 -4.36111912e-02  2.23376304e-02]
 [ 3.05720065e-02 -6.06025606e-02  4.20933887e-02 -2.13622227e-02
   4.80734296e-02  8.70877225e-03 -6.61201701e-02  4.76077907e-02
  -9.58530009e-02  2.92951949e-02 -4.49143760e-02 -4.34354581e-02
   8.15267116e-02 -6.79641441e-02 -6.54746443e-02 -3.26189667e-01
  -8.47277418e-02  1.22572958e-01  1.17258593e-01  2.78863236e-02
  -7.20012141e-03  3.94293247e-03 -1.45491228e-01  2.97380164e-02
  -5.85864969e-02 -1.89234875e-02 -4.51649092e-02 -4.06404026e-02
  -4.25428897e-02  1.68078449e-02  4.34974506e-02  1.32198945e-01
   1.93606839e-02 -1.39277920e-01  1.60121322e-01 -8.12526792e-02
  -3.14851075e-01 -2.48451624e-02 -4.54554223e-02 -8.60578492e-02
   1.23608746e-01 -7.48645961e-02 -2.19601184e-01  5.59631065e-02
  -2.20648468e-01 -8.50656629e-02  1.30797541e-02  2.99168248e-02
  -3.45644355e-02 -4.55605760e-02 -1.13953762e-01  4.35437001e-02
   9.79124941e-03  5.02592996e-02 -8.47009569e-02  8.13136026e-02
  -2.99548674e-02 -3.28715481e-02  4.75863963e-02 -4.45784554e-02
  -5.60097247e-02  8.26788135e-03  1.06249802e-01 -1.30588664e-02
  -3.16095240e-02  1.04190573e-01 -3.69224697e-01 -6.15729159e-03
  -5.14277965e-02 -7.24087209e-02  4.44840193e-02  4.36297767e-02
   3.35648097e-02 -9.16674137e-02  4.66669761e-02  1.71540808e-02
  -1.22081652e-01 -2.50671536e-01  5.25641777e-02 -5.71911735e-03
   1.64185762e-02  1.41356990e-01 -2.37960562e-01 -2.51650438e-02
  -5.68106435e-02 -4.92164604e-02 -1.39680281e-01  6.39512017e-02
  -2.67053217e-01 -2.33236011e-02  1.14929732e-02  1.38469234e-01
   3.09097227e-02  1.74969919e-02  5.25278263e-02 -3.37546080e-01
  -4.57797199e-02  4.56527881e-02  7.68023962e-03  9.83717293e-02
  -2.36625709e-02  2.19227858e-02  4.77227150e-03  2.15872936e-02
   1.39054373e-01  2.91959383e-02  1.17623612e-01 -7.58385286e-02
  -1.45091668e-01  1.14000700e-01 -4.06634063e-02  2.70455498e-02
   8.85198787e-02  2.81657446e-02 -4.89787757e-03  3.41629796e-02
   4.37961966e-02 -2.69825589e-02  2.60357354e-02 -7.62145594e-02
  -4.30020783e-03  3.44108827e-02 -5.18111624e-02  1.62990056e-02
   1.25404270e-02 -8.19798373e-03 -1.76515635e-02 -7.72780627e-02]
 [ 4.84310426e-02 -4.16688584e-02  6.41839439e-03 -4.16304581e-02
  -1.65177867e-01 -6.42466396e-02  1.68236420e-01  2.43154983e-03
  -1.59748033e-01  3.68862785e-02 -1.04112275e-01 -6.44194260e-02
  -9.28260982e-02 -6.23183772e-02 -6.18426092e-02  6.15273230e-02
   2.09617525e-01  3.74017470e-02  4.48766053e-02 -5.02148345e-02
  -4.12539989e-02  2.40840223e-02  8.63738954e-02 -4.74853404e-02
   3.23546864e-02 -7.35740457e-03 -1.87940076e-02 -4.50391695e-02
   3.65956873e-02 -5.39120194e-03  4.24930826e-02  9.35106650e-02
   2.88391411e-02  1.63847491e-01 -5.97935319e-02  7.49591589e-02
   3.13191712e-02 -1.12311477e-02 -5.42906485e-02  1.45393640e-01
   9.50069129e-02  1.10620912e-02  8.66721049e-02 -2.40697578e-01
  -5.73135130e-02 -3.79011035e-02 -4.71581966e-02  2.28842348e-02
  -1.95452236e-02 -6.47585392e-02 -3.33886504e-01  2.24639066e-02
   2.48666629e-01 -1.81423306e-01  1.84921309e-01  6.99635372e-02
   8.09788704e-02 -1.94138177e-02 -1.27941901e-02 -6.92350119e-02
   4.92505208e-02 -2.44918782e-02 -2.06246659e-01 -5.63894957e-02
  -1.73491277e-02 -2.09504247e-01  1.15842566e-01 -5.63846342e-02
  -5.43342717e-03  4.30409126e-02  1.72215595e-03  1.08335771e-01
  -6.83972053e-03  1.86208993e-01  1.30865231e-01  2.08091666e-03
   2.30903924e-02 -4.21798751e-02 -2.50959266e-02 -9.37008783e-02
  -7.67014548e-02 -2.64750987e-01  1.78095445e-01 -1.20765315e-02
  -2.10441262e-01  4.32844833e-02 -4.95977141e-02  1.64455716e-02
   1.51149273e-01 -9.12602693e-02  2.55963594e-01 -4.27965373e-01
   2.79352348e-02 -5.72355092e-02  3.33705470e-02  1.20979719e-01
   1.16514703e-02 -1.50635481e-01 -3.76387127e-02  1.45142511e-01
   5.11820167e-02 -2.78038055e-01 -6.59896880e-02 -5.74857481e-02
  -3.99344712e-02 -5.48561402e-02 -1.68414056e-01 -4.15947139e-02
  -1.66973516e-01 -2.28086159e-01  2.73836479e-02 -5.05212434e-02
  -2.83638258e-02  2.68769618e-02  4.10228921e-03  2.71686643e-01
   4.88536693e-02 -2.66707186e-02 -8.33265707e-02  8.86152014e-02
   1.10108061e-02 -3.29420678e-02 -6.60187006e-02 -4.67290170e-03
  -6.88572004e-02 -1.31228939e-03  4.58256155e-02 -2.13449914e-02]
 [-9.62826163e-02 -5.21743372e-02 -4.46341336e-02 -5.48857339e-02
  -1.09282881e-01  8.84234011e-02  1.28826201e-01  1.96736623e-02
  -9.43014398e-03  2.70983815e-01 -1.04113510e-02 -6.59070387e-02
  -1.08136289e-01 -3.02510560e-02 -1.01919426e-03 -9.54824314e-02
   2.91845590e-01 -3.42137814e-01 -4.03193086e-01  5.27464338e-02
  -4.58613783e-02  2.81600028e-01 -3.02812278e-01 -3.93639738e-03
   2.11814861e-03 -1.13768838e-02  2.12080665e-02  4.93761078e-02
  -2.84965318e-02 -1.34012058e-01 -4.18050624e-02 -3.06460145e-03
  -8.93259794e-03 -1.54749239e-02  4.28526960e-02  2.15253860e-01
  -2.28590481e-02  2.00250633e-02  1.33478909e-03 -9.49942973e-03
   1.82201579e-01 -5.97916245e-02  7.05876872e-02 -1.84497668e-03
  -6.69883490e-02 -2.60269642e-02  1.28550064e-02 -3.19499406e-04
   2.55910456e-01 -3.58317606e-02  1.12714283e-01  2.16193814e-02
   1.39968079e-02 -9.84735489e-02  1.23214096e-01 -2.80248839e-02
  -1.14934385e-01 -2.97617279e-02 -4.51628864e-02  3.78247909e-02
   3.69235575e-02 -5.46449162e-02 -1.38997674e-01 -6.91784248e-02
  -2.19812747e-02 -2.17539340e-01  1.12102494e-01 -6.01852946e-02
   4.73812707e-02  2.41621017e-01  4.03761789e-02 -7.82482550e-02
  -1.50709271e-01 -5.23479506e-02 -1.27267703e-01  1.85650885e-02
   5.31636663e-02  9.78776515e-02  2.04246640e-02  1.23912618e-01
   1.94763429e-02 -2.50575036e-01  6.37305677e-02 -4.05596606e-02
   1.40858709e-03  2.85296053e-01 -1.28680199e-01  1.36304982e-02
  -1.93825543e-01 -3.28085609e-02 -1.59598798e-01 -9.52144489e-02
  -4.52301055e-02 -1.12833597e-01 -6.57520518e-02  2.00209677e-01
  -2.47773323e-02  1.22172974e-01 -5.80886416e-02 -1.34545147e-01
   7.84735307e-02  1.78163107e-02 -3.47066969e-02 -2.28354577e-02
  -5.84497210e-03  4.57982160e-02 -2.60681093e-01  4.85609844e-02
  -1.12069368e-01 -8.74537453e-02  1.39831658e-02 -3.16540718e-01
  -5.37301525e-02  4.74532042e-03 -1.04854167e-01 -2.85153478e-01
   4.35223542e-02 -1.49074197e-03  3.75231318e-02  2.99918681e-01
  -1.79306529e-02  8.49460214e-02  1.53235840e-02  3.24247293e-02
   2.33456537e-01  2.68910658e-02  9.36754141e-03 -1.62538316e-03]
 [-4.48520631e-02 -1.86642725e-02  2.71889064e-02 -6.68593571e-02
   2.54921708e-02 -2.07242072e-01  5.29289283e-02 -1.79204717e-02
  -1.18449047e-01 -2.23591253e-02  1.57452360e-01 -3.82542834e-02
  -4.81768101e-02 -1.22847706e-02 -5.92040010e-02  7.76278740e-03
  -1.09963417e-01 -7.93820769e-02 -3.43776554e-01 -1.43831726e-02
   5.49712554e-02 -3.36188041e-02 -8.35468341e-03  7.85993692e-03
  -3.18574682e-02 -3.99962068e-02 -5.18142171e-02 -1.25765316e-02
   1.79718267e-02  2.31963359e-02  2.75837979e-03  1.07621312e-01
   2.07723714e-02 -8.66766833e-03 -1.26553830e-02  9.68806669e-02
  -1.44612119e-01 -1.13687612e-01 -5.48030846e-02 -1.25071436e-01
   1.26070023e-01  4.52178717e-02  1.17743239e-02 -5.66194169e-02
  -8.13406631e-02 -3.99475545e-02 -2.75864396e-02  3.67963947e-02
   2.21146107e-01  1.31623736e-02  2.64805201e-02 -1.13589196e-02
   1.16515897e-01 -2.25368962e-01  4.38340567e-02  6.20817579e-02
   1.34756863e-01  5.18132932e-02  1.87754480e-03 -4.90149111e-03
   2.10580230e-01  7.69127300e-03 -1.83544487e-01 -4.90430519e-02
   2.25475663e-03 -4.88536805e-01 -9.35288966e-02 -3.72074428e-03
  -9.25924722e-03  2.24564254e-01  9.70212091e-03 -3.92539874e-02
   6.47332594e-02  1.42492995e-01 -1.46147072e-01  1.09720774e-01
   8.22812468e-02  1.39615670e-01  4.76168992e-04 -2.16640923e-02
   1.39493374e-02 -2.51255006e-01  1.75808609e-01  1.14015471e-02
   2.32998773e-01  1.47840634e-01  2.11763680e-02  6.98670978e-03
   2.45269528e-03 -8.11870769e-02 -3.86360511e-02  1.30067274e-01
   2.26527583e-02  2.08560362e-01  4.02407348e-02  1.53213486e-01
   3.64416204e-02  2.99072772e-01 -4.25495990e-02 -1.04247503e-01
   5.05783781e-02 -4.41916957e-02  7.32302070e-02  2.68066768e-02
  -5.94432205e-02  7.35386461e-02  2.05956072e-01  3.34565565e-02
  -9.81704816e-02 -1.51965506e-02  1.30495401e-02 -1.69284031e-01
   1.44494548e-01 -3.57606122e-03  6.02862351e-02 -3.68045360e-01
   2.71774918e-01 -2.66840751e-03 -1.62873184e-03  1.03782371e-01
   2.94840289e-03 -7.66604096e-02 -1.26939435e-02 -5.30752214e-03
   2.47466803e-01 -2.08076295e-02 -3.27986553e-02  6.05652444e-02]
 [ 4.78554964e-02 -8.87508132e-03  3.18984538e-02  3.59759517e-02
   8.31064731e-02 -1.77882716e-01  2.66597960e-02  5.07962331e-02
  -6.15037531e-02 -1.15542211e-01 -1.06980279e-02 -6.07513785e-02
   1.92552488e-02 -1.75785292e-02  7.13296980e-02  1.55542344e-02
  -1.36329442e-01  2.03896146e-02 -1.96282584e-02 -6.69451430e-03
   6.18715286e-02 -1.02683738e-01  2.33974457e-02 -6.96761161e-02
   3.97844836e-02 -4.74691316e-02 -7.28967972e-03 -6.34712353e-03
  -1.98350567e-02  1.97290465e-01 -1.37780176e-03  2.41317630e-01
  -4.98385914e-02 -4.55439314e-02 -9.39128175e-02  7.16498941e-02
  -1.29292786e-01 -2.87271049e-02 -3.25820409e-02  5.73363826e-02
   1.35903463e-01 -3.00874002e-02 -5.22753596e-02  3.90167460e-02
   1.37040079e-01 -6.60158740e-03 -3.01689049e-03  1.04492679e-02
  -1.25705928e-01 -7.96496961e-03  1.87794372e-01  4.22060676e-02
   4.76153195e-02 -6.18334971e-02 -1.22019678e-01 -4.70460020e-02
   2.16187052e-02 -5.85459657e-02  1.99668854e-03 -4.62412834e-02
   2.66391039e-01 -3.26494537e-02 -4.41785790e-02  3.86356413e-02
   1.03316568e-01  7.66092762e-02 -4.17599529e-02 -7.23697022e-02
  -2.90013384e-04 -1.47376478e-01 -5.95871359e-03 -9.71564502e-02
  -6.75554276e-02  3.81626412e-02 -2.51656026e-03  3.32525708e-02
   6.55471534e-02 -4.79372181e-02 -2.24463083e-02  6.03341497e-03
   3.26396078e-02  7.72611573e-02  1.35259582e-02 -4.65945676e-02
   4.19456400e-02 -3.98725532e-02 -1.08642434e-03 -1.55623292e-03
   9.32825916e-03 -4.96732034e-02 -4.37525287e-02  6.39443174e-02
  -6.59372956e-02 -3.77289429e-02 -3.85240540e-02 -1.21134251e-01
   1.05689906e-01 -1.52822528e-02  8.38565156e-02 -1.71207190e-01
  -1.15813479e-01  8.06368664e-02 -9.91244987e-03 -2.24442892e-02
  -1.69564649e-01 -8.60889032e-02  2.57827379e-02 -1.38727222e-02
  -1.43325061e-01 -1.15149513e-01  3.05873752e-02  6.60790801e-02
   3.66735049e-02  2.22810172e-02  1.89429261e-02 -5.83765171e-02
   6.71390072e-02 -6.21781647e-02  9.12188925e-03  2.18277853e-02
  -5.98115437e-02  7.14570144e-03 -6.84823990e-02  1.50686912e-02
   1.85375243e-01 -1.65022258e-02  4.25045416e-02 -4.33074124e-02]
 [ 4.11050692e-02  2.70130169e-02 -6.06801733e-02 -9.13564041e-02
   3.36789675e-02 -2.40980715e-01 -1.00408971e-01  2.87049673e-02
  -1.31664708e-01  2.62969583e-02  1.72192737e-01 -5.49099036e-02
  -1.32554412e-01  2.76916567e-02 -6.37889206e-02 -2.97786832e-01
  -2.01232120e-01  8.75343084e-02  1.68842316e-01  1.48263145e-02
   4.31561209e-02  3.58090103e-02  4.37633954e-02  4.98250946e-02
   1.32730538e-02  4.85850163e-02  3.93022336e-02 -6.44998178e-02
  -4.18554842e-02  1.03860654e-01 -2.76891217e-02  5.87751530e-02
  -9.81703488e-05  1.36735231e-01 -7.26373792e-02 -5.88317076e-03
  -2.26184443e-01 -6.78142682e-02 -4.35936116e-02 -1.55518919e-01
   7.18786940e-02 -6.37545884e-02  1.11037545e-01  9.66821273e-04
  -2.22766176e-01 -4.82181087e-02  2.47899443e-02  2.53789034e-02
  -3.75295896e-03 -3.43393981e-02 -1.88573256e-01 -4.97602969e-02
   1.39639184e-01 -1.83286965e-02  1.16614208e-01 -1.84010845e-02
   1.44546360e-01 -4.66402471e-02 -1.69082135e-02 -9.16841440e-03
   8.67118835e-02  1.88138679e-01  6.06533419e-03 -6.11725524e-02
   1.53752221e-02 -7.88616613e-02 -2.24570986e-02 -8.02837685e-03
  -9.08795297e-02  6.88085938e-03 -6.64211065e-02 -1.41215503e-01
  -1.83489844e-01 -1.39577538e-01  8.03998783e-02 -5.49093471e-04
   1.34968549e-01  1.67592485e-02 -2.01778254e-03  1.27664646e-02
   2.48363689e-02  8.85802805e-02  1.37784377e-01 -7.52549991e-02
   2.40521436e-03  4.87101078e-02 -1.09973185e-01 -8.11107904e-02
  -3.30712534e-02 -4.15318199e-02 -3.83358747e-02 -2.44218297e-02
  -7.83812441e-03  1.42347381e-01 -3.24896649e-02 -1.06691860e-01
  -1.85542330e-02 -7.19489157e-02  1.80830751e-02  2.21244469e-02
   6.09217957e-02 -5.50386533e-02 -1.41900145e-02 -2.75863390e-02
  -1.20141298e-01  2.07344800e-01 -3.44853960e-02 -7.75170559e-03
  -2.55867124e-01 -1.20242879e-01  2.75646965e-03  3.59582761e-03
  -1.03345715e-01  1.16734451e-03  4.51322347e-02  1.05919816e-01
  -6.19018562e-02 -6.84219152e-02 -2.28055078e-03  5.99677525e-02
  -3.24235368e-03  8.40012804e-02 -2.63185780e-02 -1.62874721e-02
   6.66022375e-02  2.53120568e-02  2.89092157e-02 -7.96035454e-02]
 [ 4.77503687e-02 -8.79825875e-02 -6.82135746e-02  1.26419058e-02
   8.89389664e-02 -6.96308538e-02  5.92338033e-02  5.09338826e-02
  -3.53533439e-02 -1.25621453e-01  8.55371058e-02 -3.58428098e-02
   7.66820014e-02 -4.42533046e-02 -4.81674150e-02 -2.20326185e-01
  -5.10247089e-02  1.59930572e-01  3.83815579e-02  3.18128876e-02
  -7.47756474e-03  3.81672420e-02 -1.31445765e-01  3.39231417e-02
  -4.85256240e-02  1.98635943e-02  2.33555213e-02 -1.86112858e-02
  -1.46959377e-02 -8.75284523e-02 -2.62750499e-02  8.06458667e-02
  -6.18407284e-05 -1.13469049e-01  1.08736388e-01 -1.90267071e-01
  -2.55392671e-01 -1.41125582e-02 -3.64173763e-02 -1.21300640e-02
  -3.65246926e-03 -8.69811773e-02 -1.75730914e-01 -9.07489434e-02
  -2.42472172e-01 -3.20692435e-02  6.34230860e-03 -3.85440886e-02
  -9.76661295e-02 -4.87520397e-02  1.04956124e-02  9.16826632e-03
   4.87745106e-02  6.59227595e-02 -1.87886059e-02  2.24597305e-02
   4.76616025e-02  1.26854163e-02  2.94821896e-02  1.48829734e-02
  -7.35836162e-04  1.40974343e-01  1.12117827e-01 -2.26484612e-02
  -1.16991915e-01  7.36961365e-02 -3.01711738e-01 -6.07788637e-02
  -5.27038332e-03 -2.06361488e-01  3.77163179e-02 -5.54065108e-02
  -5.16370088e-02 -1.66808367e-01 -6.06850907e-02  9.68728960e-03
  -1.92721024e-01 -9.22910571e-02  4.91873324e-02 -8.91950801e-02
  -2.17443146e-02  2.91393567e-02 -1.29226178e-01  1.81424140e-03
  -5.14343530e-02 -1.40165212e-02 -5.72128817e-02  2.81157512e-02
  -2.14423060e-01 -7.83765316e-02 -5.80552965e-02  6.10688068e-02
   4.43478785e-02 -6.49501979e-02  2.54610498e-02 -2.09315702e-01
  -7.82642737e-02 -2.76715793e-02 -4.17862311e-02 -6.65258169e-02
  -9.72418785e-02  1.01532890e-02 -8.84173661e-02  2.40067355e-02
  -8.78742784e-02  8.47243890e-02  9.95681211e-02 -2.86209062e-02
  -2.68470019e-01 -1.21743896e-03  2.08347198e-02  6.27056733e-02
  -1.75551809e-02  3.24870124e-02 -4.41657491e-02  2.39998698e-02
   5.85670918e-02 -6.13628654e-03 -1.06144771e-02 -6.84905276e-02
  -3.02979304e-03  1.59223378e-02 -1.98516659e-02 -1.17021846e-02
   4.89736423e-02 -5.88901192e-02 -4.45193611e-02  1.71009973e-02]
 [-4.61883470e-02 -2.19471715e-02 -7.24810660e-02 -3.71836610e-02
  -3.22998837e-02 -1.36662507e-03 -4.59605865e-02 -5.10417148e-02
  -6.45329356e-02  1.76297918e-01 -1.56121716e-01  9.89001617e-03
  -1.48007870e-01  1.50609501e-02 -9.55769699e-03  1.42857850e-01
  -1.59811363e-01 -3.16658616e-01 -8.85307118e-02 -2.44934577e-02
  -5.75215230e-03  1.24632366e-01 -5.25986180e-02 -7.50896037e-02
  -2.50971913e-02  4.01155651e-03 -2.15243064e-02  3.45857851e-02
   4.88403849e-02 -5.89765944e-02  4.05170433e-02  1.34775177e-01
   6.89592771e-03  1.21672489e-01  1.74016114e-02  1.34191373e-02
  -7.94885680e-03 -4.19855714e-02 -9.37833413e-02 -8.86990782e-03
   5.04411198e-02  3.79228517e-02 -1.03089310e-01 -1.64976299e-01
  -2.03503519e-01 -6.53612092e-02 -3.32818814e-02  3.20218280e-02
   1.98124778e-02 -4.52930070e-02 -9.44117084e-02  1.36933876e-02
   1.28912657e-01 -1.41593724e-01  3.12859952e-01  6.92438483e-02
   2.26242095e-01  3.62875126e-02 -4.07880805e-02 -5.73028512e-02
  -4.07761969e-02  4.78285551e-02 -1.39283001e-01  1.98793784e-02
   6.13237964e-03 -2.34204888e-01  9.53765586e-03  3.74553725e-04
   2.38203499e-02 -3.41424614e-01 -4.07035947e-02  2.22745746e-01
  -3.72529142e-02  7.93839470e-02  9.34835970e-02 -9.90440920e-02
   1.38142824e-01 -2.16861591e-02  3.05625470e-03  9.01366547e-02
  -4.41475175e-02 -7.51708671e-02  2.16267705e-01 -3.08235064e-02
   5.75706139e-02  1.37430564e-01 -6.85889795e-02  4.52282168e-02
   7.40120485e-02 -6.19455725e-02  1.41663373e-01 -3.05751473e-01
  -8.69126059e-03 -1.46252036e-01  4.12773490e-02 -4.68600914e-02
   3.00014913e-02 -1.94879726e-01 -7.38866702e-02 -1.78639572e-02
   1.86934933e-01 -8.78273547e-02 -2.67957728e-02  3.87805179e-02
  -1.43667951e-01 -1.29447579e-01 -1.32545337e-01 -6.11526631e-02
  -7.31998235e-02 -2.43680552e-01 -4.66664732e-02  3.92419994e-02
   6.65903389e-02 -5.61736375e-02  3.91428806e-02  2.28158925e-02
   1.78985093e-02 -1.88553315e-02  2.49643624e-02  5.62288333e-03
  -1.45504586e-02 -2.07288906e-01 -3.02269198e-02 -5.85072413e-02
  -1.25775542e-02 -5.26755787e-02 -5.67460880e-02 -1.24541973e-03]
 [-9.92964283e-02 -5.97184226e-02 -4.20905575e-02  7.33137410e-03
  -1.38509750e-01  1.45981953e-01  4.36560288e-02 -5.68420738e-02
  -7.58346841e-02  2.89736658e-01 -3.78062397e-01  3.31626274e-02
   3.17959279e-01  2.03267746e-02  7.04885926e-03 -6.06706887e-02
  -5.90405799e-02 -5.42155243e-02 -3.24245304e-01 -8.95436946e-03
  -4.39292639e-02  3.59499276e-01 -1.11209348e-01  7.46969506e-03
  -4.01840955e-02  2.75546592e-02 -3.08389552e-02  5.04447743e-02
  -4.87834355e-03 -3.68935525e-01 -5.46922982e-02 -5.82240783e-02
   3.78890000e-02 -3.01163137e-01  1.44759282e-01  9.00207162e-02
   9.38830674e-02  1.74266063e-02  3.59987989e-02 -7.69059733e-02
  -3.67943533e-02  3.99072208e-02  8.96685869e-02  1.01179384e-01
  -1.87344119e-01 -6.90704286e-02 -6.71602320e-03 -1.79306325e-02
   2.46056482e-01  2.90886983e-02  1.81366745e-02 -2.24332362e-02
  -1.37664974e-01 -2.83580273e-01 -1.65434971e-01 -9.07599032e-02
  -4.31256276e-03 -1.74966007e-02 -2.08083391e-02 -3.79026798e-03
  -9.95366275e-02 -1.08894654e-01 -1.22280596e-02 -4.57507409e-02
  -3.00505906e-02 -1.84330359e-01  1.09274112e-01 -5.73378317e-02
   2.78101489e-02 -2.36304909e-01 -1.83870445e-03  2.10833952e-01
  -3.58926684e-01  8.98107048e-03  7.22622201e-02 -3.89880091e-02
   1.09684579e-02  4.83765155e-02 -3.93767282e-02 -8.91804993e-02
  -6.12467453e-02 -2.29872197e-01 -3.21577266e-02  1.66172422e-02
  -1.56694010e-01  2.58155942e-01 -1.08555466e-01 -3.97978798e-02
  -1.50877520e-01  2.99212821e-02  2.56806072e-02  8.84287655e-02
  -4.31197956e-02 -4.28771794e-01  3.11965644e-02 -1.79989710e-01
   3.30575332e-02 -2.06347182e-01 -5.10831401e-02  7.41813425e-03
   1.31980643e-01  3.29169594e-02 -6.30472526e-02  1.35383056e-02
   7.43737891e-02  1.54686958e-01 -1.58546895e-01 -9.28755850e-02
  -2.41724983e-01 -9.14058164e-02 -6.25098646e-02 -2.78240204e-01
  -1.63282573e-01 -1.54987341e-02  7.04902560e-02 -3.39719027e-01
   3.90561484e-02 -5.45260310e-02  2.57125627e-02  2.96864867e-01
   1.94289070e-02 -6.52030706e-02 -1.99565273e-02  4.75591049e-02
  -2.17293262e-01  1.20784696e-02 -5.89901991e-02  3.73496525e-02]
 [-8.39768723e-02 -1.09665608e-02 -5.18295206e-02  1.13731883e-02
   1.82951719e-03 -1.99593082e-01 -7.97025040e-02 -2.57688295e-02
  -4.21320423e-02  1.88348740e-01 -1.76033109e-01 -5.07870466e-02
  -8.35705772e-02  4.08219509e-02  2.76819561e-02 -4.85530943e-02
   1.85952261e-02 -1.55719444e-01 -5.56064881e-02 -6.77348748e-02
  -7.17122050e-04  1.54116852e-02  1.44167347e-02 -6.57970309e-02
   1.63316261e-02  1.97370686e-02 -4.57425900e-02  3.88428681e-02
   4.56111953e-02  1.82543740e-01  2.90581994e-02 -1.52456790e-01
  -9.29785147e-02  1.60336688e-01  2.14097518e-02 -1.76367700e-01
  -1.62521750e-01 -5.47663979e-02  2.93030473e-03 -5.05096018e-02
   2.29313262e-02  5.95392147e-03 -6.30177259e-02  1.50569305e-01
  -1.45430654e-01  4.21253666e-02 -1.82090010e-02 -3.09667420e-02
   2.15558738e-01 -5.96124940e-02 -3.77907790e-02 -2.48158574e-02
  -4.19679880e-02 -2.88198590e-01 -3.59288692e-01 -2.38457695e-02
   5.90324998e-02 -6.95910603e-02  7.74005055e-03  3.92972343e-02
   1.54382616e-01 -1.50023043e-01 -1.79052189e-01 -7.19555318e-02
  -4.73359153e-02 -8.55864584e-02 -1.34072244e-01  3.61675881e-02
  -5.10272272e-02  1.31737992e-01  3.67849283e-02  1.53392881e-01
  -1.64572716e-01 -2.16176435e-01 -2.21779123e-01 -2.04105582e-02
   1.43218592e-01  8.34253579e-02  3.34117822e-02  1.27815092e-02
  -6.04557209e-02  7.79337883e-02  7.81592950e-02  1.75546091e-02
  -1.37033537e-01  3.63733023e-02  1.55385688e-01 -3.80025543e-02
  -2.54409760e-01 -6.27067909e-02 -7.05886185e-02 -1.28404662e-01
  -1.64363924e-02 -1.75683230e-01 -6.50885031e-02  1.10436849e-01
   1.17240725e-02 -9.64595601e-02 -5.39590754e-02  2.36883834e-01
   2.00186670e-01 -1.78273976e-01  4.45843600e-02  9.48525686e-03
   5.26580103e-02 -2.19036825e-02  1.51850492e-01 -5.20612821e-02
  -3.26710083e-02 -1.86541364e-01  3.83079685e-02 -5.54358736e-02
   9.24871042e-02 -5.66618191e-03 -3.14726457e-02 -1.44049048e-01
   1.28915459e-01  1.12267165e-02 -5.09747043e-02  5.58198318e-02
  -1.91821791e-02  1.15222028e-02 -5.59665039e-02 -1.17343403e-02
  -9.26738158e-02  5.00875898e-03 -3.30652073e-02 -6.85431585e-02]
 [-9.26915184e-02 -5.06962277e-02  7.14848489e-02 -7.52192136e-05
   1.02710485e-01 -2.50780135e-01  1.60795823e-01 -1.52240423e-02
  -6.50110096e-02  9.85315964e-02 -2.01707389e-02  2.97327060e-03
   4.88564335e-02 -5.78558370e-02  5.97924143e-02 -1.01893924e-01
  -5.24922460e-02  2.24123508e-01 -7.47074783e-02  2.14501470e-02
   6.04582243e-02 -1.71461359e-01 -1.85483750e-02 -1.90207977e-02
  -2.85892766e-02  6.29218342e-03  3.12154684e-02 -4.69671637e-02
  -4.03290577e-02  1.00642830e-01 -1.54660735e-02 -8.26975629e-02
  -5.97818047e-02  5.84147945e-02 -1.74732402e-01 -7.01492466e-03
  -8.82566199e-02  3.68137024e-02  1.83953978e-02  5.19674085e-02
   1.77277494e-02  5.84593683e-04  7.42738768e-02  3.66082788e-02
  -6.61616847e-02  1.86859183e-02 -1.97909633e-03 -4.92002219e-02
  -8.84723961e-02 -5.41843809e-02  1.38318121e-01  2.32380629e-02
   7.82640278e-02 -1.47528633e-01 -9.75645985e-03 -1.10934451e-01
   1.00683205e-01  8.44450761e-03 -8.02930817e-03  2.80563775e-02
   2.07763389e-01  4.48025763e-02 -1.50172813e-02 -7.14549283e-03
   6.11390453e-04 -8.67678374e-02  1.24727696e-01 -4.77539264e-02
  -9.75913368e-03  1.24203473e-01  1.60302967e-04 -2.24802960e-02
   1.10302875e-02  9.01644751e-02  8.66934955e-02 -5.45763299e-02
   1.06636815e-01  1.14344165e-01 -3.16020101e-02 -6.61719143e-02
   1.24738403e-02  1.00215204e-01 -5.80534451e-02  1.49290273e-02
   1.18246339e-01  1.83916595e-02  4.31359336e-02  5.90923568e-03
   7.70431459e-02 -9.94630717e-03 -1.47839546e-01  9.75049213e-02
   3.48704197e-02  1.31250158e-01  5.87553531e-02 -1.13234803e-01
  -1.04163969e-02  1.65205020e-02  8.37013870e-03 -2.41371363e-01
  -6.65732399e-02  2.63843816e-02 -1.41269833e-01 -4.11972702e-02
  -1.74804941e-01 -3.56487073e-02  1.51015505e-01 -8.07328373e-02
  -1.78778201e-01 -2.73091793e-02 -5.57597131e-02 -8.10845420e-02
  -2.13891175e-02 -8.14901069e-02  2.53567938e-02 -6.60338486e-03
  -1.41477417e-02 -9.64682400e-02 -1.04526412e-02  1.81117684e-01
  -2.21699867e-02  2.11133733e-02  5.47610447e-02  2.30103545e-02
   1.48791045e-01 -4.19609360e-02 -3.84552255e-02  3.62006128e-02]
 [-4.17899527e-02 -3.99302952e-02 -1.10950619e-01  4.00891760e-03
   2.06987746e-02 -1.13818541e-01 -1.76078957e-02  2.02455502e-02
   3.52984779e-02 -1.47098720e-01  1.23932824e-01  1.46341147e-02
  -8.10148835e-04  1.64285805e-02 -6.36238456e-02 -1.45110190e-01
  -1.95264965e-01  2.44542062e-02 -1.80325374e-01  2.75178347e-02
  -1.75099112e-02 -3.73814665e-02 -5.12694567e-02 -6.64301291e-02
   3.72985601e-02 -2.00156458e-02  3.90874147e-02 -4.54919562e-02
   1.16461152e-02  2.16663498e-02 -6.94422871e-02 -8.68402645e-02
  -4.08623368e-02 -2.04162262e-02 -5.57603687e-02 -9.60732922e-02
  -5.23873679e-02 -3.23500857e-03 -5.18565625e-02 -8.19844604e-02
   1.73023403e-01 -5.52592576e-02  9.60777700e-02  1.26098832e-02
  -1.65940315e-01 -3.94092649e-02  4.26544575e-03  1.99523028e-02
   7.76287615e-02 -4.26916964e-02  3.17051448e-02 -2.70245988e-02
   1.63245291e-01  4.77015041e-02  1.99172720e-02  8.85137990e-02
   6.11999966e-02 -3.89709487e-03 -3.29304188e-02  1.86740942e-02
   2.56738573e-01  7.58231059e-02  7.81056806e-02 -4.66479920e-02
   4.86111529e-02 -2.36749817e-02 -5.89547120e-02  1.16863679e-02
   1.78101622e-02 -1.77037209e-01  2.27721408e-02  7.06318300e-03
  -2.62070112e-02 -9.49454587e-03  5.54815084e-02  1.06558934e-01
   2.80041814e-01 -3.74322720e-02  2.27058474e-02 -1.17021360e-01
  -3.12202554e-02  8.68857726e-02  1.85562029e-01 -7.33889043e-02
   6.50375634e-02  5.94374239e-02 -1.42747089e-01  1.09936744e-02
   2.28965189e-02  3.94619405e-02  9.61668566e-02  3.60843004e-03
  -4.68343124e-02  1.83621213e-01  1.61271542e-02 -2.17830092e-01
  -7.17681572e-02  2.33560987e-02 -3.06244101e-02  6.24892116e-02
   1.64073065e-01  1.00298703e-01 -1.45122102e-02 -5.33979014e-02
  -2.46522110e-02  8.28130841e-02  1.93942729e-02  9.85481311e-03
  -4.88780230e-01 -2.67193075e-02  3.57703976e-02  1.31104767e-01
   5.77858835e-02 -1.46957790e-03 -1.33544765e-02 -7.62690185e-03
  -3.10865380e-02 -5.99738397e-02  1.48315672e-02 -7.96869248e-02
  -3.41317132e-02  1.29696786e-01  2.17544287e-02 -8.04927107e-03
   6.16423860e-02  9.36276093e-03 -5.78881353e-02  6.68521645e-03]
 [-5.35109965e-03 -1.74810123e-02  2.05914918e-02 -4.13563922e-02
   7.60105699e-02 -6.15046658e-02 -5.44345081e-02  6.67344332e-02
   1.63457654e-02 -2.37665474e-02  5.02114445e-02 -1.73611268e-02
  -9.73156244e-02 -2.04605572e-02 -1.25861121e-02 -1.91742226e-01
  -7.36700073e-02  6.95132315e-02 -7.68533424e-02 -1.90568659e-02
  -5.15512563e-03  5.93374372e-02 -2.11268753e-01 -6.58481047e-02
  -3.68065350e-02  3.51949856e-02  4.05385606e-02 -3.41294184e-02
  -6.34680539e-02 -1.33834913e-01 -7.49149248e-02  2.11435571e-01
  -4.95171286e-02 -5.43841086e-02  2.37706110e-01 -8.36421028e-02
  -1.64216191e-01 -6.68268353e-02  1.81389377e-02  1.35087343e-02
   3.11260968e-02 -9.26198512e-02 -1.54499039e-01  9.87620875e-02
  -2.29717597e-01 -6.86890446e-03 -6.66806921e-02 -6.53692335e-02
  -1.54160455e-01  1.18719079e-02 -1.09990619e-01  3.82072432e-03
  -5.30727059e-02  9.32566375e-02  2.68420354e-02  1.30802438e-01
   3.29674280e-04 -6.46072924e-02  3.88508849e-02  1.65459476e-02
  -6.79347813e-02  3.25093307e-02  1.42878115e-01 -5.93452435e-03
  -6.81703910e-04  1.28166690e-01 -3.08163762e-01 -8.24114531e-02
   1.05567193e-02 -1.17468297e-01 -3.28636058e-02  7.94046279e-03
  -6.08368516e-02 -1.79743320e-01 -2.34946787e-01 -6.33344008e-03
   7.88588598e-02 -7.73649961e-02 -4.75180075e-02 -9.65927988e-02
  -4.00706381e-03  4.32216302e-02 -2.40503326e-01 -1.03812823e-02
   9.70033929e-02 -1.39823273e-01 -4.76438068e-02 -8.44831392e-02
  -1.00360222e-01 -4.06657942e-02 -1.45222902e-01  7.13399127e-02
   1.62693951e-02  5.46343178e-02 -4.50018048e-02 -1.14717342e-01
   3.80118447e-03  6.37047142e-02 -7.34693706e-02 -1.16962843e-01
   5.46623506e-02  4.22512628e-02 -1.21725760e-01 -6.33990578e-03
  -9.16440447e-04  2.54420564e-02  9.03605483e-03  3.23905461e-02
  -1.74025089e-01 -3.51308547e-02 -3.39805745e-02  3.53058316e-02
  -8.49782303e-02 -3.86134759e-02  1.05495576e-03 -3.09470817e-02
   1.07240587e-01  3.12123336e-02 -1.09477649e-02 -5.71968593e-02
   4.35049571e-02 -6.00454397e-02 -1.19370194e-02  1.08025055e-02
   9.05269682e-02 -6.97333738e-02 -2.38170680e-02  3.10334321e-02]
 [ 4.93327864e-02 -7.57168829e-02  2.01661754e-02  1.40692191e-02
   7.28967562e-02  9.28406790e-02 -1.16201103e-01 -2.30098218e-02
  -1.22507468e-01  6.16747662e-02 -6.43771365e-02 -3.08496244e-02
  -3.59795332e-01 -4.66453843e-03  3.72596905e-02 -1.43754676e-01
   1.06686532e-01 -2.67055213e-01  6.32714629e-02 -1.11343674e-02
  -4.33767326e-02  1.64650515e-01  1.33072808e-01 -5.84274456e-02
   2.99711991e-03 -5.84536307e-02  2.83640251e-02 -2.82741953e-02
   5.04066050e-03  3.78038064e-02 -4.77048606e-02  6.20949045e-02
  -2.64843423e-02  2.29103982e-01 -1.94284171e-01  1.97207481e-01
   2.58474462e-02 -4.67267483e-02 -3.92242745e-02  1.27479946e-03
   5.78321926e-02  1.81401297e-02 -2.70976219e-02 -1.08300142e-01
   2.21860632e-01  4.46607135e-02 -4.10750210e-02 -4.53859977e-02
  -1.30322890e-03  7.79675366e-03 -1.27482936e-01 -5.41452765e-02
   2.22969558e-02  9.24774036e-02  1.29588202e-01  4.38480303e-02
   3.39696743e-02 -7.47284964e-02 -1.31392647e-02 -5.42535633e-03
  -4.84977812e-02 -1.78586900e-01 -2.60507613e-01 -6.52671307e-02
  -3.11819240e-02 -5.61285913e-02  1.00634381e-01 -5.59679046e-02
  -6.38755932e-02 -9.24490616e-02 -1.32165384e-02  7.55379722e-02
  -2.76636370e-02  1.61152519e-02 -8.91458467e-02  4.40660454e-02
   2.68884391e-01  3.63632254e-02  3.51164415e-02  2.42199048e-01
   1.47708943e-02 -1.66956102e-03  9.13274437e-02  4.64915745e-02
   8.63446146e-02  1.10007986e-01  3.55795026e-02 -7.07494169e-02
   8.65226015e-02 -1.51731586e-02  5.20422161e-02 -2.67558903e-01
  -6.36487752e-02 -2.15472025e-03 -5.04367240e-02 -1.24650441e-01
   3.78989913e-02 -3.44203115e-02 -3.51193920e-02  1.07296325e-01
   1.46734655e-01 -6.82074353e-02  5.91335371e-02  1.25835650e-02
  -1.61576658e-01 -6.60983026e-02 -2.19532952e-01 -4.53333221e-02
  -1.58493280e-01  4.35170159e-02 -9.05844849e-03 -1.18702367e-01
   1.15160130e-01 -2.68846601e-02  5.53125888e-02  4.23832200e-02
  -2.08363608e-02  3.91597636e-02  2.20250729e-02  1.50528893e-01
  -7.19925612e-02 -3.53627980e-01  1.43863517e-03  1.69107784e-02
  -2.13125423e-01  1.70237571e-02 -3.91149819e-02  3.00065409e-02]
 [ 2.70145256e-02 -1.80978868e-02 -5.08191176e-02 -7.48596787e-02
  -1.67956635e-01 -6.26256987e-02 -2.60599226e-01 -5.54160066e-02
  -5.73598295e-02 -5.07557094e-02 -2.27218360e-01 -4.14406136e-02
   1.10515952e-01 -5.55923805e-02 -3.40933800e-02 -5.06473668e-02
  -1.68887541e-01  1.51375473e-01 -3.50551099e-01  2.96756309e-02
  -5.02920598e-02  2.44502574e-02 -3.16643268e-01  4.84912582e-02
  -4.48034219e-02  1.25646088e-02  1.18899243e-02 -3.27662155e-02
  -7.33496388e-03 -2.65606195e-01 -2.18376294e-02 -1.09200202e-01
  -2.75777616e-02  6.28884286e-02  6.30790442e-02  2.23471329e-01
   3.21147591e-01 -2.83648800e-02  5.86960055e-02  1.47150205e-02
   5.82859851e-02  2.71682609e-02  2.52671868e-01  2.58266609e-02
  -3.70935202e-01 -4.01276462e-02  4.45111506e-02  4.36002435e-03
   1.46018282e-01 -3.38917635e-02 -3.02525401e-01 -4.88127209e-02
   2.77525876e-02 -2.32595429e-01 -3.49915102e-02  7.60917142e-02
   3.50494757e-02 -1.16613312e-02  3.52403708e-02  4.94037308e-02
  -1.82354245e-02  7.69147824e-04  1.61873311e-01  6.10558223e-03
  -2.79836748e-02 -6.77860603e-02  1.75285470e-02  4.35833894e-02
  -3.03723849e-02 -8.62727966e-03 -5.13063297e-02  1.19714020e-02
   2.21105162e-02  2.00480327e-01 -4.36228439e-02 -1.19626932e-02
  -9.45246071e-02  2.05224201e-01 -3.63766849e-02 -2.12121770e-01
   2.15381179e-02 -2.75524914e-01 -1.09638289e-01  3.82427610e-02
   1.07264511e-01  4.68123049e-01 -5.42611033e-02 -1.73926950e-02
  -5.97377680e-02 -1.12886548e-01  1.48970410e-01 -1.41773298e-01
  -4.21620496e-02 -1.27845600e-01  1.74321830e-02 -1.27079621e-01
   1.90519132e-02 -1.48263440e-01 -8.17407221e-02 -3.82035136e-01
  -1.44548165e-02  2.99268751e-03 -8.25307742e-02  4.32333024e-03
   6.82764351e-02  2.53168315e-01 -1.01898588e-01 -1.67496838e-02
   1.97120216e-02 -1.71454940e-02 -4.04315777e-02 -1.99487224e-01
  -1.59185744e-04  4.75175772e-03  6.48831427e-02  1.94751583e-02
   1.35303944e-01 -6.44609630e-02  4.97011282e-02  1.32034287e-01
   2.63163820e-02  1.57915115e-01 -4.81714234e-02  4.97251377e-02
  -1.95366994e-01  3.28053869e-02  2.16617603e-02  4.09301780e-02]
 [-4.89909537e-02  3.18278447e-02  2.22131051e-02 -4.73276526e-02
   7.68807754e-02 -1.94944128e-01  9.54571068e-02 -4.34966646e-02
  -6.06975965e-02  1.68546274e-01 -8.51729810e-02 -3.78435031e-02
   3.02785039e-01 -3.65216061e-02  3.39775160e-02 -1.53939938e-02
   1.00750453e-03 -1.16010355e-02 -3.39477003e-01  7.55494973e-03
  -3.80226597e-02 -7.47580454e-02  3.04886490e-01 -3.92951630e-02
   1.07278153e-02  3.07229627e-02  3.99999768e-02 -3.06287352e-02
  -5.51053435e-02  9.19331610e-02 -3.01279780e-02 -1.36709660e-01
  -4.57082838e-02 -1.61050215e-01 -1.71787933e-01 -3.01369369e-01
   1.67466909e-01  6.60758407e-04  1.23905879e-03 -4.93166000e-02
  -7.57983476e-02  8.75637401e-03 -9.88865718e-02 -8.11235309e-02
  -3.53728473e-01 -3.04517113e-02 -6.22812435e-02  3.27495567e-04
   2.11373121e-02  1.34357787e-03  1.24855027e-01 -1.82013996e-02
  -9.86132920e-02 -2.81716466e-01 -1.86252445e-01  1.12999469e-01
   1.05123460e-01 -1.54200755e-02 -1.00560421e-02  1.02095129e-02
   2.24000275e-01 -9.46014374e-02 -2.24653408e-02 -1.29217766e-02
  -3.85007001e-02 -3.27075571e-01 -2.64894933e-01 -2.66374871e-02
  -7.00924397e-02  1.38111010e-01  3.86493839e-02 -5.03555238e-02
   2.77385805e-02 -1.64270159e-02 -4.41580527e-02 -7.88272694e-02
   4.57184315e-02  2.16679603e-01  4.41872813e-02 -2.13873640e-01
  -1.99041087e-02  1.24813810e-01  2.75481269e-02  3.37641910e-02
   7.88184404e-02  8.01584721e-02  1.07648887e-01 -2.10066456e-02
   4.96299565e-02 -6.00867048e-02  1.62096992e-01 -2.23028615e-01
  -3.17525715e-02 -6.07656464e-02  4.25816700e-02 -2.68554419e-01
  -5.50357662e-02 -3.31257768e-02 -8.65340978e-02 -2.77664274e-01
   5.94839752e-02 -1.44716337e-01 -1.00531273e-01  2.09818278e-02
  -7.61090592e-02 -3.29648480e-02 -1.10357143e-01 -3.31513844e-02
  -9.52226203e-03 -1.68424696e-02 -2.64223758e-02  5.06480224e-02
  -4.08813357e-02  2.48217452e-02 -2.11548641e-01 -3.00137997e-01
   7.88478553e-02  1.19277667e-02  1.56044476e-02  8.29695463e-02
  -4.06735353e-02  1.61843240e-01 -2.69916989e-02 -3.07151657e-02
  -9.82427597e-02 -9.72647406e-03 -3.88669968e-02  6.53757295e-03]
 [ 5.49677759e-02 -5.85249178e-02  6.10642582e-02  9.31858495e-02
   1.05908938e-01 -1.63318068e-01  1.79327637e-01 -6.06055111e-02
  -5.33384159e-02  1.92314446e-01 -1.36707038e-01  2.11869515e-02
   9.75106880e-02  3.60840146e-04  7.09796250e-02  1.60092898e-02
   1.89313050e-02 -2.29496695e-02  3.59415002e-02 -4.14543524e-02
  -3.70652154e-02 -4.60034385e-02 -1.07926965e-01 -3.42214550e-03
  -2.10808497e-02 -2.03875005e-02 -4.84360345e-02 -4.07755449e-02
  -3.48981582e-02  1.37523696e-01 -1.41169010e-02  7.92863071e-02
  -5.75983105e-03 -2.19995558e-01 -1.45957917e-01  5.38521446e-02
   4.63393256e-02  1.45130744e-02 -9.46790166e-03 -5.97870164e-02
  -7.18033314e-02 -6.51451945e-03  2.04490066e-01 -1.22886989e-02
  -1.58823937e-01  1.43787498e-02  1.76411103e-02  1.17193907e-03
  -2.19218060e-01 -2.51271985e-02  2.08979566e-02 -2.35899701e-03
  -1.35058723e-02 -3.33196111e-02  1.19511802e-02 -1.59238920e-01
   6.65004253e-02  2.20807455e-02 -8.16820562e-03 -5.25345951e-02
   5.01608625e-02  1.98404156e-02 -1.31322863e-02 -1.28255254e-02
   6.81013986e-02 -5.53598106e-02  2.27246642e-01 -3.79280187e-02
   3.44440192e-02 -7.77149647e-02 -8.48075002e-03 -1.21838205e-01
  -1.55050471e-01 -4.02043872e-02 -2.34596245e-02 -8.27868059e-02
  -8.30531493e-02  1.13582149e-01 -7.33432770e-02 -1.06367268e-01
   2.33530113e-03 -5.18701375e-02  4.85640876e-02  1.99049525e-02
  -3.65637653e-02 -1.67612523e-01 -1.07270658e-01 -3.47123034e-02
   1.94401205e-01 -1.27600515e-02 -8.44482332e-03 -1.97462598e-03
   4.46896292e-02  1.42488912e-01  3.97217534e-02 -7.08921179e-02
   4.48256433e-02  2.23503292e-01  6.87672496e-02  2.78230291e-02
  -6.45717680e-02  2.75872629e-02  5.92413312e-03 -3.61201800e-02
  -5.02268597e-02 -1.67063162e-01 -3.72946598e-02 -4.48180325e-02
  -6.12329058e-02 -1.49470374e-01  5.50973462e-03  6.49669096e-02
  -1.02362521e-01  2.76104044e-02  1.78092308e-02 -1.81662604e-01
  -6.81217462e-02 -1.05738677e-02 -3.97879779e-02  4.52245362e-02
  -4.24503069e-03  6.05356731e-02  5.61660230e-02  1.46594166e-03
  -3.19519900e-02  1.16101746e-02 -2.83730756e-02  3.60535341e-03]
 [-1.65208485e-02 -4.75476198e-02 -6.93036318e-02  3.28528462e-03
   1.08390331e-01 -1.95079982e-01 -2.73247212e-02 -3.40795331e-02
  -4.22784127e-02 -2.99849957e-02 -9.05353725e-02 -8.04750063e-03
  -2.66566008e-01  3.40177268e-02 -3.72486003e-02 -1.60236299e-01
   1.42919496e-01  6.24218397e-02 -1.25147805e-01  1.30261546e-02
  -1.82620231e-02 -2.67263740e-01 -1.26655862e-01 -7.29315951e-02
   8.51860456e-03 -1.26973800e-02  1.89959574e-02  1.01964949e-02
  -1.32934586e-03  1.08051367e-01 -7.31659383e-02  2.61211544e-02
  -4.62715700e-02  2.68342704e-01 -3.13771889e-03 -6.66415468e-02
   5.19008040e-02 -4.05400544e-02 -1.11981826e-02  1.41829187e-02
   5.31409867e-02  4.80632484e-02 -1.63358465e-01  1.74210489e-01
  -2.36650378e-01 -2.22539082e-02  2.28766575e-02  3.88449952e-02
  -9.33947191e-02 -3.16837281e-02 -2.41402816e-02 -1.23230731e-02
   1.97525118e-02  1.54006958e-01  9.68499109e-02  5.20626940e-02
   7.19221607e-02 -5.12464195e-02 -1.38758216e-02 -3.77662033e-02
   2.12748021e-01  7.14989454e-02  2.76118852e-02  2.62514446e-02
  -8.36423412e-03  1.09220065e-01  1.87051982e-01  4.74665593e-03
  -1.33985328e-02  2.84499638e-02 -4.98079695e-02 -4.02889639e-01
   4.26364876e-02 -5.72917536e-02  6.47516027e-02  5.73707707e-02
   1.72848418e-01 -1.74328744e-01 -1.64785217e-02 -7.04505816e-02
   3.39568853e-02  1.17762081e-01  7.64824450e-02  3.54081802e-02
  -5.44704348e-02 -1.40181005e-01 -1.29433468e-01 -3.25271189e-02
   1.64661810e-01  1.51360955e-03 -6.08417019e-03 -1.31330878e-01
  -4.78458777e-02 -7.39022810e-03  3.76761728e-03 -2.08720729e-01
  -2.32262593e-02 -8.55648294e-02  8.50718003e-03 -2.11384380e-03
   3.37868184e-02  7.88680390e-02  7.65537769e-02  3.97561025e-03
   1.51608646e-01  1.36499316e-01 -6.81414828e-02  1.91948377e-03
  -2.68139631e-01 -2.48322770e-01 -4.82658483e-02 -3.76640409e-02
   3.31510492e-02  3.02955392e-03 -3.38957040e-03 -3.02659459e-02
   1.52745426e-01 -6.89398497e-02  4.19053398e-02  3.10394503e-02
  -4.38846238e-02 -5.14895469e-02  5.44967912e-02  2.49139313e-02
   7.98208416e-02  7.05812639e-03  3.73097770e-02 -3.52051780e-02]
 [ 6.80548996e-02 -9.56070982e-03 -8.60940665e-02 -8.93240720e-02
   1.96710899e-02 -3.51629257e-02  4.73129191e-03 -3.87838408e-02
  -2.69712359e-02 -1.42611355e-01  4.58161235e-02 -5.45590110e-02
  -8.63888860e-02 -2.77031166e-03 -7.37421289e-02 -1.27463490e-01
   3.38649154e-02  1.38272509e-01  2.52946634e-02  3.93380821e-02
   4.46119532e-02 -2.67004333e-02 -8.73970613e-02  1.74634103e-02
  -9.55114793e-03 -1.01915551e-02  1.87099520e-02 -6.70548156e-02
   2.12321915e-02  1.84712932e-03  2.90773213e-02  1.28535867e-01
  -2.08376832e-02 -8.97160918e-02  6.54338524e-02 -1.42308071e-01
  -7.01393113e-02 -8.60397667e-02  5.63366385e-03 -8.89979824e-02
   1.32792011e-01 -5.21325842e-02 -3.18688214e-01  1.05302250e-02
  -8.79718214e-02  2.01786347e-02 -2.89924778e-02 -5.17441221e-02
  -4.44723889e-02 -2.08379254e-02  5.22724725e-02  1.79836352e-03
  -1.71988681e-02  4.09694873e-02 -2.02823356e-02 -2.66995896e-02
  -3.05590220e-02  2.17172075e-02 -1.94679238e-02  2.93753576e-02
  -1.07245862e-01 -7.99639076e-02  4.73412573e-02 -1.16194105e-02
  -4.36609425e-03  8.97753090e-02 -1.26597703e-01 -2.34736688e-02
   1.22984741e-02 -8.50983337e-02  8.05750303e-03 -7.61258900e-02
   4.14409153e-02 -1.83551326e-01 -1.42763957e-01  1.44280996e-02
  -1.03187837e-01 -7.61079714e-02  1.03751654e-02 -7.99219590e-03
  -5.50492816e-02  6.60610124e-02 -6.80046761e-03 -4.57177870e-03
   5.27609549e-02 -1.19532689e-01 -4.82301973e-02 -5.62129505e-02
   4.28424142e-02 -3.56947049e-03 -1.73043415e-01  9.30834413e-02
   6.80477917e-03  1.96638540e-03  2.05643196e-02 -1.46602541e-01
  -3.05492133e-02  1.68975532e-01  1.11318296e-02 -3.20134014e-02
  -5.88101335e-02  1.39357850e-01 -1.13154382e-01 -5.09875752e-02
  -4.18083295e-02  4.69611166e-03  7.57443383e-02 -6.51092306e-02
  -1.89636439e-01  1.81898307e-02  2.70534167e-03  3.60427797e-03
  -5.79444356e-02  1.09506259e-02 -5.33325747e-02  8.65599886e-02
   5.49568124e-02  3.93175371e-02 -2.50048079e-02 -6.82668015e-02
  -1.73544940e-02  8.35195705e-02 -3.81846074e-03 -4.76626307e-02
  -6.55555800e-02 -4.75603826e-02 -5.56921288e-02 -1.19164534e-01]
 [ 4.90926672e-03 -6.41060770e-02 -8.54120851e-02 -4.13003303e-02
   2.22814898e-03  2.09127188e-01 -4.92271446e-02 -4.92428094e-02
  -9.42175314e-02  6.83204755e-02 -1.38333246e-01 -5.23595437e-02
  -4.95927557e-02  1.43971923e-03 -8.45933259e-02 -5.96837364e-02
   1.61062613e-01 -1.55803740e-01 -1.62950337e-01 -7.17230588e-02
  -1.65973566e-02 -4.09710631e-02  1.70253277e-01  1.26036517e-02
  -3.67382206e-02 -6.14759549e-02  2.52869576e-02  2.90778037e-02
  -4.75753173e-02 -9.76187587e-02 -1.19362110e-02  9.44949612e-02
   2.67582051e-02  1.58141837e-01 -1.80891380e-01  1.80946499e-01
  -4.55494486e-02 -5.61148189e-02 -6.93506375e-02 -1.55203834e-01
  -2.07944848e-02 -1.45650248e-03 -6.79267943e-02  1.02886982e-01
   2.89270096e-02  2.88375858e-02  3.31937820e-02  1.99284852e-02
   5.16691506e-02 -1.78837907e-02 -1.43508971e-01 -5.58701716e-02
   2.47342989e-01 -1.23879366e-01  4.12091091e-02 -6.36766627e-02
  -2.62062222e-01  7.45479297e-03 -2.37823860e-03 -2.77573969e-02
  -2.35031620e-01  4.82972525e-02 -2.96597660e-01  1.73563100e-02
  -8.47104490e-02 -1.12482592e-01  4.28010337e-02 -4.76832390e-02
   5.64782545e-02 -2.01713052e-02 -1.15694972e-02  4.42645364e-02
  -1.77390233e-01  2.53924243e-02  1.69914274e-03  5.13100810e-02
  -1.73900779e-02 -6.77835941e-02  5.76613098e-03  1.12384029e-01
  -1.99198090e-02  2.18171049e-02  5.94595186e-02  3.86253633e-02
  -9.39512402e-02  2.31472380e-03  3.06991506e-02  6.64600497e-03
   5.15674427e-03 -4.91832159e-02  5.92912957e-02 -2.43288845e-01
   7.36137200e-03  6.01515621e-02 -4.49770801e-02 -5.16503267e-02
  -7.12243095e-02  2.16407385e-02 -1.80767477e-02 -1.19878503e-03
   1.16800601e-02 -1.51908904e-01  9.44296420e-02 -6.64411113e-02
   3.05017363e-02 -1.59347832e-01 -9.23733190e-02  3.83932963e-02
  -1.33060977e-01 -1.41021281e-01 -6.28996119e-02 -1.18099146e-01
   6.44056648e-02  1.64677706e-02 -3.61811742e-02 -3.79890092e-02
  -4.91392240e-02 -9.92005225e-03 -2.79918555e-02  9.35655683e-02
  -3.43790911e-02 -1.53489843e-01 -1.06575796e-02 -1.21964319e-02
   2.15368271e-02 -2.27452745e-03 -5.39800301e-02 -1.86200533e-02]
 [ 4.37068529e-02  2.63730753e-02 -7.76522607e-02  1.68533847e-02
  -9.28297192e-02  7.89966658e-02 -3.83141190e-02  3.78704108e-02
  -4.81623635e-02  8.48479345e-02 -2.24713787e-01  1.29991295e-02
  -7.03028291e-02 -3.87938619e-02 -4.37168069e-02  1.89319570e-02
   7.40034431e-02  1.94665596e-01 -2.95889437e-01 -8.01652484e-03
  -1.82839055e-02  2.94226468e-01 -1.60778567e-01  5.53077869e-02
  -2.85288356e-02 -4.27977182e-02 -4.81102876e-02  1.69460587e-02
  -4.20252644e-02 -5.84946930e-01 -8.08875915e-03 -1.16293527e-01
  -3.50305922e-02  2.17707932e-01  2.76226640e-01  1.83937639e-01
   8.12489241e-02  3.14320400e-02 -3.79865244e-02  1.00768112e-01
  -4.10436206e-02  2.10762806e-02  2.00002402e-01 -1.14450909e-01
  -8.55990425e-02  1.98799875e-02 -5.70639856e-02 -7.06570372e-02
  -5.04814833e-02 -3.69018340e-03 -2.95080155e-01 -4.60247621e-02
   1.89788803e-01  5.53607978e-02  2.28003524e-02  9.80612487e-02
  -7.70468190e-02  5.96495904e-02  1.08110951e-02 -8.07038508e-03
  -1.94239914e-02  1.03769191e-01  2.70235151e-01  3.44303809e-02
   1.58277638e-02  2.52928168e-01 -9.63958912e-03 -6.05665296e-02
   9.13067162e-03  3.29376549e-01 -5.77526838e-02  2.07628965e-01
   2.63698667e-01  4.30970937e-02 -1.03146425e-02  6.13481924e-02
   2.76787013e-01 -9.82813090e-02  4.74326611e-02  6.14155345e-02
  -7.99958035e-03 -3.02763164e-01 -1.10857263e-01 -7.06762150e-02
   2.34273866e-01  3.53978425e-01 -9.41978246e-02 -3.49047147e-02
  -2.33809024e-01 -2.39081886e-02 -3.03343181e-02  3.75729576e-02
  -4.87889610e-02 -2.51719832e-01  2.07085796e-02  1.99253678e-01
   3.39291915e-02 -1.60506830e-01 -1.58206914e-02 -3.87482107e-01
   5.47306947e-02  1.33143425e-01 -1.04039855e-01 -2.82855872e-02
  -4.24023978e-02  2.84730226e-01 -1.41245261e-01 -2.14149291e-03
  -3.22104469e-02  6.19237311e-02 -5.29847555e-02  1.44302756e-01
   2.31582373e-02 -1.54633599e-03  7.40920156e-02  1.93955228e-01
   3.01862836e-01 -1.25952763e-02 -5.86957261e-02  9.80882067e-03
  -5.75398467e-02 -1.04926243e-01 -6.11532517e-02 -6.42061904e-02
   9.71744806e-02 -3.36586200e-02  2.90680565e-02 -1.77722182e-02]
 [ 6.78057894e-02  5.08869113e-03  2.34121829e-02 -1.73357390e-02
   1.43465936e-01 -1.20571434e-01 -9.06843692e-02 -3.01703066e-02
  -2.02531274e-02 -1.13802858e-01  1.64761782e-01  4.57944125e-02
  -8.99963602e-02  1.64109305e-03 -3.58584002e-02 -5.11399359e-02
   1.34137960e-03  1.84967697e-01 -2.88025707e-01 -2.28499249e-03
  -6.02003224e-02 -9.82602611e-02  7.61044696e-02 -8.74603540e-02
  -4.09190431e-02 -2.69436836e-03 -2.70893853e-02 -6.77004131e-03
   1.71574969e-02  9.29881930e-02 -5.96429594e-02  1.39987007e-01
  -8.17785710e-02  1.04726829e-01  1.81105372e-03 -1.42471924e-01
   3.23980488e-02 -8.27839747e-02 -2.86894944e-02 -6.89090863e-02
   3.37484330e-02  2.81544831e-02  2.96795424e-02  4.11756849e-03
  -4.42413598e-01  1.34207057e-02  1.97962429e-02 -1.17392773e-02
  -9.02818665e-02 -7.37086544e-03  9.08350125e-02 -3.79052795e-02
   8.44347477e-03  1.01965204e-01 -5.04070707e-02 -4.05879878e-02
  -9.98568386e-02  3.64049636e-02  3.91617306e-02  1.73649434e-02
   1.73620969e-01 -5.65288169e-03  2.47426912e-01 -2.21509170e-02
  -2.00790837e-02 -3.22793424e-02 -4.84683923e-02  1.18785705e-02
  -2.14299262e-02  1.00748450e-01 -4.39079367e-02 -2.65285015e-01
   1.12107322e-01 -1.28693789e-01 -5.54028638e-02 -1.96960904e-02
   2.74384588e-01 -6.80965334e-02  2.70817410e-02 -2.33997300e-01
   3.09235360e-02  5.00145927e-02  1.38044298e-01  2.94479132e-02
   4.71469387e-02  1.18825652e-01  5.20908087e-02  3.22714192e-03
  -1.54500231e-01 -1.44979525e-02  6.95473328e-02 -1.90369353e-01
  -7.12406337e-02 -1.14388302e-01  1.10885585e-02  3.55082005e-02
   1.62352733e-02 -9.99905244e-02 -4.54418454e-03 -1.93396807e-01
   1.91355079e-01 -2.84496635e-01  3.50797921e-02  2.30115512e-03
   6.22846521e-02  1.94566160e-01  2.13573635e-01  2.23574303e-02
  -3.56047153e-02 -2.33741160e-02 -2.86173522e-02  1.80989966e-01
   9.19606760e-02  7.19430158e-03  8.56522620e-02 -2.32666023e-02
   1.10077694e-01 -4.30289842e-02 -1.20862760e-02  7.52737522e-02
   3.24160084e-02  1.72504887e-01 -4.51233238e-02  3.36215682e-02
   4.43452932e-02 -4.03190553e-02 -3.87923978e-03 -6.53568432e-02]
 [ 4.91106361e-02 -2.74514239e-02 -5.82977086e-02 -9.75685567e-02
  -8.49610288e-03 -2.53698885e-01  2.52536684e-02 -5.29867597e-02
  -4.34809551e-03  2.48074502e-01 -2.55736560e-01  1.32151833e-02
   1.77995246e-02  3.81884947e-02 -4.69878502e-02 -2.04559758e-01
  -1.51342824e-02 -1.54719025e-01  4.30013519e-03  4.26423401e-02
   1.17321555e-02  1.29616056e-02 -2.48002157e-01 -8.39756355e-02
  -2.96508288e-03  2.40427069e-02  2.63178870e-02 -4.02329788e-02
   1.48524428e-02  1.16446791e-02 -9.16353613e-03  8.05931166e-02
  -7.57177398e-02 -2.62443364e-01  5.53461239e-02  2.81520728e-02
  -5.99955879e-02 -3.63020017e-03 -2.67459825e-02 -1.37867525e-01
   8.17046165e-02 -4.15092334e-02  1.48629665e-01  5.03351307e-03
  -1.40243292e-01 -1.45477261e-02 -3.51240113e-02 -1.96042303e-02
  -2.85142392e-01 -5.97146824e-02 -5.77989630e-02 -5.07871546e-02
   5.60934022e-02 -1.48082897e-01 -1.49815321e-01 -1.26606256e-01
   7.34471658e-04 -4.46014851e-02  4.17374074e-02  1.60303004e-02
  -3.65991443e-02 -2.13422716e-01  9.55955014e-02 -5.24847060e-02
   3.04890499e-02 -4.85633053e-02  3.87849025e-02  4.68015624e-03
  -2.68731788e-02 -2.02160686e-01  3.48967761e-02  5.08568473e-02
  -2.04644665e-01 -1.66544750e-01  8.36633667e-02  4.13663946e-02
  -1.01944953e-01 -2.65765167e-03 -5.14937267e-02 -3.36999670e-02
   1.69022232e-02 -8.58936831e-02 -3.42144165e-03 -5.22706844e-02
   1.48556992e-01 -1.11380935e-01 -8.64915608e-04  9.08961613e-03
   9.24522653e-02  8.33264319e-04 -1.86042562e-02  9.25547406e-02
  -5.29237762e-02  1.47242814e-01 -3.98229063e-02 -2.72635873e-02
   2.46404968e-02 -1.33081432e-03  1.30406544e-02  2.25984608e-04
   2.60039493e-02 -4.71430086e-03 -5.86554874e-03 -2.21983735e-02
   1.86472386e-02 -5.09595498e-02 -1.37577385e-01  3.10002863e-02
  -1.11325115e-01 -2.87561528e-02 -5.85953593e-02 -7.50641599e-02
  -7.80516118e-02  7.88907055e-03  3.72374319e-02 -7.78438821e-02
   7.62542523e-03 -4.12598178e-02 -2.87889801e-02  7.17190430e-02
  -4.62941006e-02 -3.49143855e-02 -4.32069451e-02  1.08117051e-02
   3.32311518e-03 -2.48055556e-03 -9.77278542e-05 -2.04389673e-02]
 [ 6.42514527e-02 -3.45761850e-02 -4.15522270e-02 -4.37864028e-02
   9.89279151e-02 -1.71332322e-02  4.85312454e-02 -5.55963069e-02
  -1.93989992e-01 -5.82639761e-02 -2.29995310e-01 -3.43574174e-02
  -8.89558792e-02  1.80257950e-02 -6.39268085e-02 -1.23570167e-01
   1.58722714e-01  2.37285450e-01  6.58530295e-02 -1.43320188e-02
   2.89707724e-02 -1.15689360e-01  5.33662289e-02 -1.14680283e-01
  -5.11275465e-03  2.93973181e-02 -3.76129895e-02  2.55124923e-02
   1.46395937e-02  1.71313077e-01 -1.67034585e-02  7.80369639e-02
  -1.49179334e-02  1.74700886e-01  2.80186325e-01 -1.96497008e-01
  -1.09478556e-01  2.31966772e-03 -9.30353031e-02  7.44845867e-02
   2.38794148e-01  1.13170566e-02 -8.24800655e-02 -2.82747895e-02
  -1.07880950e-01 -1.42676095e-02 -2.19084006e-02 -1.33535666e-02
  -1.14650153e-01 -3.81914116e-02  2.81630922e-02 -4.09719571e-02
   5.60835563e-02 -9.93273035e-02  4.56186384e-02 -9.42746364e-03
  -6.11868091e-02  1.16892939e-03 -6.62404001e-02 -3.81044559e-02
   3.18950325e-01 -1.08539566e-01  1.49190292e-01 -2.75278538e-02
  -1.95111316e-02  1.10587992e-01 -1.53475255e-01  1.74994748e-02
   1.51007194e-02 -2.08161667e-01 -4.93191965e-02  2.95635089e-02
  -4.62745549e-03  1.67358205e-01  8.69883373e-02  1.39017701e-01
   8.93941596e-02  9.18445513e-02  1.55048957e-02 -6.47609979e-02
  -6.26878366e-02  2.36512080e-01 -4.32581492e-02  3.95750366e-02
  -7.87035301e-02 -1.60701320e-01 -1.30626485e-01 -4.06646132e-02
  -3.13124843e-02 -2.13056034e-03 -1.60319164e-01  1.29268631e-01
  -3.24439257e-02  1.64046019e-01  2.32167449e-02 -2.53538210e-02
  -1.07137114e-03  2.58148666e-02 -3.62015516e-02 -1.86610952e-01
  -1.67078242e-01 -5.12019843e-02 -7.37531157e-03 -3.58178727e-02
  -1.39631197e-01  2.22196802e-01 -3.41927670e-02  1.95120797e-02
  -3.01795781e-01 -4.41138335e-02  4.87100333e-02  1.91876516e-01
   6.80968538e-02  4.63344119e-02  2.62405336e-01  1.09139591e-01
   1.39972240e-01 -2.54273899e-02 -2.20572879e-03 -9.80894640e-02
   1.89324021e-02 -8.10462460e-02 -6.29612878e-02  1.10731134e-02
   5.38404435e-02 -5.28061166e-02  2.46245507e-02 -2.44287103e-02]
 [ 7.10827112e-02 -4.94209118e-02  4.84856404e-02  7.25936610e-03
   4.51933593e-02 -5.02141900e-02 -6.62919953e-02 -3.55156586e-02
  -1.32156536e-01 -1.62277013e-01  7.15902224e-02 -8.04414228e-02
   3.46534885e-02 -4.03945111e-02 -2.83774063e-02 -7.33019188e-02
  -5.79964332e-02  4.71176617e-02  7.05645829e-02 -5.36546521e-02
   6.60675718e-03 -1.07382961e-01 -4.97390479e-02  6.18594848e-02
   3.99154238e-02 -2.62583066e-02  4.21584919e-02 -4.73114997e-02
  -4.07047495e-02  3.66083719e-02 -6.16381764e-02  5.42482436e-02
  -7.03697354e-02 -5.40612228e-02 -9.19809565e-02  2.27255677e-03
  -1.03081420e-01 -2.96540279e-02 -2.84293722e-02 -2.41657216e-02
   4.63090315e-02 -1.97138581e-02 -8.86689126e-02  3.03964913e-02
  -1.13933235e-01 -2.31809039e-02 -5.10301180e-02 -7.55303428e-02
   3.48920487e-02 -1.01698041e-02  9.79370177e-02 -3.99027392e-02
   1.11041501e-01 -8.57096165e-03  3.05611417e-02  3.77316140e-02
  -5.78902662e-02  3.56416702e-02  5.23075536e-02  1.92376412e-02
  -1.17940091e-01 -1.43423611e-02  7.77800232e-02 -4.54382300e-02
   2.70742010e-02  1.05935723e-01 -9.88921449e-02  4.40261327e-03
   3.27746309e-02 -1.61701292e-01 -5.52920811e-02  1.90344490e-02
  -5.99207729e-02 -6.00305498e-02 -1.02414697e-01  5.31495400e-02
   5.82918413e-02 -2.95323014e-01 -5.69193028e-02 -1.19995782e-02
   7.48990523e-03  1.18605644e-01 -8.79002586e-02 -7.48167336e-02
   6.59289509e-02 -3.35505381e-02 -6.48367181e-02 -5.16418950e-04
  -7.08577037e-02 -1.18611708e-01 -2.19968244e-01  1.06310695e-02
  -1.83165725e-02  2.71138363e-03  4.49264981e-03 -7.01742545e-02
  -5.65698966e-02  1.27240181e-01  2.90919431e-02  2.52388809e-02
  -1.55632608e-02  1.23195104e-01 -3.56928594e-02  3.59596498e-02
   8.15506745e-03 -1.10955670e-01  1.07790105e-01  4.59834598e-02
  -1.02198049e-01 -4.74083312e-02  4.74556312e-02 -4.14244123e-02
   3.02270483e-02  3.09986249e-02  2.19280031e-02 -1.09245896e-01
   5.16350269e-02 -9.97588970e-03 -3.59275900e-02 -4.92072850e-02
  -4.60804813e-02  1.23503106e-02 -5.00655361e-03  3.10825719e-03
   6.12748340e-02 -6.58319369e-02 -7.83534795e-02  2.57829390e-02]
 [-8.52423981e-02  1.32844280e-02 -3.54250823e-03 -7.34276175e-02
   1.63225681e-01  8.94181877e-02 -2.62904197e-01 -6.11882769e-02
  -4.32195775e-02  1.27379792e-02  4.50330898e-02  1.95903573e-02
   8.32362920e-02  3.92025523e-02 -7.04528466e-02  1.81117386e-01
   7.90391490e-02 -1.42824685e-03  5.41780591e-02  1.90268010e-02
   2.32948028e-02 -6.05175048e-02  2.89802793e-02 -7.67198652e-02
  -8.78294781e-02 -1.24683753e-02  4.12036553e-02 -7.01513961e-02
   3.53665128e-02 -1.69735447e-01 -2.92351190e-03  9.00374055e-02
  -9.72843915e-03  1.88545749e-01 -9.88310650e-02  2.22078368e-01
   8.90559852e-02  3.30045493e-03  3.29766423e-02 -4.33152309e-03
   2.66333651e-02 -2.11189757e-03  1.82807148e-01 -4.38700058e-02
   1.41429920e-02 -3.91403772e-02  2.53212126e-03  3.80954705e-02
   2.56995372e-02 -8.22753366e-03 -4.21244234e-01 -2.86091622e-02
   1.60590231e-01 -2.18460336e-01  4.82504815e-02  2.44960003e-02
   8.02142452e-03 -3.99795920e-02  1.91494990e-02 -5.66062890e-02
   1.61637902e-01  7.16147898e-03 -1.26884848e-01 -4.39567789e-02
  -4.04392406e-02  1.20565601e-01  2.13022858e-01 -2.67394818e-02
  -1.94109008e-02  1.99776784e-01 -6.57354072e-02  5.59369698e-02
   1.01095028e-01  9.42235067e-02 -7.23651946e-02 -1.00625101e-02
   3.04298401e-02  3.92985195e-02 -5.83480392e-03  2.82672849e-02
  -2.35644784e-02 -9.20501724e-02 -3.70925106e-02 -6.22673295e-02
  -1.33699149e-01  6.44357651e-02  5.73534444e-02 -5.04278690e-02
   3.56508158e-02 -4.12808135e-02  3.70518491e-02 -1.74426377e-01
  -4.92768455e-03  1.66544262e-02 -2.70319432e-02  1.76252097e-01
  -5.51493913e-02  4.71301936e-02 -2.19188984e-02  4.15065289e-02
   7.89428875e-02 -1.31138507e-02  3.61531414e-02 -2.05818620e-02
  -1.00499749e-01 -4.71311882e-02  5.73934838e-02  3.79124619e-02
   3.18657160e-02 -2.30519295e-01 -5.64307831e-02  9.50859860e-02
   1.67664245e-01  3.04100513e-02 -5.77291613e-03 -8.60153586e-02
   8.64845440e-02 -7.20743984e-02  1.25782443e-02  9.27988812e-02
  -1.78908035e-02  9.75277498e-02 -9.17047486e-02 -3.20776366e-02
   1.32410571e-01  2.33815350e-02  3.79673578e-03  1.91189777e-02]
 [-2.58799754e-02 -2.91995220e-02 -4.66482528e-02  1.11728730e-02
  -8.62003714e-02  4.72004563e-02  2.90051904e-02  3.26506682e-02
  -1.07217990e-01  3.79814565e-01 -2.80509502e-01  8.70662834e-03
  -8.55804831e-02  7.42199598e-03 -3.60060111e-02 -8.35789293e-02
  -1.68591850e-02  1.38537008e-02 -3.43113869e-01 -5.17628826e-02
   1.52179403e-02  3.24769318e-01  2.10164562e-02 -6.46987231e-03
   5.02766743e-02  4.87952381e-02 -3.94123257e-04 -1.03203747e-02
  -2.62339669e-03 -3.74202281e-01 -8.71786922e-02  1.73629344e-01
  -5.91687597e-02 -1.31673455e-01  1.44023940e-01  6.33143932e-02
  -2.31131911e-02 -5.33789471e-02 -1.67126320e-02 -5.27934991e-02
   4.61920649e-02 -1.72476191e-02 -1.61331054e-02 -3.22037011e-01
  -1.32458806e-01 -2.15736330e-02  8.68152783e-05  9.77672078e-03
   1.68272644e-01  5.02261668e-02  2.08528666e-03 -5.09040728e-02
  -1.27456084e-01 -1.45808637e-01 -4.83201183e-02  8.47460181e-02
  -9.12706777e-02 -1.82011239e-02  3.91686931e-02 -3.63091715e-02
  -3.27600747e-01 -1.71381816e-01 -8.00578296e-03 -3.52787636e-02
  -1.25435572e-02  1.16302446e-01 -5.81039600e-02 -1.16585307e-02
   1.54950945e-02  1.14962840e-02 -5.95367812e-02  4.71067578e-02
   2.67854780e-02  1.47523224e-01  2.94681281e-01 -7.08936378e-02
   1.17512062e-01  2.34673545e-02 -2.19456218e-02  1.92493916e-01
  -4.31315079e-02 -1.56314597e-01 -6.62124902e-02 -3.46647971e-03
   3.16683382e-01  1.24526724e-01  1.79583754e-03  7.96312094e-03
  -8.48664120e-02 -7.55819231e-02  9.49265882e-02 -2.56200850e-01
   3.23220566e-02 -1.79986551e-01 -8.82552378e-03  2.32838634e-02
  -8.50374699e-02 -2.17166051e-01 -1.07541652e-02 -3.27932924e-01
  -1.78062126e-01 -2.93359775e-02 -9.64790955e-02  8.82846885e-04
  -2.69454330e-01  9.81214941e-02 -1.42164931e-01 -6.85876012e-02
  -2.69041270e-01 -8.05398375e-02  9.94089525e-03 -8.00570566e-03
  -1.37125433e-03  1.64837949e-02 -1.32277712e-01 -1.49926215e-01
   1.28096685e-01  1.76566429e-02 -3.93227674e-02  1.42679587e-01
   3.93657014e-03 -2.69105822e-01 -3.27765057e-03 -2.99521424e-02
  -5.83291277e-02  2.74906531e-02 -2.53737513e-02 -5.75143658e-02]
 [-8.51403400e-02 -7.24917725e-02 -6.99183717e-02 -1.09063275e-01
   1.23741440e-01 -6.12830371e-02  8.31181854e-02 -3.61260399e-02
  -9.18416232e-02 -1.31500989e-01 -2.63533354e-01 -7.97391608e-02
  -2.01742649e-01  1.41067309e-02  5.55999354e-02 -1.10904850e-01
   1.89292371e-01  4.11163270e-02 -1.94806114e-01 -2.31657177e-04
   6.09553652e-04 -5.46600893e-02  8.11993703e-02  1.02378353e-02
  -2.07255930e-02  9.47322696e-03 -7.22710509e-03 -7.67680723e-03
   3.33804339e-02  7.81255513e-02  5.52210538e-03  8.25423524e-02
  -3.93373705e-02  2.01430574e-01  1.42108947e-02 -6.33933693e-02
  -1.16414733e-01 -3.49507295e-02 -5.71097396e-02 -2.52665225e-02
   6.39635846e-02  2.08431818e-02 -9.97488648e-02  3.02950125e-02
  -5.00002027e-01 -5.12307324e-02  7.72748282e-03 -1.16781229e-02
  -1.33464217e-01  6.61872048e-03  2.28960544e-01  5.62321842e-02
   1.03677899e-01 -8.34259242e-02  1.18258789e-01  2.96324156e-02
   1.36319652e-01 -6.46705702e-02 -5.64277694e-02  4.76159975e-02
   3.28959852e-01 -2.21095726e-01  1.90689757e-01  2.71723475e-02
   1.85906689e-03 -6.47545233e-02  1.67523861e-01 -1.41596925e-02
  -4.84545305e-02  1.12800427e-01  3.34680341e-02 -1.19719081e-01
  -3.23280110e-03 -4.93434118e-03  1.90871954e-01 -5.71336374e-02
   2.27579057e-01  2.23253593e-02  9.67726670e-03 -1.36159331e-01
  -3.93537544e-02 -1.09170698e-01  9.31711495e-02  3.00537776e-02
   1.16578192e-01  5.71188927e-02  8.91922414e-02 -3.87225859e-02
   1.06864505e-01 -1.04821017e-02 -4.98215929e-02  2.33547598e-01
  -4.26577516e-02 -1.08685605e-01 -2.87439767e-02 -2.28241906e-01
  -6.65128976e-02  6.78316224e-04 -2.49777175e-02 -3.60741019e-01
  -1.44336537e-01 -5.17156301e-03 -8.03216472e-02 -2.15307921e-02
  -1.73085675e-01  5.80192693e-02  1.78451046e-01  1.31828263e-02
  -3.24236929e-01 -4.85498719e-02  9.23569314e-03  1.20115660e-01
  -5.87470569e-02 -6.82388619e-02  2.42770184e-02 -1.32226050e-01
   1.15217686e-01  2.61426810e-02  3.14827822e-02  1.39808401e-01
   1.78240221e-02  9.14574191e-02 -3.33119892e-02  2.45881714e-02
  -6.11722060e-02 -4.54870723e-02  3.66247855e-02 -1.05823122e-01]
 [ 7.15061426e-02 -4.39150594e-02 -5.08362986e-02 -1.65927280e-02
  -1.67855388e-03 -1.69540495e-01 -1.62333950e-01  1.71132218e-02
  -3.97278778e-02 -6.57232478e-02 -1.28494710e-01 -4.24835235e-02
   2.03675613e-01  5.84127428e-03 -2.63969712e-02 -1.45104617e-01
  -5.36568575e-02 -4.20229658e-02 -5.63226491e-02 -9.10777599e-04
  -2.71846671e-02 -2.62269918e-02 -2.73383796e-01  1.15585804e-01
  -4.99338694e-02  2.42288653e-02 -5.56093752e-02  4.41568196e-02
  -2.23733708e-02  1.03744239e-01 -7.88778663e-02 -9.03270617e-02
  -1.04201399e-02 -2.26786718e-01 -7.47141913e-02  4.97324094e-02
  -5.73544465e-02 -5.87165989e-02  3.05211963e-03 -8.31829086e-02
   1.43808434e-02 -7.56029412e-03  1.67103842e-01  1.50800794e-01
  -3.10872197e-02 -2.34549325e-02 -1.67048331e-02 -3.77410464e-02
  -6.11391366e-02 -7.72173777e-02  9.62923840e-02 -4.09338949e-03
   1.58828702e-02 -3.21711116e-02 -7.04990029e-02 -2.76274178e-02
  -4.14698273e-02 -8.06757510e-02  5.47438562e-02 -8.39745533e-03
  -1.49215590e-02 -2.25638792e-01  4.65071164e-02  3.09380963e-02
   4.23349589e-02 -1.88905776e-01 -5.27590178e-02 -1.41255697e-02
  -3.58575284e-02 -3.51112746e-02 -5.36377840e-02  1.10392839e-01
  -5.75674735e-02 -1.11133032e-01 -4.12299745e-02  7.38027459e-03
   2.92379898e-03  6.53207898e-02  9.99908429e-03  8.23762920e-03
  -7.29156733e-02  1.35472808e-02 -4.60620597e-02  1.19011840e-02
   1.36622578e-01  1.42040014e-01 -1.54417917e-01 -3.39232832e-02
  -1.20475572e-02 -1.15720622e-01  1.02839388e-01  1.18985645e-01
   1.94368251e-02 -1.18530653e-01 -5.35379015e-02 -2.89446325e-03
  -2.88553964e-02 -1.02238338e-02  1.94993690e-02 -2.13150252e-02
  -3.66547331e-02 -7.83737451e-02 -4.37642336e-02  3.56188160e-03
  -1.42795503e-01 -1.14794858e-01 -5.76758310e-02  3.29422466e-02
  -2.06506193e-01 -6.17257282e-02 -7.38368779e-02 -6.64320737e-02
  -1.54357646e-02 -3.78618501e-02 -6.65211305e-02  4.44879718e-02
  -1.10878006e-01  7.60410354e-03 -4.87349927e-02 -5.14122099e-02
   2.34840158e-02  8.10291171e-02 -3.76381576e-02  1.88944098e-02
  -5.43051474e-02 -9.31355078e-03 -2.71910150e-02 -5.18735461e-02]
 [-9.32625458e-02  2.29413491e-02 -2.98965778e-02 -2.36529708e-02
  -1.68503355e-02  1.30247129e-02  8.63135979e-03 -5.46013378e-02
   2.22918093e-02  2.09058955e-01 -1.20706946e-01 -4.24113832e-02
  -3.52796674e-01 -5.38323075e-02 -2.07792036e-02  2.32745498e-01
   1.60885811e-01  1.63281024e-01  1.19738601e-01 -1.32007254e-02
   2.68634222e-02 -1.53397754e-01  1.10939778e-01  2.50344239e-02
   3.87530066e-02  6.97684288e-03 -6.54664338e-02  1.43672258e-03
   3.47391590e-02  2.23348320e-01  9.65137407e-03 -3.99010442e-02
  -5.88467419e-02  2.25386575e-01 -7.19022751e-02 -1.56964958e-01
   1.30236205e-02 -8.43666196e-02  1.84579678e-02  2.21403185e-02
  -9.80108306e-02 -3.30164097e-02  1.25058298e-03 -1.21136039e-01
   4.15822342e-02  1.26753906e-02 -4.55816686e-02 -2.38595065e-03
  -9.59787220e-02 -4.20922525e-02  6.23543970e-02  3.98126021e-02
   2.12404132e-01  2.06736624e-01 -1.21054910e-01 -1.48418978e-01
   3.31140012e-02 -4.25452227e-03 -2.23513581e-02 -2.66406145e-02
   3.28487128e-01 -5.96909337e-02  1.24638379e-01 -7.85369575e-02
   3.99743468e-02  1.54610366e-01  1.68340385e-01 -5.87236285e-02
   2.72562504e-02 -7.21647665e-02  2.44156793e-02 -7.80154988e-02
   4.21779603e-02 -1.83047876e-01  2.19147969e-02  9.88990292e-02
   1.23416774e-01 -9.91837606e-02 -6.71948045e-02  7.71520426e-03
   2.56061070e-02  1.64977089e-02 -8.91889632e-02  4.28166464e-02
  -2.15751864e-03 -1.19215004e-01 -6.58864453e-02 -4.38386388e-02
   3.50302756e-01  2.57950574e-02 -3.06851774e-01  5.48363477e-02
  -2.93531157e-02 -3.11383046e-02 -5.48159331e-03 -7.61573613e-02
   1.44819254e-02  2.06457794e-01 -1.84594339e-03 -1.45424083e-01
  -1.49623290e-01 -1.85855497e-02  1.00309141e-01  3.38552818e-02
  -7.40509704e-02  4.57536094e-02 -1.43771440e-01 -6.47817478e-02
  -4.62327063e-01  8.82415771e-02 -2.88823787e-02  4.81712110e-02
  -1.45341188e-01 -5.67448884e-02  2.73199797e-01 -2.15506516e-02
   2.62372289e-02  1.24058535e-03  1.84801538e-02 -7.93467984e-02
   5.32358885e-04 -2.19520077e-01  6.75835833e-02  1.05772223e-02
  -7.65989795e-02 -7.17651173e-02 -3.74485105e-02 -3.43683995e-02]
 [ 3.87826860e-02  1.37018524e-02 -3.48676741e-02 -4.96725999e-02
   4.54781391e-02 -8.06552246e-02 -5.74180223e-02  1.94264688e-02
  -3.99422310e-02 -5.62482662e-02  6.85570296e-03  4.92667370e-02
   4.77537066e-02  6.87156618e-03 -7.02378228e-02 -3.42919938e-02
   1.48886237e-02  1.42003462e-01  7.40814861e-03 -3.78089510e-02
  -1.29299071e-02 -1.82535991e-01  7.86539838e-02 -1.72747876e-02
   8.50166194e-03 -4.40037400e-02  3.49740610e-02  1.22744869e-02
  -1.49975745e-02 -7.33153373e-02  1.49171120e-02  5.99804632e-02
   2.67108320e-03 -4.10482585e-02 -2.07066964e-02 -8.50372165e-02
  -1.01707481e-01 -7.23671773e-03 -3.38657061e-03 -1.52492955e-01
   1.21288724e-01 -7.74432644e-02 -1.31633416e-01  3.26133631e-02
  -6.96215704e-02 -1.52006829e-02  4.21807356e-02 -2.68766750e-02
  -1.05353445e-01 -5.84141240e-02 -5.06885089e-02 -3.79985385e-02
   4.07263562e-02 -9.99363810e-02 -4.55825031e-02  4.33354303e-02
  -1.28686920e-01 -6.02590805e-03 -2.89383065e-02  2.56075859e-02
  -1.10376403e-01 -1.04133911e-01  1.32958323e-01  7.04346271e-03
   3.89596596e-02  4.21544090e-02 -7.84192979e-02 -6.64811432e-02
  -2.96354368e-02 -1.22766159e-01 -5.90275042e-03  4.47368473e-02
  -1.28259704e-01 -2.06592485e-01 -1.60102636e-01  3.31144370e-02
   8.83641019e-02 -2.54098415e-01  3.31564881e-02 -3.21801454e-02
  -4.58757058e-02 -2.83412840e-02 -1.48652181e-01 -1.98726915e-02
  -6.76685348e-02  9.33286250e-02 -7.61780813e-02  3.80811072e-03
   5.48673980e-02 -5.59833348e-02 -9.47204232e-02  5.32650463e-02
   2.39931457e-02 -5.52631952e-02  2.60505974e-02 -1.62599504e-01
  -3.92512865e-02  8.43080319e-03  3.89144085e-02 -1.00932114e-01
   6.90278858e-02  1.46220058e-01 -3.18753682e-02  1.94998309e-02
   6.12536520e-02 -7.34218881e-02 -4.76800576e-02 -5.77145442e-03
  -1.11282133e-01 -2.38862634e-02 -5.11344709e-02  4.25836332e-02
  -3.15810926e-02 -4.79543805e-02  4.31473255e-02  6.78497404e-02
  -2.88198073e-03 -5.58562875e-02 -3.41397636e-02 -1.36761114e-01
   2.13070642e-02  2.31580101e-02 -3.22350301e-02  1.95342749e-02
   2.51431521e-02 -5.57479486e-02 -1.73965972e-02 -5.30031174e-02]
 [-1.28502563e-01  3.23723443e-03  2.43202690e-03  2.33912561e-02
   5.23357615e-02  5.72045101e-03 -2.19828337e-01 -2.04443876e-02
  -7.14765415e-02  5.78056313e-02 -3.95985408e-05  8.69243406e-03
   1.79132856e-02 -6.63603470e-02  2.68729664e-02  7.00714299e-03
   3.53761725e-02  1.23252794e-01  3.72370750e-01 -7.09742978e-02
  -2.50764899e-02 -5.70764244e-02  1.71758607e-02 -3.26406397e-02
  -5.55963591e-02  3.59298661e-02  3.02168746e-02 -4.25188504e-02
   3.17624882e-02 -1.96994394e-01  2.37590652e-02  3.91653031e-02
   1.14274267e-02  1.77914277e-01  1.37005046e-01  2.33271495e-01
   1.39622435e-01  3.03540211e-02 -9.38589498e-02  6.32468089e-02
   1.76277105e-02 -6.34923056e-02  1.22437850e-01 -2.09156692e-01
   7.46930987e-02  1.29519235e-02  4.35414426e-02 -2.77071372e-02
  -3.85877043e-02 -3.76109779e-03 -4.04333562e-01  5.76400161e-02
   4.67136800e-02 -4.13613021e-02 -1.21519640e-01  2.79498417e-02
  -5.74760847e-02  2.95485761e-02  8.65985523e-04  2.29231271e-04
   7.70910606e-02 -7.82300159e-02 -1.32017836e-01  3.97538058e-02
  -3.01116481e-02  1.55608803e-01  2.84803152e-01  8.80152546e-03
   2.03901716e-02  1.14010483e-01  4.73455712e-02  7.13082775e-02
   1.26503304e-01  4.64944430e-02  5.54420836e-02 -1.03952978e-02
   1.29204661e-01 -7.26710036e-02 -7.18958974e-02 -3.41915488e-02
   5.46340086e-02 -7.77391568e-02 -5.45651503e-02  4.40424867e-02
   1.12188712e-01  1.53420627e-01  9.45117399e-02 -7.77256489e-03
   1.76566735e-01 -5.10257035e-02  5.94483800e-02 -6.07766844e-02
  -7.38210306e-02 -1.25192851e-01 -4.52703908e-02  2.88345754e-01
   8.85476451e-03 -8.98920298e-02 -8.04046839e-02 -6.02232330e-02
   1.22918300e-02  7.54684210e-02  2.02502441e-02 -1.05609428e-02
   7.19190240e-02  5.90210781e-02 -1.60362616e-01 -2.51958873e-02
   4.95988280e-02 -1.25985324e-01 -6.05725944e-02  7.23593533e-02
  -8.41504112e-02  5.66189364e-02 -1.15961380e-01 -8.78550261e-02
  -1.73291750e-02  2.59628948e-02  2.31661648e-02  7.26139620e-02
  -4.89245951e-02 -1.59312487e-01 -1.11328878e-01  2.28676223e-03
   3.52588631e-02 -2.89351605e-02  3.93197387e-02  9.00721252e-02]
 [-1.11555243e-02  4.86622332e-03  2.19002701e-02 -3.41828018e-02
  -7.86517933e-02  2.50534862e-01 -4.29924726e-02 -5.31495474e-02
  -8.58840868e-02  1.05508208e-01 -9.53241587e-02 -2.97163501e-02
   1.21307567e-01 -2.43249107e-02 -7.29358345e-02 -2.17690449e-02
  -8.36253092e-02  8.39199033e-03 -1.02457277e-01 -1.87770594e-02
  -2.11587027e-02  1.53166562e-01 -7.20850825e-02  1.70440637e-02
   5.97270839e-02 -3.15049253e-02 -5.76205999e-02 -6.42643347e-02
   1.82302576e-02 -9.91445780e-02 -2.46478543e-02 -1.62180424e-01
   3.30839939e-02  1.48330063e-01 -4.57992293e-02  2.29697868e-01
   1.49256095e-01 -1.93066662e-03  2.08319947e-02 -6.20412119e-02
  -6.95809945e-02 -1.19692758e-02  1.01907007e-01 -1.59633473e-01
   8.93395916e-02  2.91369073e-02  3.63935716e-02 -3.25634703e-02
  -3.24014947e-02 -4.83131111e-02 -1.09175950e-01  2.57676840e-02
  -1.77584484e-01 -2.00392708e-01  1.05446182e-01  9.16385055e-02
  -4.03143391e-02  3.65233864e-04  1.14596840e-02  1.59805417e-02
  -3.17852408e-01  2.40379021e-01 -2.77337153e-02 -1.99400224e-02
   2.63283635e-03  2.58529633e-01  1.81353778e-01 -6.80997502e-03
   9.41160135e-03 -7.31065422e-02 -1.33515848e-02 -4.53228801e-02
   1.15711264e-01  1.03561794e-02  2.76836902e-01 -5.05018793e-02
  -5.61634712e-02 -1.21796072e-01  1.42130880e-02  3.06147784e-01
   8.32416303e-03 -1.32271737e-01 -6.94452971e-02 -3.78214978e-02
   2.27522522e-01 -1.17768332e-01 -2.38868641e-03  4.96251546e-02
  -4.07711081e-02 -2.00806428e-02 -8.41406826e-03 -3.39353889e-01
  -6.23762943e-02 -9.89251807e-02  4.32137065e-02 -1.10120408e-01
  -4.96355370e-02  4.42117229e-02 -6.31408542e-02 -1.65653408e-01
   1.07023925e-01 -1.41852498e-01  6.60262331e-02  4.71878052e-03
  -1.16841018e-01 -1.37265623e-01 -2.78860271e-01  1.54290861e-02
  -8.34561139e-02 -6.84389845e-02 -2.72521619e-02 -2.16077626e-01
   9.07483026e-02 -1.10312514e-02 -1.87961847e-01 -2.08886206e-01
  -1.71699762e-01  2.02653315e-02 -5.80256432e-02 -1.14605308e-01
  -1.37783894e-02 -2.36403361e-01  2.99413856e-02  1.23740071e-02
  -1.26368910e-01 -2.06956696e-02  2.28900332e-02  8.75267666e-03]
 [-5.55754788e-02  4.79082577e-02  7.41493050e-03 -4.48401347e-02
  -1.50676787e-01  5.51852286e-02  7.96079785e-02  3.25878933e-02
  -9.07411501e-02  1.71378791e-01  6.66331351e-02 -2.97974646e-02
   7.81167671e-02 -2.46343319e-03 -1.06088305e-03 -7.44917840e-02
   1.78880170e-01 -3.00908923e-01 -5.13282456e-02 -4.31071185e-02
   2.62207072e-02 -2.30041057e-01 -9.11789201e-03  3.24686356e-02
  -6.34317473e-02  3.71187255e-02  1.69602912e-02 -3.14901471e-02
  -5.75152747e-02 -9.63925570e-02  1.98051762e-02 -7.62664108e-03
  -7.69878849e-02  1.58421248e-01 -2.49524564e-01 -1.57033935e-01
  -1.42632917e-01 -3.96955274e-02 -1.78398043e-02  3.27521637e-02
   2.22757272e-02 -2.90196668e-02 -8.20889026e-02  1.24708585e-01
  -3.10471982e-01  4.03465778e-02 -5.43628223e-02  4.99719158e-02
  -1.26443282e-01 -6.29772767e-02  2.03394517e-01 -9.70792305e-03
   2.93135475e-02 -2.38066316e-01  3.79146263e-02 -2.19131693e-01
   2.58133709e-01 -2.18821242e-02 -7.21775787e-03  6.05110778e-03
  -6.09444566e-02  9.33999196e-02  4.26527075e-02 -4.28231135e-02
  -2.77277678e-02 -1.68708563e-01 -5.47171608e-02  3.20989750e-02
  -3.07044387e-02  2.65948810e-02 -7.14677051e-02 -2.14339733e-01
  -3.04839052e-02 -9.71004367e-02 -1.31532311e-01 -9.11278352e-02
  -1.43772345e-02  1.08280450e-01 -6.41900375e-02  9.18206647e-02
   5.86305512e-03  1.41096026e-01 -9.16114226e-02 -2.09176838e-02
   1.59753904e-01  8.13585799e-03 -3.34865488e-02 -6.25261813e-02
  -1.26215378e-02 -8.46158937e-02 -2.17474927e-03 -1.49877742e-02
  -4.30642394e-03  1.85063481e-02 -3.34323235e-02 -3.61639917e-01
   6.50099367e-02  1.33887976e-01  1.56931579e-02 -2.22509671e-02
  -1.26330331e-01  1.55634806e-01 -4.20116298e-02  1.43963872e-02
  -1.70011371e-02 -2.01089885e-02 -1.97708860e-01  1.89074054e-02
  -2.27612421e-01 -1.18426412e-01 -3.07388697e-02 -5.61537221e-02
   1.98088929e-01 -3.51892337e-02 -1.40508413e-01 -1.80109739e-02
  -1.00465640e-02 -7.59261921e-02 -4.45921021e-03 -3.43260527e-01
   3.66203897e-02  1.08211808e-01 -7.08943978e-02 -1.57247204e-02
  -2.63645530e-01 -2.97486670e-02 -7.08194226e-02  2.14531682e-02]
 [ 4.43403386e-02 -4.08037379e-02 -3.98472473e-02  3.71847972e-02
  -1.56865805e-01  1.00275196e-01 -6.37352839e-02  1.80452957e-03
  -1.45244403e-02 -9.60067362e-02 -3.41172107e-02 -2.19599381e-02
   6.95120320e-02 -5.74385896e-02 -6.22580908e-02 -2.85066754e-01
   6.21979497e-03  1.62297487e-02  1.02431914e-02  3.49111110e-03
   8.96989461e-03  8.08988959e-02 -8.62236470e-02  8.43653223e-04
  -6.26582801e-02 -3.80543433e-02  1.53031573e-02  2.78630033e-02
  -9.87993088e-03 -8.86085071e-03  3.00758332e-03 -7.64180720e-02
   4.63376939e-02 -9.07946825e-02 -5.28508946e-02  5.47042824e-02
  -2.98517831e-02  1.23429503e-02  3.66060645e-04 -2.04942841e-02
  -5.44780754e-02  3.29539105e-02 -2.51588039e-02 -7.08510727e-02
   5.39214052e-02  7.57601904e-03  2.17909496e-02 -4.87538017e-02
   4.10388806e-04 -2.14967746e-02 -1.30307861e-02  3.67409922e-02
  -3.49829979e-02 -1.13394996e-02 -2.07095388e-02 -7.78326616e-02
  -7.94930160e-02 -4.70493138e-02 -1.40094981e-02 -5.79860806e-02
  -6.67042062e-02 -5.68002425e-02  4.61911112e-02  2.61688884e-03
   5.19384146e-02 -1.20986767e-01 -5.46882153e-02 -4.58295122e-02
   3.63995135e-02 -3.87373776e-03  2.58052349e-02 -4.62828241e-02
  -2.57523566e-01 -1.92510918e-01 -1.06401391e-01 -3.87950130e-02
  -3.02777831e-02  6.18897341e-02 -5.66051453e-02  7.33932853e-02
  -2.72940118e-02  3.20242681e-02 -1.86991990e-01  7.39743412e-02
   5.18278927e-02  2.46266723e-01 -1.13299139e-01 -4.60169204e-02
  -1.10507540e-01 -7.11097717e-02  4.87401523e-02  2.75824875e-01
  -3.44281718e-02 -1.57396626e-02 -4.82066981e-02  6.42315969e-02
  -5.03212400e-02 -1.60669014e-02  4.26778644e-02 -9.36374143e-02
  -2.89183185e-02 -5.03725111e-02 -1.33329064e-01  1.71237644e-02
  -2.10905075e-01  1.16934092e-03 -4.44131196e-02  3.88247669e-02
  -1.90482050e-01 -8.84072036e-02  2.85907183e-02 -9.27049369e-02
  -1.24576956e-01 -5.47479885e-03 -1.68293253e-01  6.83536753e-02
   6.66315854e-03 -2.40625273e-02 -1.37684578e-02 -1.98700037e-02
  -5.73801771e-02  7.96000585e-02  2.18232833e-02  5.54235540e-02
  -8.62588212e-02 -2.30184793e-02  3.80288041e-03 -7.32947513e-02]
 [-1.62617192e-02 -1.99928321e-02 -9.26581770e-02 -5.86610846e-02
  -9.01477039e-02  6.29748777e-02  2.45636493e-01 -4.29986008e-02
  -7.78768808e-02 -8.23204666e-02 -2.64362842e-02  9.59078825e-05
  -2.29669958e-01  2.76845973e-02  3.16726184e-03 -7.31591657e-02
   2.77645532e-02  1.24736518e-01  4.02968414e-02 -1.24989850e-02
  -2.55133398e-02 -2.08341345e-01  1.78019218e-02 -3.73564288e-02
  -2.93730721e-02  2.84584872e-02  1.70838982e-02 -2.23199837e-02
   9.47897974e-03  3.67719591e-01  1.20362109e-02 -3.27217430e-02
  -6.67971596e-02 -5.24520427e-02  1.01839796e-01 -1.50556386e-01
   2.74998229e-02 -1.29784495e-01  2.42038388e-02  6.52335957e-02
   2.04958007e-01  2.55613811e-02  1.34806365e-01  1.56985387e-01
  -1.94784865e-01  8.96368292e-04 -6.45738915e-02 -4.47268486e-02
   2.00082883e-02 -6.29464239e-02  8.75242725e-02  4.19662334e-02
   2.94194758e-01  2.90632486e-01  4.73243417e-03 -1.42509401e-01
   3.15371118e-02  2.11089347e-02  1.26991030e-02 -4.42707352e-02
   4.03429866e-01  8.40207487e-02  8.13943222e-02 -8.96669365e-03
  -4.52993661e-02  7.57072344e-02 -2.15012897e-02 -7.38315610e-03
  -2.68739276e-02  9.53061208e-02 -7.58820474e-02  4.30557951e-02
  -2.93579418e-02 -1.15708195e-01 -5.41200414e-02  1.31824259e-02
   1.35122329e-01 -2.49734581e-01  1.43113229e-02 -1.31087080e-01
   2.76725776e-02  1.89321004e-02  9.28461403e-02 -5.22463620e-02
   1.06968813e-01 -1.72789305e-01 -5.33648394e-02 -3.12384721e-02
  -4.87141237e-02 -6.11017905e-02 -2.03461051e-01  1.75358325e-01
  -4.91347499e-02 -6.04448782e-04  4.61681038e-02 -1.92812718e-02
  -7.22370595e-02  7.13942870e-02  1.11333933e-02 -1.60725359e-02
   6.18727952e-02  3.51491161e-02  1.09509462e-02  4.47970666e-02
  -5.21075074e-03 -1.27378821e-01  1.96445480e-01 -3.58844288e-02
  -1.77659988e-01  1.04517050e-01 -3.18644196e-02  1.62075847e-01
  -2.95333266e-02  3.60071883e-02  1.58335447e-01  3.74073833e-02
   9.04104412e-02  3.01575148e-03  2.43805628e-02 -1.21435292e-01
  -6.70623258e-02 -8.56441185e-02  4.92307767e-02 -3.68728563e-02
  -2.09088027e-01  4.52914312e-02  3.79710980e-02 -8.37573409e-02]
 [-1.54834688e-02  1.78660674e-03 -9.33967605e-02 -4.58487868e-02
   2.49563716e-03  3.37851122e-02 -3.37910391e-02  1.77936489e-03
  -5.50590232e-02 -6.78118467e-02  2.19743382e-02  3.30619104e-02
   8.94996710e-03  7.18161371e-03  1.74295064e-02  1.00100912e-01
  -9.86083876e-04  4.26195040e-02 -1.88680589e-02  3.60745713e-02
  -2.97454484e-02 -1.27617076e-01  1.58592135e-01 -1.69296656e-02
   1.21216411e-02  7.62699731e-03 -6.04602173e-02  3.12244915e-03
   2.25096643e-02 -4.10763323e-02 -4.45369035e-02  9.61851478e-02
   2.53060218e-02  4.43983711e-02  8.97712260e-02 -2.82141063e-02
  -1.23894811e-01 -4.74112146e-02 -3.17752101e-02 -6.49596304e-02
   5.48173785e-02 -4.00383174e-02 -1.80338427e-01  5.25587946e-02
   4.56832955e-03  2.89172847e-02 -3.55080329e-02 -4.32097241e-02
